<?xml version="1.0" encoding="utf-8"?>
<Root>
  <ActivationFunctions>
    <Fn id="0" name="SteepenedSigmoid" prob="1" />
  </ActivationFunctions>
  <Networks>
    <Network id="12857" birthGen="320" fitness="439.59561157226563">
      <Nodes>
        <Node type="bias" id="0" />
        <Node type="in" id="1" />
        <Node type="in" id="2" />
        <Node type="in" id="3" />
        <Node type="in" id="4" />
        <Node type="out" id="5" />
        <Node type="out" id="6" />
        <Node type="hid" id="25" />
        <Node type="hid" id="138" />
        <Node type="hid" id="175" />
      </Nodes>
      <Connections>
        <Con id="11" src="2" tgt="5" wght="-0.45268801307527629" />
        <Con id="18" src="1" tgt="5" wght="1.9222692146658691" />
        <Con id="19" src="0" tgt="5" wght="-4.1783738689287606" />
        <Con id="27" src="25" tgt="5" wght="-2.9139303701875363" />
        <Con id="34" src="4" tgt="6" wght="0.038500685894651741" />
        <Con id="54" src="2" tgt="6" wght="2.0722001061525082" />
        <Con id="63" src="0" tgt="25" wght="-3.0312161892652512" />
        <Con id="141" src="138" tgt="5" wght="-3.9525177023878131" />
        <Con id="176" src="1" tgt="175" wght="-4.1081036115065217" />
      </Connections>
    </Network>
    <Network id="12861" birthGen="320" fitness="548.39630126953125">
      <Nodes>
        <Node type="bias" id="0" />
        <Node type="in" id="1" />
        <Node type="in" id="2" />
        <Node type="in" id="3" />
        <Node type="in" id="4" />
        <Node type="out" id="5" />
        <Node type="out" id="6" />
        <Node type="hid" id="25" />
        <Node type="hid" id="138" />
        <Node type="hid" id="175" />
      </Nodes>
      <Connections>
        <Con id="11" src="2" tgt="5" wght="-0.44392000315183094" />
        <Con id="18" src="1" tgt="5" wght="1.9079677353516165" />
        <Con id="19" src="0" tgt="5" wght="-5" />
        <Con id="34" src="4" tgt="6" wght="0.034287979717669226" />
        <Con id="53" src="3" tgt="25" wght="-3.3897428698506595" />
        <Con id="54" src="2" tgt="6" wght="2.6874638000697364" />
        <Con id="141" src="138" tgt="5" wght="4.7617350053945486" />
        <Con id="176" src="1" tgt="175" wght="2.9394602931611993" />
      </Connections>
    </Network>
    <Network id="12859" birthGen="320" fitness="548.39630126953125">
      <Nodes>
        <Node type="bias" id="0" />
        <Node type="in" id="1" />
        <Node type="in" id="2" />
        <Node type="in" id="3" />
        <Node type="in" id="4" />
        <Node type="out" id="5" />
        <Node type="out" id="6" />
        <Node type="hid" id="25" />
        <Node type="hid" id="138" />
        <Node type="hid" id="175" />
      </Nodes>
      <Connections>
        <Con id="11" src="2" tgt="5" wght="-0.44392000315183094" />
        <Con id="18" src="1" tgt="5" wght="1.9079677353516165" />
        <Con id="19" src="0" tgt="5" wght="-5" />
        <Con id="34" src="4" tgt="6" wght="0.034287979717669226" />
        <Con id="53" src="3" tgt="25" wght="-3.3897428698506595" />
        <Con id="54" src="2" tgt="6" wght="2.6874638000697364" />
        <Con id="63" src="0" tgt="25" wght="0.70614877730957959" />
        <Con id="141" src="138" tgt="5" wght="4.7617350053945486" />
        <Con id="176" src="1" tgt="175" wght="2.9308086164076435" />
      </Connections>
    </Network>
    <Network id="12749" birthGen="317" fitness="506.41757202148438">
      <Nodes>
        <Node type="bias" id="0" />
        <Node type="in" id="1" />
        <Node type="in" id="2" />
        <Node type="in" id="3" />
        <Node type="in" id="4" />
        <Node type="out" id="5" />
        <Node type="out" id="6" />
        <Node type="hid" id="25" />
        <Node type="hid" id="138" />
      </Nodes>
      <Connections>
        <Con id="11" src="2" tgt="5" wght="-0.49072842401211114" />
        <Con id="18" src="1" tgt="5" wght="2.6239447467699222" />
        <Con id="19" src="0" tgt="5" wght="-5" />
        <Con id="27" src="25" tgt="5" wght="-2.9644986373686697" />
        <Con id="34" src="4" tgt="6" wght="0.010312769067893498" />
        <Con id="53" src="3" tgt="25" wght="0.57211530304365243" />
        <Con id="54" src="2" tgt="6" wght="1.6809056615265876" />
        <Con id="139" src="4" tgt="138" wght="-3.8833563150231045" />
      </Connections>
    </Network>
    <Network id="12875" birthGen="320" fitness="591.6214599609375">
      <Nodes>
        <Node type="bias" id="0" />
        <Node type="in" id="1" />
        <Node type="in" id="2" />
        <Node type="in" id="3" />
        <Node type="in" id="4" />
        <Node type="out" id="5" />
        <Node type="out" id="6" />
        <Node type="hid" id="25" />
        <Node type="hid" id="138" />
      </Nodes>
      <Connections>
        <Con id="11" src="2" tgt="5" wght="-0.45268801307527629" />
        <Con id="18" src="1" tgt="5" wght="1.9222692146658691" />
        <Con id="19" src="0" tgt="5" wght="-5" />
        <Con id="27" src="25" tgt="5" wght="-2.8885418087451176" />
        <Con id="34" src="4" tgt="6" wght="0.028736730976757247" />
        <Con id="53" src="3" tgt="25" wght="-2.5334101188629643" />
        <Con id="54" src="2" tgt="6" wght="2.1214349195781939" />
        <Con id="63" src="0" tgt="25" wght="0.4593834118406146" />
        <Con id="141" src="138" tgt="5" wght="-3.93891262026564" />
      </Connections>
    </Network>
    <Network id="12878" birthGen="320" fitness="866.19110107421875">
      <Nodes>
        <Node type="bias" id="0" />
        <Node type="in" id="1" />
        <Node type="in" id="2" />
        <Node type="in" id="3" />
        <Node type="in" id="4" />
        <Node type="out" id="5" />
        <Node type="out" id="6" />
        <Node type="hid" id="25" />
        <Node type="hid" id="175" />
      </Nodes>
      <Connections>
        <Con id="11" src="2" tgt="5" wght="-0.4333593476271887" />
        <Con id="18" src="1" tgt="5" wght="2.0031733553137219" />
        <Con id="19" src="0" tgt="5" wght="-5" />
        <Con id="34" src="4" tgt="6" wght="0.034287979717669226" />
        <Con id="53" src="3" tgt="25" wght="-2.5454476897110272" />
        <Con id="54" src="2" tgt="6" wght="2.4816834400632515" />
        <Con id="63" src="0" tgt="25" wght="1.567441756409403" />
        <Con id="176" src="1" tgt="175" wght="3.3553612846873233" />
      </Connections>
    </Network>
    <Network id="12879" birthGen="320" fitness="771.86798095703125">
      <Nodes>
        <Node type="bias" id="0" />
        <Node type="in" id="1" />
        <Node type="in" id="2" />
        <Node type="in" id="3" />
        <Node type="in" id="4" />
        <Node type="out" id="5" />
        <Node type="out" id="6" />
        <Node type="hid" id="25" />
        <Node type="hid" id="175" />
      </Nodes>
      <Connections>
        <Con id="11" src="2" tgt="5" wght="-0.44392000315183094" />
        <Con id="18" src="1" tgt="5" wght="2.0031733553137219" />
        <Con id="19" src="0" tgt="5" wght="-5" />
        <Con id="34" src="4" tgt="6" wght="0.034287979717669226" />
        <Con id="53" src="3" tgt="25" wght="-2.5454476897110272" />
        <Con id="54" src="2" tgt="6" wght="3.1817971473019" />
        <Con id="63" src="0" tgt="25" wght="2.7411980964624165" />
        <Con id="176" src="1" tgt="175" wght="3.3876089679844883" />
      </Connections>
    </Network>
    <Network id="12880" birthGen="320" fitness="722.45379638671875">
      <Nodes>
        <Node type="bias" id="0" />
        <Node type="in" id="1" />
        <Node type="in" id="2" />
        <Node type="in" id="3" />
        <Node type="in" id="4" />
        <Node type="out" id="5" />
        <Node type="out" id="6" />
        <Node type="hid" id="25" />
        <Node type="hid" id="175" />
      </Nodes>
      <Connections>
        <Con id="11" src="2" tgt="5" wght="-0.44392000315183094" />
        <Con id="18" src="1" tgt="5" wght="2.0031733553137219" />
        <Con id="19" src="0" tgt="5" wght="-5" />
        <Con id="34" src="4" tgt="6" wght="0.038248752008250904" />
        <Con id="53" src="3" tgt="25" wght="-2.5454476897110272" />
        <Con id="54" src="2" tgt="6" wght="2.4816834400632515" />
        <Con id="63" src="0" tgt="25" wght="1.5575198718729806" />
        <Con id="176" src="1" tgt="175" wght="3.3876089679844883" />
      </Connections>
    </Network>
    <Network id="12892" birthGen="320" fitness="449.17742919921875">
      <Nodes>
        <Node type="bias" id="0" />
        <Node type="in" id="1" />
        <Node type="in" id="2" />
        <Node type="in" id="3" />
        <Node type="in" id="4" />
        <Node type="out" id="5" />
        <Node type="out" id="6" />
        <Node type="hid" id="25" />
        <Node type="hid" id="138" />
      </Nodes>
      <Connections>
        <Con id="11" src="2" tgt="5" wght="-0.32091762969321114" />
        <Con id="18" src="1" tgt="5" wght="1.8433477788776886" />
        <Con id="19" src="0" tgt="5" wght="-4.2317262248345147" />
        <Con id="27" src="25" tgt="5" wght="-0.91104959851325906" />
        <Con id="34" src="4" tgt="6" wght="0.053094505167718291" />
        <Con id="54" src="2" tgt="6" wght="3.0966018535980204" />
        <Con id="136" src="4" tgt="25" wght="4.8823075354148475" />
        <Con id="163" src="138" tgt="6" wght="-2.9090662816145416" />
      </Connections>
    </Network>
    <Network id="12893" birthGen="321" fitness="0">
      <Nodes>
        <Node type="bias" id="0" />
        <Node type="in" id="1" />
        <Node type="in" id="2" />
        <Node type="in" id="3" />
        <Node type="in" id="4" />
        <Node type="out" id="5" />
        <Node type="out" id="6" />
        <Node type="hid" id="25" />
        <Node type="hid" id="138" />
        <Node type="hid" id="175" />
      </Nodes>
      <Connections>
        <Con id="11" src="2" tgt="5" wght="-0.45268801307527629" />
        <Con id="18" src="1" tgt="5" wght="1.9222692146658691" />
        <Con id="19" src="0" tgt="5" wght="-4.1783738689287606" />
        <Con id="27" src="25" tgt="5" wght="-2.9139303701875363" />
        <Con id="34" src="4" tgt="6" wght="0.038500685894651741" />
        <Con id="54" src="2" tgt="6" wght="2.8463989248694839" />
        <Con id="63" src="0" tgt="25" wght="-3.0312161892652512" />
        <Con id="141" src="138" tgt="5" wght="-5" />
        <Con id="176" src="1" tgt="175" wght="-4.1081036115065217" />
      </Connections>
    </Network>
    <Network id="12894" birthGen="321" fitness="0">
      <Nodes>
        <Node type="bias" id="0" />
        <Node type="in" id="1" />
        <Node type="in" id="2" />
        <Node type="in" id="3" />
        <Node type="in" id="4" />
        <Node type="out" id="5" />
        <Node type="out" id="6" />
        <Node type="hid" id="25" />
        <Node type="hid" id="138" />
      </Nodes>
      <Connections>
        <Con id="11" src="2" tgt="5" wght="-0.45268801307527629" />
        <Con id="18" src="1" tgt="5" wght="1.9222692146658691" />
        <Con id="19" src="0" tgt="5" wght="-4.1783738689287606" />
        <Con id="27" src="25" tgt="5" wght="-2.9139303701875363" />
        <Con id="34" src="4" tgt="6" wght="0.038500685894651741" />
        <Con id="54" src="2" tgt="6" wght="2.0722001061525082" />
        <Con id="63" src="0" tgt="25" wght="-3.0312161892652512" />
        <Con id="141" src="138" tgt="5" wght="-3.9525177023878131" />
      </Connections>
    </Network>
    <Network id="12895" birthGen="321" fitness="0">
      <Nodes>
        <Node type="bias" id="0" />
        <Node type="in" id="1" />
        <Node type="in" id="2" />
        <Node type="in" id="3" />
        <Node type="in" id="4" />
        <Node type="out" id="5" />
        <Node type="out" id="6" />
        <Node type="hid" id="25" />
        <Node type="hid" id="138" />
        <Node type="hid" id="175" />
      </Nodes>
      <Connections>
        <Con id="11" src="2" tgt="5" wght="-0.45268801307527629" />
        <Con id="18" src="1" tgt="5" wght="1.9222692146658691" />
        <Con id="19" src="0" tgt="5" wght="-4.1783738689287606" />
        <Con id="27" src="25" tgt="5" wght="-2.9199349288371881" />
        <Con id="34" src="4" tgt="6" wght="0.038500685894651741" />
        <Con id="54" src="2" tgt="6" wght="2.0722001061525082" />
        <Con id="63" src="0" tgt="25" wght="-3.0312161892652512" />
        <Con id="141" src="138" tgt="5" wght="-3.9525177023878131" />
        <Con id="176" src="1" tgt="175" wght="-4.1081036115065217" />
      </Connections>
    </Network>
    <Network id="12896" birthGen="321" fitness="0">
      <Nodes>
        <Node type="bias" id="0" />
        <Node type="in" id="1" />
        <Node type="in" id="2" />
        <Node type="in" id="3" />
        <Node type="in" id="4" />
        <Node type="out" id="5" />
        <Node type="out" id="6" />
        <Node type="hid" id="25" />
        <Node type="hid" id="138" />
        <Node type="hid" id="175" />
      </Nodes>
      <Connections>
        <Con id="11" src="2" tgt="5" wght="-0.45268801307527629" />
        <Con id="18" src="1" tgt="5" wght="1.9222692146658691" />
        <Con id="19" src="0" tgt="5" wght="-4.1783738689287606" />
        <Con id="27" src="25" tgt="5" wght="-2.9139303701875363" />
        <Con id="34" src="4" tgt="6" wght="0.038500685894651741" />
        <Con id="63" src="0" tgt="25" wght="-3.0312161892652512" />
        <Con id="141" src="138" tgt="5" wght="-3.9525177023878131" />
        <Con id="176" src="1" tgt="175" wght="-4.1081036115065217" />
      </Connections>
    </Network>
    <Network id="12897" birthGen="321" fitness="0">
      <Nodes>
        <Node type="bias" id="0" />
        <Node type="in" id="1" />
        <Node type="in" id="2" />
        <Node type="in" id="3" />
        <Node type="in" id="4" />
        <Node type="out" id="5" />
        <Node type="out" id="6" />
        <Node type="hid" id="25" />
        <Node type="hid" id="138" />
        <Node type="hid" id="175" />
      </Nodes>
      <Connections>
        <Con id="11" src="2" tgt="5" wght="-0.45268801307527629" />
        <Con id="18" src="1" tgt="5" wght="1.9222692146658691" />
        <Con id="19" src="0" tgt="5" wght="-4.1783738689287606" />
        <Con id="27" src="25" tgt="5" wght="-2.9139303701875363" />
        <Con id="34" src="4" tgt="6" wght="0.038500685894651741" />
        <Con id="54" src="2" tgt="6" wght="2.0722001061525082" />
        <Con id="141" src="138" tgt="5" wght="-3.9525177023878131" />
        <Con id="176" src="1" tgt="175" wght="-4.1081036115065217" />
      </Connections>
    </Network>
    <Network id="12898" birthGen="321" fitness="0">
      <Nodes>
        <Node type="bias" id="0" />
        <Node type="in" id="1" />
        <Node type="in" id="2" />
        <Node type="in" id="3" />
        <Node type="in" id="4" />
        <Node type="out" id="5" />
        <Node type="out" id="6" />
        <Node type="hid" id="25" />
        <Node type="hid" id="138" />
      </Nodes>
      <Connections>
        <Con id="11" src="2" tgt="5" wght="-0.44392000315183094" />
        <Con id="18" src="1" tgt="5" wght="1.9079677353516165" />
        <Con id="19" src="0" tgt="5" wght="-5" />
        <Con id="34" src="4" tgt="6" wght="0.034287979717669226" />
        <Con id="53" src="3" tgt="25" wght="-3.3897428698506595" />
        <Con id="54" src="2" tgt="6" wght="2.6874638000697364" />
        <Con id="141" src="138" tgt="5" wght="4.7617350053945486" />
      </Connections>
    </Network>
    <Network id="12899" birthGen="321" fitness="0">
      <Nodes>
        <Node type="bias" id="0" />
        <Node type="in" id="1" />
        <Node type="in" id="2" />
        <Node type="in" id="3" />
        <Node type="in" id="4" />
        <Node type="out" id="5" />
        <Node type="out" id="6" />
        <Node type="hid" id="25" />
        <Node type="hid" id="138" />
        <Node type="hid" id="175" />
      </Nodes>
      <Connections>
        <Con id="11" src="2" tgt="5" wght="-0.44392000315183094" />
        <Con id="18" src="1" tgt="5" wght="1.4398759990983316" />
        <Con id="19" src="0" tgt="5" wght="-5" />
        <Con id="34" src="4" tgt="6" wght="0.034287979717669226" />
        <Con id="53" src="3" tgt="25" wght="-3.3897428698506595" />
        <Con id="54" src="2" tgt="6" wght="2.6874638000697364" />
        <Con id="63" src="0" tgt="25" wght="0.70614877730957959" />
        <Con id="141" src="138" tgt="5" wght="4.7617350053945486" />
        <Con id="176" src="1" tgt="175" wght="2.9308086164076435" />
      </Connections>
    </Network>
    <Network id="12900" birthGen="321" fitness="0">
      <Nodes>
        <Node type="bias" id="0" />
        <Node type="in" id="1" />
        <Node type="in" id="2" />
        <Node type="in" id="3" />
        <Node type="in" id="4" />
        <Node type="out" id="5" />
        <Node type="out" id="6" />
        <Node type="hid" id="25" />
        <Node type="hid" id="138" />
      </Nodes>
      <Connections>
        <Con id="11" src="2" tgt="5" wght="-0.49072842401211114" />
        <Con id="18" src="1" tgt="5" wght="2.6239447467699222" />
        <Con id="27" src="25" tgt="5" wght="-2.9630084744891083" />
        <Con id="34" src="4" tgt="6" wght="0.048880954623634475" />
        <Con id="53" src="3" tgt="25" wght="0.57211530304365243" />
        <Con id="54" src="2" tgt="6" wght="1.6809056615265876" />
        <Con id="139" src="4" tgt="138" wght="-3.8833563150231045" />
      </Connections>
    </Network>
    <Network id="12901" birthGen="321" fitness="0">
      <Nodes>
        <Node type="bias" id="0" />
        <Node type="in" id="1" />
        <Node type="in" id="2" />
        <Node type="in" id="3" />
        <Node type="in" id="4" />
        <Node type="out" id="5" />
        <Node type="out" id="6" />
        <Node type="hid" id="25" />
        <Node type="hid" id="138" />
      </Nodes>
      <Connections>
        <Con id="11" src="2" tgt="5" wght="-1.9894855236634612" />
        <Con id="18" src="1" tgt="5" wght="-1.615919079631567" />
        <Con id="19" src="0" tgt="5" wght="-5" />
        <Con id="27" src="25" tgt="5" wght="-2.9644986373686697" />
        <Con id="34" src="4" tgt="6" wght="0.010312769067893498" />
        <Con id="53" src="3" tgt="25" wght="0.57211530304365243" />
        <Con id="54" src="2" tgt="6" wght="1.6809056615265876" />
        <Con id="139" src="4" tgt="138" wght="-3.8833563150231045" />
      </Connections>
    </Network>
    <Network id="12902" birthGen="321" fitness="0">
      <Nodes>
        <Node type="bias" id="0" />
        <Node type="in" id="1" />
        <Node type="in" id="2" />
        <Node type="in" id="3" />
        <Node type="in" id="4" />
        <Node type="out" id="5" />
        <Node type="out" id="6" />
        <Node type="hid" id="25" />
        <Node type="hid" id="138" />
      </Nodes>
      <Connections>
        <Con id="11" src="2" tgt="5" wght="-0.49072842401211114" />
        <Con id="19" src="0" tgt="5" wght="-5" />
        <Con id="27" src="25" tgt="5" wght="-2.9644986373686697" />
        <Con id="34" src="4" tgt="6" wght="0.010312769067893498" />
        <Con id="53" src="3" tgt="25" wght="0.57211530304365243" />
        <Con id="54" src="2" tgt="6" wght="1.6809056615265876" />
        <Con id="139" src="4" tgt="138" wght="-3.8833563150231045" />
      </Connections>
    </Network>
    <Network id="12903" birthGen="321" fitness="0">
      <Nodes>
        <Node type="bias" id="0" />
        <Node type="in" id="1" />
        <Node type="in" id="2" />
        <Node type="in" id="3" />
        <Node type="in" id="4" />
        <Node type="out" id="5" />
        <Node type="out" id="6" />
        <Node type="hid" id="25" />
        <Node type="hid" id="138" />
      </Nodes>
      <Connections>
        <Con id="11" src="2" tgt="5" wght="-0.49072842401211114" />
        <Con id="18" src="1" tgt="5" wght="2.6239447467699222" />
        <Con id="19" src="0" tgt="5" wght="-5" />
        <Con id="27" src="25" tgt="5" wght="-1.8722264085707974" />
        <Con id="34" src="4" tgt="6" wght="-1.1957870253856766" />
        <Con id="53" src="3" tgt="25" wght="0.57211530304365243" />
        <Con id="54" src="2" tgt="6" wght="1.8675711833305351" />
        <Con id="139" src="4" tgt="138" wght="-3.8833563150231045" />
      </Connections>
    </Network>
    <Network id="12904" birthGen="321" fitness="0">
      <Nodes>
        <Node type="bias" id="0" />
        <Node type="in" id="1" />
        <Node type="in" id="2" />
        <Node type="in" id="3" />
        <Node type="in" id="4" />
        <Node type="out" id="5" />
        <Node type="out" id="6" />
        <Node type="hid" id="25" />
        <Node type="hid" id="138" />
      </Nodes>
      <Connections>
        <Con id="11" src="2" tgt="5" wght="-0.49072842401211114" />
        <Con id="18" src="1" tgt="5" wght="2.6239447467699222" />
        <Con id="19" src="0" tgt="5" wght="-5" />
        <Con id="27" src="25" tgt="5" wght="-2.9644986373686697" />
        <Con id="34" src="4" tgt="6" wght="-0.40279191709970741" />
        <Con id="53" src="3" tgt="25" wght="0.57211530304365243" />
        <Con id="54" src="2" tgt="6" wght="1.6809056615265876" />
        <Con id="139" src="4" tgt="138" wght="-3.8833563150231045" />
      </Connections>
    </Network>
    <Network id="12905" birthGen="321" fitness="0">
      <Nodes>
        <Node type="bias" id="0" />
        <Node type="in" id="1" />
        <Node type="in" id="2" />
        <Node type="in" id="3" />
        <Node type="in" id="4" />
        <Node type="out" id="5" />
        <Node type="out" id="6" />
        <Node type="hid" id="25" />
        <Node type="hid" id="138" />
      </Nodes>
      <Connections>
        <Con id="11" src="2" tgt="5" wght="-0.45268801307527629" />
        <Con id="18" src="1" tgt="5" wght="1.9222692146658691" />
        <Con id="19" src="0" tgt="5" wght="-5" />
        <Con id="27" src="25" tgt="5" wght="-2.8885418087451176" />
        <Con id="34" src="4" tgt="6" wght="0.028736730976757247" />
        <Con id="53" src="3" tgt="25" wght="-2.5334101188629643" />
        <Con id="54" src="2" tgt="6" wght="2.1214349195781939" />
        <Con id="63" src="0" tgt="25" wght="0.4593834118406146" />
        <Con id="141" src="138" tgt="5" wght="-5" />
      </Connections>
    </Network>
    <Network id="12906" birthGen="321" fitness="0">
      <Nodes>
        <Node type="bias" id="0" />
        <Node type="in" id="1" />
        <Node type="in" id="2" />
        <Node type="in" id="3" />
        <Node type="in" id="4" />
        <Node type="out" id="5" />
        <Node type="out" id="6" />
        <Node type="hid" id="25" />
        <Node type="hid" id="138" />
      </Nodes>
      <Connections>
        <Con id="18" src="1" tgt="5" wght="1.9222692146658691" />
        <Con id="19" src="0" tgt="5" wght="-5" />
        <Con id="27" src="25" tgt="5" wght="-2.8885418087451176" />
        <Con id="34" src="4" tgt="6" wght="0.028736730976757247" />
        <Con id="53" src="3" tgt="25" wght="-2.5334101188629643" />
        <Con id="54" src="2" tgt="6" wght="2.1214349195781939" />
        <Con id="63" src="0" tgt="25" wght="0.4593834118406146" />
        <Con id="141" src="138" tgt="5" wght="-3.93891262026564" />
      </Connections>
    </Network>
    <Network id="12907" birthGen="321" fitness="0">
      <Nodes>
        <Node type="bias" id="0" />
        <Node type="in" id="1" />
        <Node type="in" id="2" />
        <Node type="in" id="3" />
        <Node type="in" id="4" />
        <Node type="out" id="5" />
        <Node type="out" id="6" />
        <Node type="hid" id="25" />
        <Node type="hid" id="138" />
      </Nodes>
      <Connections>
        <Con id="11" src="2" tgt="5" wght="-0.45268801307527629" />
        <Con id="19" src="0" tgt="5" wght="-5" />
        <Con id="27" src="25" tgt="5" wght="-2.8885418087451176" />
        <Con id="34" src="4" tgt="6" wght="0.028736730976757247" />
        <Con id="53" src="3" tgt="25" wght="-2.5334101188629643" />
        <Con id="54" src="2" tgt="6" wght="2.1214349195781939" />
        <Con id="63" src="0" tgt="25" wght="0.4593834118406146" />
        <Con id="141" src="138" tgt="5" wght="-3.93891262026564" />
      </Connections>
    </Network>
    <Network id="12908" birthGen="321" fitness="0">
      <Nodes>
        <Node type="bias" id="0" />
        <Node type="in" id="1" />
        <Node type="in" id="2" />
        <Node type="in" id="3" />
        <Node type="in" id="4" />
        <Node type="out" id="5" />
        <Node type="out" id="6" />
        <Node type="hid" id="25" />
        <Node type="hid" id="138" />
      </Nodes>
      <Connections>
        <Con id="11" src="2" tgt="5" wght="-0.45268801307527629" />
        <Con id="18" src="1" tgt="5" wght="1.9222692146658691" />
        <Con id="19" src="0" tgt="5" wght="-5" />
        <Con id="27" src="25" tgt="5" wght="-2.8885418087451176" />
        <Con id="53" src="3" tgt="25" wght="-2.5334101188629643" />
        <Con id="54" src="2" tgt="6" wght="2.1214349195781939" />
        <Con id="63" src="0" tgt="25" wght="0.4593834118406146" />
        <Con id="141" src="138" tgt="5" wght="-3.93891262026564" />
      </Connections>
    </Network>
    <Network id="12909" birthGen="321" fitness="0">
      <Nodes>
        <Node type="bias" id="0" />
        <Node type="in" id="1" />
        <Node type="in" id="2" />
        <Node type="in" id="3" />
        <Node type="in" id="4" />
        <Node type="out" id="5" />
        <Node type="out" id="6" />
        <Node type="hid" id="25" />
        <Node type="hid" id="138" />
      </Nodes>
      <Connections>
        <Con id="11" src="2" tgt="5" wght="-0.45268801307527629" />
        <Con id="18" src="1" tgt="5" wght="1.9222692146658691" />
        <Con id="19" src="0" tgt="5" wght="-5" />
        <Con id="27" src="25" tgt="5" wght="-2.8885418087451176" />
        <Con id="53" src="3" tgt="25" wght="-2.5334101188629643" />
        <Con id="54" src="2" tgt="6" wght="2.1214349195781939" />
        <Con id="63" src="0" tgt="25" wght="0.4593834118406146" />
        <Con id="141" src="138" tgt="5" wght="-3.93891262026564" />
      </Connections>
    </Network>
    <Network id="12910" birthGen="321" fitness="0">
      <Nodes>
        <Node type="bias" id="0" />
        <Node type="in" id="1" />
        <Node type="in" id="2" />
        <Node type="in" id="3" />
        <Node type="in" id="4" />
        <Node type="out" id="5" />
        <Node type="out" id="6" />
        <Node type="hid" id="25" />
      </Nodes>
      <Connections>
        <Con id="11" src="2" tgt="5" wght="-0.41902214230548185" />
        <Con id="18" src="1" tgt="5" wght="2.7444147761297808" />
        <Con id="19" src="0" tgt="5" wght="-4.9891450366964092" />
        <Con id="27" src="25" tgt="5" wght="-4.1270234618169139" />
        <Con id="34" src="4" tgt="6" wght="0.049076303150545252" />
        <Con id="40" src="1" tgt="6" wght="3.3946086439475116" />
        <Con id="54" src="2" tgt="6" wght="3.00921415536621" />
        <Con id="63" src="0" tgt="25" wght="1.4724811079584219" />
      </Connections>
    </Network>
    <Network id="12911" birthGen="321" fitness="0">
      <Nodes>
        <Node type="bias" id="0" />
        <Node type="in" id="1" />
        <Node type="in" id="2" />
        <Node type="in" id="3" />
        <Node type="in" id="4" />
        <Node type="out" id="5" />
        <Node type="out" id="6" />
        <Node type="hid" id="25" />
      </Nodes>
      <Connections>
        <Con id="11" src="2" tgt="5" wght="-0.41902214230548185" />
        <Con id="18" src="1" tgt="5" wght="2.7444147761297808" />
        <Con id="19" src="0" tgt="5" wght="-4.9891450366964092" />
        <Con id="27" src="25" tgt="5" wght="-4.1270234618169139" />
        <Con id="34" src="4" tgt="6" wght="0.049076303150545252" />
        <Con id="40" src="1" tgt="6" wght="3.3946086439475116" />
        <Con id="63" src="0" tgt="25" wght="2.3858496014606558" />
      </Connections>
    </Network>
    <Network id="12912" birthGen="321" fitness="0">
      <Nodes>
        <Node type="bias" id="0" />
        <Node type="in" id="1" />
        <Node type="in" id="2" />
        <Node type="in" id="3" />
        <Node type="in" id="4" />
        <Node type="out" id="5" />
        <Node type="out" id="6" />
        <Node type="hid" id="25" />
      </Nodes>
      <Connections>
        <Con id="11" src="2" tgt="5" wght="-0.41902214230548185" />
        <Con id="18" src="1" tgt="5" wght="2.7444147761297808" />
        <Con id="19" src="0" tgt="5" wght="-4.9891450366964092" />
        <Con id="27" src="25" tgt="5" wght="-4.1415665241337374" />
        <Con id="34" src="4" tgt="6" wght="0.049076303150545252" />
        <Con id="40" src="1" tgt="6" wght="3.3946086439475116" />
        <Con id="54" src="2" tgt="6" wght="3.00921415536621" />
        <Con id="63" src="0" tgt="25" wght="2.3858496014606558" />
      </Connections>
    </Network>
    <Network id="12913" birthGen="321" fitness="0">
      <Nodes>
        <Node type="bias" id="0" />
        <Node type="in" id="1" />
        <Node type="in" id="2" />
        <Node type="in" id="3" />
        <Node type="in" id="4" />
        <Node type="out" id="5" />
        <Node type="out" id="6" />
        <Node type="hid" id="25" />
      </Nodes>
      <Connections>
        <Con id="11" src="2" tgt="5" wght="-0.41902214230548185" />
        <Con id="18" src="1" tgt="5" wght="2.7444147761297808" />
        <Con id="19" src="0" tgt="5" wght="-4.9891450366964092" />
        <Con id="27" src="25" tgt="5" wght="2.1019367221742868" />
        <Con id="34" src="4" tgt="6" wght="0.049076303150545252" />
        <Con id="40" src="1" tgt="6" wght="3.3946086439475116" />
        <Con id="54" src="2" tgt="6" wght="3.00921415536621" />
        <Con id="63" src="0" tgt="25" wght="2.3858496014606558" />
      </Connections>
    </Network>
    <Network id="12914" birthGen="321" fitness="0">
      <Nodes>
        <Node type="bias" id="0" />
        <Node type="in" id="1" />
        <Node type="in" id="2" />
        <Node type="in" id="3" />
        <Node type="in" id="4" />
        <Node type="out" id="5" />
        <Node type="out" id="6" />
        <Node type="hid" id="25" />
      </Nodes>
      <Connections>
        <Con id="11" src="2" tgt="5" wght="-0.41902214230548185" />
        <Con id="18" src="1" tgt="5" wght="2.7444147761297808" />
        <Con id="27" src="25" tgt="5" wght="-4.1270234618169139" />
        <Con id="34" src="4" tgt="6" wght="0.049076303150545252" />
        <Con id="40" src="1" tgt="6" wght="3.3946086439475116" />
        <Con id="54" src="2" tgt="6" wght="3.00921415536621" />
        <Con id="63" src="0" tgt="25" wght="2.3858496014606558" />
      </Connections>
    </Network>
    <Network id="12915" birthGen="321" fitness="0">
      <Nodes>
        <Node type="bias" id="0" />
        <Node type="in" id="1" />
        <Node type="in" id="2" />
        <Node type="in" id="3" />
        <Node type="in" id="4" />
        <Node type="out" id="5" />
        <Node type="out" id="6" />
        <Node type="hid" id="25" />
      </Nodes>
      <Connections>
        <Con id="11" src="2" tgt="5" wght="-0.41902214230548185" />
        <Con id="18" src="1" tgt="5" wght="2.7444147761297808" />
        <Con id="19" src="0" tgt="5" wght="-4.9891450366964092" />
        <Con id="27" src="25" tgt="5" wght="-2.7528059597159871" />
        <Con id="34" src="4" tgt="6" wght="0.049076303150545252" />
        <Con id="40" src="1" tgt="6" wght="3.3946086439475116" />
        <Con id="54" src="2" tgt="6" wght="3.00921415536621" />
        <Con id="63" src="0" tgt="25" wght="2.3858496014606558" />
      </Connections>
    </Network>
    <Network id="12916" birthGen="321" fitness="0">
      <Nodes>
        <Node type="bias" id="0" />
        <Node type="in" id="1" />
        <Node type="in" id="2" />
        <Node type="in" id="3" />
        <Node type="in" id="4" />
        <Node type="out" id="5" />
        <Node type="out" id="6" />
        <Node type="hid" id="25" />
      </Nodes>
      <Connections>
        <Con id="11" src="2" tgt="5" wght="-0.41902214230548185" />
        <Con id="18" src="1" tgt="5" wght="2.7444147761297808" />
        <Con id="19" src="0" tgt="5" wght="-5" />
        <Con id="27" src="25" tgt="5" wght="-4.1270234618169139" />
        <Con id="34" src="4" tgt="6" wght="1.1389560875720177" />
        <Con id="40" src="1" tgt="6" wght="3.3946086439475116" />
        <Con id="54" src="2" tgt="6" wght="3.00921415536621" />
        <Con id="63" src="0" tgt="25" wght="2.3858496014606558" />
      </Connections>
    </Network>
    <Network id="12917" birthGen="321" fitness="0">
      <Nodes>
        <Node type="bias" id="0" />
        <Node type="in" id="1" />
        <Node type="in" id="2" />
        <Node type="in" id="3" />
        <Node type="in" id="4" />
        <Node type="out" id="5" />
        <Node type="out" id="6" />
        <Node type="hid" id="25" />
      </Nodes>
      <Connections>
        <Con id="11" src="2" tgt="5" wght="-0.41902214230548185" />
        <Con id="18" src="1" tgt="5" wght="2.7444147761297808" />
        <Con id="27" src="25" tgt="5" wght="-4.1270234618169139" />
        <Con id="34" src="4" tgt="6" wght="0.049076303150545252" />
        <Con id="40" src="1" tgt="6" wght="3.3946086439475116" />
        <Con id="54" src="2" tgt="6" wght="3.00921415536621" />
        <Con id="63" src="0" tgt="25" wght="2.3858496014606558" />
      </Connections>
    </Network>
    <Network id="12918" birthGen="321" fitness="0">
      <Nodes>
        <Node type="bias" id="0" />
        <Node type="in" id="1" />
        <Node type="in" id="2" />
        <Node type="in" id="3" />
        <Node type="in" id="4" />
        <Node type="out" id="5" />
        <Node type="out" id="6" />
        <Node type="hid" id="25" />
      </Nodes>
      <Connections>
        <Con id="11" src="2" tgt="5" wght="-0.41902214230548185" />
        <Con id="18" src="1" tgt="5" wght="2.7444147761297808" />
        <Con id="19" src="0" tgt="5" wght="-4.9891450366964092" />
        <Con id="27" src="25" tgt="5" wght="-4.1270234618169139" />
        <Con id="34" src="4" tgt="6" wght="0.049076303150545252" />
        <Con id="40" src="1" tgt="6" wght="3.3946086439475116" />
        <Con id="63" src="0" tgt="25" wght="2.3858496014606558" />
      </Connections>
    </Network>
    <Network id="12919" birthGen="321" fitness="0">
      <Nodes>
        <Node type="bias" id="0" />
        <Node type="in" id="1" />
        <Node type="in" id="2" />
        <Node type="in" id="3" />
        <Node type="in" id="4" />
        <Node type="out" id="5" />
        <Node type="out" id="6" />
        <Node type="hid" id="25" />
        <Node type="hid" id="138" />
        <Node type="hid" id="187" />
      </Nodes>
      <Connections>
        <Con id="11" src="2" tgt="5" wght="-0.83650531712919474" />
        <Con id="18" src="1" tgt="5" wght="2.6600916664351653" />
        <Con id="27" src="25" tgt="5" wght="-2.9768739574307408" />
        <Con id="34" src="4" tgt="6" wght="0.014481429731292206" />
        <Con id="54" src="2" tgt="6" wght="4.1585418950370689" />
        <Con id="63" src="0" tgt="25" wght="1.3210993228857624" />
        <Con id="139" src="4" tgt="138" wght="-3.5354341100901365" />
        <Con id="188" src="0" tgt="187" wght="-4.7956470461828822" />
        <Con id="189" src="187" tgt="5" wght="5" />
      </Connections>
    </Network>
    <Network id="12920" birthGen="321" fitness="0">
      <Nodes>
        <Node type="bias" id="0" />
        <Node type="in" id="1" />
        <Node type="in" id="2" />
        <Node type="in" id="3" />
        <Node type="in" id="4" />
        <Node type="out" id="5" />
        <Node type="out" id="6" />
        <Node type="hid" id="25" />
        <Node type="hid" id="175" />
      </Nodes>
      <Connections>
        <Con id="11" src="2" tgt="5" wght="-0.44392000315183094" />
        <Con id="18" src="1" tgt="5" wght="4.8629221878945827" />
        <Con id="19" src="0" tgt="5" wght="-5" />
        <Con id="34" src="4" tgt="6" wght="0.034287979717669226" />
        <Con id="53" src="3" tgt="25" wght="-2.5454476897110272" />
        <Con id="54" src="2" tgt="6" wght="3.1817971473019" />
        <Con id="63" src="0" tgt="25" wght="0.33451756928116083" />
        <Con id="176" src="1" tgt="175" wght="3.3876089679844883" />
      </Connections>
    </Network>
    <Network id="12921" birthGen="321" fitness="0">
      <Nodes>
        <Node type="bias" id="0" />
        <Node type="in" id="1" />
        <Node type="in" id="2" />
        <Node type="in" id="3" />
        <Node type="in" id="4" />
        <Node type="out" id="5" />
        <Node type="out" id="6" />
        <Node type="hid" id="25" />
        <Node type="hid" id="175" />
      </Nodes>
      <Connections>
        <Con id="11" src="2" tgt="5" wght="-0.44392000315183094" />
        <Con id="18" src="1" tgt="5" wght="2.0031733553137219" />
        <Con id="19" src="0" tgt="5" wght="-5" />
        <Con id="34" src="4" tgt="6" wght="0.034287979717669226" />
        <Con id="53" src="3" tgt="25" wght="-2.5454476897110272" />
        <Con id="54" src="2" tgt="6" wght="3.1817971473019" />
        <Con id="176" src="1" tgt="175" wght="3.3876089679844883" />
      </Connections>
    </Network>
    <Network id="12922" birthGen="321" fitness="0">
      <Nodes>
        <Node type="bias" id="0" />
        <Node type="in" id="1" />
        <Node type="in" id="2" />
        <Node type="in" id="3" />
        <Node type="in" id="4" />
        <Node type="out" id="5" />
        <Node type="out" id="6" />
        <Node type="hid" id="25" />
      </Nodes>
      <Connections>
        <Con id="11" src="2" tgt="5" wght="-0.4333593476271887" />
        <Con id="18" src="1" tgt="5" wght="2.0031733553137219" />
        <Con id="19" src="0" tgt="5" wght="-5" />
        <Con id="34" src="4" tgt="6" wght="0.034287979717669226" />
        <Con id="53" src="3" tgt="25" wght="-2.5454476897110272" />
        <Con id="54" src="2" tgt="6" wght="2.4816834400632515" />
        <Con id="63" src="0" tgt="25" wght="1.567441756409403" />
      </Connections>
    </Network>
    <Network id="12923" birthGen="321" fitness="0">
      <Nodes>
        <Node type="bias" id="0" />
        <Node type="in" id="1" />
        <Node type="in" id="2" />
        <Node type="in" id="3" />
        <Node type="in" id="4" />
        <Node type="out" id="5" />
        <Node type="out" id="6" />
        <Node type="hid" id="25" />
      </Nodes>
      <Connections>
        <Con id="11" src="2" tgt="5" wght="-0.4333593476271887" />
        <Con id="18" src="1" tgt="5" wght="2.0031733553137219" />
        <Con id="19" src="0" tgt="5" wght="-5" />
        <Con id="34" src="4" tgt="6" wght="0.034287979717669226" />
        <Con id="53" src="3" tgt="25" wght="-2.5454476897110272" />
        <Con id="54" src="2" tgt="6" wght="2.4816834400632515" />
        <Con id="63" src="0" tgt="25" wght="1.567441756409403" />
      </Connections>
    </Network>
    <Network id="12924" birthGen="321" fitness="0">
      <Nodes>
        <Node type="bias" id="0" />
        <Node type="in" id="1" />
        <Node type="in" id="2" />
        <Node type="in" id="3" />
        <Node type="in" id="4" />
        <Node type="out" id="5" />
        <Node type="out" id="6" />
        <Node type="hid" id="25" />
      </Nodes>
      <Connections>
        <Con id="11" src="2" tgt="5" wght="-0.4333593476271887" />
        <Con id="18" src="1" tgt="5" wght="2.0031733553137219" />
        <Con id="19" src="0" tgt="5" wght="-5" />
        <Con id="34" src="4" tgt="6" wght="0.034287979717669226" />
        <Con id="53" src="3" tgt="25" wght="-2.5454476897110272" />
        <Con id="54" src="2" tgt="6" wght="2.4816834400632515" />
        <Con id="63" src="0" tgt="25" wght="1.567441756409403" />
      </Connections>
    </Network>
    <Network id="12925" birthGen="321" fitness="0">
      <Nodes>
        <Node type="bias" id="0" />
        <Node type="in" id="1" />
        <Node type="in" id="2" />
        <Node type="in" id="3" />
        <Node type="in" id="4" />
        <Node type="out" id="5" />
        <Node type="out" id="6" />
        <Node type="hid" id="25" />
        <Node type="hid" id="175" />
      </Nodes>
      <Connections>
        <Con id="11" src="2" tgt="5" wght="-0.44392000315183094" />
        <Con id="18" src="1" tgt="5" wght="1.9326521083025068" />
        <Con id="19" src="0" tgt="5" wght="3.3416084153577685" />
        <Con id="34" src="4" tgt="6" wght="0.034287979717669226" />
        <Con id="53" src="3" tgt="25" wght="-3.3518587750545077" />
        <Con id="54" src="2" tgt="6" wght="1.9040292593807879" />
        <Con id="63" src="0" tgt="25" wght="1.5575198718729806" />
        <Con id="176" src="1" tgt="175" wght="4.0903151966631413" />
      </Connections>
    </Network>
    <Network id="12926" birthGen="321" fitness="0">
      <Nodes>
        <Node type="bias" id="0" />
        <Node type="in" id="1" />
        <Node type="in" id="2" />
        <Node type="in" id="3" />
        <Node type="in" id="4" />
        <Node type="out" id="5" />
        <Node type="out" id="6" />
        <Node type="hid" id="25" />
        <Node type="hid" id="175" />
      </Nodes>
      <Connections>
        <Con id="11" src="2" tgt="5" wght="-0.4606480969036898" />
        <Con id="18" src="1" tgt="5" wght="1.9326521083025068" />
        <Con id="19" src="0" tgt="5" wght="3.3299577235353488" />
        <Con id="34" src="4" tgt="6" wght="0.034287979717669226" />
        <Con id="53" src="3" tgt="25" wght="-2.5333665052337508" />
        <Con id="54" src="2" tgt="6" wght="2.4816834400632515" />
        <Con id="63" src="0" tgt="25" wght="1.5575198718729806" />
        <Con id="176" src="1" tgt="175" wght="4.0903151966631413" />
      </Connections>
    </Network>
    <Network id="12927" birthGen="321" fitness="0">
      <Nodes>
        <Node type="bias" id="0" />
        <Node type="in" id="1" />
        <Node type="in" id="2" />
        <Node type="in" id="3" />
        <Node type="in" id="4" />
        <Node type="out" id="5" />
        <Node type="out" id="6" />
        <Node type="hid" id="25" />
      </Nodes>
      <Connections>
        <Con id="11" src="2" tgt="5" wght="-0.44392000315183094" />
        <Con id="18" src="1" tgt="5" wght="1.9326521083025068" />
        <Con id="19" src="0" tgt="5" wght="3.3416084153577685" />
        <Con id="34" src="4" tgt="6" wght="0.034287979717669226" />
        <Con id="53" src="3" tgt="25" wght="-2.5454476897110272" />
        <Con id="54" src="2" tgt="6" wght="2.4816834400632515" />
        <Con id="63" src="0" tgt="25" wght="1.5575198718729806" />
      </Connections>
    </Network>
    <Network id="12928" birthGen="321" fitness="0">
      <Nodes>
        <Node type="bias" id="0" />
        <Node type="in" id="1" />
        <Node type="in" id="2" />
        <Node type="in" id="3" />
        <Node type="in" id="4" />
        <Node type="out" id="5" />
        <Node type="out" id="6" />
        <Node type="hid" id="25" />
        <Node type="hid" id="138" />
      </Nodes>
      <Connections>
        <Con id="11" src="2" tgt="5" wght="-0.32091762969321114" />
        <Con id="18" src="1" tgt="5" wght="1.8433477788776886" />
        <Con id="19" src="0" tgt="5" wght="-4.2317262248345147" />
        <Con id="34" src="4" tgt="6" wght="0.053094505167718291" />
        <Con id="54" src="2" tgt="6" wght="3.0966018535980204" />
        <Con id="136" src="4" tgt="25" wght="4.8823075354148475" />
        <Con id="163" src="138" tgt="6" wght="-2.9090662816145416" />
      </Connections>
    </Network>
    <Network id="12929" birthGen="321" fitness="0">
      <Nodes>
        <Node type="bias" id="0" />
        <Node type="in" id="1" />
        <Node type="in" id="2" />
        <Node type="in" id="3" />
        <Node type="in" id="4" />
        <Node type="out" id="5" />
        <Node type="out" id="6" />
        <Node type="hid" id="25" />
        <Node type="hid" id="138" />
      </Nodes>
      <Connections>
        <Con id="11" src="2" tgt="5" wght="-0.32091762969321114" />
        <Con id="18" src="1" tgt="5" wght="1.8315435949338219" />
        <Con id="19" src="0" tgt="5" wght="-4.2317262248345147" />
        <Con id="27" src="25" tgt="5" wght="-0.91104959851325906" />
        <Con id="34" src="4" tgt="6" wght="0.053094505167718291" />
        <Con id="54" src="2" tgt="6" wght="3.0966018535980204" />
        <Con id="136" src="4" tgt="25" wght="4.8823075354148475" />
        <Con id="163" src="138" tgt="6" wght="-2.9090662816145416" />
      </Connections>
    </Network>
    <Network id="12930" birthGen="321" fitness="0">
      <Nodes>
        <Node type="bias" id="0" />
        <Node type="in" id="1" />
        <Node type="in" id="2" />
        <Node type="in" id="3" />
        <Node type="in" id="4" />
        <Node type="out" id="5" />
        <Node type="out" id="6" />
        <Node type="hid" id="25" />
        <Node type="hid" id="138" />
      </Nodes>
      <Connections>
        <Con id="18" src="1" tgt="5" wght="1.8433477788776886" />
        <Con id="19" src="0" tgt="5" wght="-4.2317262248345147" />
        <Con id="27" src="25" tgt="5" wght="-0.91104959851325906" />
        <Con id="34" src="4" tgt="6" wght="0.053094505167718291" />
        <Con id="54" src="2" tgt="6" wght="3.0966018535980204" />
        <Con id="136" src="4" tgt="25" wght="4.8823075354148475" />
        <Con id="163" src="138" tgt="6" wght="-2.9090662816145416" />
      </Connections>
    </Network>
    <Network id="12931" birthGen="321" fitness="0">
      <Nodes>
        <Node type="bias" id="0" />
        <Node type="in" id="1" />
        <Node type="in" id="2" />
        <Node type="in" id="3" />
        <Node type="in" id="4" />
        <Node type="out" id="5" />
        <Node type="out" id="6" />
        <Node type="hid" id="25" />
        <Node type="hid" id="138" />
      </Nodes>
      <Connections>
        <Con id="11" src="2" tgt="5" wght="-0.32091762969321114" />
        <Con id="18" src="1" tgt="5" wght="1.8433477788776886" />
        <Con id="19" src="0" tgt="5" wght="-4.2317262248345147" />
        <Con id="27" src="25" tgt="5" wght="-0.91104959851325906" />
        <Con id="54" src="2" tgt="6" wght="3.0966018535980204" />
        <Con id="136" src="4" tgt="25" wght="4.8823075354148475" />
        <Con id="163" src="138" tgt="6" wght="-2.9090662816145416" />
      </Connections>
    </Network>
    <Network id="12932" birthGen="321" fitness="0">
      <Nodes>
        <Node type="bias" id="0" />
        <Node type="in" id="1" />
        <Node type="in" id="2" />
        <Node type="in" id="3" />
        <Node type="in" id="4" />
        <Node type="out" id="5" />
        <Node type="out" id="6" />
        <Node type="hid" id="25" />
        <Node type="hid" id="138" />
      </Nodes>
      <Connections>
        <Con id="11" src="2" tgt="5" wght="-0.32091762969321114" />
        <Con id="18" src="1" tgt="5" wght="1.8433477788776886" />
        <Con id="19" src="0" tgt="5" wght="-4.2317262248345147" />
        <Con id="27" src="25" tgt="5" wght="-0.91104959851325906" />
        <Con id="34" src="4" tgt="6" wght="0.053094505167718291" />
        <Con id="54" src="2" tgt="6" wght="3.0966018535980204" />
        <Con id="136" src="4" tgt="25" wght="3.2878464309734983" />
        <Con id="163" src="138" tgt="6" wght="-2.9090662816145416" />
      </Connections>
    </Network>
    <Network id="12933" birthGen="321" fitness="0">
      <Nodes>
        <Node type="bias" id="0" />
        <Node type="in" id="1" />
        <Node type="in" id="2" />
        <Node type="in" id="3" />
        <Node type="in" id="4" />
        <Node type="out" id="5" />
        <Node type="out" id="6" />
        <Node type="hid" id="25" />
        <Node type="hid" id="138" />
      </Nodes>
      <Connections>
        <Con id="11" src="2" tgt="5" wght="-0.32091762969321114" />
        <Con id="18" src="1" tgt="5" wght="1.8433477788776886" />
        <Con id="19" src="0" tgt="5" wght="-4.2317262248345147" />
        <Con id="27" src="25" tgt="5" wght="-0.91104959851325906" />
        <Con id="34" src="4" tgt="6" wght="0.053094505167718291" />
        <Con id="136" src="4" tgt="25" wght="4.8823075354148475" />
        <Con id="163" src="138" tgt="6" wght="-2.9090662816145416" />
      </Connections>
    </Network>
  </Networks>
</Root>