<?xml version="1.0" encoding="utf-8"?>
<Root>
  <ActivationFunctions>
    <Fn id="0" name="SteepenedSigmoid" prob="1" />
  </ActivationFunctions>
  <Networks>
    <Network id="4868" birthGen="120" fitness="193.46218872070313">
      <Nodes>
        <Node type="bias" id="0" />
        <Node type="in" id="1" />
        <Node type="in" id="2" />
        <Node type="in" id="3" />
        <Node type="in" id="4" />
        <Node type="out" id="5" />
        <Node type="out" id="6" />
        <Node type="out" id="7" />
        <Node type="hid" id="48" />
        <Node type="hid" id="70" />
        <Node type="hid" id="92" />
      </Nodes>
      <Connections>
        <Con id="23" src="0" tgt="6" wght="-2.6749690482392907" />
        <Con id="26" src="3" tgt="6" wght="3.4370622287138577" />
        <Con id="31" src="1" tgt="6" wght="-4.1305215869359326" />
        <Con id="35" src="2" tgt="6" wght="0.5559981266964692" />
        <Con id="49" src="4" tgt="48" wght="-1.1867498233914375" />
        <Con id="72" src="70" tgt="6" wght="2.5287740225745292" />
        <Con id="89" src="0" tgt="48" wght="3.2901625940576196" />
        <Con id="91" src="1" tgt="48" wght="-1.54650986397194" />
        <Con id="93" src="48" tgt="92" wght="5" />
        <Con id="94" src="92" tgt="70" wght="4.9842225334824191" />
        <Con id="114" src="1" tgt="70" wght="0.79880183096975088" />
      </Connections>
    </Network>
    <Network id="4870" birthGen="120" fitness="193.29934692382813">
      <Nodes>
        <Node type="bias" id="0" />
        <Node type="in" id="1" />
        <Node type="in" id="2" />
        <Node type="in" id="3" />
        <Node type="in" id="4" />
        <Node type="out" id="5" />
        <Node type="out" id="6" />
        <Node type="out" id="7" />
        <Node type="hid" id="48" />
        <Node type="hid" id="70" />
        <Node type="hid" id="92" />
      </Nodes>
      <Connections>
        <Con id="23" src="0" tgt="6" wght="-2.6743268399010662" />
        <Con id="26" src="3" tgt="6" wght="3.4370622287138577" />
        <Con id="31" src="1" tgt="6" wght="-4.1305215869359326" />
        <Con id="35" src="2" tgt="6" wght="0.5559981266964692" />
        <Con id="49" src="4" tgt="48" wght="-1.1867498233914375" />
        <Con id="72" src="70" tgt="6" wght="2.5287740225745292" />
        <Con id="89" src="0" tgt="48" wght="3.2901625940576196" />
        <Con id="91" src="1" tgt="48" wght="-1.54650986397194" />
        <Con id="93" src="48" tgt="92" wght="4.3585752069720574" />
        <Con id="94" src="92" tgt="70" wght="4.9842225334824191" />
        <Con id="114" src="1" tgt="70" wght="0.79880183096975088" />
      </Connections>
    </Network>
    <Network id="4796" birthGen="119" fitness="193.92619323730469">
      <Nodes>
        <Node type="bias" id="0" />
        <Node type="in" id="1" />
        <Node type="in" id="2" />
        <Node type="in" id="3" />
        <Node type="in" id="4" />
        <Node type="out" id="5" />
        <Node type="out" id="6" />
        <Node type="out" id="7" />
        <Node type="hid" id="48" />
        <Node type="hid" id="70" />
        <Node type="hid" id="92" />
      </Nodes>
      <Connections>
        <Con id="26" src="3" tgt="6" wght="3.7164836197484155" />
        <Con id="31" src="1" tgt="6" wght="-4.98266077279513" />
        <Con id="35" src="2" tgt="6" wght="0.5559981266964692" />
        <Con id="49" src="4" tgt="48" wght="2.5878478839808063" />
        <Con id="72" src="70" tgt="6" wght="4.9981377762195915" />
        <Con id="89" src="0" tgt="48" wght="-0.099625961780077488" />
        <Con id="91" src="1" tgt="48" wght="-1.5484028675721493" />
        <Con id="93" src="48" tgt="92" wght="4.37140837756915" />
        <Con id="94" src="92" tgt="70" wght="5" />
      </Connections>
    </Network>
    <Network id="4840" birthGen="120" fitness="195.24006652832031">
      <Nodes>
        <Node type="bias" id="0" />
        <Node type="in" id="1" />
        <Node type="in" id="2" />
        <Node type="in" id="3" />
        <Node type="in" id="4" />
        <Node type="out" id="5" />
        <Node type="out" id="6" />
        <Node type="out" id="7" />
        <Node type="hid" id="48" />
        <Node type="hid" id="70" />
        <Node type="hid" id="92" />
      </Nodes>
      <Connections>
        <Con id="26" src="3" tgt="6" wght="3.4720859445414156" />
        <Con id="31" src="1" tgt="6" wght="-5" />
        <Con id="35" src="2" tgt="6" wght="0.5559981266964692" />
        <Con id="49" src="4" tgt="48" wght="3.7942143687682823" />
        <Con id="72" src="70" tgt="6" wght="2.5287740225745292" />
        <Con id="89" src="0" tgt="48" wght="3.2901625940576196" />
        <Con id="91" src="1" tgt="48" wght="-1.54650986397194" />
        <Con id="93" src="48" tgt="92" wght="4.3877775294532357" />
        <Con id="94" src="92" tgt="70" wght="4.769560129640622" />
        <Con id="114" src="1" tgt="70" wght="2.2662363947127968" />
      </Connections>
    </Network>
    <Network id="4849" birthGen="120" fitness="194.80340576171875">
      <Nodes>
        <Node type="bias" id="0" />
        <Node type="in" id="1" />
        <Node type="in" id="2" />
        <Node type="in" id="3" />
        <Node type="in" id="4" />
        <Node type="out" id="5" />
        <Node type="out" id="6" />
        <Node type="out" id="7" />
      </Nodes>
      <Connections>
        <Con id="18" src="3" tgt="6" wght="1.5592946311675397" />
        <Con id="23" src="0" tgt="6" wght="-4.601918323276907" />
        <Con id="27" src="4" tgt="6" wght="-0.087680655648566377" />
        <Con id="31" src="1" tgt="6" wght="2.6893220308694592" />
        <Con id="35" src="2" tgt="6" wght="0.36858114042500495" />
      </Connections>
    </Network>
    <Network id="4844" birthGen="120" fitness="194.79609680175781">
      <Nodes>
        <Node type="bias" id="0" />
        <Node type="in" id="1" />
        <Node type="in" id="2" />
        <Node type="in" id="3" />
        <Node type="in" id="4" />
        <Node type="out" id="5" />
        <Node type="out" id="6" />
        <Node type="out" id="7" />
      </Nodes>
      <Connections>
        <Con id="18" src="3" tgt="6" wght="1.5592946311675397" />
        <Con id="23" src="0" tgt="6" wght="-4.013799267562324" />
        <Con id="27" src="4" tgt="6" wght="-0.097838164114714937" />
        <Con id="31" src="1" tgt="6" wght="2.7115168833759147" />
        <Con id="35" src="2" tgt="6" wght="0.34552582246426061" />
      </Connections>
    </Network>
    <Network id="4854" birthGen="120" fitness="194.26368713378906">
      <Nodes>
        <Node type="bias" id="0" />
        <Node type="in" id="1" />
        <Node type="in" id="2" />
        <Node type="in" id="3" />
        <Node type="in" id="4" />
        <Node type="out" id="5" />
        <Node type="out" id="6" />
        <Node type="out" id="7" />
        <Node type="hid" id="45" />
      </Nodes>
      <Connections>
        <Con id="21" src="4" tgt="6" wght="-0.44860245194286108" />
        <Con id="23" src="0" tgt="6" wght="-5" />
        <Con id="31" src="1" tgt="6" wght="4.882711754180491" />
        <Con id="35" src="2" tgt="6" wght="3.4638457771855893" />
        <Con id="46" src="3" tgt="45" wght="1.1735834351295082" />
        <Con id="47" src="45" tgt="6" wght="4.5285275686462123" />
        <Con id="90" src="45" tgt="7" wght="0.93559446278959513" />
      </Connections>
    </Network>
    <Network id="4777" birthGen="118" fitness="194.23385620117188">
      <Nodes>
        <Node type="bias" id="0" />
        <Node type="in" id="1" />
        <Node type="in" id="2" />
        <Node type="in" id="3" />
        <Node type="in" id="4" />
        <Node type="out" id="5" />
        <Node type="out" id="6" />
        <Node type="out" id="7" />
        <Node type="hid" id="45" />
      </Nodes>
      <Connections>
        <Con id="21" src="4" tgt="6" wght="-0.44860245194286108" />
        <Con id="23" src="0" tgt="6" wght="-4.8625538293581174" />
        <Con id="31" src="1" tgt="6" wght="4.882711754180491" />
        <Con id="35" src="2" tgt="6" wght="3.4403737765178048" />
        <Con id="46" src="3" tgt="45" wght="1.1682288875022748" />
      </Connections>
    </Network>
    <Network id="4862" birthGen="120" fitness="194.22816467285156">
      <Nodes>
        <Node type="bias" id="0" />
        <Node type="in" id="1" />
        <Node type="in" id="2" />
        <Node type="in" id="3" />
        <Node type="in" id="4" />
        <Node type="out" id="5" />
        <Node type="out" id="6" />
        <Node type="out" id="7" />
        <Node type="hid" id="45" />
      </Nodes>
      <Connections>
        <Con id="21" src="4" tgt="6" wght="-0.43672614107491764" />
        <Con id="23" src="0" tgt="6" wght="-4.54089009470331" />
        <Con id="31" src="1" tgt="6" wght="4.882711754180491" />
        <Con id="35" src="2" tgt="6" wght="3.4403737765178048" />
        <Con id="46" src="3" tgt="45" wght="-0.70955001283437014" />
        <Con id="47" src="45" tgt="6" wght="5" />
        <Con id="69" src="3" tgt="7" wght="1.0854972014203668" />
      </Connections>
    </Network>
    <Network id="4871" birthGen="121" fitness="0">
      <Nodes>
        <Node type="bias" id="0" />
        <Node type="in" id="1" />
        <Node type="in" id="2" />
        <Node type="in" id="3" />
        <Node type="in" id="4" />
        <Node type="out" id="5" />
        <Node type="out" id="6" />
        <Node type="out" id="7" />
        <Node type="hid" id="48" />
        <Node type="hid" id="70" />
        <Node type="hid" id="92" />
      </Nodes>
      <Connections>
        <Con id="23" src="0" tgt="6" wght="-2.6749690482392907" />
        <Con id="26" src="3" tgt="6" wght="3.4882784339377646" />
        <Con id="31" src="1" tgt="6" wght="-4.1224562147457036" />
        <Con id="35" src="2" tgt="6" wght="0.5559981266964692" />
        <Con id="49" src="4" tgt="48" wght="-1.1867498233914375" />
        <Con id="72" src="70" tgt="6" wght="2.5287740225745292" />
        <Con id="89" src="0" tgt="48" wght="3.2901625940576196" />
        <Con id="91" src="1" tgt="48" wght="-1.54650986397194" />
        <Con id="93" src="48" tgt="92" wght="5" />
        <Con id="94" src="92" tgt="70" wght="4.9712717004025384" />
        <Con id="114" src="1" tgt="70" wght="0.79880183096975088" />
      </Connections>
    </Network>
    <Network id="4872" birthGen="121" fitness="0">
      <Nodes>
        <Node type="bias" id="0" />
        <Node type="in" id="1" />
        <Node type="in" id="2" />
        <Node type="in" id="3" />
        <Node type="in" id="4" />
        <Node type="out" id="5" />
        <Node type="out" id="6" />
        <Node type="out" id="7" />
        <Node type="hid" id="48" />
        <Node type="hid" id="70" />
        <Node type="hid" id="92" />
      </Nodes>
      <Connections>
        <Con id="23" src="0" tgt="6" wght="-2.6743268399010662" />
        <Con id="26" src="3" tgt="6" wght="3.4370622287138577" />
        <Con id="31" src="1" tgt="6" wght="-3.3115713424563071" />
        <Con id="35" src="2" tgt="6" wght="0.5559981266964692" />
        <Con id="49" src="4" tgt="48" wght="-1.1867498233914375" />
        <Con id="72" src="70" tgt="6" wght="2.5287740225745292" />
        <Con id="89" src="0" tgt="48" wght="3.2901625940576196" />
        <Con id="91" src="1" tgt="48" wght="-1.54650986397194" />
        <Con id="93" src="48" tgt="92" wght="4.3585752069720574" />
        <Con id="94" src="92" tgt="70" wght="4.9842225334824191" />
        <Con id="114" src="1" tgt="70" wght="0.79880183096975088" />
      </Connections>
    </Network>
    <Network id="4873" birthGen="121" fitness="0">
      <Nodes>
        <Node type="bias" id="0" />
        <Node type="in" id="1" />
        <Node type="in" id="2" />
        <Node type="in" id="3" />
        <Node type="in" id="4" />
        <Node type="out" id="5" />
        <Node type="out" id="6" />
        <Node type="out" id="7" />
        <Node type="hid" id="48" />
        <Node type="hid" id="70" />
        <Node type="hid" id="92" />
      </Nodes>
      <Connections>
        <Con id="23" src="0" tgt="6" wght="-2.6749690482392907" />
        <Con id="26" src="3" tgt="6" wght="3.4370622287138577" />
        <Con id="31" src="1" tgt="6" wght="-4.1305215869359326" />
        <Con id="35" src="2" tgt="6" wght="0.5559981266964692" />
        <Con id="49" src="4" tgt="48" wght="-1.1867498233914375" />
        <Con id="72" src="70" tgt="6" wght="2.5287740225745292" />
        <Con id="89" src="0" tgt="48" wght="3.2901625940576196" />
        <Con id="91" src="1" tgt="48" wght="-1.54650986397194" />
        <Con id="93" src="48" tgt="92" wght="4.3585752069720574" />
        <Con id="94" src="92" tgt="70" wght="4.9842225334824191" />
        <Con id="114" src="1" tgt="70" wght="0.79880183096975088" />
      </Connections>
    </Network>
    <Network id="4874" birthGen="121" fitness="0">
      <Nodes>
        <Node type="bias" id="0" />
        <Node type="in" id="1" />
        <Node type="in" id="2" />
        <Node type="in" id="3" />
        <Node type="in" id="4" />
        <Node type="out" id="5" />
        <Node type="out" id="6" />
        <Node type="out" id="7" />
        <Node type="hid" id="48" />
        <Node type="hid" id="70" />
        <Node type="hid" id="92" />
      </Nodes>
      <Connections>
        <Con id="26" src="3" tgt="6" wght="3.7164836197484155" />
        <Con id="31" src="1" tgt="6" wght="-4.98266077279513" />
        <Con id="35" src="2" tgt="6" wght="0.5559981266964692" />
        <Con id="49" src="4" tgt="48" wght="2.5878478839808063" />
        <Con id="72" src="70" tgt="6" wght="4.9981377762195915" />
        <Con id="89" src="0" tgt="48" wght="-0.099625961780077488" />
        <Con id="91" src="1" tgt="48" wght="-1.5484028675721493" />
        <Con id="93" src="48" tgt="92" wght="4.4038341743610818" />
        <Con id="94" src="92" tgt="70" wght="5" />
      </Connections>
    </Network>
    <Network id="4875" birthGen="121" fitness="0">
      <Nodes>
        <Node type="bias" id="0" />
        <Node type="in" id="1" />
        <Node type="in" id="2" />
        <Node type="in" id="3" />
        <Node type="in" id="4" />
        <Node type="out" id="5" />
        <Node type="out" id="6" />
        <Node type="out" id="7" />
        <Node type="hid" id="48" />
        <Node type="hid" id="70" />
        <Node type="hid" id="92" />
      </Nodes>
      <Connections>
        <Con id="26" src="3" tgt="6" wght="3.7164836197484155" />
        <Con id="31" src="1" tgt="6" wght="-3.5339146386832" />
        <Con id="35" src="2" tgt="6" wght="0.5559981266964692" />
        <Con id="49" src="4" tgt="48" wght="2.5878478839808063" />
        <Con id="72" src="70" tgt="6" wght="4.6111760893836617" />
        <Con id="89" src="0" tgt="48" wght="4.6356913447380066" />
        <Con id="91" src="1" tgt="48" wght="-1.5484028675721493" />
        <Con id="93" src="48" tgt="92" wght="4.37140837756915" />
        <Con id="94" src="92" tgt="70" wght="5" />
      </Connections>
    </Network>
    <Network id="4876" birthGen="121" fitness="0">
      <Nodes>
        <Node type="bias" id="0" />
        <Node type="in" id="1" />
        <Node type="in" id="2" />
        <Node type="in" id="3" />
        <Node type="in" id="4" />
        <Node type="out" id="5" />
        <Node type="out" id="6" />
        <Node type="out" id="7" />
        <Node type="hid" id="48" />
        <Node type="hid" id="70" />
        <Node type="hid" id="92" />
      </Nodes>
      <Connections>
        <Con id="26" src="3" tgt="6" wght="3.4370622287138577" />
        <Con id="31" src="1" tgt="6" wght="-4.1305215869359326" />
        <Con id="35" src="2" tgt="6" wght="0.5559981266964692" />
        <Con id="49" src="4" tgt="48" wght="-1.1867498233914375" />
        <Con id="72" src="70" tgt="6" wght="2.5287740225745292" />
        <Con id="89" src="0" tgt="48" wght="-0.099625961780077488" />
        <Con id="91" src="1" tgt="48" wght="-1.5484028675721493" />
        <Con id="93" src="48" tgt="92" wght="4.3585752069720574" />
        <Con id="94" src="92" tgt="70" wght="4.9842225334824191" />
      </Connections>
    </Network>
    <Network id="4877" birthGen="121" fitness="0">
      <Nodes>
        <Node type="bias" id="0" />
        <Node type="in" id="1" />
        <Node type="in" id="2" />
        <Node type="in" id="3" />
        <Node type="in" id="4" />
        <Node type="out" id="5" />
        <Node type="out" id="6" />
        <Node type="out" id="7" />
        <Node type="hid" id="48" />
        <Node type="hid" id="70" />
        <Node type="hid" id="92" />
      </Nodes>
      <Connections>
        <Con id="26" src="3" tgt="6" wght="3.7164836197484155" />
        <Con id="31" src="1" tgt="6" wght="-4.98266077279513" />
        <Con id="35" src="2" tgt="6" wght="0.54918842641831589" />
        <Con id="49" src="4" tgt="48" wght="2.5878478839808063" />
        <Con id="72" src="70" tgt="6" wght="4.9981377762195915" />
        <Con id="89" src="0" tgt="48" wght="-0.099625961780077488" />
        <Con id="91" src="1" tgt="48" wght="-1.5484028675721493" />
        <Con id="93" src="48" tgt="92" wght="4.3473803195827623" />
        <Con id="94" src="92" tgt="70" wght="5" />
      </Connections>
    </Network>
    <Network id="4878" birthGen="121" fitness="0">
      <Nodes>
        <Node type="bias" id="0" />
        <Node type="in" id="1" />
        <Node type="in" id="2" />
        <Node type="in" id="3" />
        <Node type="in" id="4" />
        <Node type="out" id="5" />
        <Node type="out" id="6" />
        <Node type="out" id="7" />
        <Node type="hid" id="48" />
        <Node type="hid" id="70" />
        <Node type="hid" id="92" />
      </Nodes>
      <Connections>
        <Con id="26" src="3" tgt="6" wght="3.7164836197484155" />
        <Con id="31" src="1" tgt="6" wght="-4.98266077279513" />
        <Con id="35" src="2" tgt="6" wght="0.52963770208076033" />
        <Con id="49" src="4" tgt="48" wght="2.5878478839808063" />
        <Con id="72" src="70" tgt="6" wght="4.9981377762195915" />
        <Con id="89" src="0" tgt="48" wght="-0.099625961780077488" />
        <Con id="91" src="1" tgt="48" wght="-1.5484028675721493" />
        <Con id="93" src="48" tgt="92" wght="4.37140837756915" />
        <Con id="94" src="92" tgt="70" wght="5" />
      </Connections>
    </Network>
    <Network id="4879" birthGen="121" fitness="0">
      <Nodes>
        <Node type="bias" id="0" />
        <Node type="in" id="1" />
        <Node type="in" id="2" />
        <Node type="in" id="3" />
        <Node type="in" id="4" />
        <Node type="out" id="5" />
        <Node type="out" id="6" />
        <Node type="out" id="7" />
        <Node type="hid" id="48" />
        <Node type="hid" id="70" />
        <Node type="hid" id="92" />
      </Nodes>
      <Connections>
        <Con id="26" src="3" tgt="6" wght="3.72601919588324" />
        <Con id="31" src="1" tgt="6" wght="-4.2948156719672159" />
        <Con id="35" src="2" tgt="6" wght="0.5559981266964692" />
        <Con id="49" src="4" tgt="48" wght="2.5878478839808063" />
        <Con id="72" src="70" tgt="6" wght="5" />
        <Con id="89" src="0" tgt="48" wght="-1.2228787108187729" />
        <Con id="91" src="1" tgt="48" wght="-1.54650986397194" />
        <Con id="93" src="48" tgt="92" wght="4.6651690443006437" />
        <Con id="94" src="92" tgt="70" wght="4.6740389803466389" />
      </Connections>
    </Network>
    <Network id="4880" birthGen="121" fitness="0">
      <Nodes>
        <Node type="bias" id="0" />
        <Node type="in" id="1" />
        <Node type="in" id="2" />
        <Node type="in" id="3" />
        <Node type="in" id="4" />
        <Node type="out" id="5" />
        <Node type="out" id="6" />
        <Node type="out" id="7" />
        <Node type="hid" id="48" />
        <Node type="hid" id="70" />
        <Node type="hid" id="92" />
      </Nodes>
      <Connections>
        <Con id="26" src="3" tgt="6" wght="3.72601919588324" />
        <Con id="31" src="1" tgt="6" wght="-5" />
        <Con id="35" src="2" tgt="6" wght="0.5559981266964692" />
        <Con id="49" src="4" tgt="48" wght="0.63890647752926322" />
        <Con id="72" src="70" tgt="6" wght="5" />
        <Con id="89" src="0" tgt="48" wght="-1.2228787108187729" />
        <Con id="91" src="1" tgt="48" wght="-1.54650986397194" />
        <Con id="93" src="48" tgt="92" wght="4.6651690443006437" />
        <Con id="94" src="92" tgt="70" wght="4.6740389803466389" />
      </Connections>
    </Network>
    <Network id="4881" birthGen="121" fitness="0">
      <Nodes>
        <Node type="bias" id="0" />
        <Node type="in" id="1" />
        <Node type="in" id="2" />
        <Node type="in" id="3" />
        <Node type="in" id="4" />
        <Node type="out" id="5" />
        <Node type="out" id="6" />
        <Node type="out" id="7" />
        <Node type="hid" id="48" />
        <Node type="hid" id="70" />
        <Node type="hid" id="92" />
      </Nodes>
      <Connections>
        <Con id="26" src="3" tgt="6" wght="3.72601919588324" />
        <Con id="31" src="1" tgt="6" wght="0.27243412099778652" />
        <Con id="35" src="2" tgt="6" wght="0.5559981266964692" />
        <Con id="49" src="4" tgt="48" wght="2.5878478839808063" />
        <Con id="72" src="70" tgt="6" wght="5" />
        <Con id="89" src="0" tgt="48" wght="-1.2228787108187729" />
        <Con id="91" src="1" tgt="48" wght="-1.54650986397194" />
        <Con id="93" src="48" tgt="92" wght="-1.5985111333429813" />
        <Con id="94" src="92" tgt="70" wght="4.6740389803466389" />
      </Connections>
    </Network>
    <Network id="4882" birthGen="121" fitness="0">
      <Nodes>
        <Node type="bias" id="0" />
        <Node type="in" id="1" />
        <Node type="in" id="2" />
        <Node type="in" id="3" />
        <Node type="in" id="4" />
        <Node type="out" id="5" />
        <Node type="out" id="6" />
        <Node type="out" id="7" />
        <Node type="hid" id="48" />
        <Node type="hid" id="70" />
        <Node type="hid" id="92" />
      </Nodes>
      <Connections>
        <Con id="26" src="3" tgt="6" wght="3.72601919588324" />
        <Con id="31" src="1" tgt="6" wght="-4.418507204207641" />
        <Con id="35" src="2" tgt="6" wght="0.5559981266964692" />
        <Con id="49" src="4" tgt="48" wght="2.5878478839808063" />
        <Con id="72" src="70" tgt="6" wght="5" />
        <Con id="89" src="0" tgt="48" wght="-1.2228787108187729" />
        <Con id="91" src="1" tgt="48" wght="-1.54650986397194" />
        <Con id="93" src="48" tgt="92" wght="4.6651690443006437" />
        <Con id="94" src="92" tgt="70" wght="4.6740389803466389" />
      </Connections>
    </Network>
    <Network id="4883" birthGen="121" fitness="0">
      <Nodes>
        <Node type="bias" id="0" />
        <Node type="in" id="1" />
        <Node type="in" id="2" />
        <Node type="in" id="3" />
        <Node type="in" id="4" />
        <Node type="out" id="5" />
        <Node type="out" id="6" />
        <Node type="out" id="7" />
        <Node type="hid" id="48" />
        <Node type="hid" id="70" />
        <Node type="hid" id="92" />
      </Nodes>
      <Connections>
        <Con id="26" src="3" tgt="6" wght="3.72601919588324" />
        <Con id="31" src="1" tgt="6" wght="-4.98386373160135" />
        <Con id="35" src="2" tgt="6" wght="0.5559981266964692" />
        <Con id="49" src="4" tgt="48" wght="4.3312448720532286" />
        <Con id="72" src="70" tgt="6" wght="5" />
        <Con id="89" src="0" tgt="48" wght="-1.2228787108187729" />
        <Con id="91" src="1" tgt="48" wght="-1.54650986397194" />
        <Con id="93" src="48" tgt="92" wght="4.6651690443006437" />
        <Con id="94" src="92" tgt="70" wght="4.6740389803466389" />
      </Connections>
    </Network>
    <Network id="4884" birthGen="121" fitness="0">
      <Nodes>
        <Node type="bias" id="0" />
        <Node type="in" id="1" />
        <Node type="in" id="2" />
        <Node type="in" id="3" />
        <Node type="in" id="4" />
        <Node type="out" id="5" />
        <Node type="out" id="6" />
        <Node type="out" id="7" />
        <Node type="hid" id="48" />
        <Node type="hid" id="70" />
        <Node type="hid" id="92" />
      </Nodes>
      <Connections>
        <Con id="26" src="3" tgt="6" wght="3.72601919588324" />
        <Con id="31" src="1" tgt="6" wght="-4.98386373160135" />
        <Con id="35" src="2" tgt="6" wght="0.5559981266964692" />
        <Con id="49" src="4" tgt="48" wght="2.5878478839808063" />
        <Con id="72" src="70" tgt="6" wght="5" />
        <Con id="89" src="0" tgt="48" wght="-1.8032942733908046" />
        <Con id="91" src="1" tgt="48" wght="-0.80625998951991207" />
        <Con id="93" src="48" tgt="92" wght="4.013505230633494" />
        <Con id="94" src="92" tgt="70" wght="4.6740389803466389" />
      </Connections>
    </Network>
    <Network id="4885" birthGen="121" fitness="0">
      <Nodes>
        <Node type="bias" id="0" />
        <Node type="in" id="1" />
        <Node type="in" id="2" />
        <Node type="in" id="3" />
        <Node type="in" id="4" />
        <Node type="out" id="5" />
        <Node type="out" id="6" />
        <Node type="out" id="7" />
        <Node type="hid" id="48" />
        <Node type="hid" id="70" />
        <Node type="hid" id="92" />
      </Nodes>
      <Connections>
        <Con id="26" src="3" tgt="6" wght="2.983361719176814" />
        <Con id="31" src="1" tgt="6" wght="-4.98386373160135" />
        <Con id="35" src="2" tgt="6" wght="0.5559981266964692" />
        <Con id="49" src="4" tgt="48" wght="2.5878478839808063" />
        <Con id="72" src="70" tgt="6" wght="5" />
        <Con id="89" src="0" tgt="48" wght="-0.069001996306444519" />
        <Con id="91" src="1" tgt="48" wght="-1.54650986397194" />
        <Con id="93" src="48" tgt="92" wght="4.013505230633494" />
        <Con id="94" src="92" tgt="70" wght="4.6740389803466389" />
      </Connections>
    </Network>
    <Network id="4886" birthGen="121" fitness="0">
      <Nodes>
        <Node type="bias" id="0" />
        <Node type="in" id="1" />
        <Node type="in" id="2" />
        <Node type="in" id="3" />
        <Node type="in" id="4" />
        <Node type="out" id="5" />
        <Node type="out" id="6" />
        <Node type="out" id="7" />
        <Node type="hid" id="48" />
        <Node type="hid" id="70" />
        <Node type="hid" id="92" />
      </Nodes>
      <Connections>
        <Con id="26" src="3" tgt="6" wght="3.72601919588324" />
        <Con id="31" src="1" tgt="6" wght="-4.98386373160135" />
        <Con id="35" src="2" tgt="6" wght="0.5559981266964692" />
        <Con id="49" src="4" tgt="48" wght="3.0427638794104963" />
        <Con id="72" src="70" tgt="6" wght="5" />
        <Con id="89" src="0" tgt="48" wght="-0.069001996306444519" />
        <Con id="91" src="1" tgt="48" wght="-1.54650986397194" />
        <Con id="93" src="48" tgt="92" wght="4.013505230633494" />
        <Con id="94" src="92" tgt="70" wght="3.2323370881971987" />
      </Connections>
    </Network>
    <Network id="4887" birthGen="121" fitness="0">
      <Nodes>
        <Node type="bias" id="0" />
        <Node type="in" id="1" />
        <Node type="in" id="2" />
        <Node type="in" id="3" />
        <Node type="in" id="4" />
        <Node type="out" id="5" />
        <Node type="out" id="6" />
        <Node type="out" id="7" />
        <Node type="hid" id="48" />
        <Node type="hid" id="70" />
        <Node type="hid" id="92" />
      </Nodes>
      <Connections>
        <Con id="26" src="3" tgt="6" wght="3.72601919588324" />
        <Con id="31" src="1" tgt="6" wght="-4.98386373160135" />
        <Con id="35" src="2" tgt="6" wght="0.5559981266964692" />
        <Con id="49" src="4" tgt="48" wght="2.5878478839808063" />
        <Con id="72" src="70" tgt="6" wght="5" />
        <Con id="89" src="0" tgt="48" wght="-0.069001996306444519" />
        <Con id="91" src="1" tgt="48" wght="-1.54650986397194" />
        <Con id="93" src="48" tgt="92" wght="4.013505230633494" />
        <Con id="94" src="92" tgt="70" wght="4.6997760968364561" />
      </Connections>
    </Network>
    <Network id="4888" birthGen="121" fitness="0">
      <Nodes>
        <Node type="bias" id="0" />
        <Node type="in" id="1" />
        <Node type="in" id="2" />
        <Node type="in" id="3" />
        <Node type="in" id="4" />
        <Node type="out" id="5" />
        <Node type="out" id="6" />
        <Node type="out" id="7" />
        <Node type="hid" id="48" />
        <Node type="hid" id="70" />
        <Node type="hid" id="92" />
      </Nodes>
      <Connections>
        <Con id="26" src="3" tgt="6" wght="3.72601919588324" />
        <Con id="31" src="1" tgt="6" wght="-4.6168569446882817" />
        <Con id="35" src="2" tgt="6" wght="0.5559981266964692" />
        <Con id="49" src="4" tgt="48" wght="2.5878478839808063" />
        <Con id="72" src="70" tgt="6" wght="5" />
        <Con id="89" src="0" tgt="48" wght="-0.069001996306444519" />
        <Con id="91" src="1" tgt="48" wght="-1.54650986397194" />
        <Con id="93" src="48" tgt="92" wght="4.013505230633494" />
        <Con id="94" src="92" tgt="70" wght="4.6740389803466389" />
      </Connections>
    </Network>
    <Network id="4889" birthGen="121" fitness="0">
      <Nodes>
        <Node type="bias" id="0" />
        <Node type="in" id="1" />
        <Node type="in" id="2" />
        <Node type="in" id="3" />
        <Node type="in" id="4" />
        <Node type="out" id="5" />
        <Node type="out" id="6" />
        <Node type="out" id="7" />
        <Node type="hid" id="48" />
        <Node type="hid" id="70" />
        <Node type="hid" id="92" />
      </Nodes>
      <Connections>
        <Con id="26" src="3" tgt="6" wght="4.7475655649861324" />
        <Con id="31" src="1" tgt="6" wght="-4.9874690122064314" />
        <Con id="35" src="2" tgt="6" wght="0.5559981266964692" />
        <Con id="49" src="4" tgt="48" wght="2.5878478839808063" />
        <Con id="72" src="70" tgt="6" wght="5" />
        <Con id="89" src="0" tgt="48" wght="-0.099625961780077488" />
        <Con id="91" src="1" tgt="48" wght="-1.542455135840203" />
        <Con id="93" src="48" tgt="92" wght="4.37140837756915" />
        <Con id="94" src="92" tgt="70" wght="4.6740389803466389" />
      </Connections>
    </Network>
    <Network id="4890" birthGen="121" fitness="0">
      <Nodes>
        <Node type="bias" id="0" />
        <Node type="in" id="1" />
        <Node type="in" id="2" />
        <Node type="in" id="3" />
        <Node type="in" id="4" />
        <Node type="out" id="5" />
        <Node type="out" id="6" />
        <Node type="out" id="7" />
        <Node type="hid" id="48" />
        <Node type="hid" id="70" />
        <Node type="hid" id="92" />
      </Nodes>
      <Connections>
        <Con id="26" src="3" tgt="6" wght="3.72601919588324" />
        <Con id="31" src="1" tgt="6" wght="-4.9642797923778126" />
        <Con id="35" src="2" tgt="6" wght="0.5559981266964692" />
        <Con id="49" src="4" tgt="48" wght="2.5878478839808063" />
        <Con id="72" src="70" tgt="6" wght="5" />
        <Con id="89" src="0" tgt="48" wght="-0.099625961780077488" />
        <Con id="91" src="1" tgt="48" wght="-1.542455135840203" />
        <Con id="93" src="48" tgt="92" wght="4.37140837756915" />
        <Con id="94" src="92" tgt="70" wght="4.6740389803466389" />
      </Connections>
    </Network>
    <Network id="4891" birthGen="121" fitness="0">
      <Nodes>
        <Node type="bias" id="0" />
        <Node type="in" id="1" />
        <Node type="in" id="2" />
        <Node type="in" id="3" />
        <Node type="in" id="4" />
        <Node type="out" id="5" />
        <Node type="out" id="6" />
        <Node type="out" id="7" />
        <Node type="hid" id="48" />
        <Node type="hid" id="70" />
        <Node type="hid" id="92" />
      </Nodes>
      <Connections>
        <Con id="26" src="3" tgt="6" wght="3.7210482641575" />
        <Con id="31" src="1" tgt="6" wght="-5" />
        <Con id="35" src="2" tgt="6" wght="0.5559981266964692" />
        <Con id="49" src="4" tgt="48" wght="2.5878478839808063" />
        <Con id="72" src="70" tgt="6" wght="5" />
        <Con id="89" src="0" tgt="48" wght="-0.099625961780077488" />
        <Con id="91" src="1" tgt="48" wght="-1.542455135840203" />
        <Con id="93" src="48" tgt="92" wght="4.37140837756915" />
        <Con id="94" src="92" tgt="70" wght="4.6740389803466389" />
      </Connections>
    </Network>
    <Network id="4892" birthGen="121" fitness="0">
      <Nodes>
        <Node type="bias" id="0" />
        <Node type="in" id="1" />
        <Node type="in" id="2" />
        <Node type="in" id="3" />
        <Node type="in" id="4" />
        <Node type="out" id="5" />
        <Node type="out" id="6" />
        <Node type="out" id="7" />
        <Node type="hid" id="48" />
        <Node type="hid" id="70" />
        <Node type="hid" id="92" />
      </Nodes>
      <Connections>
        <Con id="26" src="3" tgt="6" wght="3.72601919588324" />
        <Con id="31" src="1" tgt="6" wght="-4.9874690122064314" />
        <Con id="35" src="2" tgt="6" wght="0.5559981266964692" />
        <Con id="49" src="4" tgt="48" wght="2.5878478839808063" />
        <Con id="72" src="70" tgt="6" wght="5" />
        <Con id="89" src="0" tgt="48" wght="-0.064540345302915372" />
        <Con id="91" src="1" tgt="48" wght="-1.542455135840203" />
        <Con id="93" src="48" tgt="92" wght="4.37140837756915" />
        <Con id="94" src="92" tgt="70" wght="4.6740389803466389" />
      </Connections>
    </Network>
    <Network id="4893" birthGen="121" fitness="0">
      <Nodes>
        <Node type="bias" id="0" />
        <Node type="in" id="1" />
        <Node type="in" id="2" />
        <Node type="in" id="3" />
        <Node type="in" id="4" />
        <Node type="out" id="5" />
        <Node type="out" id="6" />
        <Node type="out" id="7" />
        <Node type="hid" id="48" />
        <Node type="hid" id="70" />
        <Node type="hid" id="92" />
      </Nodes>
      <Connections>
        <Con id="26" src="3" tgt="6" wght="3.72601919588324" />
        <Con id="31" src="1" tgt="6" wght="-4.9874690122064314" />
        <Con id="35" src="2" tgt="6" wght="-0.23269688910668496" />
        <Con id="49" src="4" tgt="48" wght="2.5878478839808063" />
        <Con id="72" src="70" tgt="6" wght="5" />
        <Con id="89" src="0" tgt="48" wght="-0.099625961780077488" />
        <Con id="91" src="1" tgt="48" wght="-1.542455135840203" />
        <Con id="93" src="48" tgt="92" wght="4.37140837756915" />
        <Con id="94" src="92" tgt="70" wght="4.6740389803466389" />
      </Connections>
    </Network>
    <Network id="4894" birthGen="121" fitness="0">
      <Nodes>
        <Node type="bias" id="0" />
        <Node type="in" id="1" />
        <Node type="in" id="2" />
        <Node type="in" id="3" />
        <Node type="in" id="4" />
        <Node type="out" id="5" />
        <Node type="out" id="6" />
        <Node type="out" id="7" />
      </Nodes>
      <Connections>
        <Con id="18" src="3" tgt="6" wght="2.1262552857289605" />
        <Con id="27" src="4" tgt="6" wght="0.011441496394242957" />
      </Connections>
    </Network>
    <Network id="4895" birthGen="121" fitness="0">
      <Nodes>
        <Node type="bias" id="0" />
        <Node type="in" id="1" />
        <Node type="in" id="2" />
        <Node type="in" id="3" />
        <Node type="in" id="4" />
        <Node type="out" id="5" />
        <Node type="out" id="6" />
        <Node type="out" id="7" />
      </Nodes>
      <Connections>
        <Con id="18" src="3" tgt="6" wght="2.1107476324384238" />
        <Con id="27" src="4" tgt="6" wght="-0.046265527444681466" />
      </Connections>
    </Network>
    <Network id="4896" birthGen="121" fitness="0">
      <Nodes>
        <Node type="bias" id="0" />
        <Node type="in" id="1" />
        <Node type="in" id="2" />
        <Node type="in" id="3" />
        <Node type="in" id="4" />
        <Node type="out" id="5" />
        <Node type="out" id="6" />
        <Node type="out" id="7" />
      </Nodes>
      <Connections>
        <Con id="18" src="3" tgt="6" wght="2.1153804071843743" />
        <Con id="27" src="4" tgt="6" wght="-0.024528675306855829" />
      </Connections>
    </Network>
    <Network id="4897" birthGen="121" fitness="0">
      <Nodes>
        <Node type="bias" id="0" />
        <Node type="in" id="1" />
        <Node type="in" id="2" />
        <Node type="in" id="3" />
        <Node type="in" id="4" />
        <Node type="out" id="5" />
        <Node type="out" id="6" />
        <Node type="out" id="7" />
      </Nodes>
      <Connections>
        <Con id="18" src="3" tgt="6" wght="2.1074463044386054" />
        <Con id="27" src="4" tgt="6" wght="-0.012807825619504921" />
      </Connections>
    </Network>
    <Network id="4898" birthGen="121" fitness="0">
      <Nodes>
        <Node type="bias" id="0" />
        <Node type="in" id="1" />
        <Node type="in" id="2" />
        <Node type="in" id="3" />
        <Node type="in" id="4" />
        <Node type="out" id="5" />
        <Node type="out" id="6" />
        <Node type="out" id="7" />
      </Nodes>
      <Connections>
        <Con id="18" src="3" tgt="6" wght="2.1465010586169244" />
        <Con id="27" src="4" tgt="6" wght="-0.017182380513999715" />
      </Connections>
    </Network>
    <Network id="4899" birthGen="121" fitness="0">
      <Nodes>
        <Node type="bias" id="0" />
        <Node type="in" id="1" />
        <Node type="in" id="2" />
        <Node type="in" id="3" />
        <Node type="in" id="4" />
        <Node type="out" id="5" />
        <Node type="out" id="6" />
        <Node type="out" id="7" />
        <Node type="hid" id="48" />
        <Node type="hid" id="70" />
        <Node type="hid" id="92" />
      </Nodes>
      <Connections>
        <Con id="26" src="3" tgt="6" wght="3.4370622287138577" />
        <Con id="31" src="1" tgt="6" wght="-5" />
        <Con id="35" src="2" tgt="6" wght="0.5559981266964692" />
        <Con id="49" src="4" tgt="48" wght="3.7942143687682823" />
        <Con id="72" src="70" tgt="6" wght="2.5287740225745292" />
        <Con id="89" src="0" tgt="48" wght="3.2901625940576196" />
        <Con id="91" src="1" tgt="48" wght="-1.1860102013023086" />
        <Con id="93" src="48" tgt="92" wght="4.3877775294532357" />
        <Con id="94" src="92" tgt="70" wght="4.9842225334824191" />
        <Con id="114" src="1" tgt="70" wght="2.6634789088992861" />
      </Connections>
    </Network>
    <Network id="4900" birthGen="121" fitness="0">
      <Nodes>
        <Node type="bias" id="0" />
        <Node type="in" id="1" />
        <Node type="in" id="2" />
        <Node type="in" id="3" />
        <Node type="in" id="4" />
        <Node type="out" id="5" />
        <Node type="out" id="6" />
        <Node type="out" id="7" />
        <Node type="hid" id="48" />
        <Node type="hid" id="70" />
        <Node type="hid" id="92" />
      </Nodes>
      <Connections>
        <Con id="26" src="3" tgt="6" wght="3.4370622287138577" />
        <Con id="31" src="1" tgt="6" wght="-5" />
        <Con id="35" src="2" tgt="6" wght="0.5559981266964692" />
        <Con id="49" src="4" tgt="48" wght="3.7942143687682823" />
        <Con id="72" src="70" tgt="6" wght="2.5287740225745292" />
        <Con id="89" src="0" tgt="48" wght="3.2901625940576196" />
        <Con id="91" src="1" tgt="48" wght="-1.54650986397194" />
        <Con id="93" src="48" tgt="92" wght="4.3877775294532357" />
        <Con id="94" src="92" tgt="70" wght="4.9842225334824191" />
        <Con id="114" src="1" tgt="70" wght="2.6634789088992861" />
        <Con id="119" src="92" tgt="7" wght="-0.37995284888893366" />
      </Connections>
    </Network>
    <Network id="4901" birthGen="121" fitness="0">
      <Nodes>
        <Node type="bias" id="0" />
        <Node type="in" id="1" />
        <Node type="in" id="2" />
        <Node type="in" id="3" />
        <Node type="in" id="4" />
        <Node type="out" id="5" />
        <Node type="out" id="6" />
        <Node type="out" id="7" />
        <Node type="hid" id="48" />
        <Node type="hid" id="70" />
        <Node type="hid" id="92" />
      </Nodes>
      <Connections>
        <Con id="26" src="3" tgt="6" wght="3.4370622287138577" />
        <Con id="31" src="1" tgt="6" wght="-5" />
        <Con id="35" src="2" tgt="6" wght="0.5559981266964692" />
        <Con id="49" src="4" tgt="48" wght="3.7942143687682823" />
        <Con id="72" src="70" tgt="6" wght="2.5333170031686896" />
        <Con id="89" src="0" tgt="48" wght="3.2901625940576196" />
        <Con id="91" src="1" tgt="48" wght="-1.54650986397194" />
        <Con id="93" src="48" tgt="92" wght="4.3289369588492628" />
        <Con id="94" src="92" tgt="70" wght="4.9842225334824191" />
        <Con id="114" src="1" tgt="70" wght="2.6634789088992861" />
      </Connections>
    </Network>
    <Network id="4902" birthGen="121" fitness="0">
      <Nodes>
        <Node type="bias" id="0" />
        <Node type="in" id="1" />
        <Node type="in" id="2" />
        <Node type="in" id="3" />
        <Node type="in" id="4" />
        <Node type="out" id="5" />
        <Node type="out" id="6" />
        <Node type="out" id="7" />
        <Node type="hid" id="48" />
        <Node type="hid" id="70" />
        <Node type="hid" id="92" />
      </Nodes>
      <Connections>
        <Con id="26" src="3" tgt="6" wght="4.0650671042554727" />
        <Con id="31" src="1" tgt="6" wght="-5" />
        <Con id="35" src="2" tgt="6" wght="0.5559981266964692" />
        <Con id="49" src="4" tgt="48" wght="3.7942143687682823" />
        <Con id="72" src="70" tgt="6" wght="2.5287740225745292" />
        <Con id="89" src="0" tgt="48" wght="3.2901625940576196" />
        <Con id="91" src="1" tgt="48" wght="-1.54650986397194" />
        <Con id="93" src="48" tgt="92" wght="5" />
        <Con id="94" src="92" tgt="70" wght="4.9842225334824191" />
        <Con id="114" src="1" tgt="70" wght="1.2159053955816634" />
      </Connections>
    </Network>
    <Network id="4903" birthGen="121" fitness="0">
      <Nodes>
        <Node type="bias" id="0" />
        <Node type="in" id="1" />
        <Node type="in" id="2" />
        <Node type="in" id="3" />
        <Node type="in" id="4" />
        <Node type="out" id="5" />
        <Node type="out" id="6" />
        <Node type="out" id="7" />
        <Node type="hid" id="48" />
        <Node type="hid" id="70" />
        <Node type="hid" id="92" />
      </Nodes>
      <Connections>
        <Con id="26" src="3" tgt="6" wght="3.4370622287138577" />
        <Con id="31" src="1" tgt="6" wght="-5" />
        <Con id="35" src="2" tgt="6" wght="0.5559981266964692" />
        <Con id="49" src="4" tgt="48" wght="3.7942143687682823" />
        <Con id="72" src="70" tgt="6" wght="2.5287740225745292" />
        <Con id="89" src="0" tgt="48" wght="3.2901625940576196" />
        <Con id="91" src="1" tgt="48" wght="-1.5615547255741324" />
        <Con id="93" src="48" tgt="92" wght="4.3877775294532357" />
        <Con id="94" src="92" tgt="70" wght="4.9842225334824191" />
        <Con id="114" src="1" tgt="70" wght="2.6548250611641331" />
      </Connections>
    </Network>
    <Network id="4904" birthGen="121" fitness="0">
      <Nodes>
        <Node type="bias" id="0" />
        <Node type="in" id="1" />
        <Node type="in" id="2" />
        <Node type="in" id="3" />
        <Node type="in" id="4" />
        <Node type="out" id="5" />
        <Node type="out" id="6" />
        <Node type="out" id="7" />
        <Node type="hid" id="48" />
        <Node type="hid" id="70" />
        <Node type="hid" id="92" />
      </Nodes>
      <Connections>
        <Con id="26" src="3" tgt="6" wght="3.4720859445414156" />
        <Con id="31" src="1" tgt="6" wght="-5" />
        <Con id="35" src="2" tgt="6" wght="0.5559981266964692" />
        <Con id="49" src="4" tgt="48" wght="3.7942143687682823" />
        <Con id="72" src="70" tgt="6" wght="2.5287740225745292" />
        <Con id="89" src="0" tgt="48" wght="3.2901625940576196" />
        <Con id="91" src="1" tgt="48" wght="-2.1184742038763678" />
        <Con id="93" src="48" tgt="92" wght="4.3877775294532357" />
        <Con id="94" src="92" tgt="70" wght="4.769560129640622" />
        <Con id="114" src="1" tgt="70" wght="2.2662363947127968" />
      </Connections>
    </Network>
    <Network id="4905" birthGen="121" fitness="0">
      <Nodes>
        <Node type="bias" id="0" />
        <Node type="in" id="1" />
        <Node type="in" id="2" />
        <Node type="in" id="3" />
        <Node type="in" id="4" />
        <Node type="out" id="5" />
        <Node type="out" id="6" />
        <Node type="out" id="7" />
        <Node type="hid" id="48" />
        <Node type="hid" id="70" />
        <Node type="hid" id="92" />
      </Nodes>
      <Connections>
        <Con id="26" src="3" tgt="6" wght="3.4720859445414156" />
        <Con id="31" src="1" tgt="6" wght="-5" />
        <Con id="35" src="2" tgt="6" wght="0.57986422558478912" />
        <Con id="49" src="4" tgt="48" wght="3.7942143687682823" />
        <Con id="72" src="70" tgt="6" wght="2.5287740225745292" />
        <Con id="89" src="0" tgt="48" wght="3.2901625940576196" />
        <Con id="91" src="1" tgt="48" wght="-1.54650986397194" />
        <Con id="93" src="48" tgt="92" wght="4.3877775294532357" />
        <Con id="94" src="92" tgt="70" wght="4.769560129640622" />
        <Con id="114" src="1" tgt="70" wght="2.2662363947127968" />
      </Connections>
    </Network>
    <Network id="4906" birthGen="121" fitness="0">
      <Nodes>
        <Node type="bias" id="0" />
        <Node type="in" id="1" />
        <Node type="in" id="2" />
        <Node type="in" id="3" />
        <Node type="in" id="4" />
        <Node type="out" id="5" />
        <Node type="out" id="6" />
        <Node type="out" id="7" />
        <Node type="hid" id="48" />
        <Node type="hid" id="70" />
        <Node type="hid" id="92" />
      </Nodes>
      <Connections>
        <Con id="26" src="3" tgt="6" wght="3.4720859445414156" />
        <Con id="31" src="1" tgt="6" wght="-5" />
        <Con id="35" src="2" tgt="6" wght="0.56565699358245713" />
        <Con id="49" src="4" tgt="48" wght="3.7942143687682823" />
        <Con id="72" src="70" tgt="6" wght="2.5287740225745292" />
        <Con id="89" src="0" tgt="48" wght="3.2901625940576196" />
        <Con id="91" src="1" tgt="48" wght="-1.54650986397194" />
        <Con id="93" src="48" tgt="92" wght="4.3877775294532357" />
        <Con id="94" src="92" tgt="70" wght="4.7599113556274224" />
        <Con id="114" src="1" tgt="70" wght="2.2768337730398533" />
      </Connections>
    </Network>
    <Network id="4907" birthGen="121" fitness="0">
      <Nodes>
        <Node type="bias" id="0" />
        <Node type="in" id="1" />
        <Node type="in" id="2" />
        <Node type="in" id="3" />
        <Node type="in" id="4" />
        <Node type="out" id="5" />
        <Node type="out" id="6" />
        <Node type="out" id="7" />
        <Node type="hid" id="48" />
        <Node type="hid" id="70" />
        <Node type="hid" id="92" />
      </Nodes>
      <Connections>
        <Con id="26" src="3" tgt="6" wght="3.4720859445414156" />
        <Con id="31" src="1" tgt="6" wght="-5" />
        <Con id="35" src="2" tgt="6" wght="0.5559981266964692" />
        <Con id="49" src="4" tgt="48" wght="3.7942143687682823" />
        <Con id="72" src="70" tgt="6" wght="2.5287740225745292" />
        <Con id="89" src="0" tgt="48" wght="3.2901625940576196" />
        <Con id="91" src="1" tgt="48" wght="-1.54650986397194" />
        <Con id="93" src="48" tgt="92" wght="4.3877775294532357" />
        <Con id="94" src="92" tgt="70" wght="1.9711174257099628" />
        <Con id="114" src="1" tgt="70" wght="2.2662363947127968" />
      </Connections>
    </Network>
    <Network id="4908" birthGen="121" fitness="0">
      <Nodes>
        <Node type="bias" id="0" />
        <Node type="in" id="1" />
        <Node type="in" id="2" />
        <Node type="in" id="3" />
        <Node type="in" id="4" />
        <Node type="out" id="5" />
        <Node type="out" id="6" />
        <Node type="out" id="7" />
      </Nodes>
      <Connections>
        <Con id="18" src="3" tgt="6" wght="1.5592946311675397" />
        <Con id="23" src="0" tgt="6" wght="-3.3001993810838881" />
        <Con id="27" src="4" tgt="6" wght="-0.097838164114714937" />
        <Con id="31" src="1" tgt="6" wght="2.0522302818564686" />
        <Con id="35" src="2" tgt="6" wght="0.34552582246426061" />
      </Connections>
    </Network>
    <Network id="4909" birthGen="121" fitness="0">
      <Nodes>
        <Node type="bias" id="0" />
        <Node type="in" id="1" />
        <Node type="in" id="2" />
        <Node type="in" id="3" />
        <Node type="in" id="4" />
        <Node type="out" id="5" />
        <Node type="out" id="6" />
        <Node type="out" id="7" />
      </Nodes>
      <Connections>
        <Con id="18" src="3" tgt="6" wght="1.5592946311675397" />
        <Con id="23" src="0" tgt="6" wght="-4.601918323276907" />
        <Con id="27" src="4" tgt="6" wght="-0.097838164114714937" />
        <Con id="31" src="1" tgt="6" wght="2.7115168833759147" />
        <Con id="35" src="2" tgt="6" wght="0.36858114042500495" />
      </Connections>
    </Network>
    <Network id="4910" birthGen="121" fitness="0">
      <Nodes>
        <Node type="bias" id="0" />
        <Node type="in" id="1" />
        <Node type="in" id="2" />
        <Node type="in" id="3" />
        <Node type="in" id="4" />
        <Node type="out" id="5" />
        <Node type="out" id="6" />
        <Node type="out" id="7" />
        <Node type="hid" id="45" />
      </Nodes>
      <Connections>
        <Con id="21" src="4" tgt="6" wght="-0.44028429530503504" />
        <Con id="23" src="0" tgt="6" wght="-4.8625538293581174" />
        <Con id="31" src="1" tgt="6" wght="4.882711754180491" />
        <Con id="35" src="2" tgt="6" wght="3.4403737765178048" />
        <Con id="46" src="3" tgt="45" wght="1.1682288875022748" />
      </Connections>
    </Network>
    <Network id="4911" birthGen="121" fitness="0">
      <Nodes>
        <Node type="bias" id="0" />
        <Node type="in" id="1" />
        <Node type="in" id="2" />
        <Node type="in" id="3" />
        <Node type="in" id="4" />
        <Node type="out" id="5" />
        <Node type="out" id="6" />
        <Node type="out" id="7" />
        <Node type="hid" id="45" />
      </Nodes>
      <Connections>
        <Con id="21" src="4" tgt="6" wght="-0.44860245194286108" />
        <Con id="23" src="0" tgt="6" wght="-5" />
        <Con id="31" src="1" tgt="6" wght="4.882711754180491" />
        <Con id="35" src="2" tgt="6" wght="3.4638457771855893" />
        <Con id="46" src="3" tgt="45" wght="1.1682288875022748" />
        <Con id="47" src="45" tgt="6" wght="4.5285275686462123" />
        <Con id="90" src="45" tgt="7" wght="0.93559446278959513" />
      </Connections>
    </Network>
  </Networks>
</Root>