<?xml version="1.0" encoding="utf-8"?>
<Root>
  <ActivationFunctions>
    <Fn id="0" name="SteepenedSigmoid" prob="1" />
  </ActivationFunctions>
  <Networks>
    <Network id="10842" birthGen="270" fitness="3.5744502544403076">
      <Nodes>
        <Node type="bias" id="0" />
        <Node type="in" id="1" />
        <Node type="in" id="2" />
        <Node type="in" id="3" />
        <Node type="in" id="4" />
        <Node type="out" id="5" />
        <Node type="out" id="6" />
        <Node type="out" id="7" />
        <Node type="hid" id="98" />
      </Nodes>
      <Connections>
        <Con id="29" src="1" tgt="5" wght="3.1287617821858063" />
        <Con id="41" src="3" tgt="5" wght="-3.1563256177950518" />
        <Con id="99" src="2" tgt="98" wght="-3.9397454593418071" />
        <Con id="100" src="98" tgt="5" wght="1.9590910631061058" />
        <Con id="111" src="98" tgt="6" wght="2.6049243092344212" />
      </Connections>
    </Network>
    <Network id="10876" birthGen="270" fitness="3.5575625896453857">
      <Nodes>
        <Node type="bias" id="0" />
        <Node type="in" id="1" />
        <Node type="in" id="2" />
        <Node type="in" id="3" />
        <Node type="in" id="4" />
        <Node type="out" id="5" />
        <Node type="out" id="6" />
        <Node type="out" id="7" />
        <Node type="hid" id="98" />
      </Nodes>
      <Connections>
        <Con id="29" src="1" tgt="5" wght="3.1287617821858063" />
        <Con id="41" src="3" tgt="5" wght="-4.0567890410372831" />
        <Con id="99" src="2" tgt="98" wght="-3.9397454593418071" />
        <Con id="100" src="98" tgt="5" wght="3.9152671398465362" />
        <Con id="111" src="98" tgt="6" wght="2.6037035269615907" />
      </Connections>
    </Network>
    <Network id="10833" birthGen="269" fitness="3.5727472305297852">
      <Nodes>
        <Node type="bias" id="0" />
        <Node type="in" id="1" />
        <Node type="in" id="2" />
        <Node type="in" id="3" />
        <Node type="in" id="4" />
        <Node type="out" id="5" />
        <Node type="out" id="6" />
        <Node type="out" id="7" />
        <Node type="hid" id="98" />
      </Nodes>
      <Connections>
        <Con id="29" src="1" tgt="5" wght="3.7836181962305426" />
        <Con id="41" src="3" tgt="5" wght="-2.2299660657915905" />
        <Con id="99" src="2" tgt="98" wght="-2.2842782173691183" />
        <Con id="100" src="98" tgt="5" wght="4.2883095526112749" />
        <Con id="111" src="98" tgt="6" wght="3.4283686196431518" />
      </Connections>
    </Network>
    <Network id="10812" birthGen="269" fitness="3.586946964263916">
      <Nodes>
        <Node type="bias" id="0" />
        <Node type="in" id="1" />
        <Node type="in" id="2" />
        <Node type="in" id="3" />
        <Node type="in" id="4" />
        <Node type="out" id="5" />
        <Node type="out" id="6" />
        <Node type="out" id="7" />
        <Node type="hid" id="98" />
      </Nodes>
      <Connections>
        <Con id="29" src="1" tgt="5" wght="2.5099648214370145" />
        <Con id="41" src="3" tgt="5" wght="-3.1479976715458498" />
        <Con id="99" src="2" tgt="98" wght="-4.8154766476655038" />
        <Con id="100" src="98" tgt="5" wght="4.9855366778871986" />
        <Con id="111" src="98" tgt="6" wght="1.1636368144799489" />
      </Connections>
    </Network>
    <Network id="10804" birthGen="269" fitness="3.5621271133422852">
      <Nodes>
        <Node type="bias" id="0" />
        <Node type="in" id="1" />
        <Node type="in" id="2" />
        <Node type="in" id="3" />
        <Node type="in" id="4" />
        <Node type="out" id="5" />
        <Node type="out" id="6" />
        <Node type="out" id="7" />
        <Node type="hid" id="98" />
      </Nodes>
      <Connections>
        <Con id="29" src="1" tgt="5" wght="2.5005147843975353" />
        <Con id="41" src="3" tgt="5" wght="-3.3859610344361553" />
        <Con id="99" src="2" tgt="98" wght="-4.8154766476655038" />
        <Con id="100" src="98" tgt="5" wght="5" />
        <Con id="111" src="98" tgt="6" wght="1.1523261331106913" />
      </Connections>
    </Network>
    <Network id="10731" birthGen="267" fitness="3.6459214687347412">
      <Nodes>
        <Node type="bias" id="0" />
        <Node type="in" id="1" />
        <Node type="in" id="2" />
        <Node type="in" id="3" />
        <Node type="in" id="4" />
        <Node type="out" id="5" />
        <Node type="out" id="6" />
        <Node type="out" id="7" />
        <Node type="hid" id="98" />
      </Nodes>
      <Connections>
        <Con id="29" src="1" tgt="5" wght="2.5061859776862967" />
        <Con id="41" src="3" tgt="5" wght="-3.131778557888635" />
        <Con id="99" src="2" tgt="98" wght="-4.8154766476655038" />
        <Con id="100" src="98" tgt="5" wght="4.9800513973219971" />
        <Con id="111" src="98" tgt="6" wght="1.1636368144799489" />
      </Connections>
    </Network>
    <Network id="10855" birthGen="270" fitness="3.640033483505249">
      <Nodes>
        <Node type="bias" id="0" />
        <Node type="in" id="1" />
        <Node type="in" id="2" />
        <Node type="in" id="3" />
        <Node type="in" id="4" />
        <Node type="out" id="5" />
        <Node type="out" id="6" />
        <Node type="out" id="7" />
        <Node type="hid" id="98" />
      </Nodes>
      <Connections>
        <Con id="29" src="1" tgt="5" wght="1.8719326565042138" />
        <Con id="41" src="3" tgt="5" wght="-2.9592609362056588" />
        <Con id="99" src="2" tgt="98" wght="-1.5712055517360568" />
        <Con id="111" src="98" tgt="6" wght="3.4283686196431518" />
      </Connections>
    </Network>
    <Network id="10847" birthGen="270" fitness="3.6141023635864258">
      <Nodes>
        <Node type="bias" id="0" />
        <Node type="in" id="1" />
        <Node type="in" id="2" />
        <Node type="in" id="3" />
        <Node type="in" id="4" />
        <Node type="out" id="5" />
        <Node type="out" id="6" />
        <Node type="out" id="7" />
        <Node type="hid" id="98" />
      </Nodes>
      <Connections>
        <Con id="29" src="1" tgt="5" wght="2.5033888665475992" />
        <Con id="41" src="3" tgt="5" wght="-3.3859610344361553" />
        <Con id="99" src="2" tgt="98" wght="-4.8067829723900282" />
        <Con id="111" src="98" tgt="6" wght="1.1523261331106913" />
      </Connections>
    </Network>
    <Network id="10802" birthGen="269" fitness="3.6141023635864258">
      <Nodes>
        <Node type="bias" id="0" />
        <Node type="in" id="1" />
        <Node type="in" id="2" />
        <Node type="in" id="3" />
        <Node type="in" id="4" />
        <Node type="out" id="5" />
        <Node type="out" id="6" />
        <Node type="out" id="7" />
        <Node type="hid" id="98" />
      </Nodes>
      <Connections>
        <Con id="29" src="1" tgt="5" wght="2.5033888665475992" />
        <Con id="41" src="3" tgt="5" wght="-3.3859610344361553" />
        <Con id="99" src="2" tgt="98" wght="-4.8154766476655038" />
        <Con id="111" src="98" tgt="6" wght="1.1523261331106913" />
      </Connections>
    </Network>
    <Network id="10850" birthGen="270" fitness="3.6119222640991211">
      <Nodes>
        <Node type="bias" id="0" />
        <Node type="in" id="1" />
        <Node type="in" id="2" />
        <Node type="in" id="3" />
        <Node type="in" id="4" />
        <Node type="out" id="5" />
        <Node type="out" id="6" />
        <Node type="out" id="7" />
        <Node type="hid" id="98" />
      </Nodes>
      <Connections>
        <Con id="29" src="1" tgt="5" wght="2.5033888665475992" />
        <Con id="41" src="3" tgt="5" wght="-3.3859610344361553" />
        <Con id="99" src="2" tgt="98" wght="-4.8121424053866635" />
        <Con id="111" src="98" tgt="6" wght="1.1458769602311702" />
      </Connections>
    </Network>
    <Network id="10870" birthGen="270" fitness="3.6260538101196289">
      <Nodes>
        <Node type="bias" id="0" />
        <Node type="in" id="1" />
        <Node type="in" id="2" />
        <Node type="in" id="3" />
        <Node type="in" id="4" />
        <Node type="out" id="5" />
        <Node type="out" id="6" />
        <Node type="out" id="7" />
        <Node type="hid" id="98" />
      </Nodes>
      <Connections>
        <Con id="29" src="1" tgt="5" wght="3.609138534666168" />
        <Con id="41" src="3" tgt="5" wght="-1.2825290834364944" />
        <Con id="99" src="2" tgt="98" wght="-3.394896677546575" />
        <Con id="100" src="98" tgt="5" wght="-5" />
        <Con id="111" src="98" tgt="6" wght="0.65660185285667749" />
      </Connections>
    </Network>
    <Network id="10840" birthGen="270" fitness="3.6133718490600586">
      <Nodes>
        <Node type="bias" id="0" />
        <Node type="in" id="1" />
        <Node type="in" id="2" />
        <Node type="in" id="3" />
        <Node type="in" id="4" />
        <Node type="out" id="5" />
        <Node type="out" id="6" />
        <Node type="out" id="7" />
        <Node type="hid" id="98" />
      </Nodes>
      <Connections>
        <Con id="29" src="1" tgt="5" wght="1.990390884622085" />
        <Con id="41" src="3" tgt="5" wght="-3.7193559456071532" />
        <Con id="99" src="2" tgt="98" wght="-2.5858566298167034" />
        <Con id="100" src="98" tgt="5" wght="-5" />
        <Con id="111" src="98" tgt="6" wght="0.65660185285667749" />
      </Connections>
    </Network>
    <Network id="10877" birthGen="271" fitness="0">
      <Nodes>
        <Node type="bias" id="0" />
        <Node type="in" id="1" />
        <Node type="in" id="2" />
        <Node type="in" id="3" />
        <Node type="in" id="4" />
        <Node type="out" id="5" />
        <Node type="out" id="6" />
        <Node type="out" id="7" />
        <Node type="hid" id="98" />
      </Nodes>
      <Connections>
        <Con id="29" src="1" tgt="5" wght="3.1287617821858063" />
        <Con id="41" src="3" tgt="5" wght="-4.0567890410372831" />
        <Con id="100" src="98" tgt="5" wght="3.9152671398465362" />
        <Con id="111" src="98" tgt="6" wght="2.6037035269615907" />
      </Connections>
    </Network>
    <Network id="10878" birthGen="271" fitness="0">
      <Nodes>
        <Node type="bias" id="0" />
        <Node type="in" id="1" />
        <Node type="in" id="2" />
        <Node type="in" id="3" />
        <Node type="in" id="4" />
        <Node type="out" id="5" />
        <Node type="out" id="6" />
        <Node type="out" id="7" />
        <Node type="hid" id="98" />
      </Nodes>
      <Connections>
        <Con id="29" src="1" tgt="5" wght="3.1287617821858063" />
        <Con id="99" src="2" tgt="98" wght="-3.9397454593418071" />
        <Con id="100" src="98" tgt="5" wght="3.9152671398465362" />
        <Con id="111" src="98" tgt="6" wght="2.6037035269615907" />
      </Connections>
    </Network>
    <Network id="10879" birthGen="271" fitness="0">
      <Nodes>
        <Node type="bias" id="0" />
        <Node type="in" id="1" />
        <Node type="in" id="2" />
        <Node type="in" id="3" />
        <Node type="in" id="4" />
        <Node type="out" id="5" />
        <Node type="out" id="6" />
        <Node type="out" id="7" />
        <Node type="hid" id="98" />
      </Nodes>
      <Connections>
        <Con id="29" src="1" tgt="5" wght="3.1287617821858063" />
        <Con id="41" src="3" tgt="5" wght="-3.1563256177950518" />
        <Con id="99" src="2" tgt="98" wght="-3.9397454593418071" />
        <Con id="111" src="98" tgt="6" wght="2.6049243092344212" />
      </Connections>
    </Network>
    <Network id="10880" birthGen="271" fitness="0">
      <Nodes>
        <Node type="bias" id="0" />
        <Node type="in" id="1" />
        <Node type="in" id="2" />
        <Node type="in" id="3" />
        <Node type="in" id="4" />
        <Node type="out" id="5" />
        <Node type="out" id="6" />
        <Node type="out" id="7" />
        <Node type="hid" id="98" />
      </Nodes>
      <Connections>
        <Con id="29" src="1" tgt="5" wght="3.7836181962305426" />
        <Con id="41" src="3" tgt="5" wght="-2.2333564710935341" />
        <Con id="99" src="2" tgt="98" wght="-2.2755400022640022" />
        <Con id="100" src="98" tgt="5" wght="4.2883095526112749" />
        <Con id="111" src="98" tgt="6" wght="3.4283686196431518" />
      </Connections>
    </Network>
    <Network id="10881" birthGen="271" fitness="0">
      <Nodes>
        <Node type="bias" id="0" />
        <Node type="in" id="1" />
        <Node type="in" id="2" />
        <Node type="in" id="3" />
        <Node type="in" id="4" />
        <Node type="out" id="5" />
        <Node type="out" id="6" />
        <Node type="out" id="7" />
        <Node type="hid" id="98" />
      </Nodes>
      <Connections>
        <Con id="29" src="1" tgt="5" wght="3.7836181962305426" />
        <Con id="41" src="3" tgt="5" wght="-3.0512402273365495" />
        <Con id="99" src="2" tgt="98" wght="-2.2842782173691183" />
        <Con id="100" src="98" tgt="5" wght="4.2883095526112749" />
        <Con id="111" src="98" tgt="6" wght="3.4283686196431518" />
      </Connections>
    </Network>
    <Network id="10882" birthGen="271" fitness="0">
      <Nodes>
        <Node type="bias" id="0" />
        <Node type="in" id="1" />
        <Node type="in" id="2" />
        <Node type="in" id="3" />
        <Node type="in" id="4" />
        <Node type="out" id="5" />
        <Node type="out" id="6" />
        <Node type="out" id="7" />
        <Node type="hid" id="98" />
      </Nodes>
      <Connections>
        <Con id="29" src="1" tgt="5" wght="3.7836181962305426" />
        <Con id="41" src="3" tgt="5" wght="-2.2299660657915905" />
        <Con id="99" src="2" tgt="98" wght="-2.2842782173691183" />
        <Con id="100" src="98" tgt="5" wght="4.2883095526112749" />
      </Connections>
    </Network>
    <Network id="10883" birthGen="271" fitness="0">
      <Nodes>
        <Node type="bias" id="0" />
        <Node type="in" id="1" />
        <Node type="in" id="2" />
        <Node type="in" id="3" />
        <Node type="in" id="4" />
        <Node type="out" id="5" />
        <Node type="out" id="6" />
        <Node type="out" id="7" />
        <Node type="hid" id="98" />
      </Nodes>
      <Connections>
        <Con id="29" src="1" tgt="5" wght="3.7836181962305426" />
        <Con id="41" src="3" tgt="5" wght="-1.9913717782787383" />
        <Con id="99" src="2" tgt="98" wght="-2.2842782173691183" />
        <Con id="100" src="98" tgt="5" wght="3.4125438784929814" />
        <Con id="111" src="98" tgt="6" wght="2.5816013341190285" />
      </Connections>
    </Network>
    <Network id="10884" birthGen="271" fitness="0">
      <Nodes>
        <Node type="bias" id="0" />
        <Node type="in" id="1" />
        <Node type="in" id="2" />
        <Node type="in" id="3" />
        <Node type="in" id="4" />
        <Node type="out" id="5" />
        <Node type="out" id="6" />
        <Node type="out" id="7" />
        <Node type="hid" id="98" />
      </Nodes>
      <Connections>
        <Con id="41" src="3" tgt="5" wght="-3.1479976715458498" />
        <Con id="99" src="2" tgt="98" wght="-4.8154766476655038" />
        <Con id="100" src="98" tgt="5" wght="4.9855366778871986" />
        <Con id="111" src="98" tgt="6" wght="1.1636368144799489" />
      </Connections>
    </Network>
    <Network id="10885" birthGen="271" fitness="0">
      <Nodes>
        <Node type="bias" id="0" />
        <Node type="in" id="1" />
        <Node type="in" id="2" />
        <Node type="in" id="3" />
        <Node type="in" id="4" />
        <Node type="out" id="5" />
        <Node type="out" id="6" />
        <Node type="out" id="7" />
        <Node type="hid" id="98" />
      </Nodes>
      <Connections>
        <Con id="29" src="1" tgt="5" wght="2.5099648214370145" />
        <Con id="41" src="3" tgt="5" wght="-4.4149312421739886" />
        <Con id="99" src="2" tgt="98" wght="-4.8154766476655038" />
        <Con id="100" src="98" tgt="5" wght="4.9855366778871986" />
        <Con id="111" src="98" tgt="6" wght="2.3320941785600882" />
      </Connections>
    </Network>
    <Network id="10886" birthGen="271" fitness="0">
      <Nodes>
        <Node type="bias" id="0" />
        <Node type="in" id="1" />
        <Node type="in" id="2" />
        <Node type="in" id="3" />
        <Node type="in" id="4" />
        <Node type="out" id="5" />
        <Node type="out" id="6" />
        <Node type="out" id="7" />
        <Node type="hid" id="98" />
      </Nodes>
      <Connections>
        <Con id="29" src="1" tgt="5" wght="2.5099648214370145" />
        <Con id="41" src="3" tgt="5" wght="-3.1479976715458498" />
        <Con id="99" src="2" tgt="98" wght="-4.8154766476655038" />
        <Con id="100" src="98" tgt="5" wght="5" />
        <Con id="111" src="98" tgt="6" wght="1.1636368144799489" />
      </Connections>
    </Network>
    <Network id="10887" birthGen="271" fitness="0">
      <Nodes>
        <Node type="bias" id="0" />
        <Node type="in" id="1" />
        <Node type="in" id="2" />
        <Node type="in" id="3" />
        <Node type="in" id="4" />
        <Node type="out" id="5" />
        <Node type="out" id="6" />
        <Node type="out" id="7" />
        <Node type="hid" id="98" />
      </Nodes>
      <Connections>
        <Con id="29" src="1" tgt="5" wght="-2.3775263782590628" />
        <Con id="41" src="3" tgt="5" wght="-3.1479976715458498" />
        <Con id="99" src="2" tgt="98" wght="-4.8154766476655038" />
        <Con id="100" src="98" tgt="5" wght="-1.3104578526690602" />
        <Con id="111" src="98" tgt="6" wght="1.1636368144799489" />
      </Connections>
    </Network>
    <Network id="10888" birthGen="271" fitness="0">
      <Nodes>
        <Node type="bias" id="0" />
        <Node type="in" id="1" />
        <Node type="in" id="2" />
        <Node type="in" id="3" />
        <Node type="in" id="4" />
        <Node type="out" id="5" />
        <Node type="out" id="6" />
        <Node type="out" id="7" />
        <Node type="hid" id="98" />
      </Nodes>
      <Connections>
        <Con id="41" src="3" tgt="5" wght="-3.3859610344361553" />
        <Con id="99" src="2" tgt="98" wght="-4.8154766476655038" />
        <Con id="100" src="98" tgt="5" wght="5" />
        <Con id="111" src="98" tgt="6" wght="1.1523261331106913" />
      </Connections>
    </Network>
    <Network id="10889" birthGen="271" fitness="0">
      <Nodes>
        <Node type="bias" id="0" />
        <Node type="in" id="1" />
        <Node type="in" id="2" />
        <Node type="in" id="3" />
        <Node type="in" id="4" />
        <Node type="out" id="5" />
        <Node type="out" id="6" />
        <Node type="out" id="7" />
        <Node type="hid" id="98" />
      </Nodes>
      <Connections>
        <Con id="29" src="1" tgt="5" wght="2.5005147843975353" />
        <Con id="41" src="3" tgt="5" wght="-3.3859610344361553" />
        <Con id="99" src="2" tgt="98" wght="-4.8154766476655038" />
        <Con id="100" src="98" tgt="5" wght="5" />
        <Con id="111" src="98" tgt="6" wght="1.1523261331106913" />
      </Connections>
    </Network>
    <Network id="10890" birthGen="271" fitness="0">
      <Nodes>
        <Node type="bias" id="0" />
        <Node type="in" id="1" />
        <Node type="in" id="2" />
        <Node type="in" id="3" />
        <Node type="in" id="4" />
        <Node type="out" id="5" />
        <Node type="out" id="6" />
        <Node type="out" id="7" />
        <Node type="hid" id="98" />
      </Nodes>
      <Connections>
        <Con id="29" src="1" tgt="5" wght="1.8717818472226329" />
        <Con id="41" src="3" tgt="5" wght="-3.3859610344361553" />
        <Con id="99" src="2" tgt="98" wght="-4.8154766476655038" />
        <Con id="100" src="98" tgt="5" wght="5" />
        <Con id="111" src="98" tgt="6" wght="0.023256123740016177" />
      </Connections>
    </Network>
    <Network id="10891" birthGen="271" fitness="0">
      <Nodes>
        <Node type="bias" id="0" />
        <Node type="in" id="1" />
        <Node type="in" id="2" />
        <Node type="in" id="3" />
        <Node type="in" id="4" />
        <Node type="out" id="5" />
        <Node type="out" id="6" />
        <Node type="out" id="7" />
        <Node type="hid" id="98" />
      </Nodes>
      <Connections>
        <Con id="29" src="1" tgt="5" wght="2.5005147843975353" />
        <Con id="41" src="3" tgt="5" wght="-3.3707036345333385" />
        <Con id="99" src="2" tgt="98" wght="-4.8154766476655038" />
        <Con id="100" src="98" tgt="5" wght="5" />
        <Con id="111" src="98" tgt="6" wght="1.1523261331106913" />
      </Connections>
    </Network>
    <Network id="10892" birthGen="271" fitness="0">
      <Nodes>
        <Node type="bias" id="0" />
        <Node type="in" id="1" />
        <Node type="in" id="2" />
        <Node type="in" id="3" />
        <Node type="in" id="4" />
        <Node type="out" id="5" />
        <Node type="out" id="6" />
        <Node type="out" id="7" />
        <Node type="hid" id="98" />
      </Nodes>
      <Connections>
        <Con id="29" src="1" tgt="5" wght="2.5061884981093341" />
        <Con id="41" src="3" tgt="5" wght="-3.131778557888635" />
        <Con id="99" src="2" tgt="98" wght="-4.8154766476655038" />
        <Con id="100" src="98" tgt="5" wght="4.9800513973219971" />
        <Con id="111" src="98" tgt="6" wght="1.1784485464825269" />
      </Connections>
    </Network>
    <Network id="10893" birthGen="271" fitness="0">
      <Nodes>
        <Node type="bias" id="0" />
        <Node type="in" id="1" />
        <Node type="in" id="2" />
        <Node type="in" id="3" />
        <Node type="in" id="4" />
        <Node type="out" id="5" />
        <Node type="out" id="6" />
        <Node type="out" id="7" />
        <Node type="hid" id="98" />
      </Nodes>
      <Connections>
        <Con id="29" src="1" tgt="5" wght="2.5061859776862967" />
        <Con id="41" src="3" tgt="5" wght="-3.131778557888635" />
        <Con id="100" src="98" tgt="5" wght="4.9800513973219971" />
        <Con id="111" src="98" tgt="6" wght="1.1636368144799489" />
      </Connections>
    </Network>
    <Network id="10894" birthGen="271" fitness="0">
      <Nodes>
        <Node type="bias" id="0" />
        <Node type="in" id="1" />
        <Node type="in" id="2" />
        <Node type="in" id="3" />
        <Node type="in" id="4" />
        <Node type="out" id="5" />
        <Node type="out" id="6" />
        <Node type="out" id="7" />
        <Node type="hid" id="98" />
      </Nodes>
      <Connections>
        <Con id="29" src="1" tgt="5" wght="2.5061859776862967" />
        <Con id="41" src="3" tgt="5" wght="-3.131778557888635" />
        <Con id="99" src="2" tgt="98" wght="-4.8154766476655038" />
        <Con id="100" src="98" tgt="5" wght="5" />
        <Con id="111" src="98" tgt="6" wght="1.1636368144799489" />
      </Connections>
    </Network>
    <Network id="10895" birthGen="271" fitness="0">
      <Nodes>
        <Node type="bias" id="0" />
        <Node type="in" id="1" />
        <Node type="in" id="2" />
        <Node type="in" id="3" />
        <Node type="in" id="4" />
        <Node type="out" id="5" />
        <Node type="out" id="6" />
        <Node type="out" id="7" />
        <Node type="hid" id="98" />
      </Nodes>
      <Connections>
        <Con id="29" src="1" tgt="5" wght="2.5061859776862967" />
        <Con id="41" src="3" tgt="5" wght="-3.131778557888635" />
        <Con id="100" src="98" tgt="5" wght="4.9800513973219971" />
        <Con id="111" src="98" tgt="6" wght="1.1636368144799489" />
      </Connections>
    </Network>
    <Network id="10896" birthGen="271" fitness="0">
      <Nodes>
        <Node type="bias" id="0" />
        <Node type="in" id="1" />
        <Node type="in" id="2" />
        <Node type="in" id="3" />
        <Node type="in" id="4" />
        <Node type="out" id="5" />
        <Node type="out" id="6" />
        <Node type="out" id="7" />
        <Node type="hid" id="98" />
      </Nodes>
      <Connections>
        <Con id="41" src="3" tgt="5" wght="-3.131778557888635" />
        <Con id="99" src="2" tgt="98" wght="-4.8154766476655038" />
        <Con id="100" src="98" tgt="5" wght="4.9800513973219971" />
        <Con id="111" src="98" tgt="6" wght="1.1636368144799489" />
      </Connections>
    </Network>
    <Network id="10897" birthGen="271" fitness="0">
      <Nodes>
        <Node type="bias" id="0" />
        <Node type="in" id="1" />
        <Node type="in" id="2" />
        <Node type="in" id="3" />
        <Node type="in" id="4" />
        <Node type="out" id="5" />
        <Node type="out" id="6" />
        <Node type="out" id="7" />
        <Node type="hid" id="98" />
      </Nodes>
      <Connections>
        <Con id="29" src="1" tgt="5" wght="-2.8328882390633225" />
        <Con id="41" src="3" tgt="5" wght="-3.3859610344361553" />
        <Con id="99" src="2" tgt="98" wght="-4.7865062203530391" />
        <Con id="100" src="98" tgt="5" wght="1.0759889194741845" />
        <Con id="111" src="98" tgt="6" wght="1.131046568084678" />
      </Connections>
    </Network>
    <Network id="10898" birthGen="271" fitness="0">
      <Nodes>
        <Node type="bias" id="0" />
        <Node type="in" id="1" />
        <Node type="in" id="2" />
        <Node type="in" id="3" />
        <Node type="in" id="4" />
        <Node type="out" id="5" />
        <Node type="out" id="6" />
        <Node type="out" id="7" />
        <Node type="hid" id="98" />
      </Nodes>
      <Connections>
        <Con id="29" src="1" tgt="5" wght="2.2727904885690622" />
        <Con id="41" src="3" tgt="5" wght="-3.3859610344361553" />
        <Con id="99" src="2" tgt="98" wght="-4.7865062203530391" />
        <Con id="100" src="98" tgt="5" wght="5" />
        <Con id="111" src="98" tgt="6" wght="1.131046568084678" />
      </Connections>
    </Network>
    <Network id="10899" birthGen="271" fitness="0">
      <Nodes>
        <Node type="bias" id="0" />
        <Node type="in" id="1" />
        <Node type="in" id="2" />
        <Node type="in" id="3" />
        <Node type="in" id="4" />
        <Node type="out" id="5" />
        <Node type="out" id="6" />
        <Node type="out" id="7" />
        <Node type="hid" id="98" />
      </Nodes>
      <Connections>
        <Con id="29" src="1" tgt="5" wght="2.5033888665475992" />
        <Con id="41" src="3" tgt="5" wght="-3.3859610344361553" />
        <Con id="100" src="98" tgt="5" wght="5" />
        <Con id="111" src="98" tgt="6" wght="1.131046568084678" />
      </Connections>
    </Network>
    <Network id="10900" birthGen="271" fitness="0">
      <Nodes>
        <Node type="bias" id="0" />
        <Node type="in" id="1" />
        <Node type="in" id="2" />
        <Node type="in" id="3" />
        <Node type="in" id="4" />
        <Node type="out" id="5" />
        <Node type="out" id="6" />
        <Node type="out" id="7" />
        <Node type="hid" id="98" />
      </Nodes>
      <Connections>
        <Con id="29" src="1" tgt="5" wght="2.5033888665475992" />
        <Con id="41" src="3" tgt="5" wght="-3.3859610344361553" />
        <Con id="99" src="2" tgt="98" wght="-4.7865062203530391" />
        <Con id="100" src="98" tgt="5" wght="-4.6922783041372895" />
        <Con id="111" src="98" tgt="6" wght="1.131046568084678" />
      </Connections>
    </Network>
    <Network id="10901" birthGen="271" fitness="0">
      <Nodes>
        <Node type="bias" id="0" />
        <Node type="in" id="1" />
        <Node type="in" id="2" />
        <Node type="in" id="3" />
        <Node type="in" id="4" />
        <Node type="out" id="5" />
        <Node type="out" id="6" />
        <Node type="out" id="7" />
        <Node type="hid" id="98" />
      </Nodes>
      <Connections>
        <Con id="29" src="1" tgt="5" wght="2.3843791935576291" />
        <Con id="41" src="3" tgt="5" wght="-3.3859610344361553" />
        <Con id="99" src="2" tgt="98" wght="-4.7865062203530391" />
        <Con id="100" src="98" tgt="5" wght="5" />
        <Con id="111" src="98" tgt="6" wght="1.131046568084678" />
      </Connections>
    </Network>
    <Network id="10902" birthGen="271" fitness="0">
      <Nodes>
        <Node type="bias" id="0" />
        <Node type="in" id="1" />
        <Node type="in" id="2" />
        <Node type="in" id="3" />
        <Node type="in" id="4" />
        <Node type="out" id="5" />
        <Node type="out" id="6" />
        <Node type="out" id="7" />
        <Node type="hid" id="98" />
      </Nodes>
      <Connections>
        <Con id="29" src="1" tgt="5" wght="3.609138534666168" />
        <Con id="41" src="3" tgt="5" wght="-1.2825290834364944" />
        <Con id="99" src="2" tgt="98" wght="-3.39698174100799" />
        <Con id="100" src="98" tgt="5" wght="-5" />
        <Con id="111" src="98" tgt="6" wght="0.63802563325218209" />
      </Connections>
    </Network>
    <Network id="10903" birthGen="271" fitness="0">
      <Nodes>
        <Node type="bias" id="0" />
        <Node type="in" id="1" />
        <Node type="in" id="2" />
        <Node type="in" id="3" />
        <Node type="in" id="4" />
        <Node type="out" id="5" />
        <Node type="out" id="6" />
        <Node type="out" id="7" />
        <Node type="hid" id="98" />
      </Nodes>
      <Connections>
        <Con id="29" src="1" tgt="5" wght="4.1183111083535842" />
        <Con id="41" src="3" tgt="5" wght="-1.2825290834364944" />
        <Con id="99" src="2" tgt="98" wght="-1.9332849705386439" />
        <Con id="100" src="98" tgt="5" wght="-5" />
        <Con id="111" src="98" tgt="6" wght="0.65660185285667749" />
      </Connections>
    </Network>
    <Network id="10904" birthGen="271" fitness="0">
      <Nodes>
        <Node type="bias" id="0" />
        <Node type="in" id="1" />
        <Node type="in" id="2" />
        <Node type="in" id="3" />
        <Node type="in" id="4" />
        <Node type="out" id="5" />
        <Node type="out" id="6" />
        <Node type="out" id="7" />
        <Node type="hid" id="98" />
      </Nodes>
      <Connections>
        <Con id="29" src="1" tgt="5" wght="3.609138534666168" />
        <Con id="41" src="3" tgt="5" wght="-1.2825290834364944" />
        <Con id="99" src="2" tgt="98" wght="-3.394896677546575" />
        <Con id="100" src="98" tgt="5" wght="-5" />
        <Con id="111" src="98" tgt="6" wght="0.65660185285667749" />
      </Connections>
    </Network>
    <Network id="10905" birthGen="271" fitness="0">
      <Nodes>
        <Node type="bias" id="0" />
        <Node type="in" id="1" />
        <Node type="in" id="2" />
        <Node type="in" id="3" />
        <Node type="in" id="4" />
        <Node type="out" id="5" />
        <Node type="out" id="6" />
        <Node type="out" id="7" />
        <Node type="hid" id="98" />
      </Nodes>
      <Connections>
        <Con id="29" src="1" tgt="5" wght="3.609138534666168" />
        <Con id="41" src="3" tgt="5" wght="-1.2825290834364944" />
        <Con id="99" src="2" tgt="98" wght="-3.394896677546575" />
        <Con id="100" src="98" tgt="5" wght="-4.9830340297197768" />
        <Con id="111" src="98" tgt="6" wght="0.65660185285667749" />
      </Connections>
    </Network>
    <Network id="10906" birthGen="271" fitness="0">
      <Nodes>
        <Node type="bias" id="0" />
        <Node type="in" id="1" />
        <Node type="in" id="2" />
        <Node type="in" id="3" />
        <Node type="in" id="4" />
        <Node type="out" id="5" />
        <Node type="out" id="6" />
        <Node type="out" id="7" />
        <Node type="hid" id="98" />
      </Nodes>
      <Connections>
        <Con id="41" src="3" tgt="5" wght="-3.3755496532674059" />
        <Con id="99" src="2" tgt="98" wght="-3.394896677546575" />
        <Con id="100" src="98" tgt="5" wght="-5" />
      </Connections>
    </Network>
    <Network id="10907" birthGen="271" fitness="0">
      <Nodes>
        <Node type="bias" id="0" />
        <Node type="in" id="1" />
        <Node type="in" id="2" />
        <Node type="in" id="3" />
        <Node type="in" id="4" />
        <Node type="out" id="5" />
        <Node type="out" id="6" />
        <Node type="out" id="7" />
        <Node type="hid" id="98" />
      </Nodes>
      <Connections>
        <Con id="29" src="1" tgt="5" wght="3.609138534666168" />
        <Con id="41" src="3" tgt="5" wght="-3.3755496532674059" />
        <Con id="100" src="98" tgt="5" wght="-5" />
      </Connections>
    </Network>
    <Network id="10908" birthGen="271" fitness="0">
      <Nodes>
        <Node type="bias" id="0" />
        <Node type="in" id="1" />
        <Node type="in" id="2" />
        <Node type="in" id="3" />
        <Node type="in" id="4" />
        <Node type="out" id="5" />
        <Node type="out" id="6" />
        <Node type="out" id="7" />
        <Node type="hid" id="98" />
      </Nodes>
      <Connections>
        <Con id="29" src="1" tgt="5" wght="2.8800563653931022" />
        <Con id="41" src="3" tgt="5" wght="-3.3755496532674059" />
        <Con id="99" src="2" tgt="98" wght="-3.394896677546575" />
        <Con id="100" src="98" tgt="5" wght="-5" />
      </Connections>
    </Network>
    <Network id="10909" birthGen="271" fitness="0">
      <Nodes>
        <Node type="bias" id="0" />
        <Node type="in" id="1" />
        <Node type="in" id="2" />
        <Node type="in" id="3" />
        <Node type="in" id="4" />
        <Node type="out" id="5" />
        <Node type="out" id="6" />
        <Node type="out" id="7" />
        <Node type="hid" id="98" />
      </Nodes>
      <Connections>
        <Con id="29" src="1" tgt="5" wght="2.18013362493366" />
        <Con id="41" src="3" tgt="5" wght="-3.3755496532674059" />
        <Con id="99" src="2" tgt="98" wght="-3.394896677546575" />
        <Con id="100" src="98" tgt="5" wght="-5" />
      </Connections>
    </Network>
    <Network id="10910" birthGen="271" fitness="0">
      <Nodes>
        <Node type="bias" id="0" />
        <Node type="in" id="1" />
        <Node type="in" id="2" />
        <Node type="in" id="3" />
        <Node type="in" id="4" />
        <Node type="out" id="5" />
        <Node type="out" id="6" />
        <Node type="out" id="7" />
        <Node type="hid" id="98" />
      </Nodes>
      <Connections>
        <Con id="29" src="1" tgt="5" wght="4.6746499367560306" />
        <Con id="41" src="3" tgt="5" wght="-2.5887649671898219" />
        <Con id="99" src="2" tgt="98" wght="-3.394896677546575" />
        <Con id="100" src="98" tgt="5" wght="-4.0615712584733714" />
      </Connections>
    </Network>
    <Network id="10911" birthGen="271" fitness="0">
      <Nodes>
        <Node type="bias" id="0" />
        <Node type="in" id="1" />
        <Node type="in" id="2" />
        <Node type="in" id="3" />
        <Node type="in" id="4" />
        <Node type="out" id="5" />
        <Node type="out" id="6" />
        <Node type="out" id="7" />
        <Node type="hid" id="98" />
      </Nodes>
      <Connections>
        <Con id="29" src="1" tgt="5" wght="1.990390884622085" />
        <Con id="41" src="3" tgt="5" wght="-3.7193559456071532" />
        <Con id="99" src="2" tgt="98" wght="-2.5858566298167034" />
        <Con id="100" src="98" tgt="5" wght="-5" />
        <Con id="111" src="98" tgt="6" wght="0.65660185285667749" />
      </Connections>
    </Network>
    <Network id="10912" birthGen="271" fitness="0">
      <Nodes>
        <Node type="bias" id="0" />
        <Node type="in" id="1" />
        <Node type="in" id="2" />
        <Node type="in" id="3" />
        <Node type="in" id="4" />
        <Node type="out" id="5" />
        <Node type="out" id="6" />
        <Node type="out" id="7" />
        <Node type="hid" id="98" />
      </Nodes>
      <Connections>
        <Con id="29" src="1" tgt="5" wght="1.990390884622085" />
        <Con id="41" src="3" tgt="5" wght="-3.7193559456071532" />
        <Con id="99" src="2" tgt="98" wght="-2.5858566298167034" />
        <Con id="100" src="98" tgt="5" wght="-5" />
        <Con id="111" src="98" tgt="6" wght="0.65660185285667749" />
      </Connections>
    </Network>
    <Network id="10913" birthGen="271" fitness="0">
      <Nodes>
        <Node type="bias" id="0" />
        <Node type="in" id="1" />
        <Node type="in" id="2" />
        <Node type="in" id="3" />
        <Node type="in" id="4" />
        <Node type="out" id="5" />
        <Node type="out" id="6" />
        <Node type="out" id="7" />
        <Node type="hid" id="98" />
      </Nodes>
      <Connections>
        <Con id="41" src="3" tgt="5" wght="-3.7193559456071532" />
        <Con id="99" src="2" tgt="98" wght="-2.5858566298167034" />
        <Con id="100" src="98" tgt="5" wght="-5" />
        <Con id="111" src="98" tgt="6" wght="0.65660185285667749" />
      </Connections>
    </Network>
    <Network id="10914" birthGen="271" fitness="0">
      <Nodes>
        <Node type="bias" id="0" />
        <Node type="in" id="1" />
        <Node type="in" id="2" />
        <Node type="in" id="3" />
        <Node type="in" id="4" />
        <Node type="out" id="5" />
        <Node type="out" id="6" />
        <Node type="out" id="7" />
        <Node type="hid" id="98" />
      </Nodes>
      <Connections>
        <Con id="29" src="1" tgt="5" wght="1.990390884622085" />
        <Con id="41" src="3" tgt="5" wght="-3.7193559456071532" />
        <Con id="99" src="2" tgt="98" wght="-2.5858566298167034" />
        <Con id="100" src="98" tgt="5" wght="-5" />
      </Connections>
    </Network>
  </Networks>
</Root>