<?xml version="1.0" encoding="utf-8"?>
<Root>
  <ActivationFunctions>
    <Fn id="0" name="SteepenedSigmoid" prob="1" />
  </ActivationFunctions>
  <Networks>
    <Network id="140639" birthGen="3499" fitness="5000.38818359375">
      <Nodes>
        <Node type="bias" id="0" />
        <Node type="in" id="1" />
        <Node type="in" id="2" />
        <Node type="in" id="3" />
        <Node type="in" id="4" />
        <Node type="out" id="5" />
        <Node type="out" id="6" />
        <Node type="hid" id="19" />
        <Node type="hid" id="27" />
        <Node type="hid" id="65" />
        <Node type="hid" id="319" />
        <Node type="hid" id="339" />
        <Node type="hid" id="351" />
        <Node type="hid" id="421" />
        <Node type="hid" id="562" />
        <Node type="hid" id="580" />
        <Node type="hid" id="749" />
        <Node type="hid" id="834" />
        <Node type="hid" id="941" />
        <Node type="hid" id="1016" />
        <Node type="hid" id="1132" />
        <Node type="hid" id="1386" />
        <Node type="hid" id="1418" />
        <Node type="hid" id="1811" />
        <Node type="hid" id="2043" />
        <Node type="hid" id="2077" />
        <Node type="hid" id="2261" />
        <Node type="hid" id="2271" />
        <Node type="hid" id="2414" />
        <Node type="hid" id="2451" />
        <Node type="hid" id="2606" />
        <Node type="hid" id="2766" />
        <Node type="hid" id="2845" />
        <Node type="hid" id="2879" />
        <Node type="hid" id="2997" />
        <Node type="hid" id="3170" />
      </Nodes>
      <Connections>
        <Con id="21" src="19" tgt="6" wght="3.0806784953335842" />
        <Con id="67" src="65" tgt="19" wght="-3.7398071768449559" />
        <Con id="243" src="19" tgt="27" wght="0.25114875151675586" />
        <Con id="249" src="19" tgt="5" wght="-1.2542827069971578" />
        <Con id="259" src="27" tgt="5" wght="0.12557132863101592" />
        <Con id="261" src="2" tgt="27" wght="-0.35637108827590025" />
        <Con id="302" src="65" tgt="27" wght="-2.9605066684263566" />
        <Con id="337" src="319" tgt="5" wght="0.55831483852358965" />
        <Con id="338" src="65" tgt="319" wght="0.594504490727359" />
        <Con id="340" src="1" tgt="339" wght="0.53679400717324088" />
        <Con id="341" src="339" tgt="319" wght="-5" />
        <Con id="352" src="4" tgt="351" wght="-3.9328873651589338" />
        <Con id="353" src="351" tgt="65" wght="-3.1453603582009504" />
        <Con id="366" src="339" tgt="6" wght="4.7402792072584221" />
        <Con id="384" src="351" tgt="319" wght="-0.2339801321049958" />
        <Con id="422" src="3" tgt="421" wght="-1.699718443751939" />
        <Con id="423" src="421" tgt="339" wght="-2.0436692541356027" />
        <Con id="427" src="65" tgt="339" wght="-3.8448209438720879" />
        <Con id="439" src="1" tgt="6" wght="0.60257190095174307" />
        <Con id="464" src="351" tgt="19" wght="0.37725792743179354" />
        <Con id="484" src="0" tgt="65" wght="-1.6734801910016917" />
        <Con id="485" src="351" tgt="339" wght="2.2027767610622222" />
        <Con id="487" src="421" tgt="27" wght="5" />
        <Con id="525" src="351" tgt="6" wght="4.2216635064022094" />
        <Con id="563" src="3" tgt="562" wght="1.2460566239330471" />
        <Con id="581" src="1" tgt="580" wght="-5" />
        <Con id="582" src="580" tgt="65" wght="3.5786196290628358" />
        <Con id="583" src="1" tgt="421" wght="-3.7659951123749917" />
        <Con id="603" src="580" tgt="421" wght="-0.63606070354580879" />
        <Con id="611" src="3" tgt="580" wght="2.7724991704870465" />
        <Con id="615" src="421" tgt="562" wght="2.8528763002508231" />
        <Con id="701" src="0" tgt="580" wght="-2.3769375715843646" />
        <Con id="750" src="562" tgt="749" wght="0.27684117908398104" />
        <Con id="751" src="749" tgt="27" wght="4.7472796816694984" />
        <Con id="762" src="580" tgt="749" wght="2.7343651410294587" />
        <Con id="786" src="580" tgt="339" wght="-0.4857785048673619" />
        <Con id="942" src="65" tgt="941" wght="-1.3621456235058009" />
        <Con id="943" src="941" tgt="562" wght="-1.0528327581745347" />
        <Con id="1017" src="2" tgt="1016" wght="1.7585745441597957" />
        <Con id="1018" src="1016" tgt="65" wght="3.6489142060639694" />
        <Con id="1026" src="1016" tgt="319" wght="-0.42384840548038483" />
        <Con id="1040" src="0" tgt="339" wght="-0.1549401299457919" />
        <Con id="1043" src="580" tgt="351" wght="-0.34242887529619609" />
        <Con id="1052" src="834" tgt="749" wght="1.5214970448549046" />
        <Con id="1066" src="351" tgt="834" wght="1.6998678076558709" />
        <Con id="1067" src="0" tgt="834" wght="-0.48099172679911995" />
        <Con id="1074" src="421" tgt="749" wght="2.899007429368794" />
        <Con id="1083" src="1" tgt="562" wght="1.1767837355021988" />
        <Con id="1089" src="65" tgt="834" wght="2.1573826361808717" />
        <Con id="1096" src="19" tgt="562" wght="1.4080534378260583" />
        <Con id="1101" src="834" tgt="562" wght="0.4616196152645004" />
        <Con id="1113" src="3" tgt="65" wght="-3.6180865115805068" />
        <Con id="1115" src="3" tgt="319" wght="-2.7527834012713597" />
        <Con id="1125" src="339" tgt="749" wght="2.8144659321140408" />
        <Con id="1129" src="834" tgt="339" wght="-3.7516930724638908" />
        <Con id="1131" src="19" tgt="319" wght="-2.1443692211702206" />
        <Con id="1133" src="19" tgt="1132" wght="4.8002002812303086" />
        <Con id="1134" src="1132" tgt="834" wght="5" />
        <Con id="1143" src="2" tgt="421" wght="-4.036726361644889" />
        <Con id="1153" src="580" tgt="834" wght="-2.0158876761765319" />
        <Con id="1155" src="351" tgt="1132" wght="1.3973082604484546" />
        <Con id="1157" src="1" tgt="351" wght="0.34335485316734665" />
        <Con id="1159" src="0" tgt="421" wght="2.1204694759116958" />
        <Con id="1184" src="1" tgt="1016" wght="0.99655310590385071" />
        <Con id="1186" src="941" tgt="749" wght="2.54388532470137" />
        <Con id="1214" src="834" tgt="319" wght="-4.8097152076595515" />
        <Con id="1220" src="0" tgt="562" wght="0.93355115500792518" />
        <Con id="1222" src="834" tgt="27" wght="4.2609902131382329" />
        <Con id="1232" src="580" tgt="6" wght="-0.49030844998553541" />
        <Con id="1234" src="1" tgt="834" wght="1.5536529938553147" />
        <Con id="1249" src="319" tgt="749" wght="-1.5632066301920464" />
        <Con id="1253" src="3" tgt="834" wght="-3.8099573093140018" />
        <Con id="1276" src="834" tgt="6" wght="-3.9786550600260844" />
        <Con id="1287" src="1132" tgt="941" wght="-0.79887278462216638" />
        <Con id="1290" src="1132" tgt="6" wght="-4.2200215936646153" />
        <Con id="1295" src="2" tgt="65" wght="1.6095689532271376" />
        <Con id="1297" src="0" tgt="941" wght="1.2358127390737048" />
        <Con id="1298" src="351" tgt="1016" wght="-0.808809776736697" />
        <Con id="1341" src="351" tgt="749" wght="-4.7550988365218236" />
        <Con id="1345" src="1016" tgt="749" wght="-3.4610839222850562" />
        <Con id="1381" src="19" tgt="421" wght="-4.613046250938293" />
        <Con id="1382" src="0" tgt="1016" wght="1.4982736657818325" />
        <Con id="1387" src="1132" tgt="1386" wght="0.6435874984850517" />
        <Con id="1388" src="1386" tgt="941" wght="-1.5590398306078765" />
        <Con id="1419" src="580" tgt="1418" wght="-4.4480206890072047" />
        <Con id="1420" src="1418" tgt="1132" wght="0.27494648717899289" />
        <Con id="1425" src="1386" tgt="421" wght="-0.10046932610134013" />
        <Con id="1439" src="580" tgt="1016" wght="-3.1936256467413608" />
        <Con id="1451" src="65" tgt="1386" wght="-1.1316322745787666" />
        <Con id="1453" src="1132" tgt="421" wght="-4.8284052563657074" />
        <Con id="1480" src="1418" tgt="941" wght="4.0659963145455666" />
        <Con id="1482" src="0" tgt="1132" wght="2.7458164423919476" />
        <Con id="1483" src="1016" tgt="1386" wght="-1.633647384926793" />
        <Con id="1495" src="1418" tgt="421" wght="-3.4020448201611262" />
        <Con id="1497" src="1" tgt="1132" wght="-3.8240756258535313" />
        <Con id="1499" src="421" tgt="5" wght="2.7978532335871225" />
        <Con id="1507" src="1016" tgt="6" wght="-3.7504183841002634" />
        <Con id="1511" src="1418" tgt="6" wght="-4.4115400023536342" />
        <Con id="1529" src="1386" tgt="6" wght="-3.1954876605973181" />
        <Con id="1562" src="1418" tgt="1386" wght="3.2258363021537662" />
        <Con id="1577" src="351" tgt="1418" wght="-5" />
        <Con id="1585" src="351" tgt="941" wght="-2.0137490531116704" />
        <Con id="1631" src="1418" tgt="834" wght="4.971123096522537" />
        <Con id="1658" src="4" tgt="1132" wght="-2.5274395237492637" />
        <Con id="1684" src="1132" tgt="749" wght="2.4381273113685475" />
        <Con id="1704" src="1418" tgt="339" wght="1.1317598379604861" />
        <Con id="1705" src="1418" tgt="5" wght="-0.66367493482025841" />
        <Con id="1717" src="4" tgt="1386" wght="-5" />
        <Con id="1727" src="1386" tgt="27" wght="0.25173090409831017" />
        <Con id="1740" src="1" tgt="1418" wght="-1.6158376627313316" />
        <Con id="1812" src="19" tgt="1811" wght="-3.6131325501852669" />
        <Con id="1813" src="1811" tgt="1418" wght="0.52216663602399116" />
        <Con id="1819" src="1811" tgt="834" wght="2.8955314256301667" />
        <Con id="1820" src="65" tgt="1811" wght="-3.136578010245985" />
        <Con id="1831" src="1811" tgt="1386" wght="1.6256714417068903" />
        <Con id="1852" src="1811" tgt="6" wght="-0.90258690476184433" />
        <Con id="1888" src="1811" tgt="5" wght="-4.3000163512993366" />
        <Con id="1932" src="1811" tgt="941" wght="0.70393133442848921" />
        <Con id="1943" src="1811" tgt="749" wght="2.712385100312531" />
        <Con id="2044" src="941" tgt="2043" wght="-3.2844615561480794" />
        <Con id="2045" src="2043" tgt="834" wght="-2.0271505146509039" />
        <Con id="2068" src="2" tgt="1811" wght="-0.18534232761226965" />
        <Con id="2072" src="65" tgt="2043" wght="1.5493960527035706" />
        <Con id="2078" src="580" tgt="2077" wght="-4.3979295789080854" />
        <Con id="2088" src="1811" tgt="2077" wght="-2.7549740473173747" />
        <Con id="2110" src="319" tgt="27" wght="-2.1372652470805211" />
        <Con id="2111" src="2043" tgt="421" wght="4.8348943171604581" />
        <Con id="2149" src="580" tgt="2043" wght="2.4517837222951839" />
        <Con id="2178" src="2077" tgt="2043" wght="-2.099029389374198" />
        <Con id="2221" src="351" tgt="2077" wght="-4.0062544942640423" />
        <Con id="2262" src="351" tgt="2261" wght="4.247047257783322" />
        <Con id="2263" src="2261" tgt="421" wght="-2.1896676921113709" />
        <Con id="2272" src="2077" tgt="2271" wght="3.1099290783375788" />
        <Con id="2273" src="2271" tgt="941" wght="5" />
        <Con id="2282" src="1811" tgt="2271" wght="0.17241681090264516" />
        <Con id="2314" src="19" tgt="2271" wght="-0.237001208421134" />
        <Con id="2315" src="2043" tgt="6" wght="1.4155135374273631" />
        <Con id="2350" src="351" tgt="421" wght="-2.4355288967490196" />
        <Con id="2354" src="2077" tgt="941" wght="-2.3589286115020514" />
        <Con id="2399" src="65" tgt="2271" wght="2.5252878152424048" />
        <Con id="2413" src="2077" tgt="562" wght="4.1072131244068366" />
        <Con id="2415" src="19" tgt="2414" wght="1.6231336010512614" />
        <Con id="2416" src="2414" tgt="2077" wght="4.5650477829375244" />
        <Con id="2423" src="0" tgt="2261" wght="1.2783876378848491" />
        <Con id="2424" src="2414" tgt="562" wght="5" />
        <Con id="2452" src="2" tgt="2451" wght="1.0602953562510857" />
        <Con id="2453" src="2451" tgt="562" wght="4.9618289623121345" />
        <Con id="2481" src="351" tgt="2451" wght="-1.4681913454084787" />
        <Con id="2492" src="1386" tgt="2451" wght="3.6111576482653618" />
        <Con id="2494" src="1" tgt="2271" wght="0.27234525636769713" />
        <Con id="2501" src="2451" tgt="2261" wght="-1.0631048561916658" />
        <Con id="2544" src="1132" tgt="2261" wght="3.2273745403236878" />
        <Con id="2557" src="580" tgt="2271" wght="0.89648677625305284" />
        <Con id="2565" src="834" tgt="2451" wght="4.9662019166566029" />
        <Con id="2580" src="2043" tgt="2451" wght="0.20494552329182625" />
        <Con id="2603" src="1132" tgt="2451" wght="-5" />
        <Con id="2607" src="580" tgt="2606" wght="-1.9722022428902013" />
        <Con id="2608" src="2606" tgt="941" wght="1.6272223925369655" />
        <Con id="2618" src="1418" tgt="2451" wght="0.383040881927662" />
        <Con id="2626" src="2414" tgt="2451" wght="-3.1853961755802618" />
        <Con id="2651" src="3" tgt="2451" wght="3.8943396597567124" />
        <Con id="2767" src="580" tgt="2766" wght="0.97658626584073815" />
        <Con id="2768" src="2766" tgt="562" wght="5" />
        <Con id="2846" src="65" tgt="2845" wght="3.0342034203931689" />
        <Con id="2847" src="2845" tgt="2261" wght="3.9718176634636708" />
        <Con id="2850" src="1386" tgt="2606" wght="3.9224568324596807" />
        <Con id="2880" src="0" tgt="2879" wght="4.97386947088608" />
        <Con id="2881" src="2879" tgt="1386" wght="3.9453515246019717" />
        <Con id="2913" src="1418" tgt="2414" wght="-4.2669742600992322" />
        <Con id="2992" src="1" tgt="2414" wght="3.587546867711398" />
        <Con id="2998" src="0" tgt="2997" wght="5" />
        <Con id="2999" src="2997" tgt="27" wght="5" />
        <Con id="3009" src="2766" tgt="2997" wght="-3.2751317415386438" />
        <Con id="3023" src="0" tgt="2606" wght="4.9966993979846794" />
        <Con id="3071" src="2879" tgt="2271" wght="-3.4391652843847069" />
        <Con id="3088" src="834" tgt="2766" wght="-1.4820788979850725" />
        <Con id="3171" src="421" tgt="3170" wght="2.1119839192560868" />
        <Con id="3172" src="3170" tgt="319" wght="3.6912628079668961" />
        <Con id="3221" src="2766" tgt="3170" wght="-0.3681179229170084" />
      </Connections>
    </Network>
    <Network id="140647" birthGen="3499" fitness="4537.79541015625">
      <Nodes>
        <Node type="bias" id="0" />
        <Node type="in" id="1" />
        <Node type="in" id="2" />
        <Node type="in" id="3" />
        <Node type="in" id="4" />
        <Node type="out" id="5" />
        <Node type="out" id="6" />
        <Node type="hid" id="19" />
        <Node type="hid" id="27" />
        <Node type="hid" id="65" />
        <Node type="hid" id="319" />
        <Node type="hid" id="339" />
        <Node type="hid" id="351" />
        <Node type="hid" id="421" />
        <Node type="hid" id="562" />
        <Node type="hid" id="580" />
        <Node type="hid" id="749" />
        <Node type="hid" id="834" />
        <Node type="hid" id="941" />
        <Node type="hid" id="1016" />
        <Node type="hid" id="1132" />
        <Node type="hid" id="1386" />
        <Node type="hid" id="1418" />
        <Node type="hid" id="1811" />
        <Node type="hid" id="2043" />
        <Node type="hid" id="2077" />
        <Node type="hid" id="2261" />
        <Node type="hid" id="2271" />
        <Node type="hid" id="2414" />
        <Node type="hid" id="2451" />
        <Node type="hid" id="2606" />
        <Node type="hid" id="2766" />
        <Node type="hid" id="2845" />
        <Node type="hid" id="2879" />
        <Node type="hid" id="2997" />
        <Node type="hid" id="3170" />
      </Nodes>
      <Connections>
        <Con id="21" src="19" tgt="6" wght="3.0806784953335842" />
        <Con id="67" src="65" tgt="19" wght="-3.7398071768449559" />
        <Con id="243" src="19" tgt="27" wght="0.23849547564332474" />
        <Con id="249" src="19" tgt="5" wght="-1.2542827069971578" />
        <Con id="259" src="27" tgt="5" wght="0.12557132863101592" />
        <Con id="261" src="2" tgt="27" wght="-0.35637108827590025" />
        <Con id="302" src="65" tgt="27" wght="-2.9605066684263566" />
        <Con id="337" src="319" tgt="5" wght="0.55831483852358965" />
        <Con id="338" src="65" tgt="319" wght="0.594504490727359" />
        <Con id="340" src="1" tgt="339" wght="0.53679400717324088" />
        <Con id="341" src="339" tgt="319" wght="-5" />
        <Con id="352" src="4" tgt="351" wght="-3.9328873651589338" />
        <Con id="353" src="351" tgt="65" wght="-3.1453603582009504" />
        <Con id="366" src="339" tgt="6" wght="4.7402792072584221" />
        <Con id="384" src="351" tgt="319" wght="-0.2339801321049958" />
        <Con id="422" src="3" tgt="421" wght="-1.699718443751939" />
        <Con id="423" src="421" tgt="339" wght="-2.0436692541356027" />
        <Con id="427" src="65" tgt="339" wght="-3.8448209438720879" />
        <Con id="439" src="1" tgt="6" wght="0.60257190095174307" />
        <Con id="464" src="351" tgt="19" wght="0.37725792743179354" />
        <Con id="484" src="0" tgt="65" wght="-1.6734801910016917" />
        <Con id="485" src="351" tgt="339" wght="2.2027767610622222" />
        <Con id="487" src="421" tgt="27" wght="5" />
        <Con id="525" src="351" tgt="6" wght="4.2216635064022094" />
        <Con id="563" src="3" tgt="562" wght="1.2460566239330471" />
        <Con id="581" src="1" tgt="580" wght="-5" />
        <Con id="582" src="580" tgt="65" wght="3.5786196290628358" />
        <Con id="583" src="1" tgt="421" wght="-3.7659951123749917" />
        <Con id="603" src="580" tgt="421" wght="-0.63606070354580879" />
        <Con id="611" src="3" tgt="580" wght="2.7724991704870465" />
        <Con id="615" src="421" tgt="562" wght="4.3577020816287568" />
        <Con id="701" src="0" tgt="580" wght="-2.3769375715843646" />
        <Con id="750" src="562" tgt="749" wght="0.27684117908398104" />
        <Con id="751" src="749" tgt="27" wght="4.7472796816694984" />
        <Con id="762" src="580" tgt="749" wght="2.7343651410294587" />
        <Con id="786" src="580" tgt="339" wght="-0.4857785048673619" />
        <Con id="942" src="65" tgt="941" wght="-1.3621456235058009" />
        <Con id="943" src="941" tgt="562" wght="-1.0528327581745347" />
        <Con id="1017" src="2" tgt="1016" wght="1.7585745441597957" />
        <Con id="1018" src="1016" tgt="65" wght="3.6489142060639694" />
        <Con id="1026" src="1016" tgt="319" wght="-0.42384840548038483" />
        <Con id="1040" src="0" tgt="339" wght="-0.1549401299457919" />
        <Con id="1043" src="580" tgt="351" wght="-0.34242887529619609" />
        <Con id="1052" src="834" tgt="749" wght="1.5214970448549046" />
        <Con id="1066" src="351" tgt="834" wght="1.6998678076558709" />
        <Con id="1067" src="0" tgt="834" wght="-0.48099172679911995" />
        <Con id="1074" src="421" tgt="749" wght="-4.25257177367905" />
        <Con id="1083" src="1" tgt="562" wght="1.1767837355021988" />
        <Con id="1089" src="65" tgt="834" wght="2.1573826361808717" />
        <Con id="1096" src="19" tgt="562" wght="1.4080534378260583" />
        <Con id="1101" src="834" tgt="562" wght="0.4616196152645004" />
        <Con id="1113" src="3" tgt="65" wght="-3.6180865115805068" />
        <Con id="1115" src="3" tgt="319" wght="-2.7527834012713597" />
        <Con id="1125" src="339" tgt="749" wght="2.8144659321140408" />
        <Con id="1129" src="834" tgt="339" wght="-3.7516930724638908" />
        <Con id="1131" src="19" tgt="319" wght="-2.1443692211702206" />
        <Con id="1133" src="19" tgt="1132" wght="4.8002002812303086" />
        <Con id="1134" src="1132" tgt="834" wght="5" />
        <Con id="1143" src="2" tgt="421" wght="-4.036726361644889" />
        <Con id="1153" src="580" tgt="834" wght="-2.0158876761765319" />
        <Con id="1155" src="351" tgt="1132" wght="1.3973082604484546" />
        <Con id="1157" src="1" tgt="351" wght="0.35215828785243042" />
        <Con id="1159" src="0" tgt="421" wght="2.1204694759116958" />
        <Con id="1184" src="1" tgt="1016" wght="0.99655310590385071" />
        <Con id="1186" src="941" tgt="749" wght="2.54388532470137" />
        <Con id="1214" src="834" tgt="319" wght="-4.8097152076595515" />
        <Con id="1220" src="0" tgt="562" wght="0.93355115500792518" />
        <Con id="1222" src="834" tgt="27" wght="4.2609902131382329" />
        <Con id="1232" src="580" tgt="6" wght="-0.49030844998553541" />
        <Con id="1234" src="1" tgt="834" wght="1.5536529938553147" />
        <Con id="1249" src="319" tgt="749" wght="-1.5632066301920464" />
        <Con id="1253" src="3" tgt="834" wght="-3.8099573093140018" />
        <Con id="1276" src="834" tgt="6" wght="-3.9786550600260844" />
        <Con id="1287" src="1132" tgt="941" wght="-0.79887278462216638" />
        <Con id="1290" src="1132" tgt="6" wght="-4.25367272682504" />
        <Con id="1295" src="2" tgt="65" wght="1.6095689532271376" />
        <Con id="1297" src="0" tgt="941" wght="1.2358127390737048" />
        <Con id="1298" src="351" tgt="1016" wght="-0.808809776736697" />
        <Con id="1341" src="351" tgt="749" wght="-4.7550988365218236" />
        <Con id="1345" src="1016" tgt="749" wght="-3.4610839222850562" />
        <Con id="1381" src="19" tgt="421" wght="-4.6480691676870887" />
        <Con id="1382" src="0" tgt="1016" wght="1.4982736657818325" />
        <Con id="1387" src="1132" tgt="1386" wght="0.6435874984850517" />
        <Con id="1388" src="1386" tgt="941" wght="-1.5590398306078765" />
        <Con id="1419" src="580" tgt="1418" wght="-4.4480206890072047" />
        <Con id="1420" src="1418" tgt="1132" wght="0.27494648717899289" />
        <Con id="1425" src="1386" tgt="421" wght="-0.10046932610134013" />
        <Con id="1439" src="580" tgt="1016" wght="-3.1936256467413608" />
        <Con id="1451" src="65" tgt="1386" wght="-1.1316322745787666" />
        <Con id="1453" src="1132" tgt="421" wght="-4.8284052563657074" />
        <Con id="1480" src="1418" tgt="941" wght="4.0659963145455666" />
        <Con id="1482" src="0" tgt="1132" wght="2.7458164423919476" />
        <Con id="1483" src="1016" tgt="1386" wght="-1.633647384926793" />
        <Con id="1495" src="1418" tgt="421" wght="-3.4020448201611262" />
        <Con id="1497" src="1" tgt="1132" wght="-3.8240756258535313" />
        <Con id="1499" src="421" tgt="5" wght="2.7978532335871225" />
        <Con id="1507" src="1016" tgt="6" wght="-3.7504183841002634" />
        <Con id="1511" src="1418" tgt="6" wght="-4.4115400023536342" />
        <Con id="1529" src="1386" tgt="6" wght="-3.1954876605973181" />
        <Con id="1562" src="1418" tgt="1386" wght="3.2258363021537662" />
        <Con id="1577" src="351" tgt="1418" wght="-5" />
        <Con id="1585" src="351" tgt="941" wght="-2.0137490531116704" />
        <Con id="1631" src="1418" tgt="834" wght="4.971123096522537" />
        <Con id="1658" src="4" tgt="1132" wght="-2.5274395237492637" />
        <Con id="1684" src="1132" tgt="749" wght="2.4381273113685475" />
        <Con id="1704" src="1418" tgt="339" wght="1.1317598379604861" />
        <Con id="1705" src="1418" tgt="5" wght="-0.66367493482025841" />
        <Con id="1717" src="4" tgt="1386" wght="-5" />
        <Con id="1727" src="1386" tgt="27" wght="0.25173090409831017" />
        <Con id="1740" src="1" tgt="1418" wght="-1.6158376627313316" />
        <Con id="1812" src="19" tgt="1811" wght="-3.6131325501852669" />
        <Con id="1813" src="1811" tgt="1418" wght="0.52216663602399116" />
        <Con id="1819" src="1811" tgt="834" wght="2.8955314256301667" />
        <Con id="1820" src="65" tgt="1811" wght="-3.136578010245985" />
        <Con id="1831" src="1811" tgt="1386" wght="1.6256714417068903" />
        <Con id="1852" src="1811" tgt="6" wght="-0.90548584708064683" />
        <Con id="1888" src="1811" tgt="5" wght="-4.3000163512993366" />
        <Con id="1932" src="1811" tgt="941" wght="0.70393133442848921" />
        <Con id="1943" src="1811" tgt="749" wght="2.712385100312531" />
        <Con id="2044" src="941" tgt="2043" wght="-3.2844615561480794" />
        <Con id="2045" src="2043" tgt="834" wght="-2.0271505146509039" />
        <Con id="2068" src="2" tgt="1811" wght="-0.18534232761226965" />
        <Con id="2072" src="65" tgt="2043" wght="1.5493960527035706" />
        <Con id="2078" src="580" tgt="2077" wght="-4.3979295789080854" />
        <Con id="2088" src="1811" tgt="2077" wght="-2.7549740473173747" />
        <Con id="2110" src="319" tgt="27" wght="-2.1644948949086662" />
        <Con id="2111" src="2043" tgt="421" wght="4.8350786291320782" />
        <Con id="2149" src="580" tgt="2043" wght="2.4517837222951839" />
        <Con id="2178" src="2077" tgt="2043" wght="-2.099029389374198" />
        <Con id="2221" src="351" tgt="2077" wght="-3.9720810604685584" />
        <Con id="2262" src="351" tgt="2261" wght="4.247047257783322" />
        <Con id="2263" src="2261" tgt="421" wght="-2.1896676921113709" />
        <Con id="2272" src="2077" tgt="2271" wght="3.1099290783375788" />
        <Con id="2273" src="2271" tgt="941" wght="5" />
        <Con id="2282" src="1811" tgt="2271" wght="0.17386463756764375" />
        <Con id="2314" src="19" tgt="2271" wght="-0.22221620481477311" />
        <Con id="2315" src="2043" tgt="6" wght="1.4155135374273631" />
        <Con id="2350" src="351" tgt="421" wght="-2.4355288967490196" />
        <Con id="2354" src="2077" tgt="941" wght="-2.3468453394002511" />
        <Con id="2399" src="65" tgt="2271" wght="2.5515322045588618" />
        <Con id="2413" src="2077" tgt="562" wght="4.1072131244068366" />
        <Con id="2415" src="19" tgt="2414" wght="1.6231336010512614" />
        <Con id="2416" src="2414" tgt="2077" wght="4.5650477829375244" />
        <Con id="2423" src="0" tgt="2261" wght="1.2790363468229771" />
        <Con id="2424" src="2414" tgt="562" wght="5" />
        <Con id="2452" src="2" tgt="2451" wght="1.0602953562510857" />
        <Con id="2453" src="2451" tgt="562" wght="4.9618289623121345" />
        <Con id="2481" src="351" tgt="2451" wght="-1.4681913454084787" />
        <Con id="2494" src="1" tgt="2271" wght="0.27234525636769713" />
        <Con id="2501" src="2451" tgt="2261" wght="-1.0631048561916658" />
        <Con id="2544" src="1132" tgt="2261" wght="3.8108686567119272" />
        <Con id="2557" src="580" tgt="2271" wght="0.89648677625305284" />
        <Con id="2565" src="834" tgt="2451" wght="4.9662019166566029" />
        <Con id="2580" src="2043" tgt="2451" wght="0.20494552329182625" />
        <Con id="2603" src="1132" tgt="2451" wght="-5" />
        <Con id="2607" src="580" tgt="2606" wght="-1.9722022428902013" />
        <Con id="2608" src="2606" tgt="941" wght="1.6272223925369655" />
        <Con id="2618" src="1418" tgt="2451" wght="0.383040881927662" />
        <Con id="2626" src="2414" tgt="2451" wght="-3.1853961755802618" />
        <Con id="2651" src="3" tgt="2451" wght="3.8943396597567124" />
        <Con id="2767" src="580" tgt="2766" wght="0.97658626584073815" />
        <Con id="2768" src="2766" tgt="562" wght="5" />
        <Con id="2846" src="65" tgt="2845" wght="3.0342034203931689" />
        <Con id="2847" src="2845" tgt="2261" wght="2.9587092886651565" />
        <Con id="2850" src="1386" tgt="2606" wght="3.9224568324596807" />
        <Con id="2880" src="0" tgt="2879" wght="5" />
        <Con id="2881" src="2879" tgt="1386" wght="3.9132102758254259" />
        <Con id="2913" src="1418" tgt="2414" wght="-4.2669742600992322" />
        <Con id="2992" src="1" tgt="2414" wght="3.587546867711398" />
        <Con id="2998" src="0" tgt="2997" wght="5" />
        <Con id="2999" src="2997" tgt="27" wght="5" />
        <Con id="3009" src="2766" tgt="2997" wght="-3.2751317415386438" />
        <Con id="3023" src="0" tgt="2606" wght="4.9966993979846794" />
        <Con id="3071" src="2879" tgt="2271" wght="-3.4391652843847069" />
        <Con id="3088" src="834" tgt="2766" wght="-1.4820788979850725" />
        <Con id="3171" src="421" tgt="3170" wght="2.1119839192560868" />
        <Con id="3172" src="3170" tgt="319" wght="3.6912628079668961" />
      </Connections>
    </Network>
    <Network id="140658" birthGen="3499" fitness="3150.33154296875">
      <Nodes>
        <Node type="bias" id="0" />
        <Node type="in" id="1" />
        <Node type="in" id="2" />
        <Node type="in" id="3" />
        <Node type="in" id="4" />
        <Node type="out" id="5" />
        <Node type="out" id="6" />
        <Node type="hid" id="19" />
        <Node type="hid" id="27" />
        <Node type="hid" id="65" />
        <Node type="hid" id="319" />
        <Node type="hid" id="339" />
        <Node type="hid" id="351" />
        <Node type="hid" id="421" />
        <Node type="hid" id="562" />
        <Node type="hid" id="580" />
        <Node type="hid" id="749" />
        <Node type="hid" id="834" />
        <Node type="hid" id="941" />
        <Node type="hid" id="1016" />
        <Node type="hid" id="1132" />
        <Node type="hid" id="1386" />
        <Node type="hid" id="1418" />
        <Node type="hid" id="1811" />
        <Node type="hid" id="2043" />
        <Node type="hid" id="2077" />
        <Node type="hid" id="2261" />
        <Node type="hid" id="2271" />
        <Node type="hid" id="2414" />
        <Node type="hid" id="2451" />
        <Node type="hid" id="2606" />
        <Node type="hid" id="2766" />
        <Node type="hid" id="2845" />
        <Node type="hid" id="2879" />
        <Node type="hid" id="3085" />
      </Nodes>
      <Connections>
        <Con id="21" src="19" tgt="6" wght="1.6369128174985854" />
        <Con id="67" src="65" tgt="19" wght="-4.473564983277682" />
        <Con id="77" src="0" tgt="27" wght="4.9856625854154037" />
        <Con id="243" src="19" tgt="27" wght="-1.4788769442167347" />
        <Con id="249" src="19" tgt="5" wght="-1.2542827069971578" />
        <Con id="259" src="27" tgt="5" wght="0.13319017864613758" />
        <Con id="261" src="2" tgt="27" wght="-0.34556170020734539" />
        <Con id="302" src="65" tgt="27" wght="-2.9797163419446737" />
        <Con id="337" src="319" tgt="5" wght="-0.22774944617840376" />
        <Con id="338" src="65" tgt="319" wght="-0.71673165214573586" />
        <Con id="340" src="1" tgt="339" wght="0.53679400717324088" />
        <Con id="341" src="339" tgt="319" wght="-4.9532419239505376" />
        <Con id="352" src="4" tgt="351" wght="-5" />
        <Con id="353" src="351" tgt="65" wght="-3.1400447920015879" />
        <Con id="366" src="339" tgt="6" wght="4.95430583387449" />
        <Con id="384" src="351" tgt="319" wght="-2.7808373880497483" />
        <Con id="422" src="3" tgt="421" wght="-2.5065836940622424" />
        <Con id="423" src="421" tgt="339" wght="0.0032138887086761137" />
        <Con id="427" src="65" tgt="339" wght="-3.84840687018544" />
        <Con id="439" src="1" tgt="6" wght="0.58555805237602487" />
        <Con id="464" src="351" tgt="19" wght="-0.559774167325757" />
        <Con id="484" src="0" tgt="65" wght="-1.8628852836213161" />
        <Con id="485" src="351" tgt="339" wght="-0.26107109129765449" />
        <Con id="487" src="421" tgt="27" wght="4.99874139986467" />
        <Con id="525" src="351" tgt="6" wght="3.4944010695274206" />
        <Con id="563" src="3" tgt="562" wght="0.728380485687472" />
        <Con id="581" src="1" tgt="580" wght="-5" />
        <Con id="582" src="580" tgt="65" wght="3.4687953287184996" />
        <Con id="583" src="1" tgt="421" wght="-5" />
        <Con id="603" src="580" tgt="421" wght="4.5437304057343644" />
        <Con id="611" src="3" tgt="580" wght="2.7526374122291539" />
        <Con id="615" src="421" tgt="562" wght="3.0196554506336239" />
        <Con id="701" src="0" tgt="580" wght="-2.6850569458774904" />
        <Con id="750" src="562" tgt="749" wght="0.31665559450731384" />
        <Con id="751" src="749" tgt="27" wght="4.4181559388115668" />
        <Con id="762" src="580" tgt="749" wght="2.0583740535880821" />
        <Con id="786" src="580" tgt="339" wght="-0.1462245499214706" />
        <Con id="942" src="65" tgt="941" wght="-1.9179054042087869" />
        <Con id="943" src="941" tgt="562" wght="-0.95935589948256239" />
        <Con id="1017" src="2" tgt="1016" wght="4.6923684980720282" />
        <Con id="1026" src="1016" tgt="319" wght="0.86101536639034748" />
        <Con id="1040" src="0" tgt="339" wght="-0.16858983966536734" />
        <Con id="1043" src="580" tgt="351" wght="-0.53982454044073114" />
        <Con id="1052" src="834" tgt="749" wght="1.2893256354635487" />
        <Con id="1066" src="351" tgt="834" wght="0.56849767415483432" />
        <Con id="1067" src="0" tgt="834" wght="-0.17394765603372508" />
        <Con id="1074" src="421" tgt="749" wght="-4.2468493524616955" />
        <Con id="1083" src="1" tgt="562" wght="2.6873421399992843" />
        <Con id="1088" src="27" tgt="6" wght="-1.5378174325451255" />
        <Con id="1089" src="65" tgt="834" wght="0.30943130494788318" />
        <Con id="1096" src="19" tgt="562" wght="0.0083693665717339966" />
        <Con id="1101" src="834" tgt="562" wght="-0.36878605292707323" />
        <Con id="1113" src="3" tgt="65" wght="-3.7573594868029665" />
        <Con id="1115" src="3" tgt="319" wght="-2.8308165758073853" />
        <Con id="1125" src="339" tgt="749" wght="2.7851988488516404" />
        <Con id="1129" src="834" tgt="339" wght="-4.2566202008201754" />
        <Con id="1131" src="19" tgt="319" wght="-2.7151634964089348" />
        <Con id="1133" src="19" tgt="1132" wght="-3.6929250437879992" />
        <Con id="1134" src="1132" tgt="834" wght="4.636336391612117" />
        <Con id="1153" src="580" tgt="834" wght="3.1403727392829279" />
        <Con id="1155" src="351" tgt="1132" wght="0.51007363249277526" />
        <Con id="1157" src="1" tgt="351" wght="0.18604253453992514" />
        <Con id="1159" src="0" tgt="421" wght="3.72190906175332" />
        <Con id="1184" src="1" tgt="1016" wght="0.077472403564247339" />
        <Con id="1186" src="941" tgt="749" wght="2.5411305069537571" />
        <Con id="1191" src="580" tgt="5" wght="0.036522275768220425" />
        <Con id="1214" src="834" tgt="319" wght="-3.9832823764576233" />
        <Con id="1220" src="0" tgt="562" wght="4.8961945954838262" />
        <Con id="1222" src="834" tgt="27" wght="5" />
        <Con id="1232" src="580" tgt="6" wght="0.79331413368266468" />
        <Con id="1234" src="1" tgt="834" wght="1.4871136994981382" />
        <Con id="1249" src="319" tgt="749" wght="-1.21681717146693" />
        <Con id="1253" src="3" tgt="834" wght="-3.1369617603715581" />
        <Con id="1276" src="834" tgt="6" wght="-3.99989440291955" />
        <Con id="1287" src="1132" tgt="941" wght="-0.23960280232131481" />
        <Con id="1290" src="1132" tgt="6" wght="-3.7426798447300844" />
        <Con id="1295" src="2" tgt="65" wght="1.606116643018529" />
        <Con id="1297" src="0" tgt="941" wght="1.23047029996574" />
        <Con id="1298" src="351" tgt="1016" wght="5" />
        <Con id="1341" src="351" tgt="749" wght="-5" />
        <Con id="1345" src="1016" tgt="749" wght="-3.4250336064727303" />
        <Con id="1381" src="19" tgt="421" wght="1.6387066377939861" />
        <Con id="1382" src="0" tgt="1016" wght="1.4849023355782403" />
        <Con id="1387" src="1132" tgt="1386" wght="0.19198052713564295" />
        <Con id="1388" src="1386" tgt="941" wght="3.7777314614504576" />
        <Con id="1419" src="580" tgt="1418" wght="2.7435740642249584" />
        <Con id="1420" src="1418" tgt="1132" wght="0.68501266599952926" />
        <Con id="1425" src="1386" tgt="421" wght="-4.4545733927423843" />
        <Con id="1432" src="19" tgt="1386" wght="1.9334118320244325" />
        <Con id="1439" src="580" tgt="1016" wght="-2.3176708821896437" />
        <Con id="1451" src="65" tgt="1386" wght="-2.1044974170582593" />
        <Con id="1453" src="1132" tgt="421" wght="-4.29523228137962" />
        <Con id="1482" src="0" tgt="1132" wght="0.84802346769720316" />
        <Con id="1483" src="1016" tgt="1386" wght="-4.9527709818712147" />
        <Con id="1493" src="19" tgt="1418" wght="3.218736794016186" />
        <Con id="1495" src="1418" tgt="421" wght="3.4053928782800291" />
        <Con id="1497" src="1" tgt="1132" wght="-3.2853871520826448" />
        <Con id="1499" src="421" tgt="5" wght="2.5797873071226096" />
        <Con id="1507" src="1016" tgt="6" wght="-3.6988417015808404" />
        <Con id="1511" src="1418" tgt="6" wght="-3.8796933442789405" />
        <Con id="1529" src="1386" tgt="6" wght="-3.1627139478049622" />
        <Con id="1562" src="1418" tgt="1386" wght="3.2507632492635512" />
        <Con id="1577" src="351" tgt="1418" wght="-4.9349187903108795" />
        <Con id="1585" src="351" tgt="941" wght="1.1094854857364589" />
        <Con id="1631" src="1418" tgt="834" wght="4.9979417087605276" />
        <Con id="1658" src="4" tgt="1132" wght="-2.8123765414987814" />
        <Con id="1684" src="1132" tgt="749" wght="2.7142989263521797" />
        <Con id="1704" src="1418" tgt="339" wght="1.1908018486367833" />
        <Con id="1705" src="1418" tgt="5" wght="-0.67109372374450427" />
        <Con id="1717" src="4" tgt="1386" wght="0.10920137632638216" />
        <Con id="1727" src="1386" tgt="27" wght="4.57581024917753" />
        <Con id="1740" src="1" tgt="1418" wght="-3.5194217653887305" />
        <Con id="1812" src="19" tgt="1811" wght="-3.1842101688934097" />
        <Con id="1813" src="1811" tgt="1418" wght="2.8025866136683586" />
        <Con id="1819" src="1811" tgt="834" wght="2.5241969722200803" />
        <Con id="1820" src="65" tgt="1811" wght="-3.1183975376188755" />
        <Con id="1835" src="1811" tgt="339" wght="4.0831194033812679" />
        <Con id="1852" src="1811" tgt="6" wght="-0.89444042019448089" />
        <Con id="1864" src="1811" tgt="421" wght="5" />
        <Con id="1888" src="1811" tgt="5" wght="-4.9661465533421962" />
        <Con id="2044" src="941" tgt="2043" wght="-5" />
        <Con id="2045" src="2043" tgt="834" wght="-3.4238587780967857" />
        <Con id="2072" src="65" tgt="2043" wght="0.88298841379582882" />
        <Con id="2078" src="580" tgt="2077" wght="-4.3827915138957074" />
        <Con id="2088" src="1811" tgt="2077" wght="-3.567766373138205" />
        <Con id="2111" src="2043" tgt="421" wght="3.7499157851561904" />
        <Con id="2138" src="19" tgt="2043" wght="1.605473873205483" />
        <Con id="2149" src="580" tgt="2043" wght="2.7489847706766972" />
        <Con id="2151" src="2043" tgt="562" wght="-0.7105278642848134" />
        <Con id="2178" src="2077" tgt="2043" wght="-2.0980220469021598" />
        <Con id="2221" src="351" tgt="2077" wght="-3.1005243001193761" />
        <Con id="2262" src="351" tgt="2261" wght="4.7065701835340894" />
        <Con id="2263" src="2261" tgt="421" wght="-2.2281668160879406" />
        <Con id="2272" src="2077" tgt="2271" wght="0.065934127196669579" />
        <Con id="2273" src="2271" tgt="941" wght="5" />
        <Con id="2282" src="1811" tgt="2271" wght="-1.1174226079420917" />
        <Con id="2288" src="1132" tgt="2077" wght="-1.3201689542129895" />
        <Con id="2314" src="19" tgt="2271" wght="-0.22706002865082639" />
        <Con id="2315" src="2043" tgt="6" wght="0.90584906449813463" />
        <Con id="2354" src="2077" tgt="941" wght="-2.3875950159581243" />
        <Con id="2399" src="65" tgt="2271" wght="-2.8442232317932925" />
        <Con id="2413" src="2077" tgt="562" wght="1.4405357415854891" />
        <Con id="2415" src="19" tgt="2414" wght="1.5678185109831562" />
        <Con id="2416" src="2414" tgt="2077" wght="3.5175420961843518" />
        <Con id="2424" src="2414" tgt="562" wght="1.6522663737698371" />
        <Con id="2452" src="2" tgt="2451" wght="0.51108183408265329" />
        <Con id="2453" src="2451" tgt="562" wght="5" />
        <Con id="2457" src="2043" tgt="2261" wght="4.9976973358564516" />
        <Con id="2481" src="351" tgt="2451" wght="-0.59527495364234273" />
        <Con id="2494" src="1" tgt="2271" wght="3.4800965861099695" />
        <Con id="2544" src="1132" tgt="2261" wght="-2.5518722688276561" />
        <Con id="2557" src="580" tgt="2271" wght="1.5895001972925653" />
        <Con id="2565" src="834" tgt="2451" wght="1.3310230336881621" />
        <Con id="2578" src="3" tgt="2261" wght="-5" />
        <Con id="2580" src="2043" tgt="2451" wght="3.3241474006253622" />
        <Con id="2603" src="1132" tgt="2451" wght="-4.8439156770512426" />
        <Con id="2607" src="580" tgt="2606" wght="-0.75730876377512291" />
        <Con id="2608" src="2606" tgt="941" wght="1.6032213810831308" />
        <Con id="2618" src="1418" tgt="2451" wght="-0.16562921460717916" />
        <Con id="2626" src="2414" tgt="2451" wght="-5" />
        <Con id="2651" src="3" tgt="2451" wght="3.2232822473274312" />
        <Con id="2678" src="580" tgt="2261" wght="-4.7361679779321575" />
        <Con id="2767" src="580" tgt="2766" wght="0.62581936599005139" />
        <Con id="2768" src="2766" tgt="562" wght="-1.0526708280667663" />
        <Con id="2846" src="65" tgt="2845" wght="3.1764907530974162" />
        <Con id="2847" src="2845" tgt="2261" wght="3.9280864379828264" />
        <Con id="2850" src="1386" tgt="2606" wght="-2.8424237050227328" />
        <Con id="2880" src="0" tgt="2879" wght="-2.3741540778428316" />
        <Con id="2881" src="2879" tgt="1386" wght="2.6292873281714018" />
        <Con id="2893" src="2845" tgt="2414" wght="1.3518742145970464" />
        <Con id="2931" src="2271" tgt="2879" wght="1.5112450550562906" />
        <Con id="2932" src="1016" tgt="2766" wght="-2.0549672050401568" />
        <Con id="2962" src="1418" tgt="2845" wght="2.2976190359134265" />
        <Con id="3030" src="2766" tgt="1418" wght="1.4134166318521091" />
        <Con id="3086" src="1016" tgt="3085" wght="3.6599298272457932" />
        <Con id="3087" src="3085" tgt="65" wght="5" />
      </Connections>
    </Network>
    <Network id="140663" birthGen="3500" fitness="5000.11669921875">
      <Nodes>
        <Node type="bias" id="0" />
        <Node type="in" id="1" />
        <Node type="in" id="2" />
        <Node type="in" id="3" />
        <Node type="in" id="4" />
        <Node type="out" id="5" />
        <Node type="out" id="6" />
        <Node type="hid" id="19" />
        <Node type="hid" id="27" />
        <Node type="hid" id="65" />
        <Node type="hid" id="319" />
        <Node type="hid" id="339" />
        <Node type="hid" id="351" />
        <Node type="hid" id="421" />
        <Node type="hid" id="562" />
        <Node type="hid" id="580" />
        <Node type="hid" id="749" />
        <Node type="hid" id="834" />
        <Node type="hid" id="941" />
        <Node type="hid" id="1016" />
        <Node type="hid" id="1132" />
        <Node type="hid" id="1386" />
        <Node type="hid" id="1418" />
        <Node type="hid" id="1811" />
        <Node type="hid" id="2043" />
        <Node type="hid" id="2077" />
        <Node type="hid" id="2261" />
        <Node type="hid" id="2271" />
        <Node type="hid" id="2414" />
        <Node type="hid" id="2451" />
        <Node type="hid" id="2606" />
        <Node type="hid" id="2766" />
        <Node type="hid" id="2845" />
        <Node type="hid" id="2879" />
        <Node type="hid" id="2997" />
      </Nodes>
      <Connections>
        <Con id="21" src="19" tgt="6" wght="3.0806784953335842" />
        <Con id="67" src="65" tgt="19" wght="-3.7398071768449559" />
        <Con id="243" src="19" tgt="27" wght="0.25114875151675586" />
        <Con id="249" src="19" tgt="5" wght="-1.2542827069971578" />
        <Con id="259" src="27" tgt="5" wght="0.12557132863101592" />
        <Con id="261" src="2" tgt="27" wght="-0.35637108827590025" />
        <Con id="302" src="65" tgt="27" wght="-2.9605066684263566" />
        <Con id="337" src="319" tgt="5" wght="0.55831483852358965" />
        <Con id="338" src="65" tgt="319" wght="-0.86175006059452042" />
        <Con id="340" src="1" tgt="339" wght="0.53679400717324088" />
        <Con id="341" src="339" tgt="319" wght="-4.75320231036662" />
        <Con id="352" src="4" tgt="351" wght="-3.9056572930497859" />
        <Con id="353" src="351" tgt="65" wght="-3.1243269752989296" />
        <Con id="366" src="339" tgt="6" wght="4.758413183769977" />
        <Con id="384" src="351" tgt="319" wght="-0.2339801321049958" />
        <Con id="422" src="3" tgt="421" wght="-1.699718443751939" />
        <Con id="423" src="421" tgt="339" wght="0.010658458775258211" />
        <Con id="427" src="65" tgt="339" wght="-3.8423586229409357" />
        <Con id="439" src="1" tgt="6" wght="0.60257190095174307" />
        <Con id="464" src="351" tgt="19" wght="0.37725792743179354" />
        <Con id="484" src="0" tgt="65" wght="-1.7298304330825849" />
        <Con id="485" src="351" tgt="339" wght="2.6239787870127267" />
        <Con id="487" src="421" tgt="27" wght="5" />
        <Con id="525" src="351" tgt="6" wght="3.7948496185861575" />
        <Con id="563" src="3" tgt="562" wght="1.24108487359115" />
        <Con id="581" src="1" tgt="580" wght="-4.9608089066113736" />
        <Con id="582" src="580" tgt="65" wght="3.5786196290628358" />
        <Con id="583" src="1" tgt="421" wght="-3.7312024548191145" />
        <Con id="603" src="580" tgt="421" wght="-2.5769174598183024" />
        <Con id="611" src="3" tgt="580" wght="2.7724991704870465" />
        <Con id="615" src="421" tgt="562" wght="2.8528763002508231" />
        <Con id="701" src="0" tgt="580" wght="-2.3828837146140853" />
        <Con id="750" src="562" tgt="749" wght="0.27684117908398104" />
        <Con id="751" src="749" tgt="27" wght="4.3918256751718152" />
        <Con id="762" src="580" tgt="749" wght="2.7343651410294587" />
        <Con id="786" src="580" tgt="339" wght="-0.48979119062036813" />
        <Con id="942" src="65" tgt="941" wght="-2.8811679165710378" />
        <Con id="943" src="941" tgt="562" wght="-1.0652477474445949" />
        <Con id="1017" src="2" tgt="1016" wght="1.8228576280829005" />
        <Con id="1018" src="1016" tgt="65" wght="3.6489142060639694" />
        <Con id="1026" src="1016" tgt="319" wght="-0.42384840548038483" />
        <Con id="1040" src="0" tgt="339" wght="-0.13658894744650754" />
        <Con id="1043" src="580" tgt="351" wght="-0.42920018564419943" />
        <Con id="1052" src="834" tgt="749" wght="1.5214970448549046" />
        <Con id="1066" src="351" tgt="834" wght="1.6779129022500605" />
        <Con id="1067" src="0" tgt="834" wght="-0.48099172679911995" />
        <Con id="1074" src="421" tgt="749" wght="-2.9357493012104645" />
        <Con id="1083" src="1" tgt="562" wght="1.1767837355021988" />
        <Con id="1085" src="2" tgt="562" wght="1.6411296695519655" />
        <Con id="1089" src="65" tgt="834" wght="2.1878475813459146" />
        <Con id="1096" src="19" tgt="562" wght="1.4080534378260583" />
        <Con id="1101" src="834" tgt="562" wght="0.44796095839482086" />
        <Con id="1113" src="3" tgt="65" wght="-3.6180865115805068" />
        <Con id="1115" src="3" tgt="319" wght="-2.7599872363622828" />
        <Con id="1125" src="339" tgt="749" wght="2.8144659321140408" />
        <Con id="1129" src="834" tgt="339" wght="-3.7516930724638908" />
        <Con id="1131" src="19" tgt="319" wght="-1.3255110380061002" />
        <Con id="1133" src="19" tgt="1132" wght="4.7640830931795586" />
        <Con id="1134" src="1132" tgt="834" wght="5" />
        <Con id="1143" src="2" tgt="421" wght="-5" />
        <Con id="1153" src="580" tgt="834" wght="-2.0158876761765319" />
        <Con id="1155" src="351" tgt="1132" wght="1.3973082604484546" />
        <Con id="1157" src="1" tgt="351" wght="0.34335485316734665" />
        <Con id="1159" src="0" tgt="421" wght="3.2877242407940366" />
        <Con id="1184" src="1" tgt="1016" wght="0.99655310590385071" />
        <Con id="1186" src="941" tgt="749" wght="2.54388532470137" />
        <Con id="1214" src="834" tgt="319" wght="-4.8097152076595515" />
        <Con id="1220" src="0" tgt="562" wght="0.37366097296417267" />
        <Con id="1221" src="421" tgt="319" wght="0.78650136164334383" />
        <Con id="1222" src="834" tgt="27" wght="4.2609902131382329" />
        <Con id="1232" src="580" tgt="6" wght="-0.47966808939478006" />
        <Con id="1234" src="1" tgt="834" wght="1.5536529938553147" />
        <Con id="1249" src="319" tgt="749" wght="-1.5632066301920464" />
        <Con id="1253" src="3" tgt="834" wght="-3.7911789010003947" />
        <Con id="1276" src="834" tgt="6" wght="-3.7671288582419771" />
        <Con id="1287" src="1132" tgt="941" wght="-0.80865659190304728" />
        <Con id="1290" src="1132" tgt="6" wght="-4.2200215936646153" />
        <Con id="1295" src="2" tgt="65" wght="1.6095689532271376" />
        <Con id="1297" src="0" tgt="941" wght="1.2335867201994872" />
        <Con id="1298" src="351" tgt="1016" wght="0.35324519029310331" />
        <Con id="1341" src="351" tgt="749" wght="-4.7550988365218236" />
        <Con id="1345" src="1016" tgt="749" wght="-3.4610839222850562" />
        <Con id="1381" src="19" tgt="421" wght="-3.5355790342475748" />
        <Con id="1382" src="0" tgt="1016" wght="1.4982736657818325" />
        <Con id="1387" src="1132" tgt="1386" wght="2.0055791149884916" />
        <Con id="1388" src="1386" tgt="941" wght="-1.5993896880827174" />
        <Con id="1419" src="580" tgt="1418" wght="-4.4480206890072047" />
        <Con id="1420" src="1418" tgt="1132" wght="-0.42503353821104189" />
        <Con id="1425" src="1386" tgt="421" wght="1.1274622686755615" />
        <Con id="1439" src="580" tgt="1016" wght="-3.8011963266907296" />
        <Con id="1451" src="65" tgt="1386" wght="-1.1316322745787666" />
        <Con id="1453" src="1132" tgt="421" wght="-4.8028949511936716" />
        <Con id="1480" src="1418" tgt="941" wght="4.051701777856386" />
        <Con id="1482" src="0" tgt="1132" wght="2.7419432006088726" />
        <Con id="1483" src="1016" tgt="1386" wght="-1.5759986692916361" />
        <Con id="1495" src="1418" tgt="421" wght="-2.9684904105749483" />
        <Con id="1497" src="1" tgt="1132" wght="-1.9302862822973437" />
        <Con id="1499" src="421" tgt="5" wght="2.0670729871805538" />
        <Con id="1507" src="1016" tgt="6" wght="-3.7504183841002634" />
        <Con id="1511" src="1418" tgt="6" wght="-4.4115400023536342" />
        <Con id="1529" src="1386" tgt="6" wght="-2.3572040236715281" />
        <Con id="1562" src="1418" tgt="1386" wght="3.2258363021537662" />
        <Con id="1577" src="351" tgt="1418" wght="-5" />
        <Con id="1585" src="351" tgt="941" wght="-0.34096882057462019" />
        <Con id="1631" src="1418" tgt="834" wght="4.971123096522537" />
        <Con id="1658" src="4" tgt="1132" wght="-2.5156226278205982" />
        <Con id="1684" src="1132" tgt="749" wght="2.4381273113685475" />
        <Con id="1704" src="1418" tgt="339" wght="1.1317598379604861" />
        <Con id="1705" src="1418" tgt="5" wght="-0.63860689892881928" />
        <Con id="1717" src="4" tgt="1386" wght="-5" />
        <Con id="1727" src="1386" tgt="27" wght="0.22832979056010494" />
        <Con id="1740" src="1" tgt="1418" wght="-1.6158376627313316" />
        <Con id="1812" src="19" tgt="1811" wght="-3.6102117258733215" />
        <Con id="1813" src="1811" tgt="1418" wght="0.50797098873223678" />
        <Con id="1819" src="1811" tgt="834" wght="2.8955314256301667" />
        <Con id="1820" src="65" tgt="1811" wght="-3.1537283400179326" />
        <Con id="1831" src="1811" tgt="1386" wght="1.6256714417068903" />
        <Con id="1852" src="1811" tgt="6" wght="-0.90258690476184433" />
        <Con id="1888" src="1811" tgt="5" wght="-4.3000163512993366" />
        <Con id="1932" src="1811" tgt="941" wght="0.68847605834186176" />
        <Con id="1943" src="1811" tgt="749" wght="2.712385100312531" />
        <Con id="2044" src="941" tgt="2043" wght="-3.2844615561480794" />
        <Con id="2045" src="2043" tgt="834" wght="-2.0351656431917413" />
        <Con id="2068" src="2" tgt="1811" wght="-0.22805256887870545" />
        <Con id="2072" src="65" tgt="2043" wght="2.3866248758607673" />
        <Con id="2078" src="580" tgt="2077" wght="-4.3979295789080854" />
        <Con id="2088" src="1811" tgt="2077" wght="-2.7188761738214571" />
        <Con id="2110" src="319" tgt="27" wght="-1.8270819625644106" />
        <Con id="2111" src="2043" tgt="421" wght="4.8266599411738049" />
        <Con id="2149" src="580" tgt="2043" wght="1.8345425755959788" />
        <Con id="2178" src="2077" tgt="2043" wght="-2.0946509083750624" />
        <Con id="2221" src="351" tgt="2077" wght="-3.9720810604685584" />
        <Con id="2262" src="351" tgt="2261" wght="4.247047257783322" />
        <Con id="2263" src="2261" tgt="421" wght="-2.1685449229518676" />
        <Con id="2272" src="2077" tgt="2271" wght="3.1350424394587586" />
        <Con id="2273" src="2271" tgt="941" wght="5" />
        <Con id="2282" src="1811" tgt="2271" wght="0.47619987865110847" />
        <Con id="2314" src="19" tgt="2271" wght="-0.22221620481477311" />
        <Con id="2315" src="2043" tgt="6" wght="1.4155135374273631" />
        <Con id="2350" src="351" tgt="421" wght="-2.4751209248472863" />
        <Con id="2354" src="2077" tgt="941" wght="-2.3589286115020514" />
        <Con id="2399" src="65" tgt="2271" wght="2.5623854556478922" />
        <Con id="2413" src="2077" tgt="562" wght="4.1072131244068366" />
        <Con id="2415" src="19" tgt="2414" wght="1.6231336010512614" />
        <Con id="2416" src="2414" tgt="2077" wght="4.5650477829375244" />
        <Con id="2423" src="0" tgt="2261" wght="1.2737866969925213" />
        <Con id="2424" src="2414" tgt="562" wght="4.6269045631316894" />
        <Con id="2435" src="2271" tgt="319" wght="-0.52319300826638937" />
        <Con id="2452" src="2" tgt="2451" wght="1.0602953562510857" />
        <Con id="2453" src="2451" tgt="562" wght="4.9956480517757038" />
        <Con id="2481" src="351" tgt="2451" wght="-1.2612536075661092" />
        <Con id="2494" src="1" tgt="2271" wght="2.1396756060226609" />
        <Con id="2501" src="2451" tgt="2261" wght="-1.0631048561916658" />
        <Con id="2544" src="1132" tgt="2261" wght="3.8108686567119272" />
        <Con id="2557" src="580" tgt="2271" wght="0.90318933640936416" />
        <Con id="2565" src="834" tgt="2451" wght="4.9662019166566029" />
        <Con id="2580" src="2043" tgt="2451" wght="-0.068169931650470639" />
        <Con id="2603" src="1132" tgt="2451" wght="-4.9961079506048831" />
        <Con id="2607" src="580" tgt="2606" wght="-2.0201045141834242" />
        <Con id="2608" src="2606" tgt="941" wght="1.3574908494766649" />
        <Con id="2618" src="1418" tgt="2451" wght="1.4672575254559295" />
        <Con id="2626" src="2414" tgt="2451" wght="-2.6784332640519635" />
        <Con id="2651" src="3" tgt="2451" wght="3.8943396597567124" />
        <Con id="2767" src="580" tgt="2766" wght="0.97658626584073815" />
        <Con id="2768" src="2766" tgt="562" wght="5" />
        <Con id="2846" src="65" tgt="2845" wght="4.6987936548702178" />
        <Con id="2847" src="2845" tgt="2261" wght="3.9794740697222539" />
        <Con id="2850" src="1386" tgt="2606" wght="3.9224568324596807" />
        <Con id="2880" src="0" tgt="2879" wght="4.9804709345783271" />
        <Con id="2881" src="2879" tgt="1386" wght="3.9638985156338489" />
        <Con id="2913" src="1418" tgt="2414" wght="-4.2669742600992322" />
        <Con id="2992" src="1" tgt="2414" wght="3.587546867711398" />
        <Con id="2998" src="0" tgt="2997" wght="5" />
        <Con id="2999" src="2997" tgt="27" wght="5" />
        <Con id="3009" src="2766" tgt="2997" wght="-3.2751317415386438" />
        <Con id="3023" src="0" tgt="2606" wght="4.6137253386759882" />
        <Con id="3071" src="2879" tgt="2271" wght="-3.413188013104727" />
        <Con id="3088" src="834" tgt="2766" wght="-1.4636389072984457" />
        <Con id="3164" src="2845" tgt="2271" wght="-1.1236042017117143" />
        <Con id="3180" src="4" tgt="2879" wght="-1.4872087108164767" />
        <Con id="3193" src="1386" tgt="2997" wght="-3.2282383468386389" />
      </Connections>
    </Network>
    <Network id="140664" birthGen="3500" fitness="5000.11669921875">
      <Nodes>
        <Node type="bias" id="0" />
        <Node type="in" id="1" />
        <Node type="in" id="2" />
        <Node type="in" id="3" />
        <Node type="in" id="4" />
        <Node type="out" id="5" />
        <Node type="out" id="6" />
        <Node type="hid" id="19" />
        <Node type="hid" id="27" />
        <Node type="hid" id="65" />
        <Node type="hid" id="319" />
        <Node type="hid" id="339" />
        <Node type="hid" id="351" />
        <Node type="hid" id="421" />
        <Node type="hid" id="562" />
        <Node type="hid" id="580" />
        <Node type="hid" id="749" />
        <Node type="hid" id="834" />
        <Node type="hid" id="941" />
        <Node type="hid" id="1016" />
        <Node type="hid" id="1132" />
        <Node type="hid" id="1386" />
        <Node type="hid" id="1418" />
        <Node type="hid" id="1811" />
        <Node type="hid" id="2043" />
        <Node type="hid" id="2077" />
        <Node type="hid" id="2261" />
        <Node type="hid" id="2271" />
        <Node type="hid" id="2414" />
        <Node type="hid" id="2451" />
        <Node type="hid" id="2606" />
        <Node type="hid" id="2766" />
        <Node type="hid" id="2845" />
        <Node type="hid" id="2879" />
        <Node type="hid" id="2997" />
      </Nodes>
      <Connections>
        <Con id="21" src="19" tgt="6" wght="3.0806784953335842" />
        <Con id="67" src="65" tgt="19" wght="-3.7398071768449559" />
        <Con id="243" src="19" tgt="27" wght="0.25114875151675586" />
        <Con id="249" src="19" tgt="5" wght="-1.2542827069971578" />
        <Con id="259" src="27" tgt="5" wght="0.12557132863101592" />
        <Con id="261" src="2" tgt="27" wght="-0.35637108827590025" />
        <Con id="302" src="65" tgt="27" wght="-2.9605066684263566" />
        <Con id="337" src="319" tgt="5" wght="0.55831483852358965" />
        <Con id="338" src="65" tgt="319" wght="-0.86175006059452042" />
        <Con id="340" src="1" tgt="339" wght="0.53679400717324088" />
        <Con id="341" src="339" tgt="319" wght="-5" />
        <Con id="352" src="4" tgt="351" wght="-3.9056572930497859" />
        <Con id="353" src="351" tgt="65" wght="-3.1243269752989296" />
        <Con id="366" src="339" tgt="6" wght="4.758413183769977" />
        <Con id="384" src="351" tgt="319" wght="-0.2339801321049958" />
        <Con id="422" src="3" tgt="421" wght="-1.699718443751939" />
        <Con id="423" src="421" tgt="339" wght="0.010658458775258211" />
        <Con id="427" src="65" tgt="339" wght="-3.8423586229409357" />
        <Con id="439" src="1" tgt="6" wght="0.60257190095174307" />
        <Con id="464" src="351" tgt="19" wght="0.37725792743179354" />
        <Con id="484" src="0" tgt="65" wght="-1.7298304330825849" />
        <Con id="485" src="351" tgt="339" wght="2.6239787870127267" />
        <Con id="487" src="421" tgt="27" wght="5" />
        <Con id="525" src="351" tgt="6" wght="3.7948496185861575" />
        <Con id="563" src="3" tgt="562" wght="1.24108487359115" />
        <Con id="581" src="1" tgt="580" wght="-4.9608089066113736" />
        <Con id="582" src="580" tgt="65" wght="3.5786196290628358" />
        <Con id="583" src="1" tgt="421" wght="-3.7312024548191145" />
        <Con id="603" src="580" tgt="421" wght="-2.5769174598183024" />
        <Con id="611" src="3" tgt="580" wght="2.7724991704870465" />
        <Con id="615" src="421" tgt="562" wght="2.8528763002508231" />
        <Con id="701" src="0" tgt="580" wght="-2.3828837146140853" />
        <Con id="750" src="562" tgt="749" wght="0.27684117908398104" />
        <Con id="751" src="749" tgt="27" wght="4.3918256751718152" />
        <Con id="762" src="580" tgt="749" wght="2.7343651410294587" />
        <Con id="786" src="580" tgt="339" wght="-0.48979119062036813" />
        <Con id="942" src="65" tgt="941" wght="-2.8811679165710378" />
        <Con id="943" src="941" tgt="562" wght="-1.0652477474445949" />
        <Con id="1017" src="2" tgt="1016" wght="1.8228576280829005" />
        <Con id="1018" src="1016" tgt="65" wght="3.6489142060639694" />
        <Con id="1026" src="1016" tgt="319" wght="-0.42384840548038483" />
        <Con id="1040" src="0" tgt="339" wght="-0.13658894744650754" />
        <Con id="1043" src="580" tgt="351" wght="-0.42920018564419943" />
        <Con id="1052" src="834" tgt="749" wght="1.5214970448549046" />
        <Con id="1066" src="351" tgt="834" wght="1.6779129022500605" />
        <Con id="1067" src="0" tgt="834" wght="-0.48099172679911995" />
        <Con id="1074" src="421" tgt="749" wght="-2.9357493012104645" />
        <Con id="1083" src="1" tgt="562" wght="1.1767837355021988" />
        <Con id="1085" src="2" tgt="562" wght="1.6411296695519655" />
        <Con id="1089" src="65" tgt="834" wght="2.1878475813459146" />
        <Con id="1096" src="19" tgt="562" wght="1.4080534378260583" />
        <Con id="1101" src="834" tgt="562" wght="0.44796095839482086" />
        <Con id="1113" src="3" tgt="65" wght="-3.6180865115805068" />
        <Con id="1115" src="3" tgt="319" wght="-2.7599872363622828" />
        <Con id="1125" src="339" tgt="749" wght="2.8144659321140408" />
        <Con id="1129" src="834" tgt="339" wght="-3.7516930724638908" />
        <Con id="1131" src="19" tgt="319" wght="-1.3255110380061002" />
        <Con id="1133" src="19" tgt="1132" wght="4.7640830931795586" />
        <Con id="1134" src="1132" tgt="834" wght="5" />
        <Con id="1143" src="2" tgt="421" wght="-5" />
        <Con id="1153" src="580" tgt="834" wght="-2.0158876761765319" />
        <Con id="1155" src="351" tgt="1132" wght="1.3973082604484546" />
        <Con id="1157" src="1" tgt="351" wght="0.34335485316734665" />
        <Con id="1159" src="0" tgt="421" wght="3.2877242407940366" />
        <Con id="1184" src="1" tgt="1016" wght="0.99655310590385071" />
        <Con id="1186" src="941" tgt="749" wght="2.54388532470137" />
        <Con id="1214" src="834" tgt="319" wght="-4.8097152076595515" />
        <Con id="1220" src="0" tgt="562" wght="0.37366097296417267" />
        <Con id="1221" src="421" tgt="319" wght="0.78650136164334383" />
        <Con id="1222" src="834" tgt="27" wght="4.2609902131382329" />
        <Con id="1232" src="580" tgt="6" wght="-0.47966808939478006" />
        <Con id="1234" src="1" tgt="834" wght="1.5536529938553147" />
        <Con id="1249" src="319" tgt="749" wght="-1.5632066301920464" />
        <Con id="1253" src="3" tgt="834" wght="-3.7911789010003947" />
        <Con id="1276" src="834" tgt="6" wght="-3.7671288582419771" />
        <Con id="1287" src="1132" tgt="941" wght="-0.80865659190304728" />
        <Con id="1290" src="1132" tgt="6" wght="-4.2200215936646153" />
        <Con id="1295" src="2" tgt="65" wght="1.6095689532271376" />
        <Con id="1297" src="0" tgt="941" wght="1.2335867201994872" />
        <Con id="1298" src="351" tgt="1016" wght="0.35324519029310331" />
        <Con id="1341" src="351" tgt="749" wght="-4.7550988365218236" />
        <Con id="1345" src="1016" tgt="749" wght="-3.4610839222850562" />
        <Con id="1381" src="19" tgt="421" wght="-3.5355790342475748" />
        <Con id="1382" src="0" tgt="1016" wght="1.4982736657818325" />
        <Con id="1387" src="1132" tgt="1386" wght="2.0055791149884916" />
        <Con id="1388" src="1386" tgt="941" wght="-1.5993896880827174" />
        <Con id="1419" src="580" tgt="1418" wght="-4.4480206890072047" />
        <Con id="1420" src="1418" tgt="1132" wght="-0.42503353821104189" />
        <Con id="1425" src="1386" tgt="421" wght="1.1274622686755615" />
        <Con id="1439" src="580" tgt="1016" wght="-3.8011963266907296" />
        <Con id="1451" src="65" tgt="1386" wght="-1.1316322745787666" />
        <Con id="1453" src="1132" tgt="421" wght="-4.8028949511936716" />
        <Con id="1480" src="1418" tgt="941" wght="4.051701777856386" />
        <Con id="1482" src="0" tgt="1132" wght="2.7419432006088726" />
        <Con id="1483" src="1016" tgt="1386" wght="-1.5759986692916361" />
        <Con id="1495" src="1418" tgt="421" wght="-2.9684904105749483" />
        <Con id="1497" src="1" tgt="1132" wght="-1.9302862822973437" />
        <Con id="1499" src="421" tgt="5" wght="2.0670729871805538" />
        <Con id="1507" src="1016" tgt="6" wght="-3.7504183841002634" />
        <Con id="1511" src="1418" tgt="6" wght="-4.4115400023536342" />
        <Con id="1529" src="1386" tgt="6" wght="-2.3572040236715281" />
        <Con id="1562" src="1418" tgt="1386" wght="3.2258363021537662" />
        <Con id="1577" src="351" tgt="1418" wght="-5" />
        <Con id="1585" src="351" tgt="941" wght="-0.34096882057462019" />
        <Con id="1631" src="1418" tgt="834" wght="4.971123096522537" />
        <Con id="1658" src="4" tgt="1132" wght="-2.5156226278205982" />
        <Con id="1684" src="1132" tgt="749" wght="2.4381273113685475" />
        <Con id="1704" src="1418" tgt="339" wght="1.1317598379604861" />
        <Con id="1705" src="1418" tgt="5" wght="-0.63860689892881928" />
        <Con id="1717" src="4" tgt="1386" wght="-5" />
        <Con id="1727" src="1386" tgt="27" wght="0.22832979056010494" />
        <Con id="1740" src="1" tgt="1418" wght="-1.6158376627313316" />
        <Con id="1812" src="19" tgt="1811" wght="-3.6102117258733215" />
        <Con id="1813" src="1811" tgt="1418" wght="0.51309252111689418" />
        <Con id="1819" src="1811" tgt="834" wght="2.8955314256301667" />
        <Con id="1820" src="65" tgt="1811" wght="-3.1537283400179326" />
        <Con id="1831" src="1811" tgt="1386" wght="1.6256714417068903" />
        <Con id="1852" src="1811" tgt="6" wght="-0.90258690476184433" />
        <Con id="1888" src="1811" tgt="5" wght="-4.3000163512993366" />
        <Con id="1932" src="1811" tgt="941" wght="0.68847605834186176" />
        <Con id="1943" src="1811" tgt="749" wght="2.712385100312531" />
        <Con id="2044" src="941" tgt="2043" wght="-3.2844615561480794" />
        <Con id="2045" src="2043" tgt="834" wght="-2.0351656431917413" />
        <Con id="2068" src="2" tgt="1811" wght="-0.22805256887870545" />
        <Con id="2072" src="65" tgt="2043" wght="2.3866248758607673" />
        <Con id="2078" src="580" tgt="2077" wght="-4.3979295789080854" />
        <Con id="2088" src="1811" tgt="2077" wght="-2.7188761738214571" />
        <Con id="2110" src="319" tgt="27" wght="-1.8270819625644106" />
        <Con id="2111" src="2043" tgt="421" wght="4.8266599411738049" />
        <Con id="2149" src="580" tgt="2043" wght="1.8345425755959788" />
        <Con id="2178" src="2077" tgt="2043" wght="-2.0946509083750624" />
        <Con id="2221" src="351" tgt="2077" wght="-3.9720810604685584" />
        <Con id="2262" src="351" tgt="2261" wght="4.247047257783322" />
        <Con id="2263" src="2261" tgt="421" wght="-2.1685449229518676" />
        <Con id="2272" src="2077" tgt="2271" wght="3.1350424394587586" />
        <Con id="2273" src="2271" tgt="941" wght="5" />
        <Con id="2282" src="1811" tgt="2271" wght="0.47619987865110847" />
        <Con id="2314" src="19" tgt="2271" wght="-0.22221620481477311" />
        <Con id="2315" src="2043" tgt="6" wght="1.4155135374273631" />
        <Con id="2350" src="351" tgt="421" wght="-2.4751209248472863" />
        <Con id="2354" src="2077" tgt="941" wght="-2.3589286115020514" />
        <Con id="2399" src="65" tgt="2271" wght="2.5623854556478922" />
        <Con id="2413" src="2077" tgt="562" wght="4.1072131244068366" />
        <Con id="2415" src="19" tgt="2414" wght="1.6231336010512614" />
        <Con id="2416" src="2414" tgt="2077" wght="4.5650477829375244" />
        <Con id="2423" src="0" tgt="2261" wght="1.2737866969925213" />
        <Con id="2424" src="2414" tgt="562" wght="4.6269045631316894" />
        <Con id="2435" src="2271" tgt="319" wght="-0.52319300826638937" />
        <Con id="2452" src="2" tgt="2451" wght="1.0602953562510857" />
        <Con id="2453" src="2451" tgt="562" wght="4.9956480517757038" />
        <Con id="2481" src="351" tgt="2451" wght="-1.2612536075661092" />
        <Con id="2494" src="1" tgt="2271" wght="2.1396756060226609" />
        <Con id="2501" src="2451" tgt="2261" wght="-1.0631048561916658" />
        <Con id="2544" src="1132" tgt="2261" wght="3.8108686567119272" />
        <Con id="2557" src="580" tgt="2271" wght="0.90318933640936416" />
        <Con id="2565" src="834" tgt="2451" wght="4.9662019166566029" />
        <Con id="2580" src="2043" tgt="2451" wght="-0.068169931650470639" />
        <Con id="2603" src="1132" tgt="2451" wght="-4.9961079506048831" />
        <Con id="2607" src="580" tgt="2606" wght="-2.0201045141834242" />
        <Con id="2608" src="2606" tgt="941" wght="1.3574908494766649" />
        <Con id="2618" src="1418" tgt="2451" wght="1.4672575254559295" />
        <Con id="2626" src="2414" tgt="2451" wght="-2.6784332640519635" />
        <Con id="2651" src="3" tgt="2451" wght="3.8943396597567124" />
        <Con id="2767" src="580" tgt="2766" wght="0.97658626584073815" />
        <Con id="2768" src="2766" tgt="562" wght="5" />
        <Con id="2846" src="65" tgt="2845" wght="4.6987936548702178" />
        <Con id="2847" src="2845" tgt="2261" wght="3.9794740697222539" />
        <Con id="2850" src="1386" tgt="2606" wght="3.9224568324596807" />
        <Con id="2880" src="0" tgt="2879" wght="4.9804709345783271" />
        <Con id="2881" src="2879" tgt="1386" wght="3.9638985156338489" />
        <Con id="2913" src="1418" tgt="2414" wght="-4.2669742600992322" />
        <Con id="2992" src="1" tgt="2414" wght="3.587546867711398" />
        <Con id="2998" src="0" tgt="2997" wght="5" />
        <Con id="2999" src="2997" tgt="27" wght="5" />
        <Con id="3009" src="2766" tgt="2997" wght="-3.2751317415386438" />
        <Con id="3023" src="0" tgt="2606" wght="4.6137253386759882" />
        <Con id="3071" src="2879" tgt="2271" wght="-3.413188013104727" />
        <Con id="3088" src="834" tgt="2766" wght="-1.4636389072984457" />
        <Con id="3164" src="2845" tgt="2271" wght="-1.1236042017117143" />
        <Con id="3180" src="4" tgt="2879" wght="-1.4872087108164767" />
        <Con id="3193" src="1386" tgt="2997" wght="-3.2282383468386389" />
      </Connections>
    </Network>
    <Network id="140696" birthGen="3500" fitness="5000.38818359375">
      <Nodes>
        <Node type="bias" id="0" />
        <Node type="in" id="1" />
        <Node type="in" id="2" />
        <Node type="in" id="3" />
        <Node type="in" id="4" />
        <Node type="out" id="5" />
        <Node type="out" id="6" />
        <Node type="hid" id="19" />
        <Node type="hid" id="27" />
        <Node type="hid" id="65" />
        <Node type="hid" id="319" />
        <Node type="hid" id="339" />
        <Node type="hid" id="351" />
        <Node type="hid" id="421" />
        <Node type="hid" id="562" />
        <Node type="hid" id="580" />
        <Node type="hid" id="749" />
        <Node type="hid" id="834" />
        <Node type="hid" id="941" />
        <Node type="hid" id="1016" />
        <Node type="hid" id="1132" />
        <Node type="hid" id="1386" />
        <Node type="hid" id="1418" />
        <Node type="hid" id="1811" />
        <Node type="hid" id="2043" />
        <Node type="hid" id="2077" />
        <Node type="hid" id="2261" />
        <Node type="hid" id="2271" />
        <Node type="hid" id="2414" />
        <Node type="hid" id="2451" />
        <Node type="hid" id="2606" />
        <Node type="hid" id="2766" />
        <Node type="hid" id="2845" />
        <Node type="hid" id="2879" />
        <Node type="hid" id="2997" />
        <Node type="hid" id="3170" />
      </Nodes>
      <Connections>
        <Con id="21" src="19" tgt="6" wght="3.0806784953335842" />
        <Con id="67" src="65" tgt="19" wght="-3.7398071768449559" />
        <Con id="243" src="19" tgt="27" wght="0.25114875151675586" />
        <Con id="249" src="19" tgt="5" wght="-1.2542827069971578" />
        <Con id="259" src="27" tgt="5" wght="0.12557132863101592" />
        <Con id="261" src="2" tgt="27" wght="-0.35637108827590025" />
        <Con id="302" src="65" tgt="27" wght="-2.9605066684263566" />
        <Con id="337" src="319" tgt="5" wght="0.55831483852358965" />
        <Con id="338" src="65" tgt="319" wght="0.594504490727359" />
        <Con id="340" src="1" tgt="339" wght="0.53679400717324088" />
        <Con id="341" src="339" tgt="319" wght="-4.9971339366627152" />
        <Con id="352" src="4" tgt="351" wght="-2.0239805430173874" />
        <Con id="353" src="351" tgt="65" wght="-3.1243269752989296" />
        <Con id="366" src="339" tgt="6" wght="4.7402792072584221" />
        <Con id="384" src="351" tgt="319" wght="-0.012716899712628266" />
        <Con id="422" src="3" tgt="421" wght="-2.6455299219449571" />
        <Con id="423" src="421" tgt="339" wght="-2.0436692541356027" />
        <Con id="427" src="65" tgt="339" wght="-3.8448209438720879" />
        <Con id="439" src="1" tgt="6" wght="0.60257190095174307" />
        <Con id="464" src="351" tgt="19" wght="0.37725792743179354" />
        <Con id="484" src="0" tgt="65" wght="-1.6734801910016917" />
        <Con id="485" src="351" tgt="339" wght="2.2027767610622222" />
        <Con id="487" src="421" tgt="27" wght="4.9153678987607456" />
        <Con id="525" src="351" tgt="6" wght="4.2216635064022094" />
        <Con id="563" src="3" tgt="562" wght="1.2460566239330471" />
        <Con id="581" src="1" tgt="580" wght="-5" />
        <Con id="582" src="580" tgt="65" wght="3.5786196290628358" />
        <Con id="583" src="1" tgt="421" wght="-3.7659951123749917" />
        <Con id="603" src="580" tgt="421" wght="-0.63606070354580879" />
        <Con id="611" src="3" tgt="580" wght="2.7724991704870465" />
        <Con id="615" src="421" tgt="562" wght="2.8528763002508231" />
        <Con id="701" src="0" tgt="580" wght="-2.3769375715843646" />
        <Con id="750" src="562" tgt="749" wght="0.27684117908398104" />
        <Con id="751" src="749" tgt="27" wght="4.7472796816694984" />
        <Con id="762" src="580" tgt="749" wght="2.7343651410294587" />
        <Con id="786" src="580" tgt="339" wght="-0.4857785048673619" />
        <Con id="942" src="65" tgt="941" wght="-1.3621456235058009" />
        <Con id="943" src="941" tgt="562" wght="-1.0528327581745347" />
        <Con id="1017" src="2" tgt="1016" wght="1.7585745441597957" />
        <Con id="1018" src="1016" tgt="65" wght="3.6489142060639694" />
        <Con id="1026" src="1016" tgt="319" wght="-0.42384840548038483" />
        <Con id="1040" src="0" tgt="339" wght="-0.1549401299457919" />
        <Con id="1043" src="580" tgt="351" wght="-0.34242887529619609" />
        <Con id="1052" src="834" tgt="749" wght="1.5214970448549046" />
        <Con id="1066" src="351" tgt="834" wght="1.6998678076558709" />
        <Con id="1067" src="0" tgt="834" wght="-0.48099172679911995" />
        <Con id="1074" src="421" tgt="749" wght="-4.25257177367905" />
        <Con id="1083" src="1" tgt="562" wght="1.1767837355021988" />
        <Con id="1089" src="65" tgt="834" wght="2.1573826361808717" />
        <Con id="1096" src="19" tgt="562" wght="1.4080534378260583" />
        <Con id="1101" src="834" tgt="562" wght="0.4616196152645004" />
        <Con id="1113" src="3" tgt="65" wght="-3.6180865115805068" />
        <Con id="1115" src="3" tgt="319" wght="-2.7527834012713597" />
        <Con id="1125" src="339" tgt="749" wght="2.8144659321140408" />
        <Con id="1129" src="834" tgt="339" wght="-3.7516930724638908" />
        <Con id="1131" src="19" tgt="319" wght="-1.5849681206794934" />
        <Con id="1133" src="19" tgt="1132" wght="-3.1593962572515011" />
        <Con id="1134" src="1132" tgt="834" wght="5" />
        <Con id="1143" src="2" tgt="421" wght="-4.036726361644889" />
        <Con id="1153" src="580" tgt="834" wght="-2.0158876761765319" />
        <Con id="1155" src="351" tgt="1132" wght="1.2514966667029117" />
        <Con id="1157" src="1" tgt="351" wght="0.4188882097584305" />
        <Con id="1159" src="0" tgt="421" wght="2.1204694759116958" />
        <Con id="1184" src="1" tgt="1016" wght="0.99655310590385071" />
        <Con id="1186" src="941" tgt="749" wght="2.54388532470137" />
        <Con id="1214" src="834" tgt="319" wght="-4.8097152076595515" />
        <Con id="1220" src="0" tgt="562" wght="0.93355115500792518" />
        <Con id="1222" src="834" tgt="27" wght="4.2609902131382329" />
        <Con id="1232" src="580" tgt="6" wght="-0.49030844998553541" />
        <Con id="1234" src="1" tgt="834" wght="1.5536529938553147" />
        <Con id="1249" src="319" tgt="749" wght="-0.85152648974833745" />
        <Con id="1253" src="3" tgt="834" wght="-3.8099573093140018" />
        <Con id="1276" src="834" tgt="6" wght="-3.9786550600260844" />
        <Con id="1287" src="1132" tgt="941" wght="-0.79887278462216638" />
        <Con id="1290" src="1132" tgt="6" wght="-4.2200215936646153" />
        <Con id="1295" src="2" tgt="65" wght="1.6095689532271376" />
        <Con id="1297" src="0" tgt="941" wght="1.2335867201994872" />
        <Con id="1298" src="351" tgt="1016" wght="-0.808809776736697" />
        <Con id="1341" src="351" tgt="749" wght="-4.7550988365218236" />
        <Con id="1345" src="1016" tgt="749" wght="-3.4610839222850562" />
        <Con id="1381" src="19" tgt="421" wght="-4.0511330534785337" />
        <Con id="1382" src="0" tgt="1016" wght="1.4982736657818325" />
        <Con id="1387" src="1132" tgt="1386" wght="0.6435874984850517" />
        <Con id="1388" src="1386" tgt="941" wght="-1.5590398306078765" />
        <Con id="1419" src="580" tgt="1418" wght="-4.4480206890072047" />
        <Con id="1420" src="1418" tgt="1132" wght="0.27494648717899289" />
        <Con id="1425" src="1386" tgt="421" wght="-0.10046932610134013" />
        <Con id="1439" src="580" tgt="1016" wght="-3.8011963266907296" />
        <Con id="1451" src="65" tgt="1386" wght="-1.1316322745787666" />
        <Con id="1453" src="1132" tgt="421" wght="-4.8284052563657074" />
        <Con id="1480" src="1418" tgt="941" wght="4.0659963145455666" />
        <Con id="1482" src="0" tgt="1132" wght="2.7458164423919476" />
        <Con id="1483" src="1016" tgt="1386" wght="-1.633647384926793" />
        <Con id="1495" src="1418" tgt="421" wght="-3.4020448201611262" />
        <Con id="1497" src="1" tgt="1132" wght="-3.8240756258535313" />
        <Con id="1499" src="421" tgt="5" wght="2.8194867227273925" />
        <Con id="1507" src="1016" tgt="6" wght="-3.7504183841002634" />
        <Con id="1511" src="1418" tgt="6" wght="-4.4115400023536342" />
        <Con id="1529" src="1386" tgt="6" wght="-2.3572040236715281" />
        <Con id="1562" src="1418" tgt="1386" wght="3.2258363021537662" />
        <Con id="1577" src="351" tgt="1418" wght="-5" />
        <Con id="1585" src="351" tgt="941" wght="-2.0137490531116704" />
        <Con id="1631" src="1418" tgt="834" wght="4.3180591718845056" />
        <Con id="1658" src="4" tgt="1132" wght="-2.5274395237492637" />
        <Con id="1684" src="1132" tgt="749" wght="-3.9879115950316191" />
        <Con id="1704" src="1418" tgt="339" wght="1.1317598379604861" />
        <Con id="1705" src="1418" tgt="5" wght="-0.66367493482025841" />
        <Con id="1717" src="4" tgt="1386" wght="-5" />
        <Con id="1727" src="1386" tgt="27" wght="0.25173090409831017" />
        <Con id="1740" src="1" tgt="1418" wght="-1.6158376627313316" />
        <Con id="1812" src="19" tgt="1811" wght="-3.6131325501852669" />
        <Con id="1813" src="1811" tgt="1418" wght="0.52216663602399116" />
        <Con id="1819" src="1811" tgt="834" wght="2.8955314256301667" />
        <Con id="1820" src="65" tgt="1811" wght="-3.136578010245985" />
        <Con id="1831" src="1811" tgt="1386" wght="1.6256714417068903" />
        <Con id="1852" src="1811" tgt="6" wght="-0.90258690476184433" />
        <Con id="1888" src="1811" tgt="5" wght="-4.3000163512993366" />
        <Con id="1932" src="1811" tgt="941" wght="0.70393133442848921" />
        <Con id="1943" src="1811" tgt="749" wght="2.712385100312531" />
        <Con id="2044" src="941" tgt="2043" wght="-3.2844615561480794" />
        <Con id="2045" src="2043" tgt="834" wght="-2.0271505146509039" />
        <Con id="2068" src="2" tgt="1811" wght="-0.18534232761226965" />
        <Con id="2072" src="65" tgt="2043" wght="1.5493960527035706" />
        <Con id="2078" src="580" tgt="2077" wght="-4.3979295789080854" />
        <Con id="2088" src="1811" tgt="2077" wght="-2.7549740473173747" />
        <Con id="2110" src="319" tgt="27" wght="-2.1644948949086662" />
        <Con id="2111" src="2043" tgt="421" wght="4.8348943171604581" />
        <Con id="2149" src="580" tgt="2043" wght="2.4517837222951839" />
        <Con id="2178" src="2077" tgt="2043" wght="-2.099029389374198" />
        <Con id="2221" src="351" tgt="2077" wght="-0.94091897685067" />
        <Con id="2262" src="351" tgt="2261" wght="4.247047257783322" />
        <Con id="2263" src="2261" tgt="421" wght="-2.1896676921113709" />
        <Con id="2272" src="2077" tgt="2271" wght="3.1099290783375788" />
        <Con id="2273" src="2271" tgt="941" wght="5" />
        <Con id="2282" src="1811" tgt="2271" wght="0.17241681090264516" />
        <Con id="2314" src="19" tgt="2271" wght="-0.22221620481477311" />
        <Con id="2315" src="2043" tgt="6" wght="1.4155135374273631" />
        <Con id="2350" src="351" tgt="421" wght="-2.4355288967490196" />
        <Con id="2354" src="2077" tgt="941" wght="-2.3589286115020514" />
        <Con id="2399" src="65" tgt="2271" wght="2.5515322045588618" />
        <Con id="2413" src="2077" tgt="562" wght="4.1072131244068366" />
        <Con id="2415" src="19" tgt="2414" wght="1.61333318078642" />
        <Con id="2416" src="2414" tgt="2077" wght="4.5650477829375244" />
        <Con id="2423" src="0" tgt="2261" wght="1.2790363468229771" />
        <Con id="2424" src="2414" tgt="562" wght="5" />
        <Con id="2452" src="2" tgt="2451" wght="1.0602953562510857" />
        <Con id="2453" src="2451" tgt="562" wght="4.9618289623121345" />
        <Con id="2481" src="351" tgt="2451" wght="-1.4681913454084787" />
        <Con id="2494" src="1" tgt="2271" wght="0.27234525636769713" />
        <Con id="2501" src="2451" tgt="2261" wght="-1.0631048561916658" />
        <Con id="2544" src="1132" tgt="2261" wght="3.8108686567119272" />
        <Con id="2557" src="580" tgt="2271" wght="0.89648677625305284" />
        <Con id="2565" src="834" tgt="2451" wght="4.9662019166566029" />
        <Con id="2580" src="2043" tgt="2451" wght="0.7889837921524504" />
        <Con id="2603" src="1132" tgt="2451" wght="-4.264964753806697" />
        <Con id="2607" src="580" tgt="2606" wght="-1.9722022428902013" />
        <Con id="2608" src="2606" tgt="941" wght="1.6272223925369655" />
        <Con id="2618" src="1418" tgt="2451" wght="0.383040881927662" />
        <Con id="2626" src="2414" tgt="2451" wght="-3.929213103417931" />
        <Con id="2651" src="3" tgt="2451" wght="3.8943396597567124" />
        <Con id="2767" src="580" tgt="2766" wght="0.97658626584073815" />
        <Con id="2768" src="2766" tgt="562" wght="5" />
        <Con id="2846" src="65" tgt="2845" wght="1.3161831589250477" />
        <Con id="2847" src="2845" tgt="2261" wght="3.9718176634636708" />
        <Con id="2850" src="1386" tgt="2606" wght="3.9224568324596807" />
        <Con id="2880" src="0" tgt="2879" wght="5" />
        <Con id="2881" src="2879" tgt="1386" wght="3.9453515246019717" />
        <Con id="2913" src="1418" tgt="2414" wght="-4.2669742600992322" />
        <Con id="2992" src="1" tgt="2414" wght="3.587546867711398" />
        <Con id="2998" src="0" tgt="2997" wght="5" />
        <Con id="2999" src="2997" tgt="27" wght="5" />
        <Con id="3009" src="2766" tgt="2997" wght="-3.2751317415386438" />
        <Con id="3023" src="0" tgt="2606" wght="4.9966993979846794" />
        <Con id="3071" src="2879" tgt="2271" wght="-3.4391652843847069" />
        <Con id="3088" src="834" tgt="2766" wght="-1.4820788979850725" />
        <Con id="3171" src="421" tgt="3170" wght="2.2964883642271161" />
        <Con id="3172" src="3170" tgt="319" wght="3.6912628079668961" />
      </Connections>
    </Network>
    <Network id="140694" birthGen="3500" fitness="5000.38818359375">
      <Nodes>
        <Node type="bias" id="0" />
        <Node type="in" id="1" />
        <Node type="in" id="2" />
        <Node type="in" id="3" />
        <Node type="in" id="4" />
        <Node type="out" id="5" />
        <Node type="out" id="6" />
        <Node type="hid" id="19" />
        <Node type="hid" id="27" />
        <Node type="hid" id="65" />
        <Node type="hid" id="319" />
        <Node type="hid" id="339" />
        <Node type="hid" id="351" />
        <Node type="hid" id="421" />
        <Node type="hid" id="562" />
        <Node type="hid" id="580" />
        <Node type="hid" id="749" />
        <Node type="hid" id="834" />
        <Node type="hid" id="941" />
        <Node type="hid" id="1016" />
        <Node type="hid" id="1132" />
        <Node type="hid" id="1386" />
        <Node type="hid" id="1418" />
        <Node type="hid" id="1811" />
        <Node type="hid" id="2043" />
        <Node type="hid" id="2077" />
        <Node type="hid" id="2261" />
        <Node type="hid" id="2271" />
        <Node type="hid" id="2414" />
        <Node type="hid" id="2451" />
        <Node type="hid" id="2606" />
        <Node type="hid" id="2766" />
        <Node type="hid" id="2845" />
        <Node type="hid" id="2879" />
        <Node type="hid" id="2997" />
        <Node type="hid" id="3170" />
      </Nodes>
      <Connections>
        <Con id="21" src="19" tgt="6" wght="3.0806784953335842" />
        <Con id="67" src="65" tgt="19" wght="-3.7398071768449559" />
        <Con id="243" src="19" tgt="27" wght="0.25114875151675586" />
        <Con id="249" src="19" tgt="5" wght="-1.2542827069971578" />
        <Con id="259" src="27" tgt="5" wght="0.12557132863101592" />
        <Con id="261" src="2" tgt="27" wght="-0.35637108827590025" />
        <Con id="302" src="65" tgt="27" wght="-2.9605066684263566" />
        <Con id="337" src="319" tgt="5" wght="0.55831483852358965" />
        <Con id="338" src="65" tgt="319" wght="0.594504490727359" />
        <Con id="340" src="1" tgt="339" wght="0.53679400717324088" />
        <Con id="341" src="339" tgt="319" wght="-4.9971339366627152" />
        <Con id="352" src="4" tgt="351" wght="-2.0239805430173874" />
        <Con id="353" src="351" tgt="65" wght="-3.1243269752989296" />
        <Con id="366" src="339" tgt="6" wght="4.7402792072584221" />
        <Con id="384" src="351" tgt="319" wght="-0.012716899712628266" />
        <Con id="422" src="3" tgt="421" wght="-2.6455299219449571" />
        <Con id="423" src="421" tgt="339" wght="-1.5734557985226829" />
        <Con id="427" src="65" tgt="339" wght="-3.8448209438720879" />
        <Con id="439" src="1" tgt="6" wght="0.60257190095174307" />
        <Con id="464" src="351" tgt="19" wght="0.37725792743179354" />
        <Con id="484" src="0" tgt="65" wght="-1.6734801910016917" />
        <Con id="485" src="351" tgt="339" wght="2.2027767610622222" />
        <Con id="487" src="421" tgt="27" wght="4.9153678987607456" />
        <Con id="525" src="351" tgt="6" wght="4.2216635064022094" />
        <Con id="563" src="3" tgt="562" wght="1.2460566239330471" />
        <Con id="581" src="1" tgt="580" wght="-5" />
        <Con id="582" src="580" tgt="65" wght="3.5786196290628358" />
        <Con id="583" src="1" tgt="421" wght="-3.7659951123749917" />
        <Con id="603" src="580" tgt="421" wght="-0.63606070354580879" />
        <Con id="611" src="3" tgt="580" wght="2.7724991704870465" />
        <Con id="615" src="421" tgt="562" wght="2.8528763002508231" />
        <Con id="701" src="0" tgt="580" wght="-2.3769375715843646" />
        <Con id="750" src="562" tgt="749" wght="0.27684117908398104" />
        <Con id="751" src="749" tgt="27" wght="4.7472796816694984" />
        <Con id="762" src="580" tgt="749" wght="2.7343651410294587" />
        <Con id="786" src="580" tgt="339" wght="-0.4857785048673619" />
        <Con id="942" src="65" tgt="941" wght="-1.3621456235058009" />
        <Con id="943" src="941" tgt="562" wght="-1.0528327581745347" />
        <Con id="1017" src="2" tgt="1016" wght="1.7585745441597957" />
        <Con id="1018" src="1016" tgt="65" wght="3.6489142060639694" />
        <Con id="1026" src="1016" tgt="319" wght="-0.42384840548038483" />
        <Con id="1040" src="0" tgt="339" wght="-0.1549401299457919" />
        <Con id="1043" src="580" tgt="351" wght="-0.34242887529619609" />
        <Con id="1052" src="834" tgt="749" wght="1.5214970448549046" />
        <Con id="1066" src="351" tgt="834" wght="1.6998678076558709" />
        <Con id="1067" src="0" tgt="834" wght="-0.48099172679911995" />
        <Con id="1074" src="421" tgt="749" wght="-4.25257177367905" />
        <Con id="1083" src="1" tgt="562" wght="1.1767837355021988" />
        <Con id="1089" src="65" tgt="834" wght="2.1573826361808717" />
        <Con id="1096" src="19" tgt="562" wght="1.4080534378260583" />
        <Con id="1101" src="834" tgt="562" wght="0.4616196152645004" />
        <Con id="1113" src="3" tgt="65" wght="-3.6180865115805068" />
        <Con id="1115" src="3" tgt="319" wght="-2.7527834012713597" />
        <Con id="1125" src="339" tgt="749" wght="2.8144659321140408" />
        <Con id="1129" src="834" tgt="339" wght="-3.7516930724638908" />
        <Con id="1131" src="19" tgt="319" wght="-1.5849681206794934" />
        <Con id="1133" src="19" tgt="1132" wght="-3.1593962572515011" />
        <Con id="1134" src="1132" tgt="834" wght="5" />
        <Con id="1143" src="2" tgt="421" wght="-4.036726361644889" />
        <Con id="1153" src="580" tgt="834" wght="-2.0158876761765319" />
        <Con id="1155" src="351" tgt="1132" wght="1.2514966667029117" />
        <Con id="1157" src="1" tgt="351" wght="0.4188882097584305" />
        <Con id="1159" src="0" tgt="421" wght="2.1204694759116958" />
        <Con id="1184" src="1" tgt="1016" wght="0.99655310590385071" />
        <Con id="1186" src="941" tgt="749" wght="2.54388532470137" />
        <Con id="1214" src="834" tgt="319" wght="-4.8097152076595515" />
        <Con id="1220" src="0" tgt="562" wght="0.93355115500792518" />
        <Con id="1222" src="834" tgt="27" wght="4.2609902131382329" />
        <Con id="1232" src="580" tgt="6" wght="-0.49030844998553541" />
        <Con id="1234" src="1" tgt="834" wght="1.5536529938553147" />
        <Con id="1249" src="319" tgt="749" wght="-0.85152648974833745" />
        <Con id="1253" src="3" tgt="834" wght="-3.8099573093140018" />
        <Con id="1276" src="834" tgt="6" wght="-3.9786550600260844" />
        <Con id="1287" src="1132" tgt="941" wght="-0.79887278462216638" />
        <Con id="1290" src="1132" tgt="6" wght="-4.2200215936646153" />
        <Con id="1295" src="2" tgt="65" wght="1.6095689532271376" />
        <Con id="1297" src="0" tgt="941" wght="1.2335867201994872" />
        <Con id="1298" src="351" tgt="1016" wght="-0.808809776736697" />
        <Con id="1341" src="351" tgt="749" wght="-4.7550988365218236" />
        <Con id="1345" src="1016" tgt="749" wght="-3.4610839222850562" />
        <Con id="1381" src="19" tgt="421" wght="-4.0511330534785337" />
        <Con id="1382" src="0" tgt="1016" wght="1.4982736657818325" />
        <Con id="1387" src="1132" tgt="1386" wght="0.6435874984850517" />
        <Con id="1388" src="1386" tgt="941" wght="-1.5590398306078765" />
        <Con id="1419" src="580" tgt="1418" wght="-4.4480206890072047" />
        <Con id="1420" src="1418" tgt="1132" wght="0.27494648717899289" />
        <Con id="1425" src="1386" tgt="421" wght="-0.10046932610134013" />
        <Con id="1439" src="580" tgt="1016" wght="-3.8011963266907296" />
        <Con id="1451" src="65" tgt="1386" wght="0.22250674981619412" />
        <Con id="1453" src="1132" tgt="421" wght="-4.8284052563657074" />
        <Con id="1480" src="1418" tgt="941" wght="4.0659963145455666" />
        <Con id="1482" src="0" tgt="1132" wght="2.7458164423919476" />
        <Con id="1483" src="1016" tgt="1386" wght="-1.633647384926793" />
        <Con id="1495" src="1418" tgt="421" wght="-3.4020448201611262" />
        <Con id="1497" src="1" tgt="1132" wght="-3.8240756258535313" />
        <Con id="1499" src="421" tgt="5" wght="2.7978532335871225" />
        <Con id="1507" src="1016" tgt="6" wght="-3.7504183841002634" />
        <Con id="1511" src="1418" tgt="6" wght="-4.4115400023536342" />
        <Con id="1529" src="1386" tgt="6" wght="-2.3572040236715281" />
        <Con id="1562" src="1418" tgt="1386" wght="3.2258363021537662" />
        <Con id="1577" src="351" tgt="1418" wght="-5" />
        <Con id="1585" src="351" tgt="941" wght="-2.0137490531116704" />
        <Con id="1631" src="1418" tgt="834" wght="4.3180591718845056" />
        <Con id="1658" src="4" tgt="1132" wght="-2.5274395237492637" />
        <Con id="1684" src="1132" tgt="749" wght="-3.9879115950316191" />
        <Con id="1704" src="1418" tgt="339" wght="1.1317598379604861" />
        <Con id="1705" src="1418" tgt="5" wght="-0.66367493482025841" />
        <Con id="1717" src="4" tgt="1386" wght="-5" />
        <Con id="1727" src="1386" tgt="27" wght="0.25173090409831017" />
        <Con id="1740" src="1" tgt="1418" wght="-1.6158376627313316" />
        <Con id="1812" src="19" tgt="1811" wght="-3.6131325501852669" />
        <Con id="1813" src="1811" tgt="1418" wght="0.52216663602399116" />
        <Con id="1819" src="1811" tgt="834" wght="2.8955314256301667" />
        <Con id="1820" src="65" tgt="1811" wght="-3.136578010245985" />
        <Con id="1831" src="1811" tgt="1386" wght="1.6256714417068903" />
        <Con id="1852" src="1811" tgt="6" wght="-0.90258690476184433" />
        <Con id="1888" src="1811" tgt="5" wght="-4.3000163512993366" />
        <Con id="1932" src="1811" tgt="941" wght="0.70393133442848921" />
        <Con id="1943" src="1811" tgt="749" wght="2.712385100312531" />
        <Con id="2044" src="941" tgt="2043" wght="-3.2844615561480794" />
        <Con id="2045" src="2043" tgt="834" wght="-2.0271505146509039" />
        <Con id="2068" src="2" tgt="1811" wght="-0.18534232761226965" />
        <Con id="2072" src="65" tgt="2043" wght="1.5493960527035706" />
        <Con id="2078" src="580" tgt="2077" wght="-4.3979295789080854" />
        <Con id="2088" src="1811" tgt="2077" wght="-2.7549740473173747" />
        <Con id="2110" src="319" tgt="27" wght="-2.1644948949086662" />
        <Con id="2111" src="2043" tgt="421" wght="4.8348943171604581" />
        <Con id="2149" src="580" tgt="2043" wght="2.4517837222951839" />
        <Con id="2178" src="2077" tgt="2043" wght="-2.099029389374198" />
        <Con id="2221" src="351" tgt="2077" wght="-0.94091897685067" />
        <Con id="2262" src="351" tgt="2261" wght="4.247047257783322" />
        <Con id="2263" src="2261" tgt="421" wght="-2.1896676921113709" />
        <Con id="2272" src="2077" tgt="2271" wght="3.1099290783375788" />
        <Con id="2273" src="2271" tgt="941" wght="5" />
        <Con id="2282" src="1811" tgt="2271" wght="0.17241681090264516" />
        <Con id="2314" src="19" tgt="2271" wght="-0.21799637472413902" />
        <Con id="2315" src="2043" tgt="6" wght="1.4155135374273631" />
        <Con id="2350" src="351" tgt="421" wght="-2.4355288967490196" />
        <Con id="2354" src="2077" tgt="941" wght="-2.3589286115020514" />
        <Con id="2399" src="65" tgt="2271" wght="2.5515322045588618" />
        <Con id="2413" src="2077" tgt="562" wght="4.1072131244068366" />
        <Con id="2415" src="19" tgt="2414" wght="1.61333318078642" />
        <Con id="2416" src="2414" tgt="2077" wght="4.5650477829375244" />
        <Con id="2423" src="0" tgt="2261" wght="1.2790363468229771" />
        <Con id="2424" src="2414" tgt="562" wght="5" />
        <Con id="2452" src="2" tgt="2451" wght="1.0602953562510857" />
        <Con id="2453" src="2451" tgt="562" wght="4.9618289623121345" />
        <Con id="2481" src="351" tgt="2451" wght="-1.4681913454084787" />
        <Con id="2494" src="1" tgt="2271" wght="0.27234525636769713" />
        <Con id="2501" src="2451" tgt="2261" wght="-1.0631048561916658" />
        <Con id="2544" src="1132" tgt="2261" wght="3.8108686567119272" />
        <Con id="2557" src="580" tgt="2271" wght="0.89648677625305284" />
        <Con id="2565" src="834" tgt="2451" wght="4.9662019166566029" />
        <Con id="2580" src="2043" tgt="2451" wght="0.7889837921524504" />
        <Con id="2603" src="1132" tgt="2451" wght="-4.264964753806697" />
        <Con id="2607" src="580" tgt="2606" wght="-1.9722022428902013" />
        <Con id="2608" src="2606" tgt="941" wght="1.6272223925369655" />
        <Con id="2618" src="1418" tgt="2451" wght="0.383040881927662" />
        <Con id="2626" src="2414" tgt="2451" wght="-3.929213103417931" />
        <Con id="2651" src="3" tgt="2451" wght="3.8943396597567124" />
        <Con id="2767" src="580" tgt="2766" wght="0.97658626584073815" />
        <Con id="2768" src="2766" tgt="562" wght="5" />
        <Con id="2846" src="65" tgt="2845" wght="1.3161831589250477" />
        <Con id="2847" src="2845" tgt="2261" wght="3.9718176634636708" />
        <Con id="2850" src="1386" tgt="2606" wght="3.9224568324596807" />
        <Con id="2880" src="0" tgt="2879" wght="5" />
        <Con id="2881" src="2879" tgt="1386" wght="3.9453515246019717" />
        <Con id="2913" src="1418" tgt="2414" wght="-4.2669742600992322" />
        <Con id="2992" src="1" tgt="2414" wght="3.587546867711398" />
        <Con id="2998" src="0" tgt="2997" wght="5" />
        <Con id="2999" src="2997" tgt="27" wght="5" />
        <Con id="3009" src="2766" tgt="2997" wght="-3.2751317415386438" />
        <Con id="3023" src="0" tgt="2606" wght="4.9966993979846794" />
        <Con id="3071" src="2879" tgt="2271" wght="-3.4391652843847069" />
        <Con id="3088" src="834" tgt="2766" wght="-1.4820788979850725" />
        <Con id="3171" src="421" tgt="3170" wght="2.2964883642271161" />
        <Con id="3172" src="3170" tgt="319" wght="3.6912628079668961" />
      </Connections>
    </Network>
    <Network id="140685" birthGen="3500" fitness="5000.38818359375">
      <Nodes>
        <Node type="bias" id="0" />
        <Node type="in" id="1" />
        <Node type="in" id="2" />
        <Node type="in" id="3" />
        <Node type="in" id="4" />
        <Node type="out" id="5" />
        <Node type="out" id="6" />
        <Node type="hid" id="19" />
        <Node type="hid" id="27" />
        <Node type="hid" id="65" />
        <Node type="hid" id="319" />
        <Node type="hid" id="339" />
        <Node type="hid" id="351" />
        <Node type="hid" id="421" />
        <Node type="hid" id="562" />
        <Node type="hid" id="580" />
        <Node type="hid" id="749" />
        <Node type="hid" id="834" />
        <Node type="hid" id="941" />
