<?xml version="1.0" encoding="utf-8"?>
<Root>
  <ActivationFunctions>
    <Fn id="0" name="SteepenedSigmoid" prob="1" />
  </ActivationFunctions>
  <Networks>
    <Network id="6344" birthGen="150" fitness="896.16497802734375">
      <Nodes>
        <Node type="bias" id="0" />
        <Node type="in" id="1" />
        <Node type="in" id="2" />
        <Node type="in" id="3" />
        <Node type="in" id="4" />
        <Node type="out" id="5" />
        <Node type="out" id="6" />
        <Node type="hid" id="18" />
        <Node type="hid" id="75" />
        <Node type="hid" id="99" />
      </Nodes>
      <Connections>
        <Con id="19" src="3" tgt="18" wght="4.3684452245751313" />
        <Con id="53" src="4" tgt="18" wght="-0.076524942381599848" />
        <Con id="76" src="18" tgt="75" wght="-0.65200019482965366" />
        <Con id="100" src="75" tgt="99" wght="-0.39365658979818546" />
        <Con id="101" src="99" tgt="6" wght="2.1448332626531119" />
        <Con id="170" src="3" tgt="75" wght="2.209736164230971" />
        <Con id="200" src="1" tgt="75" wght="-1.2312949728220701" />
        <Con id="206" src="75" tgt="6" wght="2.4289882425780656" />
      </Connections>
    </Network>
    <Network id="6378" birthGen="150" fitness="896.16497802734375">
      <Nodes>
        <Node type="bias" id="0" />
        <Node type="in" id="1" />
        <Node type="in" id="2" />
        <Node type="in" id="3" />
        <Node type="in" id="4" />
        <Node type="out" id="5" />
        <Node type="out" id="6" />
        <Node type="hid" id="18" />
        <Node type="hid" id="75" />
        <Node type="hid" id="99" />
      </Nodes>
      <Connections>
        <Con id="19" src="3" tgt="18" wght="4.3684452245751313" />
        <Con id="22" src="18" tgt="5" wght="-2.2450027266040093" />
        <Con id="53" src="4" tgt="18" wght="-0.076524942381599848" />
        <Con id="76" src="18" tgt="75" wght="-1.1524036679106424" />
        <Con id="100" src="75" tgt="99" wght="-3.8352544605731964" />
        <Con id="101" src="99" tgt="6" wght="2.1448332626531119" />
        <Con id="170" src="3" tgt="75" wght="3.2364000612869859" />
        <Con id="206" src="75" tgt="6" wght="2.4289882425780656" />
        <Con id="214" src="2" tgt="75" wght="-0.63275120908807436" />
      </Connections>
    </Network>
    <Network id="6346" birthGen="150" fitness="896.16497802734375">
      <Nodes>
        <Node type="bias" id="0" />
        <Node type="in" id="1" />
        <Node type="in" id="2" />
        <Node type="in" id="3" />
        <Node type="in" id="4" />
        <Node type="out" id="5" />
        <Node type="out" id="6" />
        <Node type="hid" id="18" />
        <Node type="hid" id="75" />
        <Node type="hid" id="99" />
      </Nodes>
      <Connections>
        <Con id="19" src="3" tgt="18" wght="4.4483257148516575" />
        <Con id="22" src="18" tgt="5" wght="-2.2014681891857304" />
        <Con id="53" src="4" tgt="18" wght="-0.076524942381599848" />
        <Con id="76" src="18" tgt="75" wght="-1.5790511953113151" />
        <Con id="100" src="75" tgt="99" wght="-0.39365658979818546" />
        <Con id="101" src="99" tgt="6" wght="2.1448332626531119" />
        <Con id="170" src="3" tgt="75" wght="2.2099054320062343" />
        <Con id="206" src="75" tgt="6" wght="2.4289882425780656" />
      </Connections>
    </Network>
    <Network id="6349" birthGen="150" fitness="896.16497802734375">
      <Nodes>
        <Node type="bias" id="0" />
        <Node type="in" id="1" />
        <Node type="in" id="2" />
        <Node type="in" id="3" />
        <Node type="in" id="4" />
        <Node type="out" id="5" />
        <Node type="out" id="6" />
        <Node type="hid" id="18" />
        <Node type="hid" id="75" />
        <Node type="hid" id="99" />
        <Node type="hid" id="209" />
      </Nodes>
      <Connections>
        <Con id="19" src="3" tgt="18" wght="3.971656112232032" />
        <Con id="22" src="18" tgt="5" wght="-1.3916921780644762" />
        <Con id="53" src="4" tgt="18" wght="-0.28406838021377223" />
        <Con id="100" src="75" tgt="99" wght="-0.39451921744602725" />
        <Con id="101" src="99" tgt="6" wght="4.8885351526017375" />
        <Con id="170" src="3" tgt="75" wght="-4.566200450163854" />
        <Con id="210" src="18" tgt="209" wght="-4.5018905571065417" />
        <Con id="211" src="209" tgt="75" wght="2.05213257111609" />
        <Con id="215" src="209" tgt="6" wght="2.535333544947207" />
      </Connections>
    </Network>
    <Network id="6351" birthGen="150" fitness="896.16497802734375">
      <Nodes>
        <Node type="bias" id="0" />
        <Node type="in" id="1" />
        <Node type="in" id="2" />
        <Node type="in" id="3" />
        <Node type="in" id="4" />
        <Node type="out" id="5" />
        <Node type="out" id="6" />
        <Node type="hid" id="18" />
        <Node type="hid" id="75" />
        <Node type="hid" id="99" />
      </Nodes>
      <Connections>
        <Con id="19" src="3" tgt="18" wght="5" />
        <Con id="22" src="18" tgt="5" wght="-2.3643388509932324" />
        <Con id="53" src="4" tgt="18" wght="-1.1624253450878563" />
        <Con id="76" src="18" tgt="75" wght="-4.1628940088804134" />
        <Con id="100" src="75" tgt="99" wght="1.1261307859019773" />
        <Con id="101" src="99" tgt="6" wght="1.5390672213284002" />
        <Con id="170" src="3" tgt="75" wght="-0.72094704614686522" />
        <Con id="199" src="1" tgt="6" wght="0.49794394032135331" />
        <Con id="217" src="2" tgt="18" wght="1.6764452740599083" />
      </Connections>
    </Network>
    <Network id="6358" birthGen="150" fitness="896.16497802734375">
      <Nodes>
        <Node type="bias" id="0" />
        <Node type="in" id="1" />
        <Node type="in" id="2" />
        <Node type="in" id="3" />
        <Node type="in" id="4" />
        <Node type="out" id="5" />
        <Node type="out" id="6" />
        <Node type="hid" id="18" />
        <Node type="hid" id="75" />
        <Node type="hid" id="99" />
        <Node type="hid" id="202" />
      </Nodes>
      <Connections>
        <Con id="19" src="3" tgt="18" wght="5" />
        <Con id="22" src="18" tgt="5" wght="-0.37716435433115236" />
        <Con id="53" src="4" tgt="18" wght="-0.25041984654643362" />
        <Con id="76" src="18" tgt="75" wght="-2.0540563682010129" />
        <Con id="100" src="75" tgt="99" wght="1.9432055285842207" />
        <Con id="170" src="3" tgt="75" wght="-4.7636824632291281" />
        <Con id="186" src="1" tgt="18" wght="2.35350218041351" />
        <Con id="203" src="99" tgt="202" wght="2.9333462726454087" />
        <Con id="204" src="202" tgt="6" wght="5" />
      </Connections>
    </Network>
    <Network id="6360" birthGen="150" fitness="896.16497802734375">
      <Nodes>
        <Node type="bias" id="0" />
        <Node type="in" id="1" />
        <Node type="in" id="2" />
        <Node type="in" id="3" />
        <Node type="in" id="4" />
        <Node type="out" id="5" />
        <Node type="out" id="6" />
        <Node type="hid" id="18" />
        <Node type="hid" id="75" />
        <Node type="hid" id="99" />
      </Nodes>
      <Connections>
        <Con id="19" src="3" tgt="18" wght="3.6825843533488714" />
        <Con id="22" src="18" tgt="5" wght="-4.0989813279079614" />
        <Con id="53" src="4" tgt="18" wght="-4.9606097722426057" />
        <Con id="76" src="18" tgt="75" wght="-2.8603358851113" />
        <Con id="100" src="75" tgt="99" wght="3.23302035293251" />
        <Con id="101" src="99" tgt="6" wght="3.7688249301670407" />
        <Con id="170" src="3" tgt="75" wght="-4.7956017032265663" />
        <Con id="186" src="1" tgt="18" wght="2.865168742456663" />
        <Con id="200" src="1" tgt="75" wght="-5" />
        <Con id="205" src="4" tgt="75" wght="-0.701328863963592" />
      </Connections>
    </Network>
    <Network id="6370" birthGen="150" fitness="896.16497802734375">
      <Nodes>
        <Node type="bias" id="0" />
        <Node type="in" id="1" />
        <Node type="in" id="2" />
        <Node type="in" id="3" />
        <Node type="in" id="4" />
        <Node type="out" id="5" />
        <Node type="out" id="6" />
        <Node type="hid" id="18" />
        <Node type="hid" id="75" />
        <Node type="hid" id="99" />
      </Nodes>
      <Connections>
        <Con id="19" src="3" tgt="18" wght="3.7171681615924053" />
        <Con id="22" src="18" tgt="5" wght="-1.936981340764131" />
        <Con id="53" src="4" tgt="18" wght="-0.2715338403989232" />
        <Con id="76" src="18" tgt="75" wght="-1.6755703133002857" />
        <Con id="100" src="75" tgt="99" wght="2.5060366491629176" />
        <Con id="101" src="99" tgt="6" wght="2.9141631754865878" />
        <Con id="170" src="3" tgt="75" wght="-4.7956017032265663" />
        <Con id="186" src="1" tgt="18" wght="2.8686979383979962" />
        <Con id="190" src="0" tgt="75" wght="-3.1886510271579027" />
      </Connections>
    </Network>
    <Network id="6364" birthGen="150" fitness="896.16497802734375">
      <Nodes>
        <Node type="bias" id="0" />
        <Node type="in" id="1" />
        <Node type="in" id="2" />
        <Node type="in" id="3" />
        <Node type="in" id="4" />
        <Node type="out" id="5" />
        <Node type="out" id="6" />
        <Node type="hid" id="18" />
        <Node type="hid" id="75" />
        <Node type="hid" id="99" />
      </Nodes>
      <Connections>
        <Con id="19" src="3" tgt="18" wght="4.5116242667055149" />
        <Con id="22" src="18" tgt="5" wght="1.1020399583503604" />
        <Con id="53" src="4" tgt="18" wght="-0.29732702896222757" />
        <Con id="76" src="18" tgt="75" wght="-1.6755703133002857" />
        <Con id="100" src="75" tgt="99" wght="2.5060366491629176" />
        <Con id="101" src="99" tgt="6" wght="3.2953593973070383" />
        <Con id="170" src="3" tgt="75" wght="-4.7956017032265663" />
        <Con id="186" src="1" tgt="18" wght="2.8466826892964128" />
      </Connections>
    </Network>
    <Network id="6375" birthGen="150" fitness="896.16497802734375">
      <Nodes>
        <Node type="bias" id="0" />
        <Node type="in" id="1" />
        <Node type="in" id="2" />
        <Node type="in" id="3" />
        <Node type="in" id="4" />
        <Node type="out" id="5" />
        <Node type="out" id="6" />
        <Node type="hid" id="18" />
        <Node type="hid" id="75" />
        <Node type="hid" id="99" />
      </Nodes>
      <Connections>
        <Con id="19" src="3" tgt="18" wght="5" />
        <Con id="22" src="18" tgt="5" wght="-0.14920776990925139" />
        <Con id="53" src="4" tgt="18" wght="-0.25041984654643362" />
        <Con id="76" src="18" tgt="75" wght="-1.5272884118489405" />
        <Con id="100" src="75" tgt="99" wght="-0.3652468491826959" />
        <Con id="101" src="99" tgt="6" wght="2.9750356904883923" />
        <Con id="170" src="3" tgt="75" wght="-5" />
        <Con id="186" src="1" tgt="18" wght="2.6924235637069991" />
        <Con id="198" src="0" tgt="18" wght="-2.7193403320862677" />
        <Con id="199" src="1" tgt="6" wght="3.6399210512511657" />
      </Connections>
    </Network>
    <Network id="6381" birthGen="151" fitness="0">
      <Nodes>
        <Node type="bias" id="0" />
        <Node type="in" id="1" />
        <Node type="in" id="2" />
        <Node type="in" id="3" />
        <Node type="in" id="4" />
        <Node type="out" id="5" />
        <Node type="out" id="6" />
        <Node type="hid" id="18" />
        <Node type="hid" id="75" />
        <Node type="hid" id="99" />
      </Nodes>
      <Connections>
        <Con id="19" src="3" tgt="18" wght="4.3684452245751313" />
        <Con id="53" src="4" tgt="18" wght="-0.076524942381599848" />
        <Con id="76" src="18" tgt="75" wght="-0.65200019482965366" />
        <Con id="100" src="75" tgt="99" wght="-0.39365658979818546" />
        <Con id="101" src="99" tgt="6" wght="2.1448332626531119" />
        <Con id="170" src="3" tgt="75" wght="2.209736164230971" />
        <Con id="200" src="1" tgt="75" wght="-1.2312949728220701" />
        <Con id="206" src="75" tgt="6" wght="2.4543780566736961" />
      </Connections>
    </Network>
    <Network id="6382" birthGen="151" fitness="0">
      <Nodes>
        <Node type="bias" id="0" />
        <Node type="in" id="1" />
        <Node type="in" id="2" />
        <Node type="in" id="3" />
        <Node type="in" id="4" />
        <Node type="out" id="5" />
        <Node type="out" id="6" />
        <Node type="hid" id="18" />
        <Node type="hid" id="75" />
        <Node type="hid" id="99" />
      </Nodes>
      <Connections>
        <Con id="19" src="3" tgt="18" wght="4.3684452245751313" />
        <Con id="53" src="4" tgt="18" wght="-0.0689094034521585" />
        <Con id="76" src="18" tgt="75" wght="-0.65200019482965366" />
        <Con id="100" src="75" tgt="99" wght="-0.39365658979818546" />
        <Con id="101" src="99" tgt="6" wght="2.1448332626531119" />
        <Con id="170" src="3" tgt="75" wght="2.21045515963474" />
        <Con id="200" src="1" tgt="75" wght="-1.2312949728220701" />
        <Con id="206" src="75" tgt="6" wght="2.4289882425780656" />
      </Connections>
    </Network>
    <Network id="6383" birthGen="151" fitness="0">
      <Nodes>
        <Node type="bias" id="0" />
        <Node type="in" id="1" />
        <Node type="in" id="2" />
        <Node type="in" id="3" />
        <Node type="in" id="4" />
        <Node type="out" id="5" />
        <Node type="out" id="6" />
        <Node type="hid" id="18" />
        <Node type="hid" id="75" />
        <Node type="hid" id="99" />
      </Nodes>
      <Connections>
        <Con id="19" src="3" tgt="18" wght="4.3684452245751313" />
        <Con id="53" src="4" tgt="18" wght="-0.076524942381599848" />
        <Con id="76" src="18" tgt="75" wght="-1.0794638765543882" />
        <Con id="100" src="75" tgt="99" wght="-0.39365658979818546" />
        <Con id="101" src="99" tgt="6" wght="2.1448332626531119" />
        <Con id="170" src="3" tgt="75" wght="2.209736164230971" />
        <Con id="200" src="1" tgt="75" wght="-1.2312949728220701" />
        <Con id="206" src="75" tgt="6" wght="2.4289882425780656" />
      </Connections>
    </Network>
    <Network id="6384" birthGen="151" fitness="0">
      <Nodes>
        <Node type="bias" id="0" />
        <Node type="in" id="1" />
        <Node type="in" id="2" />
        <Node type="in" id="3" />
        <Node type="in" id="4" />
        <Node type="out" id="5" />
        <Node type="out" id="6" />
        <Node type="hid" id="18" />
        <Node type="hid" id="75" />
        <Node type="hid" id="99" />
      </Nodes>
      <Connections>
        <Con id="19" src="3" tgt="18" wght="4.3684452245751313" />
        <Con id="53" src="4" tgt="18" wght="-0.076524942381599848" />
        <Con id="76" src="18" tgt="75" wght="-0.65200019482965366" />
        <Con id="100" src="75" tgt="99" wght="-0.39365658979818546" />
        <Con id="101" src="99" tgt="6" wght="2.1448332626531119" />
        <Con id="170" src="3" tgt="75" wght="2.209736164230971" />
        <Con id="200" src="1" tgt="75" wght="-1.2312949728220701" />
        <Con id="206" src="75" tgt="6" wght="2.3801206761082736" />
      </Connections>
    </Network>
    <Network id="6385" birthGen="151" fitness="0">
      <Nodes>
        <Node type="bias" id="0" />
        <Node type="in" id="1" />
        <Node type="in" id="2" />
        <Node type="in" id="3" />
        <Node type="in" id="4" />
        <Node type="out" id="5" />
        <Node type="out" id="6" />
        <Node type="hid" id="18" />
        <Node type="hid" id="75" />
        <Node type="hid" id="99" />
      </Nodes>
      <Connections>
        <Con id="19" src="3" tgt="18" wght="4.3684452245751313" />
        <Con id="53" src="4" tgt="18" wght="-0.076524942381599848" />
        <Con id="76" src="18" tgt="75" wght="-0.65200019482965366" />
        <Con id="100" src="75" tgt="99" wght="-0.39365658979818546" />
        <Con id="101" src="99" tgt="6" wght="2.1448332626531119" />
        <Con id="170" src="3" tgt="75" wght="2.22034622424888" />
        <Con id="200" src="1" tgt="75" wght="-1.2312949728220701" />
        <Con id="206" src="75" tgt="6" wght="2.4289882425780656" />
      </Connections>
    </Network>
    <Network id="6386" birthGen="151" fitness="0">
      <Nodes>
        <Node type="bias" id="0" />
        <Node type="in" id="1" />
        <Node type="in" id="2" />
        <Node type="in" id="3" />
        <Node type="in" id="4" />
        <Node type="out" id="5" />
        <Node type="out" id="6" />
        <Node type="hid" id="18" />
        <Node type="hid" id="75" />
        <Node type="hid" id="99" />
      </Nodes>
      <Connections>
        <Con id="19" src="3" tgt="18" wght="4.3684452245751313" />
        <Con id="53" src="4" tgt="18" wght="-0.076524942381599848" />
        <Con id="76" src="18" tgt="75" wght="-0.65200019482965366" />
        <Con id="100" src="75" tgt="99" wght="-0.39365658979818546" />
        <Con id="101" src="99" tgt="6" wght="2.1448332626531119" />
        <Con id="170" src="3" tgt="75" wght="2.209736164230971" />
        <Con id="200" src="1" tgt="75" wght="-1.2312949728220701" />
        <Con id="206" src="75" tgt="6" wght="2.4289882425780656" />
        <Con id="218" src="18" tgt="6" wght="4.3767785001546144" />
      </Connections>
    </Network>
    <Network id="6387" birthGen="151" fitness="0">
      <Nodes>
        <Node type="bias" id="0" />
        <Node type="in" id="1" />
        <Node type="in" id="2" />
        <Node type="in" id="3" />
        <Node type="in" id="4" />
        <Node type="out" id="5" />
        <Node type="out" id="6" />
        <Node type="hid" id="18" />
        <Node type="hid" id="75" />
        <Node type="hid" id="99" />
      </Nodes>
      <Connections>
        <Con id="19" src="3" tgt="18" wght="4.3684452245751313" />
        <Con id="22" src="18" tgt="5" wght="-2.2338381549298654" />
        <Con id="53" src="4" tgt="18" wght="-0.076524942381599848" />
        <Con id="76" src="18" tgt="75" wght="-1.1524036679106424" />
        <Con id="100" src="75" tgt="99" wght="-3.8352544605731964" />
        <Con id="101" src="99" tgt="6" wght="2.1448332626531119" />
        <Con id="170" src="3" tgt="75" wght="3.2364000612869859" />
        <Con id="206" src="75" tgt="6" wght="2.4289882425780656" />
        <Con id="214" src="2" tgt="75" wght="-0.63275120908807436" />
      </Connections>
    </Network>
    <Network id="6388" birthGen="151" fitness="0">
      <Nodes>
        <Node type="bias" id="0" />
        <Node type="in" id="1" />
        <Node type="in" id="2" />
        <Node type="in" id="3" />
        <Node type="in" id="4" />
        <Node type="out" id="5" />
        <Node type="out" id="6" />
        <Node type="hid" id="18" />
        <Node type="hid" id="75" />
        <Node type="hid" id="99" />
      </Nodes>
      <Connections>
        <Con id="19" src="3" tgt="18" wght="4.4483257148516575" />
        <Con id="22" src="18" tgt="5" wght="-2.2014681891857304" />
        <Con id="53" src="4" tgt="18" wght="-0.076524942381599848" />
        <Con id="76" src="18" tgt="75" wght="-1.5790511953113151" />
        <Con id="100" src="75" tgt="99" wght="-0.39365658979818546" />
        <Con id="101" src="99" tgt="6" wght="2.1448332626531119" />
        <Con id="170" src="3" tgt="75" wght="2.1920022001622033" />
        <Con id="206" src="75" tgt="6" wght="2.4289882425780656" />
      </Connections>
    </Network>
    <Network id="6389" birthGen="151" fitness="0">
      <Nodes>
        <Node type="bias" id="0" />
        <Node type="in" id="1" />
        <Node type="in" id="2" />
        <Node type="in" id="3" />
        <Node type="in" id="4" />
        <Node type="out" id="5" />
        <Node type="out" id="6" />
        <Node type="hid" id="18" />
        <Node type="hid" id="75" />
        <Node type="hid" id="99" />
      </Nodes>
      <Connections>
        <Con id="19" src="3" tgt="18" wght="4.3684452245751313" />
        <Con id="22" src="18" tgt="5" wght="-2.2014681891857304" />
        <Con id="53" src="4" tgt="18" wght="-0.076524942381599848" />
        <Con id="76" src="18" tgt="75" wght="-1.5790511953113151" />
        <Con id="100" src="75" tgt="99" wght="-0.39365658979818546" />
        <Con id="101" src="99" tgt="6" wght="2.1448332626531119" />
        <Con id="170" src="3" tgt="75" wght="2.2099054320062343" />
        <Con id="206" src="75" tgt="6" wght="2.4289882425780656" />
      </Connections>
    </Network>
    <Network id="6390" birthGen="151" fitness="0">
      <Nodes>
        <Node type="bias" id="0" />
        <Node type="in" id="1" />
        <Node type="in" id="2" />
        <Node type="in" id="3" />
        <Node type="in" id="4" />
        <Node type="out" id="5" />
        <Node type="out" id="6" />
        <Node type="hid" id="18" />
        <Node type="hid" id="75" />
        <Node type="hid" id="99" />
      </Nodes>
      <Connections>
        <Con id="19" src="3" tgt="18" wght="4.4483257148516575" />
        <Con id="22" src="18" tgt="5" wght="-2.2014681891857304" />
        <Con id="53" src="4" tgt="18" wght="-0.076524942381599848" />
        <Con id="76" src="18" tgt="75" wght="-1.5790511953113151" />
        <Con id="100" src="75" tgt="99" wght="-3.8352544605731964" />
        <Con id="101" src="99" tgt="6" wght="2.1448332626531119" />
        <Con id="170" src="3" tgt="75" wght="2.2099054320062343" />
        <Con id="206" src="75" tgt="6" wght="2.4289882425780656" />
      </Connections>
    </Network>
    <Network id="6391" birthGen="151" fitness="0">
      <Nodes>
        <Node type="bias" id="0" />
        <Node type="in" id="1" />
        <Node type="in" id="2" />
        <Node type="in" id="3" />
        <Node type="in" id="4" />
        <Node type="out" id="5" />
        <Node type="out" id="6" />
        <Node type="hid" id="18" />
        <Node type="hid" id="75" />
        <Node type="hid" id="99" />
        <Node type="hid" id="209" />
      </Nodes>
      <Connections>
        <Con id="19" src="3" tgt="18" wght="3.971656112232032" />
        <Con id="22" src="18" tgt="5" wght="-1.3916921780644762" />
        <Con id="53" src="4" tgt="18" wght="-0.28406838021377223" />
        <Con id="100" src="75" tgt="99" wght="-0.39451921744602725" />
        <Con id="101" src="99" tgt="6" wght="4.8885351526017375" />
        <Con id="170" src="3" tgt="75" wght="-4.566200450163854" />
        <Con id="210" src="18" tgt="209" wght="-4.5018905571065417" />
        <Con id="211" src="209" tgt="75" wght="2.05213257111609" />
        <Con id="215" src="209" tgt="6" wght="3.0364196512179511" />
      </Connections>
    </Network>
    <Network id="6392" birthGen="151" fitness="0">
      <Nodes>
        <Node type="bias" id="0" />
        <Node type="in" id="1" />
        <Node type="in" id="2" />
        <Node type="in" id="3" />
        <Node type="in" id="4" />
        <Node type="out" id="5" />
        <Node type="out" id="6" />
        <Node type="hid" id="18" />
        <Node type="hid" id="75" />
        <Node type="hid" id="99" />
        <Node type="hid" id="209" />
      </Nodes>
      <Connections>
        <Con id="19" src="3" tgt="18" wght="3.971656112232032" />
        <Con id="22" src="18" tgt="5" wght="-1.3916921780644762" />
        <Con id="53" src="4" tgt="18" wght="-0.28406838021377223" />
        <Con id="100" src="75" tgt="99" wght="-1.5299416295527952" />
        <Con id="101" src="99" tgt="6" wght="4.8885351526017375" />
        <Con id="170" src="3" tgt="75" wght="-4.566200450163854" />
        <Con id="210" src="18" tgt="209" wght="-4.5018905571065417" />
        <Con id="211" src="209" tgt="75" wght="2.3927509875432014" />
        <Con id="215" src="209" tgt="6" wght="2.535333544947207" />
      </Connections>
    </Network>
    <Network id="6393" birthGen="151" fitness="0">
      <Nodes>
        <Node type="bias" id="0" />
        <Node type="in" id="1" />
        <Node type="in" id="2" />
        <Node type="in" id="3" />
        <Node type="in" id="4" />
        <Node type="out" id="5" />
        <Node type="out" id="6" />
        <Node type="hid" id="18" />
        <Node type="hid" id="75" />
        <Node type="hid" id="99" />
        <Node type="hid" id="209" />
      </Nodes>
      <Connections>
        <Con id="19" src="3" tgt="18" wght="3.971656112232032" />
        <Con id="22" src="18" tgt="5" wght="-1.3916921780644762" />
        <Con id="53" src="4" tgt="18" wght="0.48189573641244132" />
        <Con id="100" src="75" tgt="99" wght="-0.39451921744602725" />
        <Con id="101" src="99" tgt="6" wght="4.8885351526017375" />
        <Con id="170" src="3" tgt="75" wght="-4.566200450163854" />
        <Con id="210" src="18" tgt="209" wght="-4.5018905571065417" />
        <Con id="211" src="209" tgt="75" wght="2.3666060307412469" />
        <Con id="215" src="209" tgt="6" wght="2.535333544947207" />
      </Connections>
    </Network>
    <Network id="6394" birthGen="151" fitness="0">
      <Nodes>
        <Node type="bias" id="0" />
        <Node type="in" id="1" />
        <Node type="in" id="2" />
        <Node type="in" id="3" />
        <Node type="in" id="4" />
        <Node type="out" id="5" />
        <Node type="out" id="6" />
        <Node type="hid" id="18" />
        <Node type="hid" id="75" />
        <Node type="hid" id="99" />
        <Node type="hid" id="209" />
      </Nodes>
      <Connections>
        <Con id="19" src="3" tgt="18" wght="3.971656112232032" />
        <Con id="22" src="18" tgt="5" wght="-1.3916921780644762" />
        <Con id="53" src="4" tgt="18" wght="-0.26967232611888275" />
        <Con id="100" src="75" tgt="99" wght="-0.39451921744602725" />
        <Con id="101" src="99" tgt="6" wght="4.8885351526017375" />
        <Con id="170" src="3" tgt="75" wght="-4.6079818645323032" />
        <Con id="210" src="18" tgt="209" wght="-4.5018905571065417" />
        <Con id="211" src="209" tgt="75" wght="2.05213257111609" />
        <Con id="215" src="209" tgt="6" wght="2.5437201631018103" />
      </Connections>
    </Network>
    <Network id="6395" birthGen="151" fitness="0">
      <Nodes>
        <Node type="bias" id="0" />
        <Node type="in" id="1" />
        <Node type="in" id="2" />
        <Node type="in" id="3" />
        <Node type="in" id="4" />
        <Node type="out" id="5" />
        <Node type="out" id="6" />
        <Node type="hid" id="18" />
        <Node type="hid" id="75" />
        <Node type="hid" id="99" />
        <Node type="hid" id="209" />
      </Nodes>
      <Connections>
        <Con id="19" src="3" tgt="18" wght="4.9503968935522433" />
        <Con id="22" src="18" tgt="5" wght="-1.3916921780644762" />
        <Con id="53" src="4" tgt="18" wght="-0.28406838021377223" />
        <Con id="100" src="75" tgt="99" wght="-0.39451921744602725" />
        <Con id="101" src="99" tgt="6" wght="5" />
        <Con id="170" src="3" tgt="75" wght="-4.4485203625262617" />
        <Con id="210" src="18" tgt="209" wght="-4.8532401776317737" />
        <Con id="211" src="209" tgt="75" wght="2.05213257111609" />
        <Con id="215" src="209" tgt="6" wght="2.3962717737771246" />
      </Connections>
    </Network>
    <Network id="6396" birthGen="151" fitness="0">
      <Nodes>
        <Node type="bias" id="0" />
        <Node type="in" id="1" />
        <Node type="in" id="2" />
        <Node type="in" id="3" />
        <Node type="in" id="4" />
        <Node type="out" id="5" />
        <Node type="out" id="6" />
        <Node type="hid" id="18" />
        <Node type="hid" id="75" />
        <Node type="hid" id="99" />
        <Node type="hid" id="209" />
      </Nodes>
      <Connections>
        <Con id="19" src="3" tgt="18" wght="3.0544018279157257" />
        <Con id="22" src="18" tgt="5" wght="-1.3916921780644762" />
        <Con id="53" src="4" tgt="18" wght="-0.28406838021377223" />
        <Con id="100" src="75" tgt="99" wght="-0.39451921744602725" />
        <Con id="101" src="99" tgt="6" wght="5" />
        <Con id="170" src="3" tgt="75" wght="-4.4485203625262617" />
        <Con id="210" src="18" tgt="209" wght="-4.5018905571065417" />
        <Con id="211" src="209" tgt="75" wght="2.05213257111609" />
        <Con id="215" src="209" tgt="6" wght="2.535333544947207" />
      </Connections>
    </Network>
    <Network id="6397" birthGen="151" fitness="0">
      <Nodes>
        <Node type="bias" id="0" />
        <Node type="in" id="1" />
        <Node type="in" id="2" />
        <Node type="in" id="3" />
        <Node type="in" id="4" />
        <Node type="out" id="5" />
        <Node type="out" id="6" />
        <Node type="hid" id="18" />
        <Node type="hid" id="75" />
        <Node type="hid" id="99" />
        <Node type="hid" id="209" />
      </Nodes>
      <Connections>
        <Con id="19" src="3" tgt="18" wght="4.22534772165564" />
        <Con id="22" src="18" tgt="5" wght="-1.3916921780644762" />
        <Con id="53" src="4" tgt="18" wght="-0.28406838021377223" />
        <Con id="100" src="75" tgt="99" wght="-2.1866688478739085" />
        <Con id="101" src="99" tgt="6" wght="4.4869661923510042" />
        <Con id="170" src="3" tgt="75" wght="-4.4485203625262617" />
        <Con id="210" src="18" tgt="209" wght="-3.4142708505830548" />
        <Con id="211" src="209" tgt="75" wght="2.05213257111609" />
        <Con id="215" src="209" tgt="6" wght="2.535333544947207" />
      </Connections>
    </Network>
    <Network id="6398" birthGen="151" fitness="0">
      <Nodes>
        <Node type="bias" id="0" />
        <Node type="in" id="1" />
        <Node type="in" id="2" />
        <Node type="in" id="3" />
        <Node type="in" id="4" />
        <Node type="out" id="5" />
        <Node type="out" id="6" />
        <Node type="hid" id="18" />
        <Node type="hid" id="75" />
        <Node type="hid" id="99" />
        <Node type="hid" id="209" />
      </Nodes>
      <Connections>
        <Con id="19" src="3" tgt="18" wght="4.22534772165564" />
        <Con id="22" src="18" tgt="5" wght="-1.3916921780644762" />
        <Con id="53" src="4" tgt="18" wght="-1.0670986128927265" />
        <Con id="100" src="75" tgt="99" wght="-0.39451921744602725" />
        <Con id="101" src="99" tgt="6" wght="5" />
        <Con id="170" src="3" tgt="75" wght="-4.4485203625262617" />
        <Con id="210" src="18" tgt="209" wght="-4.5018905571065417" />
        <Con id="211" src="209" tgt="75" wght="2.05213257111609" />
        <Con id="215" src="209" tgt="6" wght="2.535333544947207" />
      </Connections>
    </Network>
    <Network id="6399" birthGen="151" fitness="0">
      <Nodes>
        <Node type="bias" id="0" />
        <Node type="in" id="1" />
        <Node type="in" id="2" />
        <Node type="in" id="3" />
        <Node type="in" id="4" />
        <Node type="out" id="5" />
        <Node type="out" id="6" />
        <Node type="hid" id="18" />
        <Node type="hid" id="75" />
        <Node type="hid" id="99" />
      </Nodes>
      <Connections>
        <Con id="19" src="3" tgt="18" wght="5" />
        <Con id="22" src="18" tgt="5" wght="-2.3643388509932324" />
        <Con id="53" src="4" tgt="18" wght="-1.1624253450878563" />
        <Con id="76" src="18" tgt="75" wght="-4.1628940088804134" />
        <Con id="100" src="75" tgt="99" wght="1.1261307859019773" />
        <Con id="101" src="99" tgt="6" wght="1.5390672213284002" />
        <Con id="170" src="3" tgt="75" wght="-0.72094704614686522" />
        <Con id="199" src="1" tgt="6" wght="0.49794394032135331" />
        <Con id="217" src="2" tgt="18" wght="1.642632445722132" />
      </Connections>
    </Network>
    <Network id="6400" birthGen="151" fitness="0">
      <Nodes>
        <Node type="bias" id="0" />
        <Node type="in" id="1" />
        <Node type="in" id="2" />
        <Node type="in" id="3" />
        <Node type="in" id="4" />
        <Node type="out" id="5" />
        <Node type="out" id="6" />
        <Node type="hid" id="18" />
        <Node type="hid" id="75" />
        <Node type="hid" id="99" />
      </Nodes>
      <Connections>
        <Con id="19" src="3" tgt="18" wght="5" />
        <Con id="22" src="18" tgt="5" wght="-2.3643388509932324" />
        <Con id="53" src="4" tgt="18" wght="-1.1624253450878563" />
        <Con id="76" src="18" tgt="75" wght="-4.1628940088804134" />
        <Con id="100" src="75" tgt="99" wght="1.1261307859019773" />
        <Con id="101" src="99" tgt="6" wght="1.5390672213284002" />
        <Con id="170" src="3" tgt="75" wght="-0.72094704614686522" />
        <Con id="199" src="1" tgt="6" wght="0.47733349161607974" />
        <Con id="217" src="2" tgt="18" wght="1.6764452740599083" />
      </Connections>
    </Network>
    <Network id="6401" birthGen="151" fitness="0">
      <Nodes>
        <Node type="bias" id="0" />
        <Node type="in" id="1" />
        <Node type="in" id="2" />
        <Node type="in" id="3" />
        <Node type="in" id="4" />
        <Node type="out" id="5" />
        <Node type="out" id="6" />
        <Node type="hid" id="18" />
        <Node type="hid" id="75" />
        <Node type="hid" id="99" />
      </Nodes>
      <Connections>
        <Con id="19" src="3" tgt="18" wght="5" />
        <Con id="22" src="18" tgt="5" wght="-2.3643388509932324" />
        <Con id="53" src="4" tgt="18" wght="-2.151258656218729" />
        <Con id="76" src="18" tgt="75" wght="-4.1628940088804134" />
        <Con id="100" src="75" tgt="99" wght="1.1261307859019773" />
        <Con id="101" src="99" tgt="6" wght="1.5390672213284002" />
        <Con id="170" src="3" tgt="75" wght="-0.72094704614686522" />
        <Con id="199" src="1" tgt="6" wght="0.49794394032135331" />
        <Con id="217" src="2" tgt="18" wght="1.0750696182447614" />
      </Connections>
    </Network>
    <Network id="6402" birthGen="151" fitness="0">
      <Nodes>
        <Node type="bias" id="0" />
        <Node type="in" id="1" />
        <Node type="in" id="2" />
        <Node type="in" id="3" />
        <Node type="in" id="4" />
        <Node type="out" id="5" />
        <Node type="out" id="6" />
        <Node type="hid" id="18" />
        <Node type="hid" id="75" />
        <Node type="hid" id="99" />
        <Node type="hid" id="202" />
      </Nodes>
      <Connections>
        <Con id="19" src="3" tgt="18" wght="5" />
        <Con id="22" src="18" tgt="5" wght="-0.37716435433115236" />
        <Con id="53" src="4" tgt="18" wght="-0.25041984654643362" />
        <Con id="76" src="18" tgt="75" wght="-2.0540563682010129" />
        <Con id="100" src="75" tgt="99" wght="1.9432055285842207" />
        <Con id="170" src="3" tgt="75" wght="-5" />
        <Con id="186" src="1" tgt="18" wght="3.0652219696255121" />
        <Con id="203" src="99" tgt="202" wght="2.9333462726454087" />
        <Con id="204" src="202" tgt="6" wght="5" />
      </Connections>
    </Network>
    <Network id="6403" birthGen="151" fitness="0">
      <Nodes>
        <Node type="bias" id="0" />
        <Node type="in" id="1" />
        <Node type="in" id="2" />
        <Node type="in" id="3" />
        <Node type="in" id="4" />
        <Node type="out" id="5" />
        <Node type="out" id="6" />
        <Node type="hid" id="18" />
        <Node type="hid" id="75" />
        <Node type="hid" id="99" />
        <Node type="hid" id="202" />
      </Nodes>
      <Connections>
        <Con id="19" src="3" tgt="18" wght="5" />
        <Con id="22" src="18" tgt="5" wght="1.4659584173932672" />
        <Con id="53" src="4" tgt="18" wght="-0.25041984654643362" />
        <Con id="76" src="18" tgt="75" wght="-2.0540563682010129" />
        <Con id="100" src="75" tgt="99" wght="-3.1334835337474942" />
        <Con id="170" src="3" tgt="75" wght="-4.7636824632291281" />
        <Con id="186" src="1" tgt="18" wght="2.35350218041351" />
        <Con id="203" src="99" tgt="202" wght="2.9333462726454087" />
        <Con id="204" src="202" tgt="6" wght="5" />
      </Connections>
    </Network>
    <Network id="6404" birthGen="151" fitness="0">
      <Nodes>
        <Node type="bias" id="0" />
        <Node type="in" id="1" />
        <Node type="in" id="2" />
        <Node type="in" id="3" />
        <Node type="in" id="4" />
        <Node type="out" id="5" />
        <Node type="out" id="6" />
        <Node type="hid" id="18" />
        <Node type="hid" id="75" />
        <Node type="hid" id="99" />
        <Node type="hid" id="202" />
      </Nodes>
      <Connections>
        <Con id="19" src="3" tgt="18" wght="5" />
        <Con id="22" src="18" tgt="5" wght="-0.37716435433115236" />
        <Con id="53" src="4" tgt="18" wght="-0.25041984654643362" />
        <Con id="76" src="18" tgt="75" wght="-2.0540563682010129" />
        <Con id="100" src="75" tgt="99" wght="1.9432055285842207" />
        <Con id="170" src="3" tgt="75" wght="-4.7636824632291281" />
        <Con id="186" src="1" tgt="18" wght="2.35350218041351" />
        <Con id="203" src="99" tgt="202" wght="2.8878689442821295" />
        <Con id="204" src="202" tgt="6" wght="5" />
      </Connections>
    </Network>
    <Network id="6405" birthGen="151" fitness="0">
      <Nodes>
        <Node type="bias" id="0" />
        <Node type="in" id="1" />
        <Node type="in" id="2" />
        <Node type="in" id="3" />
        <Node type="in" id="4" />
        <Node type="out" id="5" />
        <Node type="out" id="6" />
        <Node type="hid" id="18" />
        <Node type="hid" id="75" />
        <Node type="hid" id="99" />
        <Node type="hid" id="202" />
      </Nodes>
      <Connections>
        <Con id="19" src="3" tgt="18" wght="5" />
        <Con id="22" src="18" tgt="5" wght="-0.37716435433115236" />
        <Con id="53" src="4" tgt="18" wght="-0.25041984654643362" />
        <Con id="76" src="18" tgt="75" wght="-2.0540563682010129" />
        <Con id="100" src="75" tgt="99" wght="2.0006321868812953" />
        <Con id="170" src="3" tgt="75" wght="-4.7636824632291281" />
        <Con id="186" src="1" tgt="18" wght="2.35350218041351" />
        <Con id="203" src="99" tgt="202" wght="2.9333462726454087" />
        <Con id="204" src="202" tgt="6" wght="5" />
      </Connections>
    </Network>
    <Network id="6406" birthGen="151" fitness="0">
      <Nodes>
        <Node type="bias" id="0" />
        <Node type="in" id="1" />
        <Node type="in" id="2" />
        <Node type="in" id="3" />
        <Node type="in" id="4" />
        <Node type="out" id="5" />
        <Node type="out" id="6" />
        <Node type="hid" id="18" />
        <Node type="hid" id="75" />
        <Node type="hid" id="99" />
        <Node type="hid" id="202" />
      </Nodes>
      <Connections>
        <Con id="19" src="3" tgt="18" wght="5" />
        <Con id="22" src="18" tgt="5" wght="0.11531302860782078" />
        <Con id="53" src="4" tgt="18" wght="-0.25041984654643362" />
        <Con id="76" src="18" tgt="75" wght="-2.0540563682010129" />
        <Con id="100" src="75" tgt="99" wght="1.9432055285842207" />
        <Con id="170" src="3" tgt="75" wght="-4.7636824632291281" />
        <Con id="186" src="1" tgt="18" wght="2.35350218041351" />
        <Con id="203" src="99" tgt="202" wght="2.9333462726454087" />
        <Con id="204" src="202" tgt="6" wght="5" />
      </Connections>
    </Network>
    <Network id="6407" birthGen="151" fitness="0">
      <Nodes>
        <Node type="bias" id="0" />
        <Node type="in" id="1" />
        <Node type="in" id="2" />
        <Node type="in" id="3" />
        <Node type="in" id="4" />
        <Node type="out" id="5" />
        <Node type="out" id="6" />
        <Node type="hid" id="18" />
        <Node type="hid" id="75" />
        <Node type="hid" id="99" />
      </Nodes>
      <Connections>
        <Con id="19" src="3" tgt="18" wght="3.6825843533488714" />
        <Con id="22" src="18" tgt="5" wght="-4.0989813279079614" />
        <Con id="53" src="4" tgt="18" wght="-4.9606097722426057" />
        <Con id="76" src="18" tgt="75" wght="-2.8603358851113" />
        <Con id="100" src="75" tgt="99" wght="3.23302035293251" />
        <Con id="101" src="99" tgt="6" wght="3.7688249301670407" />
        <Con id="170" src="3" tgt="75" wght="-4.7956017032265663" />
        <Con id="186" src="1" tgt="18" wght="2.865168742456663" />
        <Con id="200" src="1" tgt="75" wght="-5" />
        <Con id="205" src="4" tgt="75" wght="-0.71499021375670357" />
      </Connections>
    </Network>
    <Network id="6408" birthGen="151" fitness="0">
      <Nodes>
        <Node type="bias" id="0" />
        <Node type="in" id="1" />
        <Node type="in" id="2" />
        <Node type="in" id="3" />
        <Node type="in" id="4" />
        <Node type="out" id="5" />
        <Node type="out" id="6" />
        <Node type="hid" id="18" />
        <Node type="hid" id="75" />
        <Node type="hid" id="99" />
      </Nodes>
      <Connections>
        <Con id="19" src="3" tgt="18" wght="3.6825843533488714" />
        <Con id="22" src="18" tgt="5" wght="-4.0989813279079614" />
        <Con id="53" src="4" tgt="18" wght="-4.9606097722426057" />
        <Con id="76" src="18" tgt="75" wght="-3.79213306673674" />
        <Con id="100" src="75" tgt="99" wght="3.23302035293251" />
        <Con id="101" src="99" tgt="6" wght="3.7688249301670407" />
        <Con id="170" src="3" tgt="75" wght="-4.7956017032265663" />
        <Con id="186" src="1" tgt="18" wght="2.865168742456663" />
        <Con id="200" src="1" tgt="75" wght="-5" />
        <Con id="205" src="4" tgt="75" wght="-0.701328863963592" />
      </Connections>
    </Network>
    <Network id="6409" birthGen="151" fitness="0">
      <Nodes>
        <Node type="bias" id="0" />
        <Node type="in" id="1" />
        <Node type="in" id="2" />
        <Node type="in" id="3" />
        <Node type="in" id="4" />
        <Node type="out" id="5" />
        <Node type="out" id="6" />
        <Node type="hid" id="18" />
        <Node type="hid" id="75" />
        <Node type="hid" id="99" />
      </Nodes>
      <Connections>
        <Con id="19" src="3" tgt="18" wght="3.6825843533488714" />
        <Con id="22" src="18" tgt="5" wght="-4.0989813279079614" />
        <Con id="53" src="4" tgt="18" wght="-4.9606097722426057" />
        <Con id="76" src="18" tgt="75" wght="-2.8603358851113" />
        <Con id="100" src="75" tgt="99" wght="3.23302035293251" />
        <Con id="101" src="99" tgt="6" wght="3.7688249301670407" />
        <Con id="170" src="3" tgt="75" wght="-4.7956017032265663" />
        <Con id="186" src="1" tgt="18" wght="2.865168742456663" />
        <Con id="200" src="1" tgt="75" wght="-4.9974695687208319" />
        <Con id="205" src="4" tgt="75" wght="-0.701328863963592" />
      </Connections>
    </Network>
    <Network id="6410" birthGen="151" fitness="0">
      <Nodes>
        <Node type="bias" id="0" />
        <Node type="in" id="1" />
        <Node type="in" id="2" />
        <Node type="in" id="3" />
        <Node type="in" id="4" />
        <Node type="out" id="5" />
        <Node type="out" id="6" />
        <Node type="hid" id="18" />
        <Node type="hid" id="75" />
        <Node type="hid" id="99" />
      </Nodes>
      <Connections>
        <Con id="19" src="3" tgt="18" wght="3.7171681615924053" />
        <Con id="22" src="18" tgt="5" wght="-1.936981340764131" />
        <Con id="53" src="4" tgt="18" wght="-0.2715338403989232" />
        <Con id="76" src="18" tgt="75" wght="-1.7037820475233685" />
        <Con id="100" src="75" tgt="99" wght="2.5060366491629176" />
        <Con id="101" src="99" tgt="6" wght="2.9141631754865878" />
        <Con id="170" src="3" tgt="75" wght="-4.7759932225668944" />
        <Con id="186" src="1" tgt="18" wght="2.8822076769623153" />
        <Con id="190" src="0" tgt="75" wght="-3.1886510271579027" />
      </Connections>
    </Network>
    <Network id="6411" birthGen="151" fitness="0">
      <Nodes>
        <Node type="bias" id="0" />
        <Node type="in" id="1" />
        <Node type="in" id="2" />
        <Node type="in" id="3" />
        <Node type="in" id="4" />
        <Node type="out" id="5" />
        <Node type="out" id="6" />
        <Node type="hid" id="18" />
        <Node type="hid" id="75" />
        <Node type="hid" id="99" />
      </Nodes>
      <Connections>
        <Con id="19" src="3" tgt="18" wght="3.7171681615924053" />
        <Con id="22" src="18" tgt="5" wght="-1.936981340764131" />
        <Con id="53" src="4" tgt="18" wght="-0.2715338403989232" />
        <Con id="76" src="18" tgt="75" wght="-1.6755703133002857" />
        <Con id="100" src="75" tgt="99" wght="2.5060366491629176" />
        <Con id="101" src="99" tgt="6" wght="2.9141631754865878" />
        <Con id="170" src="3" tgt="75" wght="-4.8070669235562971" />
        <Con id="186" src="1" tgt="18" wght="2.9197151881660304" />
        <Con id="190" src="0" tgt="75" wght="-3.1886510271579027" />
      </Connections>
    </Network>
    <Network id="6412" birthGen="151" fitness="0">
      <Nodes>
        <Node type="bias" id="0" />
        <Node type="in" id="1" />
        <Node type="in" id="2" />
        <Node type="in" id="3" />
        <Node type="in" id="4" />
        <Node type="out" id="5" />
        <Node type="out" id="6" />
        <Node type="hid" id="18" />
        <Node type="hid" id="75" />
        <Node type="hid" id="99" />
      </Nodes>
      <Connections>
        <Con id="19" src="3" tgt="18" wght="3.7171681615924053" />
        <Con id="22" src="18" tgt="5" wght="-1.936981340764131" />
        <Con id="53" src="4" tgt="18" wght="-0.2715338403989232" />
        <Con id="76" src="18" tgt="75" wght="-1.6755703133002857" />
        <Con id="100" src="75" tgt="99" wght="2.5060366491629176" />
        <Con id="101" src="99" tgt="6" wght="2.9141631754865878" />
        <Con id="170" src="3" tgt="75" wght="-4.7874454818175733" />
        <Con id="186" src="1" tgt="18" wght="2.8686979383979962" />
        <Con id="190" src="0" tgt="75" wght="-3.1886510271579027" />
      </Connections>
    </Network>
    <Network id="6413" birthGen="151" fitness="0">
      <Nodes>
        <Node type="bias" id="0" />
        <Node type="in" id="1" />
        <Node type="in" id="2" />
        <Node type="in" id="3" />
        <Node type="in" id="4" />
        <Node type="out" id="5" />
        <Node type="out" id="6" />
        <Node type="hid" id="18" />
        <Node type="hid" id="75" />
        <Node type="hid" id="99" />
      </Nodes>
      <Connections>
        <Con id="19" src="3" tgt="18" wght="4.5116242667055149" />
        <Con id="22" src="18" tgt="5" wght="1.1020399583503604" />
        <Con id="53" src="4" tgt="18" wght="-0.29732702896222757" />
        <Con id="76" src="18" tgt="75" wght="-1.6755703133002857" />
        <Con id="100" src="75" tgt="99" wght="2.5060366491629176" />
        <Con id="101" src="99" tgt="6" wght="3.2953593973070383" />
        <Con id="170" src="3" tgt="75" wght="-4.7956017032265663" />
        <Con id="186" src="1" tgt="18" wght="2.9121562009336359" />
      </Connections>
    </Network>
    <Network id="6414" birthGen="151" fitness="0">
      <Nodes>
        <Node type="bias" id="0" />
        <Node type="in" id="1" />
        <Node type="in" id="2" />
        <Node type="in" id="3" />
        <Node type="in" id="4" />
        <Node type="out" id="5" />
        <Node type="out" id="6" />
        <Node type="hid" id="18" />
        <Node type="hid" id="75" />
        <Node type="hid" id="99" />
      </Nodes>
      <Connections>
        <Con id="19" src="3" tgt="18" wght="4.5116242667055149" />
        <Con id="22" src="18" tgt="5" wght="0.26835458005332347" />
        <Con id="53" src="4" tgt="18" wght="-0.29732702896222757" />
        <Con id="76" src="18" tgt="75" wght="-1.6755703133002857" />
        <Con id="100" src="75" tgt="99" wght="2.2266304418744705" />
        <Con id="101" src="99" tgt="6" wght="3.2953593973070383" />
        <Con id="170" src="3" tgt="75" wght="-4.7956017032265663" />
        <Con id="186" src="1" tgt="18" wght="2.8466826892964128" />
      </Connections>
    </Network>
    <Network id="6415" birthGen="151" fitness="0">
      <Nodes>
        <Node type="bias" id="0" />
        <Node type="in" id="1" />
        <Node type="in" id="2" />
        <Node type="in" id="3" />
        <Node type="in" id="4" />
        <Node type="out" id="5" />
        <Node type="out" id="6" />
        <Node type="hid" id="18" />
        <Node type="hid" id="75" />
        <Node type="hid" id="99" />
      </Nodes>
      <Connections>
        <Con id="19" src="3" tgt="18" wght="-4.1867369087412953" />
        <Con id="22" src="18" tgt="5" wght="1.1020399583503604" />
        <Con id="53" src="4" tgt="18" wght="-0.29732702896222757" />
        <Con id="76" src="18" tgt="75" wght="-1.6755703133002857" />
        <Con id="100" src="75" tgt="99" wght="2.5060366491629176" />
        <Con id="101" src="99" tgt="6" wght="3.2953593973070383" />
        <Con id="170" src="3" tgt="75" wght="-4.7956017032265663" />
        <Con id="186" src="1" tgt="18" wght="2.8466826892964128" />
      </Connections>
    </Network>
    <Network id="6416" birthGen="151" fitness="0">
      <Nodes>
        <Node type="bias" id="0" />
        <Node type="in" id="1" />
        <Node type="in" id="2" />
        <Node type="in" id="3" />
        <Node type="in" id="4" />
        <Node type="out" id="5" />
        <Node type="out" id="6" />
        <Node type="hid" id="18" />
        <Node type="hid" id="75" />
        <Node type="hid" id="99" />
      </Nodes>
      <Connections>
        <Con id="19" src="3" tgt="18" wght="4.5116242667055149" />
        <Con id="22" src="18" tgt="5" wght="1.1020399583503604" />
        <Con id="53" src="4" tgt="18" wght="0.50104516456560821" />
        <Con id="76" src="18" tgt="75" wght="-1.6755703133002857" />
        <Con id="100" src="75" tgt="99" wght="2.5060366491629176" />
        <Con id="101" src="99" tgt="6" wght="3.2953593973070383" />
        <Con id="170" src="3" tgt="75" wght="-4.7956017032265663" />
        <Con id="186" src="1" tgt="18" wght="2.8466826892964128" />
      </Connections>
    </Network>
    <Network id="6417" birthGen="151" fitness="0">
      <Nodes>
        <Node type="bias" id="0" />
        <Node type="in" id="1" />
        <Node type="in" id="2" />
        <Node type="in" id="3" />
        <Node type="in" id="4" />
        <Node type="out" id="5" />
        <Node type="out" id="6" />
        <Node type="hid" id="18" />
        <Node type="hid" id="75" />
        <Node type="hid" id="99" />
      </Nodes>
      <Connections>
        <Con id="19" src="3" tgt="18" wght="3.9546584984370812" />
        <Con id="22" src="18" tgt="5" wght="-0.14920776990925139" />
        <Con id="53" src="4" tgt="18" wght="-0.25041984654643362" />
        <Con id="76" src="18" tgt="75" wght="-1.5272884118489405" />
        <Con id="100" src="75" tgt="99" wght="-0.3652468491826959" />
        <Con id="101" src="99" tgt="6" wght="1.5286036905018188" />
        <Con id="170" src="3" tgt="75" wght="-5" />
        <Con id="186" src="1" tgt="18" wght="2.6924235637069991" />
        <Con id="198" src="0" tgt="18" wght="-2.7193403320862677" />
        <Con id="199" src="1" tgt="6" wght="3.6399210512511657" />
      </Connections>
    </Network>
    <Network id="6418" birthGen="151" fitness="0">
      <Nodes>
        <Node type="bias" id="0" />
        <Node type="in" id="1" />
        <Node type="in" id="2" />
        <Node type="in" id="3" />
        <Node type="in" id="4" />
        <Node type="out" id="5" />
        <Node type="out" id="6" />
        <Node type="hid" id="18" />
        <Node type="hid" id="75" />
        <Node type="hid" id="99" />
      </Nodes>
      <Connections>
        <Con id="19" src="3" tgt="18" wght="5" />
        <Con id="22" src="18" tgt="5" wght="-0.14920776990925139" />
        <Con id="53" src="4" tgt="18" wght="-0.25041984654643362" />
        <Con id="76" src="18" tgt="75" wght="-1.5272884118489405" />
        <Con id="100" src="75" tgt="99" wght="-0.3652468491826959" />
        <Con id="101" src="99" tgt="6" wght="2.9750356904883923" />
        <Con id="170" src="3" tgt="75" wght="-5" />
        <Con id="186" src="1" tgt="18" wght="2.6924235637069991" />
        <Con id="198" src="0" tgt="18" wght="-2.7281871318538959" />
        <Con id="199" src="1" tgt="6" wght="3.6399210512511657" />
      </Connections>
    </Network>
    <Network id="6419" birthGen="151" fitness="0">
      <Nodes>
        <Node type="bias" id="0" />
        <Node type="in" id="1" />
        <Node type="in" id="2" />
        <Node type="in" id="3" />
        <Node type="in" id="4" />
        <Node type="out" id="5" />
        <Node type="out" id="6" />
        <Node type="hid" id="18" />
        <Node type="hid" id="75" />
        <Node type="hid" id="99" />
      </Nodes>
      <Connections>
        <Con id="19" src="3" tgt="18" wght="5" />
        <Con id="22" src="18" tgt="5" wght="-0.14920776990925139" />
        <Con id="53" src="4" tgt="18" wght="0.58924812357872725" />
        <Con id="76" src="18" tgt="75" wght="3.6957614542916417" />
        <Con id="100" src="75" tgt="99" wght="-0.3652468491826959" />
        <Con id="101" src="99" tgt="6" wght="2.9750356904883923" />
        <Con id="170" src="3" tgt="75" wght="-5" />
        <Con id="186" src="1" tgt="18" wght="2.6924235637069991" />
        <Con id="198" src="0" tgt="18" wght="-2.7193403320862677" />
        <Con id="199" src="1" tgt="6" wght="-1.9092586450278759" />
      </Connections>
    </Network>
    <Network id="6420" birthGen="151" fitness="0">
      <Nodes>
        <Node type="bias" id="0" />
        <Node type="in" id="1" />
        <Node type="in" id="2" />
        <Node type="in" id="3" />
        <Node type="in" id="4" />
        <Node type="out" id="5" />
        <Node type="out" id="6" />
        <Node type="hid" id="18" />
        <Node type="hid" id="75" />
        <Node type="hid" id="99" />
      </Nodes>
      <Connections>
        <Con id="19" src="3" tgt="18" wght="5" />
        <Con id="22" src="18" tgt="5" wght="-0.14920776990925139" />
        <Con id="53" src="4" tgt="18" wght="-0.25041984654643362" />
        <Con id="76" src="18" tgt="75" wght="-1.5272884118489405" />
        <Con id="100" src="75" tgt="99" wght="-0.3652468491826959" />
        <Con id="101" src="99" tgt="6" wght="3.3903362820855958" />
        <Con id="170" src="3" tgt="75" wght="-5" />
        <Con id="186" src="1" tgt="18" wght="2.6924235637069991" />
        <Con id="198" src="0" tgt="18" wght="-2.7193403320862677" />
        <Con id="199" src="1" tgt="6" wght="3.6399210512511657" />
      </Connections>
    </Network>
  </Networks>
</Root>