<?xml version="1.0" encoding="utf-8"?>
<Root>
  <ActivationFunctions>
    <Fn id="0" name="SteepenedSigmoid" prob="1" />
  </ActivationFunctions>
  <Networks>
    <Network id="38601" birthGen="965" fitness="191.44708251953125">
      <Nodes>
        <Node type="bias" id="0" />
        <Node type="in" id="1" />
        <Node type="in" id="2" />
        <Node type="in" id="3" />
        <Node type="in" id="4" />
        <Node type="out" id="5" />
        <Node type="out" id="6" />
        <Node type="out" id="7" />
        <Node type="hid" id="89" />
        <Node type="hid" id="377" />
        <Node type="hid" id="401" />
      </Nodes>
      <Connections>
        <Con id="33" src="1" tgt="6" wght="3.2566482183276215" />
        <Con id="55" src="4" tgt="7" wght="-4.5260626310482621" />
        <Con id="125" src="4" tgt="89" wght="4.9586951115080273" />
        <Con id="157" src="3" tgt="89" wght="0.94386267058707052" />
        <Con id="379" src="377" tgt="6" wght="-0.84700867915321842" />
        <Con id="402" src="2" tgt="401" wght="1.8991611077427673" />
        <Con id="403" src="401" tgt="377" wght="-0.18278886151307269" />
      </Connections>
    </Network>
    <Network id="38622" birthGen="965" fitness="191.84756469726563">
      <Nodes>
        <Node type="bias" id="0" />
        <Node type="in" id="1" />
        <Node type="in" id="2" />
        <Node type="in" id="3" />
        <Node type="in" id="4" />
        <Node type="out" id="5" />
        <Node type="out" id="6" />
        <Node type="out" id="7" />
        <Node type="hid" id="89" />
        <Node type="hid" id="377" />
        <Node type="hid" id="401" />
      </Nodes>
      <Connections>
        <Con id="33" src="1" tgt="6" wght="3.2510721874952631" />
        <Con id="55" src="4" tgt="7" wght="-2.9236111315728222" />
        <Con id="125" src="4" tgt="89" wght="4.9586951115080273" />
        <Con id="379" src="377" tgt="6" wght="0.012337844195065836" />
        <Con id="402" src="2" tgt="401" wght="1.89975363587486" />
        <Con id="403" src="401" tgt="377" wght="-0.12783221141070922" />
      </Connections>
    </Network>
    <Network id="38600" birthGen="965" fitness="191.19046020507813">
      <Nodes>
        <Node type="bias" id="0" />
        <Node type="in" id="1" />
        <Node type="in" id="2" />
        <Node type="in" id="3" />
        <Node type="in" id="4" />
        <Node type="out" id="5" />
        <Node type="out" id="6" />
        <Node type="out" id="7" />
        <Node type="hid" id="89" />
        <Node type="hid" id="377" />
        <Node type="hid" id="401" />
      </Nodes>
      <Connections>
        <Con id="33" src="1" tgt="6" wght="2.8995820876099065" />
        <Con id="55" src="4" tgt="7" wght="-2.9236111315728222" />
        <Con id="125" src="4" tgt="89" wght="3.4689386562033242" />
        <Con id="157" src="3" tgt="89" wght="0.93725037235412068" />
        <Con id="379" src="377" tgt="6" wght="2.383690656716698" />
        <Con id="402" src="2" tgt="401" wght="1.8991611077427673" />
        <Con id="403" src="401" tgt="377" wght="4.9894674444493647" />
      </Connections>
    </Network>
    <Network id="38612" birthGen="965" fitness="193.46658325195313">
      <Nodes>
        <Node type="bias" id="0" />
        <Node type="in" id="1" />
        <Node type="in" id="2" />
        <Node type="in" id="3" />
        <Node type="in" id="4" />
        <Node type="out" id="5" />
        <Node type="out" id="6" />
        <Node type="out" id="7" />
      </Nodes>
      <Connections>
        <Con id="9" src="0" tgt="6" wght="-2.524067620871826" />
        <Con id="24" src="2" tgt="6" wght="0.92608319339640821" />
        <Con id="33" src="1" tgt="6" wght="1.6770809188421711" />
      </Connections>
    </Network>
    <Network id="38618" birthGen="965" fitness="194.3126220703125">
      <Nodes>
        <Node type="bias" id="0" />
        <Node type="in" id="1" />
        <Node type="in" id="2" />
        <Node type="in" id="3" />
        <Node type="in" id="4" />
        <Node type="out" id="5" />
        <Node type="out" id="6" />
        <Node type="out" id="7" />
      </Nodes>
      <Connections>
        <Con id="9" src="0" tgt="6" wght="-2.4749451824300897" />
        <Con id="24" src="2" tgt="6" wght="0.40951187055617555" />
        <Con id="33" src="1" tgt="6" wght="1.2042633204549857" />
      </Connections>
    </Network>
    <Network id="38614" birthGen="965" fitness="196.02096557617188">
      <Nodes>
        <Node type="bias" id="0" />
        <Node type="in" id="1" />
        <Node type="in" id="2" />
        <Node type="in" id="3" />
        <Node type="in" id="4" />
        <Node type="out" id="5" />
        <Node type="out" id="6" />
        <Node type="out" id="7" />
      </Nodes>
      <Connections>
        <Con id="9" src="0" tgt="6" wght="-2.524067620871826" />
        <Con id="24" src="2" tgt="6" wght="0.9440369854170837" />
        <Con id="33" src="1" tgt="6" wght="1.21978071962473" />
      </Connections>
    </Network>
    <Network id="38572" birthGen="964" fitness="208.08775329589844">
      <Nodes>
        <Node type="bias" id="0" />
        <Node type="in" id="1" />
        <Node type="in" id="2" />
        <Node type="in" id="3" />
        <Node type="in" id="4" />
        <Node type="out" id="5" />
        <Node type="out" id="6" />
        <Node type="out" id="7" />
        <Node type="hid" id="89" />
      </Nodes>
      <Connections>
        <Con id="23" src="4" tgt="6" wght="1.6682557822133941" />
        <Con id="24" src="2" tgt="6" wght="0.22426026781179198" />
        <Con id="28" src="4" tgt="5" wght="-0.134179896712037" />
        <Con id="33" src="1" tgt="6" wght="-0.17453751975532292" />
        <Con id="148" src="89" tgt="7" wght="1.7955889452328717" />
        <Con id="157" src="3" tgt="89" wght="-0.14573283928583475" />
      </Connections>
    </Network>
    <Network id="38568" birthGen="964" fitness="208.08775329589844">
      <Nodes>
        <Node type="bias" id="0" />
        <Node type="in" id="1" />
        <Node type="in" id="2" />
        <Node type="in" id="3" />
        <Node type="in" id="4" />
        <Node type="out" id="5" />
        <Node type="out" id="6" />
        <Node type="out" id="7" />
        <Node type="hid" id="89" />
      </Nodes>
      <Connections>
        <Con id="23" src="4" tgt="6" wght="-0.00812551031475574" />
        <Con id="24" src="2" tgt="6" wght="0.22426026781179198" />
        <Con id="28" src="4" tgt="5" wght="-0.14069105890938979" />
        <Con id="33" src="1" tgt="6" wght="-0.17453751975532292" />
        <Con id="148" src="89" tgt="7" wght="1.1926792726060278" />
        <Con id="157" src="3" tgt="89" wght="-0.14573283928583475" />
      </Connections>
    </Network>
    <Network id="38591" birthGen="965" fitness="200.60244750976563">
      <Nodes>
        <Node type="bias" id="0" />
        <Node type="in" id="1" />
        <Node type="in" id="2" />
        <Node type="in" id="3" />
        <Node type="in" id="4" />
        <Node type="out" id="5" />
        <Node type="out" id="6" />
        <Node type="out" id="7" />
        <Node type="hid" id="89" />
        <Node type="hid" id="387" />
        <Node type="hid" id="407" />
        <Node type="hid" id="417" />
      </Nodes>
      <Connections>
        <Con id="31" src="3" tgt="6" wght="1.1016143243968124" />
        <Con id="45" src="3" tgt="7" wght="-0.74643272052657239" />
        <Con id="148" src="89" tgt="7" wght="4.4228994358062081" />
        <Con id="388" src="2" tgt="387" wght="2.0723715286254762" />
        <Con id="389" src="387" tgt="6" wght="-1.7435002144920633" />
        <Con id="408" src="3" tgt="407" wght="-0.54249108680287117" />
        <Con id="409" src="407" tgt="89" wght="5" />
        <Con id="418" src="4" tgt="417" wght="-3.2113817241042852" />
        <Con id="419" src="417" tgt="89" wght="4.9917319405313849" />
      </Connections>
    </Network>
    <Network id="38593" birthGen="965" fitness="203.28167724609375">
      <Nodes>
        <Node type="bias" id="0" />
        <Node type="in" id="1" />
        <Node type="in" id="2" />
        <Node type="in" id="3" />
        <Node type="in" id="4" />
        <Node type="out" id="5" />
        <Node type="out" id="6" />
        <Node type="out" id="7" />
        <Node type="hid" id="89" />
        <Node type="hid" id="387" />
        <Node type="hid" id="407" />
        <Node type="hid" id="417" />
      </Nodes>
      <Connections>
        <Con id="31" src="3" tgt="6" wght="1.1016143243968124" />
        <Con id="45" src="3" tgt="7" wght="-0.74643272052657239" />
        <Con id="148" src="89" tgt="7" wght="4.4228994358062081" />
        <Con id="388" src="2" tgt="387" wght="2.0723715286254762" />
        <Con id="389" src="387" tgt="6" wght="-1.785674204280143" />
        <Con id="408" src="3" tgt="407" wght="-0.54249108680287117" />
        <Con id="409" src="407" tgt="89" wght="5" />
        <Con id="418" src="4" tgt="417" wght="-4.2468085540155442" />
        <Con id="419" src="417" tgt="89" wght="5" />
      </Connections>
    </Network>
    <Network id="38592" birthGen="965" fitness="203.3175048828125">
      <Nodes>
        <Node type="bias" id="0" />
        <Node type="in" id="1" />
        <Node type="in" id="2" />
        <Node type="in" id="3" />
        <Node type="in" id="4" />
        <Node type="out" id="5" />
        <Node type="out" id="6" />
        <Node type="out" id="7" />
        <Node type="hid" id="89" />
        <Node type="hid" id="387" />
        <Node type="hid" id="407" />
        <Node type="hid" id="417" />
      </Nodes>
      <Connections>
        <Con id="31" src="3" tgt="6" wght="1.1016143243968124" />
        <Con id="45" src="3" tgt="7" wght="-0.740928182399171" />
        <Con id="148" src="89" tgt="7" wght="4.4441248251161865" />
        <Con id="388" src="2" tgt="387" wght="2.0723715286254762" />
        <Con id="389" src="387" tgt="6" wght="-1.785674204280143" />
        <Con id="408" src="3" tgt="407" wght="-0.54249108680287117" />
        <Con id="409" src="407" tgt="89" wght="5" />
        <Con id="418" src="4" tgt="417" wght="-3.2113817241042852" />
        <Con id="419" src="417" tgt="89" wght="5" />
      </Connections>
    </Network>
    <Network id="38626" birthGen="966" fitness="191.84756469726563">
      <Nodes>
        <Node type="bias" id="0" />
        <Node type="in" id="1" />
        <Node type="in" id="2" />
        <Node type="in" id="3" />
        <Node type="in" id="4" />
        <Node type="out" id="5" />
        <Node type="out" id="6" />
        <Node type="out" id="7" />
        <Node type="hid" id="89" />
        <Node type="hid" id="377" />
        <Node type="hid" id="401" />
      </Nodes>
      <Connections>
        <Con id="33" src="1" tgt="6" wght="3.2510721874952631" />
        <Con id="55" src="4" tgt="7" wght="-2.9224423924840481" />
        <Con id="125" src="4" tgt="89" wght="4.9586951115080273" />
        <Con id="379" src="377" tgt="6" wght="0.012337844195065836" />
        <Con id="402" src="2" tgt="401" wght="1.89975363587486" />
        <Con id="403" src="401" tgt="377" wght="-0.12783221141070922" />
      </Connections>
    </Network>
    <Network id="38627" birthGen="966" fitness="191.27818298339844">
      <Nodes>
        <Node type="bias" id="0" />
        <Node type="in" id="1" />
        <Node type="in" id="2" />
        <Node type="in" id="3" />
        <Node type="in" id="4" />
        <Node type="out" id="5" />
        <Node type="out" id="6" />
        <Node type="out" id="7" />
        <Node type="hid" id="89" />
        <Node type="hid" id="377" />
        <Node type="hid" id="401" />
      </Nodes>
      <Connections>
        <Con id="33" src="1" tgt="6" wght="3.2749129936454029" />
        <Con id="55" src="4" tgt="7" wght="-4.5167853545678" />
        <Con id="125" src="4" tgt="89" wght="4.9586951115080273" />
        <Con id="157" src="3" tgt="89" wght="0.94386267058707052" />
        <Con id="379" src="377" tgt="6" wght="-0.84700867915321842" />
        <Con id="402" src="2" tgt="401" wght="1.8991611077427673" />
        <Con id="403" src="401" tgt="377" wght="-0.18278886151307269" />
      </Connections>
    </Network>
    <Network id="38628" birthGen="966" fitness="191.69059753417969">
      <Nodes>
        <Node type="bias" id="0" />
        <Node type="in" id="1" />
        <Node type="in" id="2" />
        <Node type="in" id="3" />
        <Node type="in" id="4" />
        <Node type="out" id="5" />
        <Node type="out" id="6" />
        <Node type="out" id="7" />
        <Node type="hid" id="89" />
        <Node type="hid" id="377" />
        <Node type="hid" id="401" />
      </Nodes>
      <Connections>
        <Con id="33" src="1" tgt="6" wght="3.2566482183276215" />
        <Con id="55" src="4" tgt="7" wght="-2.9236111315728222" />
        <Con id="125" src="4" tgt="89" wght="4.9586951115080273" />
        <Con id="157" src="3" tgt="89" wght="0.94386267058707052" />
        <Con id="379" src="377" tgt="6" wght="0.012337844195065836" />
        <Con id="402" src="2" tgt="401" wght="1.8991611077427673" />
        <Con id="403" src="401" tgt="377" wght="-0.12783221141070922" />
      </Connections>
    </Network>
    <Network id="38629" birthGen="966" fitness="191.20758056640625">
      <Nodes>
        <Node type="bias" id="0" />
        <Node type="in" id="1" />
        <Node type="in" id="2" />
        <Node type="in" id="3" />
        <Node type="in" id="4" />
        <Node type="out" id="5" />
        <Node type="out" id="6" />
        <Node type="out" id="7" />
        <Node type="hid" id="89" />
        <Node type="hid" id="377" />
        <Node type="hid" id="401" />
      </Nodes>
      <Connections>
        <Con id="33" src="1" tgt="6" wght="3.2566482183276215" />
        <Con id="55" src="4" tgt="7" wght="-2.9236111315728222" />
        <Con id="125" src="4" tgt="89" wght="4.9586951115080273" />
        <Con id="157" src="3" tgt="89" wght="0.94386267058707052" />
        <Con id="379" src="377" tgt="6" wght="0.012337844195065836" />
        <Con id="402" src="2" tgt="401" wght="1.89975363587486" />
        <Con id="403" src="401" tgt="377" wght="-0.12783221141070922" />
      </Connections>
    </Network>
    <Network id="38630" birthGen="966" fitness="191.19046020507813">
      <Nodes>
        <Node type="bias" id="0" />
        <Node type="in" id="1" />
        <Node type="in" id="2" />
        <Node type="in" id="3" />
        <Node type="in" id="4" />
        <Node type="out" id="5" />
        <Node type="out" id="6" />
        <Node type="out" id="7" />
        <Node type="hid" id="89" />
        <Node type="hid" id="377" />
        <Node type="hid" id="401" />
      </Nodes>
      <Connections>
        <Con id="33" src="1" tgt="6" wght="2.8995820876099065" />
        <Con id="55" src="4" tgt="7" wght="-2.9236111315728222" />
        <Con id="125" src="4" tgt="89" wght="3.4689386562033242" />
        <Con id="157" src="3" tgt="89" wght="0.78693210168797978" />
        <Con id="379" src="377" tgt="6" wght="2.383690656716698" />
        <Con id="402" src="2" tgt="401" wght="1.8991611077427673" />
        <Con id="403" src="401" tgt="377" wght="4.9894674444493647" />
      </Connections>
    </Network>
    <Network id="38631" birthGen="966" fitness="191.19046020507813">
      <Nodes>
        <Node type="bias" id="0" />
        <Node type="in" id="1" />
        <Node type="in" id="2" />
        <Node type="in" id="3" />
        <Node type="in" id="4" />
        <Node type="out" id="5" />
        <Node type="out" id="6" />
        <Node type="out" id="7" />
        <Node type="hid" id="89" />
        <Node type="hid" id="377" />
        <Node type="hid" id="401" />
      </Nodes>
      <Connections>
        <Con id="33" src="1" tgt="6" wght="2.9051575381611481" />
        <Con id="55" src="4" tgt="7" wght="-2.9236111315728222" />
        <Con id="125" src="4" tgt="89" wght="3.4689386562033242" />
        <Con id="157" src="3" tgt="89" wght="0.95226320036416834" />
        <Con id="379" src="377" tgt="6" wght="2.383690656716698" />
        <Con id="402" src="2" tgt="401" wght="1.8991611077427673" />
        <Con id="403" src="401" tgt="377" wght="4.9696050163278462" />
      </Connections>
    </Network>
    <Network id="38632" birthGen="966" fitness="191.19046020507813">
      <Nodes>
        <Node type="bias" id="0" />
        <Node type="in" id="1" />
        <Node type="in" id="2" />
        <Node type="in" id="3" />
        <Node type="in" id="4" />
        <Node type="out" id="5" />
        <Node type="out" id="6" />
        <Node type="out" id="7" />
        <Node type="hid" id="89" />
        <Node type="hid" id="377" />
        <Node type="hid" id="401" />
      </Nodes>
      <Connections>
        <Con id="33" src="1" tgt="6" wght="2.8995820876099065" />
        <Con id="55" src="4" tgt="7" wght="-2.9236111315728222" />
        <Con id="125" src="4" tgt="89" wght="3.4689386562033242" />
        <Con id="157" src="3" tgt="89" wght="0.93141101454020681" />
        <Con id="379" src="377" tgt="6" wght="2.383690656716698" />
        <Con id="402" src="2" tgt="401" wght="1.8991611077427673" />
        <Con id="403" src="401" tgt="377" wght="4.9894674444493647" />
      </Connections>
    </Network>
    <Network id="38633" birthGen="966" fitness="191.19046020507813">
      <Nodes>
        <Node type="bias" id="0" />
        <Node type="in" id="1" />
        <Node type="in" id="2" />
        <Node type="in" id="3" />
        <Node type="in" id="4" />
        <Node type="out" id="5" />
        <Node type="out" id="6" />
        <Node type="out" id="7" />
        <Node type="hid" id="89" />
        <Node type="hid" id="377" />
        <Node type="hid" id="401" />
      </Nodes>
      <Connections>
        <Con id="33" src="1" tgt="6" wght="2.8995820876099065" />
        <Con id="55" src="4" tgt="7" wght="-2.9236111315728222" />
        <Con id="125" src="4" tgt="89" wght="3.4689386562033242" />
        <Con id="157" src="3" tgt="89" wght="0.93725037235412068" />
        <Con id="379" src="377" tgt="6" wght="2.383690656716698" />
        <Con id="402" src="2" tgt="401" wght="1.8991611077427673" />
        <Con id="403" src="401" tgt="377" wght="4.6911233712724085" />
      </Connections>
    </Network>
    <Network id="38634" birthGen="966" fitness="191.49989318847656">
      <Nodes>
        <Node type="bias" id="0" />
        <Node type="in" id="1" />
        <Node type="in" id="2" />
        <Node type="in" id="3" />
        <Node type="in" id="4" />
        <Node type="out" id="5" />
        <Node type="out" id="6" />
        <Node type="out" id="7" />
        <Node type="hid" id="89" />
        <Node type="hid" id="377" />
        <Node type="hid" id="401" />
      </Nodes>
      <Connections>
        <Con id="33" src="1" tgt="6" wght="2.8995820876099065" />
        <Con id="55" src="4" tgt="7" wght="-2.9236111315728222" />
        <Con id="125" src="4" tgt="89" wght="3.5749403165349349" />
        <Con id="157" src="3" tgt="89" wght="0.93725037235412068" />
        <Con id="379" src="377" tgt="6" wght="2.383690656716698" />
        <Con id="402" src="2" tgt="401" wght="1.8991611077427673" />
        <Con id="403" src="401" tgt="377" wght="4.9894674444493647" />
      </Connections>
    </Network>
    <Network id="38635" birthGen="966" fitness="191.50746154785156">
      <Nodes>
        <Node type="bias" id="0" />
        <Node type="in" id="1" />
        <Node type="in" id="2" />
        <Node type="in" id="3" />
        <Node type="in" id="4" />
        <Node type="out" id="5" />
        <Node type="out" id="6" />
        <Node type="out" id="7" />
        <Node type="hid" id="89" />
        <Node type="hid" id="377" />
        <Node type="hid" id="401" />
      </Nodes>
      <Connections>
        <Con id="33" src="1" tgt="6" wght="3.2566482183276215" />
        <Con id="55" src="4" tgt="7" wght="-4.5260626310482621" />
        <Con id="125" src="4" tgt="89" wght="4.4198211207831353" />
        <Con id="157" src="3" tgt="89" wght="2.8777459081201076" />
        <Con id="379" src="377" tgt="6" wght="2.383690656716698" />
        <Con id="402" src="2" tgt="401" wght="1.8991611077427673" />
        <Con id="403" src="401" tgt="377" wght="4.9894674444493647" />
      </Connections>
    </Network>
    <Network id="38636" birthGen="966" fitness="191.3720703125">
      <Nodes>
        <Node type="bias" id="0" />
        <Node type="in" id="1" />
        <Node type="in" id="2" />
        <Node type="in" id="3" />
        <Node type="in" id="4" />
        <Node type="out" id="5" />
        <Node type="out" id="6" />
        <Node type="out" id="7" />
        <Node type="hid" id="89" />
        <Node type="hid" id="377" />
        <Node type="hid" id="401" />
      </Nodes>
      <Connections>
        <Con id="33" src="1" tgt="6" wght="3.2566482183276215" />
        <Con id="55" src="4" tgt="7" wght="-4.5260626310482621" />
        <Con id="125" src="4" tgt="89" wght="4.4198211207831353" />
        <Con id="157" src="3" tgt="89" wght="4.41676854859284" />
        <Con id="379" src="377" tgt="6" wght="2.383690656716698" />
        <Con id="402" src="2" tgt="401" wght="1.8991611077427673" />
        <Con id="403" src="401" tgt="377" wght="4.9894674444493647" />
      </Connections>
    </Network>
    <Network id="38637" birthGen="966" fitness="0">
      <Nodes>
        <Node type="bias" id="0" />
        <Node type="in" id="1" />
        <Node type="in" id="2" />
        <Node type="in" id="3" />
        <Node type="in" id="4" />
        <Node type="out" id="5" />
        <Node type="out" id="6" />
        <Node type="out" id="7" />
        <Node type="hid" id="89" />
        <Node type="hid" id="377" />
        <Node type="hid" id="401" />
      </Nodes>
      <Connections>
        <Con id="33" src="1" tgt="6" wght="-3.0362977273762226" />
        <Con id="55" src="4" tgt="7" wght="-4.5260626310482621" />
        <Con id="125" src="4" tgt="89" wght="4.9324069311842322" />
        <Con id="157" src="3" tgt="89" wght="2.8447370138019323" />
        <Con id="379" src="377" tgt="6" wght="2.383690656716698" />
        <Con id="402" src="2" tgt="401" wght="-4.1492102621123195" />
        <Con id="403" src="401" tgt="377" wght="4.9894674444493647" />
      </Connections>
    </Network>
    <Network id="38638" birthGen="966" fitness="191.51512145996094">
      <Nodes>
        <Node type="bias" id="0" />
        <Node type="in" id="1" />
        <Node type="in" id="2" />
        <Node type="in" id="3" />
        <Node type="in" id="4" />
        <Node type="out" id="5" />
        <Node type="out" id="6" />
        <Node type="out" id="7" />
        <Node type="hid" id="89" />
        <Node type="hid" id="377" />
        <Node type="hid" id="401" />
      </Nodes>
      <Connections>
        <Con id="33" src="1" tgt="6" wght="3.2566482183276215" />
        <Con id="55" src="4" tgt="7" wght="-4.5260626310482621" />
        <Con id="125" src="4" tgt="89" wght="0.83200613968074322" />
        <Con id="157" src="3" tgt="89" wght="2.8447370138019323" />
        <Con id="379" src="377" tgt="6" wght="1.9184234645217657" />
        <Con id="402" src="2" tgt="401" wght="1.8991611077427673" />
        <Con id="403" src="401" tgt="377" wght="4.9894674444493647" />
      </Connections>
    </Network>
    <Network id="38639" birthGen="966" fitness="191.50746154785156">
      <Nodes>
        <Node type="bias" id="0" />
        <Node type="in" id="1" />
        <Node type="in" id="2" />
        <Node type="in" id="3" />
        <Node type="in" id="4" />
        <Node type="out" id="5" />
        <Node type="out" id="6" />
        <Node type="out" id="7" />
        <Node type="hid" id="89" />
        <Node type="hid" id="377" />
        <Node type="hid" id="401" />
      </Nodes>
      <Connections>
        <Con id="33" src="1" tgt="6" wght="3.2566482183276215" />
        <Con id="55" src="4" tgt="7" wght="-4.5260626310482621" />
        <Con id="125" src="4" tgt="89" wght="4.4198211207831353" />
        <Con id="157" src="3" tgt="89" wght="2.8447370138019323" />
        <Con id="379" src="377" tgt="6" wght="2.383690656716698" />
        <Con id="402" src="2" tgt="401" wght="1.8991611077427673" />
        <Con id="403" src="401" tgt="377" wght="4.9959057943505893" />
      </Connections>
    </Network>
    <Network id="38640" birthGen="966" fitness="191.75396728515625">
      <Nodes>
        <Node type="bias" id="0" />
        <Node type="in" id="1" />
        <Node type="in" id="2" />
        <Node type="in" id="3" />
        <Node type="in" id="4" />
        <Node type="out" id="5" />
        <Node type="out" id="6" />
        <Node type="out" id="7" />
        <Node type="hid" id="89" />
        <Node type="hid" id="377" />
        <Node type="hid" id="401" />
      </Nodes>
      <Connections>
        <Con id="33" src="1" tgt="6" wght="3.2449252090021896" />
        <Con id="55" src="4" tgt="7" wght="-4.5260626310482621" />
        <Con id="125" src="4" tgt="89" wght="4.4198211207831353" />
        <Con id="157" src="3" tgt="89" wght="2.8447370138019323" />
        <Con id="379" src="377" tgt="6" wght="2.383690656716698" />
        <Con id="402" src="2" tgt="401" wght="1.8991611077427673" />
        <Con id="403" src="401" tgt="377" wght="4.9894674444493647" />
      </Connections>
    </Network>
    <Network id="38641" birthGen="966" fitness="205.92625427246094">
      <Nodes>
        <Node type="bias" id="0" />
        <Node type="in" id="1" />
        <Node type="in" id="2" />
        <Node type="in" id="3" />
        <Node type="in" id="4" />
        <Node type="out" id="5" />
        <Node type="out" id="6" />
        <Node type="out" id="7" />
        <Node type="hid" id="89" />
      </Nodes>
      <Connections>
        <Con id="23" src="4" tgt="6" wght="1.6682557822133941" />
        <Con id="24" src="2" tgt="6" wght="0.22426026781179198" />
        <Con id="28" src="4" tgt="5" wght="-0.134179896712037" />
        <Con id="33" src="1" tgt="6" wght="-0.17453751975532292" />
        <Con id="148" src="89" tgt="7" wght="1.8231339138606628" />
        <Con id="157" src="3" tgt="89" wght="-0.10448500662637444" />
      </Connections>
    </Network>
    <Network id="38642" birthGen="966" fitness="2.2798173427581787">
      <Nodes>
        <Node type="bias" id="0" />
        <Node type="in" id="1" />
        <Node type="in" id="2" />
        <Node type="in" id="3" />
        <Node type="in" id="4" />
        <Node type="out" id="5" />
        <Node type="out" id="6" />
        <Node type="out" id="7" />
        <Node type="hid" id="89" />
      </Nodes>
      <Connections>
        <Con id="23" src="4" tgt="6" wght="1.6682557822133941" />
        <Con id="24" src="2" tgt="6" wght="0.22426026781179198" />
        <Con id="28" src="4" tgt="5" wght="-0.134179896712037" />
        <Con id="33" src="1" tgt="6" wght="-0.17453751975532292" />
        <Con id="148" src="89" tgt="7" wght="0.34182880453110931" />
        <Con id="157" src="3" tgt="89" wght="0.64271250858763618" />
      </Connections>
    </Network>
    <Network id="38643" birthGen="966" fitness="208.08775329589844">
      <Nodes>
        <Node type="bias" id="0" />
        <Node type="in" id="1" />
        <Node type="in" id="2" />
        <Node type="in" id="3" />
        <Node type="in" id="4" />
        <Node type="out" id="5" />
        <Node type="out" id="6" />
        <Node type="out" id="7" />
        <Node type="hid" id="89" />
      </Nodes>
      <Connections>
        <Con id="23" src="4" tgt="6" wght="1.8165513345804762" />
        <Con id="24" src="2" tgt="6" wght="0.22426026781179198" />
        <Con id="28" src="4" tgt="5" wght="-1.0915613779553568" />
        <Con id="33" src="1" tgt="6" wght="-0.17453751975532292" />
        <Con id="148" src="89" tgt="7" wght="1.7955889452328717" />
        <Con id="157" src="3" tgt="89" wght="-0.14573283928583475" />
      </Connections>
    </Network>
    <Network id="38644" birthGen="966" fitness="208.08775329589844">
      <Nodes>
        <Node type="bias" id="0" />
        <Node type="in" id="1" />
        <Node type="in" id="2" />
        <Node type="in" id="3" />
        <Node type="in" id="4" />
        <Node type="out" id="5" />
        <Node type="out" id="6" />
        <Node type="out" id="7" />
        <Node type="hid" id="89" />
      </Nodes>
      <Connections>
        <Con id="23" src="4" tgt="6" wght="1.6682557822133941" />
        <Con id="24" src="2" tgt="6" wght="0.22426026781179198" />
        <Con id="28" src="4" tgt="5" wght="0.77552989489704127" />
        <Con id="33" src="1" tgt="6" wght="-0.17453751975532292" />
        <Con id="148" src="89" tgt="7" wght="3.8232490516288795" />
        <Con id="157" src="3" tgt="89" wght="-0.14573283928583475" />
      </Connections>
    </Network>
    <Network id="38645" birthGen="966" fitness="192.13563537597656">
      <Nodes>
        <Node type="bias" id="0" />
        <Node type="in" id="1" />
        <Node type="in" id="2" />
        <Node type="in" id="3" />
        <Node type="in" id="4" />
        <Node type="out" id="5" />
        <Node type="out" id="6" />
        <Node type="out" id="7" />
        <Node type="hid" id="89" />
      </Nodes>
      <Connections>
        <Con id="23" src="4" tgt="6" wght="1.6682557822133941" />
        <Con id="24" src="2" tgt="6" wght="0.22426026781179198" />
        <Con id="28" src="4" tgt="5" wght="-0.134179896712037" />
        <Con id="33" src="1" tgt="6" wght="-0.065757730097164568" />
        <Con id="148" src="89" tgt="7" wght="1.7955889452328717" />
        <Con id="157" src="3" tgt="89" wght="-0.14573283928583475" />
      </Connections>
    </Network>
    <Network id="38646" birthGen="966" fitness="196.154296875">
      <Nodes>
        <Node type="bias" id="0" />
        <Node type="in" id="1" />
        <Node type="in" id="2" />
        <Node type="in" id="3" />
        <Node type="in" id="4" />
        <Node type="out" id="5" />
        <Node type="out" id="6" />
        <Node type="out" id="7" />
        <Node type="hid" id="89" />
      </Nodes>
      <Connections>
        <Con id="23" src="4" tgt="6" wght="1.6682557822133941" />
        <Con id="24" src="2" tgt="6" wght="0.18661151113916447" />
        <Con id="28" src="4" tgt="5" wght="-0.14293809460490264" />
        <Con id="33" src="1" tgt="6" wght="-0.17453751975532292" />
        <Con id="148" src="89" tgt="7" wght="1.7799969855695963" />
        <Con id="157" src="3" tgt="89" wght="-0.14573283928583475" />
      </Connections>
    </Network>
    <Network id="38647" birthGen="966" fitness="199.57113647460938">
      <Nodes>
        <Node type="bias" id="0" />
        <Node type="in" id="1" />
        <Node type="in" id="2" />
        <Node type="in" id="3" />
        <Node type="in" id="4" />
        <Node type="out" id="5" />
        <Node type="out" id="6" />
        <Node type="out" id="7" />
        <Node type="hid" id="89" />
      </Nodes>
      <Connections>
        <Con id="23" src="4" tgt="6" wght="1.245370199957776" />
        <Con id="24" src="2" tgt="6" wght="0.19070266388893919" />
        <Con id="28" src="4" tgt="5" wght="-0.14293809460490264" />
        <Con id="33" src="1" tgt="6" wght="-0.17453751975532292" />
        <Con id="148" src="89" tgt="7" wght="2.264045603015334" />
        <Con id="157" src="3" tgt="89" wght="-0.14573283928583475" />
      </Connections>
    </Network>
    <Network id="38648" birthGen="966" fitness="192.13554382324219">
      <Nodes>
        <Node type="bias" id="0" />
        <Node type="in" id="1" />
        <Node type="in" id="2" />
        <Node type="in" id="3" />
        <Node type="in" id="4" />
        <Node type="out" id="5" />
        <Node type="out" id="6" />
        <Node type="out" id="7" />
        <Node type="hid" id="89" />
      </Nodes>
      <Connections>
        <Con id="23" src="4" tgt="6" wght="1.6682557822133941" />
        <Con id="24" src="2" tgt="6" wght="4.8227517493069172" />
        <Con id="28" src="4" tgt="5" wght="-0.14293809460490264" />
        <Con id="33" src="1" tgt="6" wght="-0.675218477845192" />
        <Con id="148" src="89" tgt="7" wght="1.7799969855695963" />
        <Con id="157" src="3" tgt="89" wght="-0.14573283928583475" />
      </Connections>
    </Network>
    <Network id="38649" birthGen="966" fitness="0">
      <Nodes>
        <Node type="bias" id="0" />
        <Node type="in" id="1" />
        <Node type="in" id="2" />
        <Node type="in" id="3" />
        <Node type="in" id="4" />
        <Node type="out" id="5" />
        <Node type="out" id="6" />
        <Node type="out" id="7" />
        <Node type="hid" id="89" />
      </Nodes>
      <Connections>
        <Con id="23" src="4" tgt="6" wght="1.6682557822133941" />
        <Con id="24" src="2" tgt="6" wght="0.22426026781179198" />
        <Con id="28" src="4" tgt="5" wght="-0.77272221666787" />
        <Con id="33" src="1" tgt="6" wght="-0.50264727662420938" />
        <Con id="148" src="89" tgt="7" wght="1.7799969855695963" />
        <Con id="157" src="3" tgt="89" wght="-0.14573283928583475" />
      </Connections>
    </Network>
    <Network id="38650" birthGen="966" fitness="208.08775329589844">
      <Nodes>
        <Node type="bias" id="0" />
        <Node type="in" id="1" />
        <Node type="in" id="2" />
        <Node type="in" id="3" />
        <Node type="in" id="4" />
        <Node type="out" id="5" />
        <Node type="out" id="6" />
        <Node type="out" id="7" />
        <Node type="hid" id="89" />
      </Nodes>
      <Connections>
        <Con id="23" src="4" tgt="6" wght="1.6682557822133941" />
        <Con id="24" src="2" tgt="6" wght="0.22426026781179198" />
        <Con id="28" src="4" tgt="5" wght="-0.32063771502756688" />
        <Con id="33" src="1" tgt="6" wght="-0.17453751975532292" />
        <Con id="148" src="89" tgt="7" wght="1.9508427514628381" />
        <Con id="157" src="3" tgt="89" wght="-0.14573283928583475" />
      </Connections>
    </Network>
    <Network id="38651" birthGen="966" fitness="208.08775329589844">
      <Nodes>
        <Node type="bias" id="0" />
        <Node type="in" id="1" />
        <Node type="in" id="2" />
        <Node type="in" id="3" />
        <Node type="in" id="4" />
        <Node type="out" id="5" />
        <Node type="out" id="6" />
        <Node type="out" id="7" />
        <Node type="hid" id="89" />
      </Nodes>
      <Connections>
        <Con id="23" src="4" tgt="6" wght="1.6806396093107683" />
        <Con id="24" src="2" tgt="6" wght="0.22426026781179198" />
        <Con id="28" src="4" tgt="5" wght="-0.14293809460490264" />
        <Con id="33" src="1" tgt="6" wght="-0.17453751975532292" />
        <Con id="148" src="89" tgt="7" wght="1.7799969855695963" />
        <Con id="157" src="3" tgt="89" wght="-0.14573283928583475" />
      </Connections>
    </Network>
    <Network id="38652" birthGen="966" fitness="208.08775329589844">
      <Nodes>
        <Node type="bias" id="0" />
        <Node type="in" id="1" />
        <Node type="in" id="2" />
        <Node type="in" id="3" />
        <Node type="in" id="4" />
        <Node type="out" id="5" />
        <Node type="out" id="6" />
        <Node type="out" id="7" />
        <Node type="hid" id="89" />
      </Nodes>
      <Connections>
        <Con id="23" src="4" tgt="6" wght="-0.00812551031475574" />
        <Con id="24" src="2" tgt="6" wght="0.22426026781179198" />
        <Con id="28" src="4" tgt="5" wght="-0.11089594959107166" />
        <Con id="33" src="1" tgt="6" wght="-0.17453751975532292" />
        <Con id="148" src="89" tgt="7" wght="1.1926792726060278" />
        <Con id="157" src="3" tgt="89" wght="-0.1196549830856599" />
      </Connections>
    </Network>
    <Network id="38653" birthGen="966" fitness="208.08775329589844">
      <Nodes>
        <Node type="bias" id="0" />
        <Node type="in" id="1" />
        <Node type="in" id="2" />
        <Node type="in" id="3" />
        <Node type="in" id="4" />
        <Node type="out" id="5" />
        <Node type="out" id="6" />
        <Node type="out" id="7" />
        <Node type="hid" id="89" />
      </Nodes>
      <Connections>
        <Con id="23" src="4" tgt="6" wght="-0.00812551031475574" />
        <Con id="24" src="2" tgt="6" wght="0.22426026781179198" />
        <Con id="28" src="4" tgt="5" wght="-0.11334537986777481" />
        <Con id="33" src="1" tgt="6" wght="-0.17453751975532292" />
        <Con id="148" src="89" tgt="7" wght="1.1926792726060278" />
        <Con id="157" src="3" tgt="89" wght="-0.14573283928583475" />
      </Connections>
    </Network>
    <Network id="38654" birthGen="966" fitness="2.2798128128051758">
      <Nodes>
        <Node type="bias" id="0" />
        <Node type="in" id="1" />
        <Node type="in" id="2" />
        <Node type="in" id="3" />
        <Node type="in" id="4" />
        <Node type="out" id="5" />
        <Node type="out" id="6" />
        <Node type="out" id="7" />
        <Node type="hid" id="89" />
      </Nodes>
      <Connections>
        <Con id="23" src="4" tgt="6" wght="-0.00812551031475574" />
        <Con id="24" src="2" tgt="6" wght="0.22426026781179198" />
        <Con id="28" src="4" tgt="5" wght="-0.11309656251945174" />
        <Con id="33" src="1" tgt="6" wght="-0.17453751975532292" />
        <Con id="148" src="89" tgt="7" wght="1.1926792726060278" />
        <Con id="157" src="3" tgt="89" wght="1.414583123658566" />
      </Connections>
    </Network>
    <Network id="38655" birthGen="966" fitness="206.0396728515625">
      <Nodes>
        <Node type="bias" id="0" />
        <Node type="in" id="1" />
        <Node type="in" id="2" />
        <Node type="in" id="3" />
        <Node type="in" id="4" />
        <Node type="out" id="5" />
        <Node type="out" id="6" />
        <Node type="out" id="7" />
        <Node type="hid" id="89" />
      </Nodes>
      <Connections>
        <Con id="23" src="4" tgt="6" wght="-0.023097142297242069" />
        <Con id="24" src="2" tgt="6" wght="0.22426026781179198" />
        <Con id="28" src="4" tgt="5" wght="-0.11309656251945174" />
        <Con id="33" src="1" tgt="6" wght="-0.17036006201187123" />
        <Con id="148" src="89" tgt="7" wght="1.1680327756704505" />
        <Con id="157" src="3" tgt="89" wght="-0.14573283928583475" />
      </Connections>
    </Network>
    <Network id="38656" birthGen="966" fitness="0">
      <Nodes>
        <Node type="bias" id="0" />
        <Node type="in" id="1" />
        <Node type="in" id="2" />
        <Node type="in" id="3" />
        <Node type="in" id="4" />
        <Node type="out" id="5" />
        <Node type="out" id="6" />
        <Node type="out" id="7" />
        <Node type="hid" id="89" />
      </Nodes>
      <Connections>
        <Con id="23" src="4" tgt="6" wght="-0.00812551031475574" />
        <Con id="24" src="2" tgt="6" wght="0.22426026781179198" />
        <Con id="28" src="4" tgt="5" wght="-0.11309656251945174" />
        <Con id="33" src="1" tgt="6" wght="-0.78079599650389353" />
        <Con id="148" src="89" tgt="7" wght="-0.16472528622486649" />
        <Con id="157" src="3" tgt="89" wght="-0.14573283928583475" />
      </Connections>
    </Network>
    <Network id="38657" birthGen="966" fitness="192.13554382324219">
      <Nodes>
        <Node type="bias" id="0" />
        <Node type="in" id="1" />
        <Node type="in" id="2" />
        <Node type="in" id="3" />
        <Node type="in" id="4" />
        <Node type="out" id="5" />
        <Node type="out" id="6" />
        <Node type="out" id="7" />
        <Node type="hid" id="89" />
      </Nodes>
      <Connections>
        <Con id="23" src="4" tgt="6" wght="-0.00812551031475574" />
        <Con id="24" src="2" tgt="6" wght="3.0146921895728709" />
        <Con id="28" src="4" tgt="5" wght="-0.081794804845203975" />
        <Con id="33" src="1" tgt="6" wght="-0.17453751975532292" />
        <Con id="148" src="89" tgt="7" wght="1.1926792726060278" />
        <Con id="157" src="3" tgt="89" wght="-0.14573283928583475" />
      </Connections>
    </Network>
    <Network id="38658" birthGen="966" fitness="208.08775329589844">
      <Nodes>
        <Node type="bias" id="0" />
        <Node type="in" id="1" />
        <Node type="in" id="2" />
        <Node type="in" id="3" />
        <Node type="in" id="4" />
        <Node type="out" id="5" />
        <Node type="out" id="6" />
        <Node type="out" id="7" />
        <Node type="hid" id="89" />
      </Nodes>
      <Connections>
        <Con id="23" src="4" tgt="6" wght="-0.00812551031475574" />
        <Con id="24" src="2" tgt="6" wght="0.22426026781179198" />
        <Con id="28" src="4" tgt="5" wght="0.50614062045717434" />
        <Con id="33" src="1" tgt="6" wght="-0.17453751975532292" />
        <Con id="148" src="89" tgt="7" wght="1.1926792726060278" />
        <Con id="157" src="3" tgt="89" wght="-0.14573283928583475" />
      </Connections>
    </Network>
    <Network id="38659" birthGen="966" fitness="208.48019409179688">
      <Nodes>
        <Node type="bias" id="0" />
        <Node type="in" id="1" />
        <Node type="in" id="2" />
        <Node type="in" id="3" />
        <Node type="in" id="4" />
        <Node type="out" id="5" />
        <Node type="out" id="6" />
        <Node type="out" id="7" />
        <Node type="hid" id="89" />
      </Nodes>
      <Connections>
        <Con id="23" src="4" tgt="6" wght="-0.00812551031475574" />
        <Con id="24" src="2" tgt="6" wght="0.23183594899950882" />
        <Con id="28" src="4" tgt="5" wght="-0.14069105890938979" />
        <Con id="33" src="1" tgt="6" wght="-0.18148602777265213" />
        <Con id="148" src="89" tgt="7" wght="1.1926792726060278" />
        <Con id="157" src="3" tgt="89" wght="-0.14573283928583475" />
      </Connections>
    </Network>
    <Network id="38660" birthGen="966" fitness="0">
      <Nodes>
        <Node type="bias" id="0" />
        <Node type="in" id="1" />
        <Node type="in" id="2" />
        <Node type="in" id="3" />
        <Node type="in" id="4" />
        <Node type="out" id="5" />
        <Node type="out" id="6" />
        <Node type="out" id="7" />
        <Node type="hid" id="89" />
      </Nodes>
      <Connections>
        <Con id="23" src="4" tgt="6" wght="-0.00812551031475574" />
        <Con id="24" src="2" tgt="6" wght="-0.541377268647542" />
        <Con id="28" src="4" tgt="5" wght="-1.345247528087153" />
        <Con id="33" src="1" tgt="6" wght="-0.17453751975532292" />
        <Con id="148" src="89" tgt="7" wght="1.1926792726060278" />
        <Con id="157" src="3" tgt="89" wght="-1.6268012796592775" />
      </Connections>
    </Network>
    <Network id="38661" birthGen="966" fitness="201.13800048828125">
      <Nodes>
        <Node type="bias" id="0" />
        <Node type="in" id="1" />
        <Node type="in" id="2" />
        <Node type="in" id="3" />
        <Node type="in" id="4" />
        <Node type="out" id="5" />
        <Node type="out" id="6" />
        <Node type="out" id="7" />
        <Node type="hid" id="89" />
      </Nodes>
      <Connections>
        <Con id="23" src="4" tgt="6" wght="-0.0011917586467104424" />
        <Con id="24" src="2" tgt="6" wght="0.20661358792627779" />
        <Con id="28" src="4" tgt="5" wght="-0.14069105890938979" />
        <Con id="33" src="1" tgt="6" wght="-0.17453751975532292" />
        <Con id="148" src="89" tgt="7" wght="1.1926792726060278" />
        <Con id="157" src="3" tgt="89" wght="-0.14573283928583475" />
      </Connections>
    </Network>
    <Network id="38662" birthGen="966" fitness="208.08775329589844">
      <Nodes>
        <Node type="bias" id="0" />
        <Node type="in" id="1" />
        <Node type="in" id="2" />
        <Node type="in" id="3" />
        <Node type="in" id="4" />
        <Node type="out" id="5" />
        <Node type="out" id="6" />
        <Node type="out" id="7" />
        <Node type="hid" id="89" />
      </Nodes>
      <Connections>
        <Con id="23" src="4" tgt="6" wght="-0.00812551031475574" />
        <Con id="24" src="2" tgt="6" wght="0.22426026781179198" />
        <Con id="28" src="4" tgt="5" wght="-0.14944058443706223" />
        <Con id="33" src="1" tgt="6" wght="-0.17453751975532292" />
        <Con id="148" src="89" tgt="7" wght="1.1926792726060278" />
        <Con id="157" src="3" tgt="89" wght="-0.14573283928583475" />
      </Connections>
    </Network>
    <Network id="38663" birthGen="966" fitness="202.91714477539063">
      <Nodes>
        <Node type="bias" id="0" />
        <Node type="in" id="1" />
        <Node type="in" id="2" />
        <Node type="in" id="3" />
        <Node type="in" id="4" />
        <Node type="out" id="5" />
        <Node type="out" id="6" />
        <Node type="out" id="7" />
        <Node type="hid" id="89" />
        <Node type="hid" id="387" />
        <Node type="hid" id="407" />
        <Node type="hid" id="417" />
      </Nodes>
      <Connections>
        <Con id="31" src="3" tgt="6" wght="1.1016143243968124" />
        <Con id="45" src="3" tgt="7" wght="-0.740928182399171" />
        <Con id="148" src="89" tgt="7" wght="4.4441248251161865" />
        <Con id="388" src="2" tgt="387" wght="2.0071345878111084" />
        <Con id="389" src="387" tgt="6" wght="-1.785674204280143" />
        <Con id="408" src="3" tgt="407" wght="-0.54249108680287117" />
        <Con id="409" src="407" tgt="89" wght="5" />
        <Con id="418" src="4" tgt="417" wght="-3.2113817241042852" />
        <Con id="419" src="417" tgt="89" wght="5" />
      </Connections>
    </Network>
    <Network id="38664" birthGen="966" fitness="197.81790161132813">
      <Nodes>
        <Node type="bias" id="0" />
        <Node type="in" id="1" />
        <Node type="in" id="2" />
        <Node type="in" id="3" />
        <Node type="in" id="4" />
        <Node type="out" id="5" />
        <Node type="out" id="6" />
        <Node type="out" id="7" />
        <Node type="hid" id="89" />
        <Node type="hid" id="387" />
        <Node type="hid" id="407" />
        <Node type="hid" id="417" />
      </Nodes>
      <Connections>
        <Con id="31" src="3" tgt="6" wght="1.1016143243968124" />
        <Con id="45" src="3" tgt="7" wght="-0.74643272052657239" />
        <Con id="148" src="89" tgt="7" wght="4.4228994358062081" />
        <Con id="388" src="2" tgt="387" wght="2.0723715286254762" />
        <Con id="389" src="387" tgt="6" wght="-1.7435002144920633" />
        <Con id="408" src="3" tgt="407" wght="-0.54249108680287117" />
        <Con id="409" src="407" tgt="89" wght="5" />
        <Con id="418" src="4" tgt="417" wght="-4.2468085540155442" />
        <Con id="419" src="417" tgt="89" wght="4.9917319405313849" />
      </Connections>
    </Network>
  </Networks>
</Root>