<?xml version="1.0" encoding="utf-8"?>
<Root>
  <ActivationFunctions>
    <Fn id="0" name="SteepenedSigmoid" prob="1" />
  </ActivationFunctions>
  <Networks>
    <Network id="25252" birthGen="626" fitness="684.2091064453125">
      <Nodes>
        <Node type="bias" id="0" />
        <Node type="in" id="1" />
        <Node type="in" id="2" />
        <Node type="in" id="3" />
        <Node type="in" id="4" />
        <Node type="out" id="5" />
        <Node type="out" id="6" />
        <Node type="out" id="7" />
        <Node type="hid" id="37" />
        <Node type="hid" id="58" />
        <Node type="hid" id="90" />
        <Node type="hid" id="246" />
        <Node type="hid" id="262" />
      </Nodes>
      <Connections>
        <Con id="24" src="3" tgt="6" wght="0.1602582430352622" />
        <Con id="59" src="4" tgt="58" wght="-3.7505229193590597" />
        <Con id="60" src="58" tgt="37" wght="-2.063518171881241" />
        <Con id="73" src="0" tgt="37" wght="-0.24531078978804896" />
        <Con id="74" src="37" tgt="5" wght="-4.7556405586056263" />
        <Con id="92" src="90" tgt="6" wght="-1.5341630180562884" />
        <Con id="247" src="1" tgt="246" wght="5" />
        <Con id="263" src="246" tgt="262" wght="-1.9673616082276888" />
        <Con id="264" src="262" tgt="90" wght="-2.8680647217359" />
        <Con id="354" src="4" tgt="246" wght="-0.92586476802145168" />
      </Connections>
    </Network>
    <Network id="25287" birthGen="626" fitness="662.85565185546875">
      <Nodes>
        <Node type="bias" id="0" />
        <Node type="in" id="1" />
        <Node type="in" id="2" />
        <Node type="in" id="3" />
        <Node type="in" id="4" />
        <Node type="out" id="5" />
        <Node type="out" id="6" />
        <Node type="out" id="7" />
        <Node type="hid" id="37" />
        <Node type="hid" id="58" />
        <Node type="hid" id="90" />
        <Node type="hid" id="246" />
        <Node type="hid" id="262" />
      </Nodes>
      <Connections>
        <Con id="24" src="3" tgt="6" wght="0.1602582430352622" />
        <Con id="39" src="37" tgt="6" wght="4.7791513714096494" />
        <Con id="59" src="4" tgt="58" wght="-3.91902832017766" />
        <Con id="60" src="58" tgt="37" wght="-2.0617645308373187" />
        <Con id="73" src="0" tgt="37" wght="-0.24531078978804896" />
        <Con id="74" src="37" tgt="5" wght="-4.7556405586056263" />
        <Con id="86" src="4" tgt="37" wght="-1.8423194950446486" />
        <Con id="92" src="90" tgt="6" wght="-1.5176377394627774" />
        <Con id="247" src="1" tgt="246" wght="1.2110764859244227" />
        <Con id="263" src="246" tgt="262" wght="-2.7176417740011956" />
        <Con id="264" src="262" tgt="90" wght="-2.8680647217359" />
      </Connections>
    </Network>
    <Network id="25260" birthGen="626" fitness="683.2362060546875">
      <Nodes>
        <Node type="bias" id="0" />
        <Node type="in" id="1" />
        <Node type="in" id="2" />
        <Node type="in" id="3" />
        <Node type="in" id="4" />
        <Node type="out" id="5" />
        <Node type="out" id="6" />
        <Node type="out" id="7" />
        <Node type="hid" id="37" />
        <Node type="hid" id="58" />
        <Node type="hid" id="90" />
        <Node type="hid" id="246" />
        <Node type="hid" id="262" />
      </Nodes>
      <Connections>
        <Con id="24" src="3" tgt="6" wght="0.16134329093355165" />
        <Con id="59" src="4" tgt="58" wght="-4.4508134838232456" />
        <Con id="60" src="58" tgt="37" wght="-2.063518171881241" />
        <Con id="73" src="0" tgt="37" wght="-0.24531078978804896" />
        <Con id="74" src="37" tgt="5" wght="-4.7556405586056263" />
        <Con id="86" src="4" tgt="37" wght="-0.39456935445759289" />
        <Con id="92" src="90" tgt="6" wght="-1.5176377394627774" />
        <Con id="247" src="1" tgt="246" wght="1.5355960397056694" />
        <Con id="263" src="246" tgt="262" wght="-1.9673616082276888" />
        <Con id="264" src="262" tgt="90" wght="-2.8680647217359" />
      </Connections>
    </Network>
    <Network id="25224" birthGen="625" fitness="683.2362060546875">
      <Nodes>
        <Node type="bias" id="0" />
        <Node type="in" id="1" />
        <Node type="in" id="2" />
        <Node type="in" id="3" />
        <Node type="in" id="4" />
        <Node type="out" id="5" />
        <Node type="out" id="6" />
        <Node type="out" id="7" />
        <Node type="hid" id="37" />
        <Node type="hid" id="58" />
        <Node type="hid" id="90" />
        <Node type="hid" id="246" />
        <Node type="hid" id="262" />
      </Nodes>
      <Connections>
        <Con id="24" src="3" tgt="6" wght="0.16134329093355165" />
        <Con id="59" src="4" tgt="58" wght="-4.4508134838232456" />
        <Con id="60" src="58" tgt="37" wght="-2.063518171881241" />
        <Con id="73" src="0" tgt="37" wght="-0.24531078978804896" />
        <Con id="74" src="37" tgt="5" wght="-4.7556405586056263" />
        <Con id="86" src="4" tgt="37" wght="-1.3889918749305419" />
        <Con id="92" src="90" tgt="6" wght="-1.5176377394627774" />
        <Con id="247" src="1" tgt="246" wght="2.6768307441168253" />
        <Con id="263" src="246" tgt="262" wght="-1.9673616082276888" />
        <Con id="264" src="262" tgt="90" wght="-2.8680647217359" />
      </Connections>
    </Network>
    <Network id="25270" birthGen="626" fitness="679.9385986328125">
      <Nodes>
        <Node type="bias" id="0" />
        <Node type="in" id="1" />
        <Node type="in" id="2" />
        <Node type="in" id="3" />
        <Node type="in" id="4" />
        <Node type="out" id="5" />
        <Node type="out" id="6" />
        <Node type="out" id="7" />
        <Node type="hid" id="37" />
        <Node type="hid" id="58" />
        <Node type="hid" id="90" />
        <Node type="hid" id="246" />
        <Node type="hid" id="262" />
      </Nodes>
      <Connections>
        <Con id="24" src="3" tgt="6" wght="0.1602582430352622" />
        <Con id="39" src="37" tgt="6" wght="4.7791513714096494" />
        <Con id="59" src="4" tgt="58" wght="-3.91902832017766" />
        <Con id="60" src="58" tgt="37" wght="-2.063518171881241" />
        <Con id="73" src="0" tgt="37" wght="-0.24531078978804896" />
        <Con id="74" src="37" tgt="5" wght="-4.7556405586056263" />
        <Con id="86" src="4" tgt="37" wght="-2.4828541763601892" />
        <Con id="92" src="90" tgt="6" wght="-1.5329363669483724" />
        <Con id="247" src="1" tgt="246" wght="0.44801081388624664" />
        <Con id="263" src="246" tgt="262" wght="-1.9673616082276888" />
        <Con id="264" src="262" tgt="90" wght="-2.8637604298601755" />
      </Connections>
    </Network>
    <Network id="25272" birthGen="626" fitness="676.97418212890625">
      <Nodes>
        <Node type="bias" id="0" />
        <Node type="in" id="1" />
        <Node type="in" id="2" />
        <Node type="in" id="3" />
        <Node type="in" id="4" />
        <Node type="out" id="5" />
        <Node type="out" id="6" />
        <Node type="out" id="7" />
        <Node type="hid" id="37" />
        <Node type="hid" id="58" />
        <Node type="hid" id="90" />
        <Node type="hid" id="246" />
        <Node type="hid" id="262" />
      </Nodes>
      <Connections>
        <Con id="24" src="3" tgt="6" wght="0.1602582430352622" />
        <Con id="39" src="37" tgt="6" wght="4.7791513714096494" />
        <Con id="59" src="4" tgt="58" wght="-3.3205604952285679" />
        <Con id="60" src="58" tgt="37" wght="-2.063518171881241" />
        <Con id="73" src="0" tgt="37" wght="-0.24531078978804896" />
        <Con id="74" src="37" tgt="5" wght="-4.7556405586056263" />
        <Con id="86" src="4" tgt="37" wght="-2.4828541763601892" />
        <Con id="92" src="90" tgt="6" wght="-1.5329363669483724" />
        <Con id="247" src="1" tgt="246" wght="0.44801081388624664" />
        <Con id="263" src="246" tgt="262" wght="-1.9673616082276888" />
        <Con id="264" src="262" tgt="90" wght="-2.8680647217359" />
      </Connections>
    </Network>
    <Network id="25228" birthGen="625" fitness="680.44525146484375">
      <Nodes>
        <Node type="bias" id="0" />
        <Node type="in" id="1" />
        <Node type="in" id="2" />
        <Node type="in" id="3" />
        <Node type="in" id="4" />
        <Node type="out" id="5" />
        <Node type="out" id="6" />
        <Node type="out" id="7" />
        <Node type="hid" id="37" />
        <Node type="hid" id="58" />
        <Node type="hid" id="90" />
        <Node type="hid" id="246" />
        <Node type="hid" id="262" />
      </Nodes>
      <Connections>
        <Con id="24" src="3" tgt="6" wght="0.1602582430352622" />
        <Con id="39" src="37" tgt="6" wght="4.8581886942734487" />
        <Con id="59" src="4" tgt="58" wght="-4.2582675950521685" />
        <Con id="60" src="58" tgt="37" wght="-2.063518171881241" />
        <Con id="73" src="0" tgt="37" wght="-0.24531078978804896" />
        <Con id="74" src="37" tgt="5" wght="-4.7556405586056263" />
        <Con id="92" src="90" tgt="6" wght="-1.5341630180562884" />
        <Con id="247" src="1" tgt="246" wght="5" />
        <Con id="263" src="246" tgt="262" wght="-1.9673616082276888" />
        <Con id="264" src="262" tgt="90" wght="-2.8680647217359" />
        <Con id="354" src="4" tgt="246" wght="-0.92586476802145168" />
      </Connections>
    </Network>
    <Network id="25267" birthGen="626" fitness="575.78375244140625">
      <Nodes>
        <Node type="bias" id="0" />
        <Node type="in" id="1" />
        <Node type="in" id="2" />
        <Node type="in" id="3" />
        <Node type="in" id="4" />
        <Node type="out" id="5" />
        <Node type="out" id="6" />
        <Node type="out" id="7" />
        <Node type="hid" id="37" />
        <Node type="hid" id="58" />
        <Node type="hid" id="246" />
        <Node type="hid" id="262" />
      </Nodes>
      <Connections>
        <Con id="24" src="3" tgt="6" wght="0.93949541695613714" />
        <Con id="59" src="4" tgt="58" wght="0.5888105808523415" />
        <Con id="60" src="58" tgt="37" wght="-2.0587136926555667" />
        <Con id="61" src="4" tgt="7" wght="-3.7385460610503096" />
        <Con id="73" src="0" tgt="37" wght="-0.24531078978804896" />
        <Con id="74" src="37" tgt="5" wght="-4.6649323874110351" />
        <Con id="263" src="246" tgt="262" wght="-4.848982635638218" />
        <Con id="292" src="262" tgt="7" wght="-0.076996366951322948" />
      </Connections>
    </Network>
    <Network id="25248" birthGen="625" fitness="678.6993408203125">
      <Nodes>
        <Node type="bias" id="0" />
        <Node type="in" id="1" />
        <Node type="in" id="2" />
        <Node type="in" id="3" />
        <Node type="in" id="4" />
        <Node type="out" id="5" />
        <Node type="out" id="6" />
        <Node type="out" id="7" />
        <Node type="hid" id="37" />
        <Node type="hid" id="58" />
        <Node type="hid" id="90" />
        <Node type="hid" id="246" />
        <Node type="hid" id="262" />
      </Nodes>
      <Connections>
        <Con id="24" src="3" tgt="6" wght="0.1602582430352622" />
        <Con id="59" src="4" tgt="58" wght="2.674919989072186" />
        <Con id="60" src="58" tgt="37" wght="-2.063518171881241" />
        <Con id="73" src="0" tgt="37" wght="-0.24531078978804896" />
        <Con id="74" src="37" tgt="5" wght="-4.749094031745793" />
        <Con id="92" src="90" tgt="6" wght="-1.5176377394627774" />
        <Con id="247" src="1" tgt="246" wght="1.7068088951536233" />
        <Con id="263" src="246" tgt="262" wght="-1.993099570867042" />
        <Con id="264" src="262" tgt="90" wght="-2.3834783323390796" />
      </Connections>
    </Network>
    <Network id="25168" birthGen="623" fitness="679.005126953125">
      <Nodes>
        <Node type="bias" id="0" />
        <Node type="in" id="1" />
        <Node type="in" id="2" />
        <Node type="in" id="3" />
        <Node type="in" id="4" />
        <Node type="out" id="5" />
        <Node type="out" id="6" />
        <Node type="out" id="7" />
        <Node type="hid" id="37" />
        <Node type="hid" id="58" />
        <Node type="hid" id="90" />
        <Node type="hid" id="246" />
        <Node type="hid" id="262" />
      </Nodes>
      <Connections>
        <Con id="24" src="3" tgt="6" wght="0.1602582430352622" />
        <Con id="39" src="37" tgt="6" wght="4.7686485875044848" />
        <Con id="59" src="4" tgt="58" wght="2.674919989072186" />
        <Con id="60" src="58" tgt="37" wght="-2.063518171881241" />
        <Con id="73" src="0" tgt="37" wght="-0.24531078978804896" />
        <Con id="74" src="37" tgt="5" wght="-4.749094031745793" />
        <Con id="92" src="90" tgt="6" wght="-1.5176377394627774" />
        <Con id="247" src="1" tgt="246" wght="1.7166371922940016" />
        <Con id="263" src="246" tgt="262" wght="-1.993099570867042" />
        <Con id="264" src="262" tgt="90" wght="-3.0970680718042072" />
      </Connections>
    </Network>
    <Network id="25290" birthGen="627" fitness="0">
      <Nodes>
        <Node type="bias" id="0" />
        <Node type="in" id="1" />
        <Node type="in" id="2" />
        <Node type="in" id="3" />
        <Node type="in" id="4" />
        <Node type="out" id="5" />
        <Node type="out" id="6" />
        <Node type="out" id="7" />
        <Node type="hid" id="37" />
        <Node type="hid" id="58" />
      </Nodes>
      <Connections>
        <Con id="59" src="4" tgt="58" wght="-1.6825875605515848" />
        <Con id="60" src="58" tgt="37" wght="-2.0353743293116175" />
        <Con id="72" src="37" tgt="6" wght="-4.9716224756265479" />
        <Con id="73" src="0" tgt="37" wght="-0.24531078978804896" />
        <Con id="74" src="37" tgt="5" wght="-4.70518860933376" />
      </Connections>
    </Network>
    <Network id="25291" birthGen="627" fitness="0">
      <Nodes>
        <Node type="bias" id="0" />
        <Node type="in" id="1" />
        <Node type="in" id="2" />
        <Node type="in" id="3" />
        <Node type="in" id="4" />
        <Node type="out" id="5" />
        <Node type="out" id="6" />
        <Node type="out" id="7" />
        <Node type="hid" id="37" />
        <Node type="hid" id="58" />
      </Nodes>
      <Connections>
        <Con id="24" src="3" tgt="6" wght="-1.7570954968831876" />
        <Con id="59" src="4" tgt="58" wght="-1.6825875605515848" />
        <Con id="60" src="58" tgt="37" wght="-2.0353743293116175" />
        <Con id="72" src="37" tgt="6" wght="-4.9716224756265479" />
        <Con id="73" src="0" tgt="37" wght="-0.17987090434868636" />
        <Con id="74" src="37" tgt="5" wght="-4.70518860933376" />
      </Connections>
    </Network>
    <Network id="25292" birthGen="627" fitness="595.0465087890625">
      <Nodes>
        <Node type="bias" id="0" />
        <Node type="in" id="1" />
        <Node type="in" id="2" />
        <Node type="in" id="3" />
        <Node type="in" id="4" />
        <Node type="out" id="5" />
        <Node type="out" id="6" />
        <Node type="out" id="7" />
        <Node type="hid" id="37" />
        <Node type="hid" id="58" />
      </Nodes>
      <Connections>
        <Con id="24" src="3" tgt="6" wght="0.13717210171981822" />
        <Con id="59" src="4" tgt="58" wght="-1.6759785062541934" />
        <Con id="60" src="58" tgt="37" wght="-2.0353743293116175" />
        <Con id="72" src="37" tgt="6" wght="-4.9716224756265479" />
        <Con id="73" src="0" tgt="37" wght="-0.24531078978804896" />
        <Con id="74" src="37" tgt="5" wght="-4.70518860933376" />
      </Connections>
    </Network>
    <Network id="25293" birthGen="627" fitness="0">
      <Nodes>
        <Node type="bias" id="0" />
        <Node type="in" id="1" />
        <Node type="in" id="2" />
        <Node type="in" id="3" />
        <Node type="in" id="4" />
        <Node type="out" id="5" />
        <Node type="out" id="6" />
        <Node type="out" id="7" />
        <Node type="hid" id="37" />
        <Node type="hid" id="58" />
      </Nodes>
      <Connections>
        <Con id="59" src="4" tgt="58" wght="-1.6825875605515848" />
        <Con id="60" src="58" tgt="37" wght="-2.0353743293116175" />
        <Con id="72" src="37" tgt="6" wght="-4.9716224756265479" />
        <Con id="73" src="0" tgt="37" wght="-0.24531078978804896" />
        <Con id="74" src="37" tgt="5" wght="-4.70518860933376" />
      </Connections>
    </Network>
    <Network id="25294" birthGen="627" fitness="586.5821533203125">
      <Nodes>
        <Node type="bias" id="0" />
        <Node type="in" id="1" />
        <Node type="in" id="2" />
        <Node type="in" id="3" />
        <Node type="in" id="4" />
        <Node type="out" id="5" />
        <Node type="out" id="6" />
        <Node type="out" id="7" />
        <Node type="hid" id="37" />
        <Node type="hid" id="58" />
      </Nodes>
      <Connections>
        <Con id="24" src="3" tgt="6" wght="0.13717210171981822" />
        <Con id="59" src="4" tgt="58" wght="-1.6825875605515848" />
        <Con id="60" src="58" tgt="37" wght="-2.0435080313286629" />
        <Con id="72" src="37" tgt="6" wght="-5" />
        <Con id="73" src="0" tgt="37" wght="-0.24531078978804896" />
        <Con id="74" src="37" tgt="5" wght="-4.7073937314987555" />
      </Connections>
    </Network>
    <Network id="25295" birthGen="627" fitness="594.0880126953125">
      <Nodes>
        <Node type="bias" id="0" />
        <Node type="in" id="1" />
        <Node type="in" id="2" />
        <Node type="in" id="3" />
        <Node type="in" id="4" />
        <Node type="out" id="5" />
        <Node type="out" id="6" />
        <Node type="out" id="7" />
        <Node type="hid" id="37" />
        <Node type="hid" id="58" />
      </Nodes>
      <Connections>
        <Con id="24" src="3" tgt="6" wght="0.13717210171981822" />
        <Con id="59" src="4" tgt="58" wght="-1.6648214608038521" />
        <Con id="60" src="58" tgt="37" wght="-2.0353743293116175" />
        <Con id="72" src="37" tgt="6" wght="-4.9693971346703707" />
        <Con id="73" src="0" tgt="37" wght="-0.24531078978804896" />
        <Con id="74" src="37" tgt="5" wght="-4.70518860933376" />
      </Connections>
    </Network>
    <Network id="25296" birthGen="627" fitness="603.03497314453125">
      <Nodes>
        <Node type="bias" id="0" />
        <Node type="in" id="1" />
        <Node type="in" id="2" />
        <Node type="in" id="3" />
        <Node type="in" id="4" />
        <Node type="out" id="5" />
        <Node type="out" id="6" />
        <Node type="out" id="7" />
        <Node type="hid" id="37" />
        <Node type="hid" id="58" />
      </Nodes>
      <Connections>
        <Con id="24" src="3" tgt="6" wght="0.12185089965163004" />
        <Con id="59" src="4" tgt="58" wght="-1.703181406421993" />
        <Con id="60" src="58" tgt="37" wght="-2.0353743293116175" />
        <Con id="72" src="37" tgt="6" wght="-4.9716224756265479" />
        <Con id="73" src="0" tgt="37" wght="-0.246067897635535" />
        <Con id="74" src="37" tgt="5" wght="-4.7169135463540091" />
      </Connections>
    </Network>
    <Network id="25297" birthGen="627" fitness="55.267875671386719">
      <Nodes>
        <Node type="bias" id="0" />
        <Node type="in" id="1" />
        <Node type="in" id="2" />
        <Node type="in" id="3" />
        <Node type="in" id="4" />
        <Node type="out" id="5" />
        <Node type="out" id="6" />
        <Node type="out" id="7" />
        <Node type="hid" id="37" />
        <Node type="hid" id="58" />
      </Nodes>
      <Connections>
        <Con id="24" src="3" tgt="6" wght="0.13717210171981822" />
        <Con id="59" src="4" tgt="58" wght="-1.6825875605515848" />
        <Con id="60" src="58" tgt="37" wght="-2.0353743293116175" />
        <Con id="72" src="37" tgt="6" wght="-4.9716224756265479" />
        <Con id="73" src="0" tgt="37" wght="-0.246067897635535" />
      </Connections>
    </Network>
    <Network id="25298" birthGen="627" fitness="143.28318786621094">
      <Nodes>
        <Node type="bias" id="0" />
        <Node type="in" id="1" />
        <Node type="in" id="2" />
        <Node type="in" id="3" />
        <Node type="in" id="4" />
        <Node type="out" id="5" />
        <Node type="out" id="6" />
        <Node type="out" id="7" />
        <Node type="hid" id="37" />
        <Node type="hid" id="58" />
      </Nodes>
      <Connections>
        <Con id="24" src="3" tgt="6" wght="0.13717210171981822" />
        <Con id="59" src="4" tgt="58" wght="-1.6528452929130568" />
        <Con id="60" src="58" tgt="37" wght="-2.0353743293116175" />
        <Con id="72" src="37" tgt="6" wght="-4.9716224756265479" />
        <Con id="73" src="0" tgt="37" wght="-0.26734894577351093" />
        <Con id="74" src="37" tgt="5" wght="-4.7169135463540091" />
      </Connections>
    </Network>
    <Network id="25299" birthGen="627" fitness="0">
      <Nodes>
        <Node type="bias" id="0" />
        <Node type="in" id="1" />
        <Node type="in" id="2" />
        <Node type="in" id="3" />
        <Node type="in" id="4" />
        <Node type="out" id="5" />
        <Node type="out" id="6" />
        <Node type="out" id="7" />
        <Node type="hid" id="37" />
        <Node type="hid" id="58" />
      </Nodes>
      <Connections>
        <Con id="24" src="3" tgt="6" wght="0.13717210171981822" />
        <Con id="59" src="4" tgt="58" wght="-1.6825875605515848" />
        <Con id="72" src="37" tgt="6" wght="-4.9716224756265479" />
        <Con id="73" src="0" tgt="37" wght="-0.246067897635535" />
        <Con id="74" src="37" tgt="5" wght="-4.7169135463540091" />
      </Connections>
    </Network>
    <Network id="25300" birthGen="627" fitness="599.70208740234375">
      <Nodes>
        <Node type="bias" id="0" />
        <Node type="in" id="1" />
        <Node type="in" id="2" />
        <Node type="in" id="3" />
        <Node type="in" id="4" />
        <Node type="out" id="5" />
        <Node type="out" id="6" />
        <Node type="out" id="7" />
        <Node type="hid" id="37" />
        <Node type="hid" id="58" />
      </Nodes>
      <Connections>
        <Con id="24" src="3" tgt="6" wght="0.13717210171981822" />
        <Con id="59" src="4" tgt="58" wght="-1.7181026114351212" />
        <Con id="60" src="58" tgt="37" wght="-2.0353743293116175" />
        <Con id="72" src="37" tgt="6" wght="-4.9716224756265479" />
        <Con id="73" src="0" tgt="37" wght="-0.246067897635535" />
        <Con id="74" src="37" tgt="5" wght="-4.7169135463540091" />
      </Connections>
    </Network>
    <Network id="25301" birthGen="627" fitness="0">
      <Nodes>
        <Node type="bias" id="0" />
        <Node type="in" id="1" />
        <Node type="in" id="2" />
        <Node type="in" id="3" />
        <Node type="in" id="4" />
        <Node type="out" id="5" />
        <Node type="out" id="6" />
        <Node type="out" id="7" />
        <Node type="hid" id="37" />
        <Node type="hid" id="58" />
      </Nodes>
      <Connections>
        <Con id="24" src="3" tgt="6" wght="0.13717210171981822" />
        <Con id="59" src="4" tgt="58" wght="-1.6825875605515848" />
        <Con id="72" src="37" tgt="6" wght="-4.9716224756265479" />
        <Con id="73" src="0" tgt="37" wght="-0.246067897635535" />
        <Con id="74" src="37" tgt="5" wght="-4.7169135463540091" />
      </Connections>
    </Network>
    <Network id="25302" birthGen="627" fitness="2.8759505748748779">
      <Nodes>
        <Node type="bias" id="0" />
        <Node type="in" id="1" />
        <Node type="in" id="2" />
        <Node type="in" id="3" />
        <Node type="in" id="4" />
        <Node type="out" id="5" />
        <Node type="out" id="6" />
        <Node type="out" id="7" />
        <Node type="hid" id="37" />
        <Node type="hid" id="58" />
      </Nodes>
      <Connections>
        <Con id="59" src="4" tgt="58" wght="-1.6825875605515848" />
        <Con id="60" src="58" tgt="37" wght="-2.0367009918856454" />
        <Con id="73" src="0" tgt="37" wght="-0.24531078978804896" />
        <Con id="74" src="37" tgt="5" wght="-4.679179598165673" />
      </Connections>
    </Network>
    <Network id="25303" birthGen="627" fitness="55.295158386230469">
      <Nodes>
        <Node type="bias" id="0" />
        <Node type="in" id="1" />
        <Node type="in" id="2" />
        <Node type="in" id="3" />
        <Node type="in" id="4" />
        <Node type="out" id="5" />
        <Node type="out" id="6" />
        <Node type="out" id="7" />
        <Node type="hid" id="37" />
        <Node type="hid" id="58" />
      </Nodes>
      <Connections>
        <Con id="24" src="3" tgt="6" wght="0.13594209074138414" />
        <Con id="59" src="4" tgt="58" wght="-1.6825875605515848" />
        <Con id="60" src="58" tgt="37" wght="-2.0367009918856454" />
        <Con id="73" src="0" tgt="37" wght="-0.24531078978804896" />
      </Connections>
    </Network>
    <Network id="25304" birthGen="627" fitness="589.42803955078125">
      <Nodes>
        <Node type="bias" id="0" />
        <Node type="in" id="1" />
        <Node type="in" id="2" />
        <Node type="in" id="3" />
        <Node type="in" id="4" />
        <Node type="out" id="5" />
        <Node type="out" id="6" />
        <Node type="out" id="7" />
        <Node type="hid" id="37" />
        <Node type="hid" id="58" />
      </Nodes>
      <Connections>
        <Con id="24" src="3" tgt="6" wght="0.13594209074138414" />
        <Con id="59" src="4" tgt="58" wght="-1.6825875605515848" />
        <Con id="60" src="58" tgt="37" wght="-2.0367009918856454" />
        <Con id="73" src="0" tgt="37" wght="-0.25086128405071273" />
        <Con id="74" src="37" tgt="5" wght="-4.679179598165673" />
      </Connections>
    </Network>
    <Network id="25305" birthGen="627" fitness="55.295158386230469">
      <Nodes>
        <Node type="bias" id="0" />
        <Node type="in" id="1" />
        <Node type="in" id="2" />
        <Node type="in" id="3" />
        <Node type="in" id="4" />
        <Node type="out" id="5" />
        <Node type="out" id="6" />
        <Node type="out" id="7" />
        <Node type="hid" id="37" />
        <Node type="hid" id="58" />
      </Nodes>
      <Connections>
        <Con id="24" src="3" tgt="6" wght="0.13594209074138414" />
        <Con id="59" src="4" tgt="58" wght="-1.6825875605515848" />
        <Con id="60" src="58" tgt="37" wght="-2.0367009918856454" />
        <Con id="73" src="0" tgt="37" wght="-0.24531078978804896" />
      </Connections>
    </Network>
    <Network id="25306" birthGen="627" fitness="158.64360046386719">
      <Nodes>
        <Node type="bias" id="0" />
        <Node type="in" id="1" />
        <Node type="in" id="2" />
        <Node type="in" id="3" />
        <Node type="in" id="4" />
        <Node type="out" id="5" />
        <Node type="out" id="6" />
        <Node type="out" id="7" />
        <Node type="hid" id="37" />
        <Node type="hid" id="58" />
      </Nodes>
      <Connections>
        <Con id="24" src="3" tgt="6" wght="0.13594209074138414" />
        <Con id="59" src="4" tgt="58" wght="-1.6825875605515848" />
        <Con id="60" src="58" tgt="37" wght="-2.0760539445529509" />
        <Con id="73" src="0" tgt="37" wght="-0.24531078978804896" />
        <Con id="74" src="37" tgt="5" wght="-4.6686376676816153" />
      </Connections>
    </Network>
    <Network id="25307" birthGen="627" fitness="10.084729194641113">
      <Nodes>
        <Node type="bias" id="0" />
        <Node type="in" id="1" />
        <Node type="in" id="2" />
        <Node type="in" id="3" />
        <Node type="in" id="4" />
        <Node type="out" id="5" />
        <Node type="out" id="6" />
        <Node type="out" id="7" />
        <Node type="hid" id="37" />
        <Node type="hid" id="58" />
        <Node type="hid" id="90" />
        <Node type="hid" id="246" />
        <Node type="hid" id="262" />
      </Nodes>
      <Connections>
        <Con id="24" src="3" tgt="6" wght="0.16366160679905595" />
        <Con id="59" src="4" tgt="58" wght="-1.825589094697339" />
        <Con id="73" src="0" tgt="37" wght="-0.24531078978804896" />
        <Con id="74" src="37" tgt="5" wght="-4.6615939612123904" />
        <Con id="92" src="90" tgt="6" wght="-1.5851346487101414" />
        <Con id="263" src="246" tgt="262" wght="-1.8723708186588863" />
        <Con id="284" src="2" tgt="246" wght="0.69061621599695322" />
      </Connections>
    </Network>
    <Network id="25308" birthGen="627" fitness="568.10345458984375">
      <Nodes>
        <Node type="bias" id="0" />
        <Node type="in" id="1" />
        <Node type="in" id="2" />
        <Node type="in" id="3" />
        <Node type="in" id="4" />
        <Node type="out" id="5" />
        <Node type="out" id="6" />
        <Node type="out" id="7" />
        <Node type="hid" id="37" />
        <Node type="hid" id="58" />
        <Node type="hid" id="90" />
        <Node type="hid" id="246" />
      </Nodes>
      <Connections>
        <Con id="24" src="3" tgt="6" wght="0.16366160679905595" />
        <Con id="59" src="4" tgt="58" wght="-1.825589094697339" />
        <Con id="60" src="58" tgt="37" wght="-2.059094686084721" />
        <Con id="73" src="0" tgt="37" wght="-0.24531078978804896" />
        <Con id="74" src="37" tgt="5" wght="-4.6615939612123904" />
        <Con id="92" src="90" tgt="6" wght="-1.5851346487101414" />
        <Con id="284" src="2" tgt="246" wght="0.69061621599695322" />
      </Connections>
    </Network>
    <Network id="25309" birthGen="627" fitness="2.8757860660552979">
      <Nodes>
        <Node type="bias" id="0" />
        <Node type="in" id="1" />
        <Node type="in" id="2" />
        <Node type="in" id="3" />
        <Node type="in" id="4" />
        <Node type="out" id="5" />
        <Node type="out" id="6" />
        <Node type="out" id="7" />
        <Node type="hid" id="37" />
        <Node type="hid" id="58" />
        <Node type="hid" id="90" />
        <Node type="hid" id="246" />
        <Node type="hid" id="262" />
      </Nodes>
      <Connections>
        <Con id="59" src="4" tgt="58" wght="-1.825589094697339" />
        <Con id="60" src="58" tgt="37" wght="-2.059094686084721" />
        <Con id="73" src="0" tgt="37" wght="-0.24531078978804896" />
        <Con id="74" src="37" tgt="5" wght="-4.6615939612123904" />
        <Con id="92" src="90" tgt="6" wght="-1.5851346487101414" />
        <Con id="263" src="246" tgt="262" wght="-1.8723708186588863" />
        <Con id="284" src="2" tgt="246" wght="0.69061621599695322" />
      </Connections>
    </Network>
    <Network id="25310" birthGen="627" fitness="55.205169677734375">
      <Nodes>
        <Node type="bias" id="0" />
        <Node type="in" id="1" />
        <Node type="in" id="2" />
        <Node type="in" id="3" />
        <Node type="in" id="4" />
        <Node type="out" id="5" />
        <Node type="out" id="6" />
        <Node type="out" id="7" />
        <Node type="hid" id="37" />
        <Node type="hid" id="58" />
        <Node type="hid" id="90" />
        <Node type="hid" id="246" />
        <Node type="hid" id="262" />
      </Nodes>
      <Connections>
        <Con id="24" src="3" tgt="6" wght="0.16366160679905595" />
        <Con id="59" src="4" tgt="58" wght="-1.825589094697339" />
        <Con id="60" src="58" tgt="37" wght="-2.059094686084721" />
        <Con id="73" src="0" tgt="37" wght="-0.24531078978804896" />
        <Con id="92" src="90" tgt="6" wght="-1.5851346487101414" />
        <Con id="263" src="246" tgt="262" wght="-1.8723708186588863" />
        <Con id="284" src="2" tgt="246" wght="0.69061621599695322" />
      </Connections>
    </Network>
    <Network id="25311" birthGen="627" fitness="608.87835693359375">
      <Nodes>
        <Node type="bias" id="0" />
        <Node type="in" id="1" />
        <Node type="in" id="2" />
        <Node type="in" id="3" />
        <Node type="in" id="4" />
        <Node type="out" id="5" />
        <Node type="out" id="6" />
        <Node type="out" id="7" />
        <Node type="hid" id="37" />
        <Node type="hid" id="58" />
        <Node type="hid" id="90" />
        <Node type="hid" id="246" />
        <Node type="hid" id="262" />
      </Nodes>
      <Connections>
        <Con id="24" src="3" tgt="6" wght="0.17616824096035449" />
        <Con id="59" src="4" tgt="58" wght="-3.7505229193590597" />
        <Con id="60" src="58" tgt="37" wght="-2.063518171881241" />
        <Con id="73" src="0" tgt="37" wght="-0.24531078978804896" />
        <Con id="74" src="37" tgt="5" wght="-4.7556405586056263" />
        <Con id="92" src="90" tgt="6" wght="-1.5341630180562884" />
        <Con id="247" src="1" tgt="246" wght="5" />
        <Con id="263" src="246" tgt="262" wght="-1.9673616082276888" />
        <Con id="264" src="262" tgt="90" wght="-2.8680647217359" />
        <Con id="354" src="4" tgt="246" wght="-0.92586476802145168" />
      </Connections>
    </Network>
    <Network id="25312" birthGen="627" fitness="679.93359375">
      <Nodes>
        <Node type="bias" id="0" />
        <Node type="in" id="1" />
        <Node type="in" id="2" />
        <Node type="in" id="3" />
        <Node type="in" id="4" />
        <Node type="out" id="5" />
        <Node type="out" id="6" />
        <Node type="out" id="7" />
        <Node type="hid" id="37" />
        <Node type="hid" id="58" />
        <Node type="hid" id="90" />
        <Node type="hid" id="246" />
        <Node type="hid" id="262" />
      </Nodes>
      <Connections>
        <Con id="24" src="3" tgt="6" wght="0.1602582430352622" />
        <Con id="59" src="4" tgt="58" wght="-3.7505229193590597" />
        <Con id="60" src="58" tgt="37" wght="-2.063518171881241" />
        <Con id="73" src="0" tgt="37" wght="-0.24531078978804896" />
        <Con id="74" src="37" tgt="5" wght="-4.7644159104245638" />
        <Con id="92" src="90" tgt="6" wght="-1.5341630180562884" />
        <Con id="247" src="1" tgt="246" wght="5" />
        <Con id="263" src="246" tgt="262" wght="-1.9673616082276888" />
        <Con id="264" src="262" tgt="90" wght="-2.8680647217359" />
        <Con id="354" src="4" tgt="246" wght="-0.92586476802145168" />
      </Connections>
    </Network>
    <Network id="25313" birthGen="627" fitness="682.50555419921875">
      <Nodes>
        <Node type="bias" id="0" />
        <Node type="in" id="1" />
        <Node type="in" id="2" />
        <Node type="in" id="3" />
        <Node type="in" id="4" />
        <Node type="out" id="5" />
        <Node type="out" id="6" />
        <Node type="out" id="7" />
        <Node type="hid" id="37" />
        <Node type="hid" id="58" />
        <Node type="hid" id="90" />
        <Node type="hid" id="246" />
        <Node type="hid" id="262" />
      </Nodes>
      <Connections>
        <Con id="24" src="3" tgt="6" wght="0.1602582430352622" />
        <Con id="59" src="4" tgt="58" wght="-3.7505229193590597" />
        <Con id="60" src="58" tgt="37" wght="-2.063518171881241" />
        <Con id="73" src="0" tgt="37" wght="-0.24531078978804896" />
        <Con id="74" src="37" tgt="5" wght="-4.7556405586056263" />
        <Con id="92" src="90" tgt="6" wght="-1.5341630180562884" />
        <Con id="247" src="1" tgt="246" wght="5" />
        <Con id="263" src="246" tgt="262" wght="-1.983104979865056" />
        <Con id="264" src="262" tgt="90" wght="-2.8680647217359" />
        <Con id="354" src="4" tgt="246" wght="-0.92586476802145168" />
      </Connections>
    </Network>
    <Network id="25314" birthGen="627" fitness="684.2091064453125">
      <Nodes>
        <Node type="bias" id="0" />
        <Node type="in" id="1" />
        <Node type="in" id="2" />
        <Node type="in" id="3" />
        <Node type="in" id="4" />
        <Node type="out" id="5" />
        <Node type="out" id="6" />
        <Node type="out" id="7" />
        <Node type="hid" id="37" />
        <Node type="hid" id="58" />
        <Node type="hid" id="90" />
        <Node type="hid" id="246" />
        <Node type="hid" id="262" />
      </Nodes>
      <Connections>
        <Con id="24" src="3" tgt="6" wght="0.1602582430352622" />
        <Con id="59" src="4" tgt="58" wght="-3.7505229193590597" />
        <Con id="60" src="58" tgt="37" wght="-2.063518171881241" />
        <Con id="73" src="0" tgt="37" wght="-0.24531078978804896" />
        <Con id="74" src="37" tgt="5" wght="-4.7556405586056263" />
        <Con id="92" src="90" tgt="6" wght="-1.5341630180562884" />
        <Con id="247" src="1" tgt="246" wght="5" />
        <Con id="263" src="246" tgt="262" wght="-1.9673616082276888" />
        <Con id="264" src="262" tgt="90" wght="-2.8680647217359" />
      </Connections>
    </Network>
    <Network id="25315" birthGen="627" fitness="575.85028076171875">
      <Nodes>
        <Node type="bias" id="0" />
        <Node type="in" id="1" />
        <Node type="in" id="2" />
        <Node type="in" id="3" />
        <Node type="in" id="4" />
        <Node type="out" id="5" />
        <Node type="out" id="6" />
        <Node type="out" id="7" />
        <Node type="hid" id="37" />
        <Node type="hid" id="58" />
        <Node type="hid" id="90" />
        <Node type="hid" id="246" />
        <Node type="hid" id="262" />
      </Nodes>
      <Connections>
        <Con id="24" src="3" tgt="6" wght="3.8470061821863055" />
        <Con id="39" src="37" tgt="6" wght="4.8581886942734487" />
        <Con id="59" src="4" tgt="58" wght="-4.2582675950521685" />
        <Con id="60" src="58" tgt="37" wght="-2.063518171881241" />
        <Con id="73" src="0" tgt="37" wght="-0.24531078978804896" />
        <Con id="74" src="37" tgt="5" wght="-4.7556405586056263" />
        <Con id="92" src="90" tgt="6" wght="-1.5341630180562884" />
        <Con id="247" src="1" tgt="246" wght="5" />
        <Con id="263" src="246" tgt="262" wght="0.038905222900211811" />
        <Con id="264" src="262" tgt="90" wght="-2.958416691981256" />
        <Con id="354" src="4" tgt="246" wght="-0.92586476802145168" />
      </Connections>
    </Network>
    <Network id="25316" birthGen="627" fitness="680.44525146484375">
      <Nodes>
        <Node type="bias" id="0" />
        <Node type="in" id="1" />
        <Node type="in" id="2" />
        <Node type="in" id="3" />
        <Node type="in" id="4" />
        <Node type="out" id="5" />
        <Node type="out" id="6" />
        <Node type="out" id="7" />
        <Node type="hid" id="37" />
        <Node type="hid" id="58" />
        <Node type="hid" id="90" />
        <Node type="hid" id="246" />
        <Node type="hid" id="262" />
      </Nodes>
      <Connections>
        <Con id="24" src="3" tgt="6" wght="0.1602582430352622" />
        <Con id="39" src="37" tgt="6" wght="4.8581886942734487" />
        <Con id="59" src="4" tgt="58" wght="-4.2582675950521685" />
        <Con id="60" src="58" tgt="37" wght="-2.063518171881241" />
        <Con id="73" src="0" tgt="37" wght="-0.24531078978804896" />
        <Con id="74" src="37" tgt="5" wght="-4.7556405586056263" />
        <Con id="92" src="90" tgt="6" wght="-1.5341630180562884" />
        <Con id="247" src="1" tgt="246" wght="5" />
        <Con id="263" src="246" tgt="262" wght="-1.9673616082276888" />
        <Con id="264" src="262" tgt="90" wght="-2.8680647217359" />
      </Connections>
    </Network>
    <Network id="25317" birthGen="627" fitness="55.345542907714844">
      <Nodes>
        <Node type="bias" id="0" />
        <Node type="in" id="1" />
        <Node type="in" id="2" />
        <Node type="in" id="3" />
        <Node type="in" id="4" />
        <Node type="out" id="5" />
        <Node type="out" id="6" />
        <Node type="out" id="7" />
        <Node type="hid" id="37" />
        <Node type="hid" id="58" />
        <Node type="hid" id="246" />
        <Node type="hid" id="262" />
      </Nodes>
      <Connections>
        <Con id="24" src="3" tgt="6" wght="0.93949541695613714" />
        <Con id="59" src="4" tgt="58" wght="0.5888105808523415" />
        <Con id="60" src="58" tgt="37" wght="-2.0587136926555667" />
        <Con id="61" src="4" tgt="7" wght="-3.7385460610503096" />
        <Con id="73" src="0" tgt="37" wght="-0.24531078978804896" />
        <Con id="263" src="246" tgt="262" wght="-4.848982635638218" />
        <Con id="292" src="262" tgt="7" wght="-0.076996366951322948" />
      </Connections>
    </Network>
    <Network id="25318" birthGen="627" fitness="137.72938537597656">
      <Nodes>
        <Node type="bias" id="0" />
        <Node type="in" id="1" />
        <Node type="in" id="2" />
        <Node type="in" id="3" />
        <Node type="in" id="4" />
        <Node type="out" id="5" />
        <Node type="out" id="6" />
        <Node type="out" id="7" />
        <Node type="hid" id="37" />
        <Node type="hid" id="58" />
        <Node type="hid" id="246" />
        <Node type="hid" id="262" />
      </Nodes>
      <Connections>
        <Con id="24" src="3" tgt="6" wght="0.93949541695613714" />
        <Con id="59" src="4" tgt="58" wght="0.5888105808523415" />
        <Con id="60" src="58" tgt="37" wght="-2.0587136926555667" />
        <Con id="61" src="4" tgt="7" wght="-5" />
        <Con id="73" src="0" tgt="37" wght="-0.24531078978804896" />
        <Con id="74" src="37" tgt="5" wght="-4.3421819885955557" />
        <Con id="263" src="246" tgt="262" wght="-4.848982635638218" />
        <Con id="292" src="262" tgt="7" wght="-0.59851529882041365" />
      </Connections>
    </Network>
    <Network id="25319" birthGen="627" fitness="570.4530029296875">
      <Nodes>
        <Node type="bias" id="0" />
        <Node type="in" id="1" />
        <Node type="in" id="2" />
        <Node type="in" id="3" />
        <Node type="in" id="4" />
        <Node type="out" id="5" />
        <Node type="out" id="6" />
        <Node type="out" id="7" />
        <Node type="hid" id="37" />
        <Node type="hid" id="58" />
        <Node type="hid" id="246" />
        <Node type="hid" id="262" />
      </Nodes>
      <Connections>
        <Con id="24" src="3" tgt="6" wght="0.93949541695613714" />
        <Con id="59" src="4" tgt="58" wght="0.5888105808523415" />
        <Con id="60" src="58" tgt="37" wght="-2.0587136926555667" />
        <Con id="61" src="4" tgt="7" wght="-3.7385460610503096" />
        <Con id="73" src="0" tgt="37" wght="-0.24531078978804896" />
        <Con id="74" src="37" tgt="5" wght="-4.6649323874110351" />
        <Con id="263" src="246" tgt="262" wght="-4.8633320188840825" />
        <Con id="292" src="262" tgt="7" wght="-0.076996366951322948" />
      </Connections>
    </Network>
    <Network id="25320" birthGen="627" fitness="577.7833251953125">
      <Nodes>
        <Node type="bias" id="0" />
        <Node type="in" id="1" />
        <Node type="in" id="2" />
        <Node type="in" id="3" />
        <Node type="in" id="4" />
        <Node type="out" id="5" />
        <Node type="out" id="6" />
        <Node type="out" id="7" />
        <Node type="hid" id="37" />
        <Node type="hid" id="58" />
        <Node type="hid" id="90" />
        <Node type="hid" id="246" />
        <Node type="hid" id="262" />
      </Nodes>
      <Connections>
        <Con id="24" src="3" tgt="6" wght="0.1602582430352622" />
        <Con id="59" src="4" tgt="58" wght="2.674919989072186" />
        <Con id="60" src="58" tgt="37" wght="-2.063518171881241" />
        <Con id="73" src="0" tgt="37" wght="-0.24531078978804896" />
        <Con id="74" src="37" tgt="5" wght="-4.749094031745793" />
        <Con id="247" src="1" tgt="246" wght="1.7068088951536233" />
        <Con id="263" src="246" tgt="262" wght="-1.993099570867042" />
        <Con id="264" src="262" tgt="90" wght="-2.3834783323390796" />
      </Connections>
    </Network>
    <Network id="25321" birthGen="627" fitness="681.35711669921875">
      <Nodes>
        <Node type="bias" id="0" />
        <Node type="in" id="1" />
        <Node type="in" id="2" />
        <Node type="in" id="3" />
        <Node type="in" id="4" />
        <Node type="out" id="5" />
        <Node type="out" id="6" />
        <Node type="out" id="7" />
        <Node type="hid" id="37" />
        <Node type="hid" id="58" />
        <Node type="hid" id="90" />
        <Node type="hid" id="246" />
        <Node type="hid" id="262" />
      </Nodes>
      <Connections>
        <Con id="24" src="3" tgt="6" wght="0.1602582430352622" />
        <Con id="59" src="4" tgt="58" wght="2.674919989072186" />
        <Con id="60" src="58" tgt="37" wght="-2.063518171881241" />
        <Con id="73" src="0" tgt="37" wght="-0.24531078978804896" />
        <Con id="74" src="37" tgt="5" wght="-4.749094031745793" />
        <Con id="92" src="90" tgt="6" wght="-1.5176377394627774" />
        <Con id="247" src="1" tgt="246" wght="1.7228768005553767" />
        <Con id="263" src="246" tgt="262" wght="-1.993099570867042" />
        <Con id="264" src="262" tgt="90" wght="-2.3834783323390796" />
      </Connections>
    </Network>
    <Network id="25322" birthGen="627" fitness="9.9255571365356445">
      <Nodes>
        <Node type="bias" id="0" />
        <Node type="in" id="1" />
        <Node type="in" id="2" />
        <Node type="in" id="3" />
        <Node type="in" id="4" />
        <Node type="out" id="5" />
        <Node type="out" id="6" />
        <Node type="out" id="7" />
        <Node type="hid" id="37" />
        <Node type="hid" id="58" />
        <Node type="hid" id="90" />
        <Node type="hid" id="246" />
        <Node type="hid" id="262" />
      </Nodes>
      <Connections>
        <Con id="24" src="3" tgt="6" wght="0.1602582430352622" />
        <Con id="60" src="58" tgt="37" wght="-2.063518171881241" />
        <Con id="73" src="0" tgt="37" wght="-0.24531078978804896" />
        <Con id="74" src="37" tgt="5" wght="-4.749094031745793" />
        <Con id="92" src="90" tgt="6" wght="-1.5176377394627774" />
        <Con id="247" src="1" tgt="246" wght="1.7068088951536233" />
        <Con id="263" src="246" tgt="262" wght="-1.993099570867042" />
        <Con id="264" src="262" tgt="90" wght="-2.3834783323390796" />
      </Connections>
    </Network>
    <Network id="25323" birthGen="627" fitness="28.52747917175293">
      <Nodes>
        <Node type="bias" id="0" />
        <Node type="in" id="1" />
        <Node type="in" id="2" />
        <Node type="in" id="3" />
        <Node type="in" id="4" />
        <Node type="out" id="5" />
        <Node type="out" id="6" />
        <Node type="out" id="7" />
        <Node type="hid" id="37" />
        <Node type="hid" id="58" />
        <Node type="hid" id="90" />
        <Node type="hid" id="246" />
        <Node type="hid" id="262" />
      </Nodes>
      <Connections>
        <Con id="24" src="3" tgt="6" wght="1.1060710937268521" />
        <Con id="59" src="4" tgt="58" wght="2.674919989072186" />
        <Con id="60" src="58" tgt="37" wght="-1.1493066980878657" />
        <Con id="73" src="0" tgt="37" wght="-0.24531078978804896" />
        <Con id="74" src="37" tgt="5" wght="-4.749094031745793" />
        <Con id="92" src="90" tgt="6" wght="-1.5182355408831492" />
        <Con id="247" src="1" tgt="246" wght="1.7068088951536233" />
        <Con id="263" src="246" tgt="262" wght="-1.993099570867042" />
        <Con id="264" src="262" tgt="90" wght="-2.3834783323390796" />
      </Connections>
    </Network>
    <Network id="25324" birthGen="627" fitness="584.08209228515625">
      <Nodes>
        <Node type="bias" id="0" />
        <Node type="in" id="1" />
        <Node type="in" id="2" />
        <Node type="in" id="3" />
        <Node type="in" id="4" />
        <Node type="out" id="5" />
        <Node type="out" id="6" />
        <Node type="out" id="7" />
        <Node type="hid" id="37" />
        <Node type="hid" id="58" />
        <Node type="hid" id="90" />
        <Node type="hid" id="246" />
        <Node type="hid" id="262" />
      </Nodes>
      <Connections>
        <Con id="24" src="3" tgt="6" wght="0.1602582430352622" />
        <Con id="39" src="37" tgt="6" wght="4.7686485875044848" />
        <Con id="59" src="4" tgt="58" wght="3.6688326579825157" />
        <Con id="60" src="58" tgt="37" wght="-2.063518171881241" />
        <Con id="73" src="0" tgt="37" wght="-0.24531078978804896" />
        <Con id="74" src="37" tgt="5" wght="-4.749094031745793" />
        <Con id="92" src="90" tgt="6" wght="-1.1997417121648395" />
        <Con id="247" src="1" tgt="246" wght="1.7166371922940016" />
        <Con id="263" src="246" tgt="262" wght="-1.993099570867042" />
        <Con id="264" src="262" tgt="90" wght="-3.0970680718042072" />
      </Connections>
    </Network>
    <Network id="25325" birthGen="627" fitness="577.892822265625">
      <Nodes>
        <Node type="bias" id="0" />
        <Node type="in" id="1" />
        <Node type="in" id="2" />
        <Node type="in" id="3" />
        <Node type="in" id="4" />
        <Node type="out" id="5" />
        <Node type="out" id="6" />
        <Node type="out" id="7" />
        <Node type="hid" id="37" />
        <Node type="hid" id="58" />
        <Node type="hid" id="90" />
        <Node type="hid" id="246" />
        <Node type="hid" id="262" />
      </Nodes>
      <Connections>
        <Con id="24" src="3" tgt="6" wght="0.1602582430352622" />
        <Con id="39" src="37" tgt="6" wght="4.7686485875044848" />
        <Con id="59" src="4" tgt="58" wght="2.674919989072186" />
        <Con id="60" src="58" tgt="37" wght="-2.063518171881241" />
        <Con id="73" src="0" tgt="37" wght="-0.24531078978804896" />
        <Con id="74" src="37" tgt="5" wght="-4.749094031745793" />
        <Con id="247" src="1" tgt="246" wght="1.7166371922940016" />
        <Con id="263" src="246" tgt="262" wght="-1.993099570867042" />
        <Con id="264" src="262" tgt="90" wght="-3.0970680718042072" />
      </Connections>
    </Network>
    <Network id="25326" birthGen="627" fitness="679.005126953125">
      <Nodes>
        <Node type="bias" id="0" />
        <Node type="in" id="1" />
        <Node type="in" id="2" />
        <Node type="in" id="3" />
        <Node type="in" id="4" />
        <Node type="out" id="5" />
        <Node type="out" id="6" />
        <Node type="out" id="7" />
        <Node type="hid" id="37" />
        <Node type="hid" id="58" />
        <Node type="hid" id="90" />
        <Node type="hid" id="246" />
        <Node type="hid" id="262" />
      </Nodes>
      <Connections>
        <Con id="24" src="3" tgt="6" wght="0.1602582430352622" />
        <Con id="39" src="37" tgt="6" wght="4.7686485875044848" />
        <Con id="59" src="4" tgt="58" wght="2.7029850084716434" />
        <Con id="60" src="58" tgt="37" wght="-2.063518171881241" />
        <Con id="73" src="0" tgt="37" wght="-0.24531078978804896" />
        <Con id="74" src="37" tgt="5" wght="-4.749094031745793" />
        <Con id="92" src="90" tgt="6" wght="-1.5176377394627774" />
        <Con id="247" src="1" tgt="246" wght="1.7166371922940016" />
        <Con id="263" src="246" tgt="262" wght="-1.993099570867042" />
        <Con id="264" src="262" tgt="90" wght="-3.0970680718042072" />
      </Connections>
    </Network>
    <Network id="25327" birthGen="627" fitness="10.07902717590332">
      <Nodes>
        <Node type="bias" id="0" />
        <Node type="in" id="1" />
        <Node type="in" id="2" />
        <Node type="in" id="3" />
        <Node type="in" id="4" />
        <Node type="out" id="5" />
        <Node type="out" id="6" />
        <Node type="out" id="7" />
        <Node type="hid" id="37" />
        <Node type="hid" id="58" />
        <Node type="hid" id="90" />
        <Node type="hid" id="246" />
        <Node type="hid" id="262" />
      </Nodes>
      <Connections>
        <Con id="24" src="3" tgt="6" wght="0.1602582430352622" />
        <Con id="39" src="37" tgt="6" wght="4.7686485875044848" />
        <Con id="59" src="4" tgt="58" wght="2.674919989072186" />
        <Con id="73" src="0" tgt="37" wght="-0.24531078978804896" />
        <Con id="74" src="37" tgt="5" wght="-4.749094031745793" />
        <Con id="92" src="90" tgt="6" wght="-1.5176377394627774" />
        <Con id="247" src="1" tgt="246" wght="1.7166371922940016" />
        <Con id="263" src="246" tgt="262" wght="-1.993099570867042" />
        <Con id="264" src="262" tgt="90" wght="-3.0970680718042072" />
      </Connections>
    </Network>
    <Network id="25328" birthGen="627" fitness="577.892822265625">
      <Nodes>
        <Node type="bias" id="0" />
        <Node type="in" id="1" />
        <Node type="in" id="2" />
        <Node type="in" id="3" />
        <Node type="in" id="4" />
        <Node type="out" id="5" />
        <Node type="out" id="6" />
        <Node type="out" id="7" />
        <Node type="hid" id="37" />
        <Node type="hid" id="58" />
        <Node type="hid" id="90" />
        <Node type="hid" id="246" />
        <Node type="hid" id="262" />
      </Nodes>
      <Connections>
        <Con id="24" src="3" tgt="6" wght="0.1602582430352622" />
        <Con id="39" src="37" tgt="6" wght="4.7686485875044848" />
        <Con id="59" src="4" tgt="58" wght="2.674919989072186" />
        <Con id="60" src="58" tgt="37" wght="-2.063518171881241" />
        <Con id="73" src="0" tgt="37" wght="-0.24531078978804896" />
        <Con id="74" src="37" tgt="5" wght="-4.749094031745793" />
        <Con id="92" src="90" tgt="6" wght="-1.5176377394627774" />
        <Con id="247" src="1" tgt="246" wght="1.7166371922940016" />
        <Con id="263" src="246" tgt="262" wght="-1.993099570867042" />
      </Connections>
    </Network>
    <Network id="25329" birthGen="627" fitness="10.07902717590332">
      <Nodes>
        <Node type="bias" id="0" />
        <Node type="in" id="1" />
        <Node type="in" id="2" />
        <Node type="in" id="3" />
        <Node type="in" id="4" />
        <Node type="out" id="5" />
        <Node type="out" id="6" />
        <Node type="out" id="7" />
        <Node type="hid" id="37" />
        <Node type="hid" id="58" />
        <Node type="hid" id="90" />
        <Node type="hid" id="246" />
        <Node type="hid" id="262" />
      </Nodes>
      <Connections>
        <Con id="24" src="3" tgt="6" wght="0.1602582430352622" />
        <Con id="39" src="37" tgt="6" wght="4.7686485875044848" />
        <Con id="59" src="4" tgt="58" wght="2.674919989072186" />
        <Con id="73" src="0" tgt="37" wght="-0.24531078978804896" />
        <Con id="74" src="37" tgt="5" wght="-4.749094031745793" />
        <Con id="92" src="90" tgt="6" wght="-1.5176377394627774" />
        <Con id="247" src="1" tgt="246" wght="1.7166371922940016" />
        <Con id="263" src="246" tgt="262" wght="-1.993099570867042" />
        <Con id="264" src="262" tgt="90" wght="-3.0970680718042072" />
      </Connections>
    </Network>
  </Networks>
</Root>