<?xml version="1.0" encoding="utf-8"?>
<Root>
  <ActivationFunctions>
    <Fn id="0" name="SteepenedSigmoid" prob="1" />
  </ActivationFunctions>
  <Networks>
    <Network id="5190" birthGen="130" fitness="94.523765563964844">
      <Nodes>
        <Node type="bias" id="0" />
        <Node type="in" id="1" />
        <Node type="in" id="2" />
        <Node type="in" id="3" />
        <Node type="in" id="4" />
        <Node type="out" id="5" />
        <Node type="out" id="6" />
        <Node type="out" id="7" />
        <Node type="hid" id="68" />
      </Nodes>
      <Connections>
        <Con id="19" src="3" tgt="7" wght="-2.3845670036873781" />
        <Con id="27" src="4" tgt="6" wght="3.3150294234723243" />
        <Con id="28" src="4" tgt="5" wght="-0.00990278107638283" />
        <Con id="30" src="0" tgt="6" wght="-1.4098697993904352" />
        <Con id="32" src="2" tgt="6" wght="4.9533670853323493" />
        <Con id="48" src="2" tgt="7" wght="-4.0680781020254049" />
        <Con id="54" src="4" tgt="7" wght="-4.335405709588704" />
        <Con id="69" src="1" tgt="68" wght="1.9850226389899783" />
        <Con id="70" src="68" tgt="6" wght="3.3623867542177237" />
      </Connections>
    </Network>
    <Network id="5198" birthGen="130" fitness="94.241905212402344">
      <Nodes>
        <Node type="bias" id="0" />
        <Node type="in" id="1" />
        <Node type="in" id="2" />
        <Node type="in" id="3" />
        <Node type="in" id="4" />
        <Node type="out" id="5" />
        <Node type="out" id="6" />
        <Node type="out" id="7" />
        <Node type="hid" id="65" />
      </Nodes>
      <Connections>
        <Con id="19" src="3" tgt="7" wght="-5" />
        <Con id="27" src="4" tgt="6" wght="3.010735765380911" />
        <Con id="28" src="4" tgt="5" wght="-4.9541260252410062" />
        <Con id="30" src="0" tgt="6" wght="1.1310110445209209" />
        <Con id="32" src="2" tgt="6" wght="3.254925745695239" />
        <Con id="66" src="1" tgt="65" wght="-3.7008193043623883" />
        <Con id="67" src="65" tgt="6" wght="4.6613244041813893" />
        <Con id="107" src="65" tgt="7" wght="-0.0086105680527649945" />
      </Connections>
    </Network>
    <Network id="5192" birthGen="130" fitness="94.241905212402344">
      <Nodes>
        <Node type="bias" id="0" />
        <Node type="in" id="1" />
        <Node type="in" id="2" />
        <Node type="in" id="3" />
        <Node type="in" id="4" />
        <Node type="out" id="5" />
        <Node type="out" id="6" />
        <Node type="out" id="7" />
        <Node type="hid" id="65" />
      </Nodes>
      <Connections>
        <Con id="19" src="3" tgt="7" wght="-4.4004847781089165" />
        <Con id="27" src="4" tgt="6" wght="2.9969882816340929" />
        <Con id="28" src="4" tgt="5" wght="-4.4335641547363007" />
        <Con id="30" src="0" tgt="6" wght="1.1310110445209209" />
        <Con id="32" src="2" tgt="6" wght="2.4138013878082858" />
        <Con id="66" src="1" tgt="65" wght="-3.7008193043623883" />
        <Con id="67" src="65" tgt="6" wght="4.2426547477220806" />
        <Con id="107" src="65" tgt="7" wght="-0.56754774467919444" />
      </Connections>
    </Network>
    <Network id="5201" birthGen="130" fitness="94.241905212402344">
      <Nodes>
        <Node type="bias" id="0" />
        <Node type="in" id="1" />
        <Node type="in" id="2" />
        <Node type="in" id="3" />
        <Node type="in" id="4" />
        <Node type="out" id="5" />
        <Node type="out" id="6" />
        <Node type="out" id="7" />
        <Node type="hid" id="65" />
      </Nodes>
      <Connections>
        <Con id="19" src="3" tgt="7" wght="-4.982636395194584" />
        <Con id="27" src="4" tgt="6" wght="2.9969882816340929" />
        <Con id="28" src="4" tgt="5" wght="-4.9541260252410062" />
        <Con id="30" src="0" tgt="6" wght="1.1310110445209209" />
        <Con id="32" src="2" tgt="6" wght="3.2960131197871294" />
        <Con id="66" src="1" tgt="65" wght="-3.7008193043623883" />
        <Con id="67" src="65" tgt="6" wght="4.6609287043809342" />
        <Con id="107" src="65" tgt="7" wght="-0.0086105680527649945" />
      </Connections>
    </Network>
    <Network id="5208" birthGen="130" fitness="94.241905212402344">
      <Nodes>
        <Node type="bias" id="0" />
        <Node type="in" id="1" />
        <Node type="in" id="2" />
        <Node type="in" id="3" />
        <Node type="in" id="4" />
        <Node type="out" id="5" />
        <Node type="out" id="6" />
        <Node type="out" id="7" />
        <Node type="hid" id="59" />
        <Node type="hid" id="111" />
      </Nodes>
      <Connections>
        <Con id="19" src="3" tgt="7" wght="-5" />
        <Con id="27" src="4" tgt="6" wght="2.6171775454190955" />
        <Con id="28" src="4" tgt="5" wght="0.43047535704287" />
        <Con id="32" src="2" tgt="6" wght="4.002120306816475" />
        <Con id="54" src="4" tgt="7" wght="4.5080484161185916" />
        <Con id="60" src="0" tgt="59" wght="3.4792124048207742" />
        <Con id="61" src="59" tgt="6" wght="5" />
        <Con id="112" src="1" tgt="111" wght="-2.3788240281750519" />
        <Con id="113" src="111" tgt="6" wght="-2.9658011209371478" />
        <Con id="114" src="1" tgt="59" wght="-0.40015601868104866" />
      </Connections>
    </Network>
    <Network id="5212" birthGen="130" fitness="94.5266342163086">
      <Nodes>
        <Node type="bias" id="0" />
        <Node type="in" id="1" />
        <Node type="in" id="2" />
        <Node type="in" id="3" />
        <Node type="in" id="4" />
        <Node type="out" id="5" />
        <Node type="out" id="6" />
        <Node type="out" id="7" />
        <Node type="hid" id="59" />
      </Nodes>
      <Connections>
        <Con id="19" src="3" tgt="7" wght="-3.8279552923341784" />
        <Con id="25" src="1" tgt="6" wght="-0.57618960367938388" />
        <Con id="27" src="4" tgt="6" wght="4.1415248271776415" />
        <Con id="28" src="4" tgt="5" wght="4.2563421573520426" />
        <Con id="32" src="2" tgt="6" wght="3.875405021007146" />
        <Con id="60" src="0" tgt="59" wght="0.55840118043875486" />
        <Con id="61" src="59" tgt="6" wght="2.4031312169131551" />
        <Con id="106" src="59" tgt="7" wght="-2.8669664682820439" />
      </Connections>
    </Network>
    <Network id="5213" birthGen="130" fitness="94.594833374023438">
      <Nodes>
        <Node type="bias" id="0" />
        <Node type="in" id="1" />
        <Node type="in" id="2" />
        <Node type="in" id="3" />
        <Node type="in" id="4" />
        <Node type="out" id="5" />
        <Node type="out" id="6" />
        <Node type="out" id="7" />
        <Node type="hid" id="59" />
        <Node type="hid" id="102" />
      </Nodes>
      <Connections>
        <Con id="19" src="3" tgt="7" wght="-5" />
        <Con id="27" src="4" tgt="6" wght="-2.5638914218175053" />
        <Con id="28" src="4" tgt="5" wght="-2.2286129496304521" />
        <Con id="32" src="2" tgt="6" wght="5" />
        <Con id="60" src="0" tgt="59" wght="3.4131042924452988" />
        <Con id="61" src="59" tgt="6" wght="4.1603584582384823" />
        <Con id="103" src="1" tgt="102" wght="-0.87096787198499992" />
        <Con id="104" src="102" tgt="6" wght="-4.6878805599794759" />
        <Con id="128" src="102" tgt="59" wght="1.9406630228695192" />
      </Connections>
    </Network>
    <Network id="5223" birthGen="130" fitness="95.302192687988281">
      <Nodes>
        <Node type="bias" id="0" />
        <Node type="in" id="1" />
        <Node type="in" id="2" />
        <Node type="in" id="3" />
        <Node type="in" id="4" />
        <Node type="out" id="5" />
        <Node type="out" id="6" />
        <Node type="out" id="7" />
        <Node type="hid" id="49" />
      </Nodes>
      <Connections>
        <Con id="25" src="1" tgt="6" wght="3.5292775663959226" />
        <Con id="26" src="3" tgt="6" wght="-1.1537863684583334" />
        <Con id="28" src="4" tgt="5" wght="-2.2130203819687337" />
        <Con id="46" src="0" tgt="7" wght="-4.1166034240776463" />
        <Con id="48" src="2" tgt="7" wght="-3.6256891114541028" />
        <Con id="50" src="0" tgt="49" wght="4.9598135225732234" />
        <Con id="51" src="49" tgt="6" wght="4.5329827954323276" />
        <Con id="52" src="3" tgt="7" wght="0.58124880551453306" />
        <Con id="53" src="49" tgt="7" wght="-3.8836836256086826" />
        <Con id="54" src="4" tgt="7" wght="-3.9206107965857249" />
      </Connections>
    </Network>
    <Network id="5217" birthGen="130" fitness="95.502914428710938">
      <Nodes>
        <Node type="bias" id="0" />
        <Node type="in" id="1" />
        <Node type="in" id="2" />
        <Node type="in" id="3" />
        <Node type="in" id="4" />
        <Node type="out" id="5" />
        <Node type="out" id="6" />
        <Node type="out" id="7" />
      </Nodes>
      <Connections>
        <Con id="25" src="1" tgt="6" wght="1.3859824324591612" />
        <Con id="27" src="4" tgt="6" wght="2.1840288354729438" />
        <Con id="28" src="4" tgt="5" wght="0.24394864471587405" />
      </Connections>
    </Network>
    <Network id="5221" birthGen="130" fitness="95.502914428710938">
      <Nodes>
        <Node type="bias" id="0" />
        <Node type="in" id="1" />
        <Node type="in" id="2" />
        <Node type="in" id="3" />
        <Node type="in" id="4" />
        <Node type="out" id="5" />
        <Node type="out" id="6" />
        <Node type="out" id="7" />
      </Nodes>
      <Connections>
        <Con id="25" src="1" tgt="6" wght="1.3859824324591612" />
        <Con id="27" src="4" tgt="6" wght="2.173381323976193" />
        <Con id="28" src="4" tgt="5" wght="3.4359993308808443" />
      </Connections>
    </Network>
    <Network id="5227" birthGen="131" fitness="0">
      <Nodes>
        <Node type="bias" id="0" />
        <Node type="in" id="1" />
        <Node type="in" id="2" />
        <Node type="in" id="3" />
        <Node type="in" id="4" />
        <Node type="out" id="5" />
        <Node type="out" id="6" />
        <Node type="out" id="7" />
        <Node type="hid" id="68" />
      </Nodes>
      <Connections>
        <Con id="19" src="3" tgt="7" wght="-2.3865008832529138" />
        <Con id="27" src="4" tgt="6" wght="3.3420569041972334" />
        <Con id="28" src="4" tgt="5" wght="-0.00990278107638283" />
        <Con id="30" src="0" tgt="6" wght="-1.4098697993904352" />
        <Con id="32" src="2" tgt="6" wght="4.9533670853323493" />
        <Con id="48" src="2" tgt="7" wght="-4.0778137699751618" />
        <Con id="54" src="4" tgt="7" wght="-4.335405709588704" />
        <Con id="69" src="1" tgt="68" wght="1.9850226389899783" />
        <Con id="70" src="68" tgt="6" wght="3.3623867542177237" />
      </Connections>
    </Network>
    <Network id="5228" birthGen="131" fitness="0">
      <Nodes>
        <Node type="bias" id="0" />
        <Node type="in" id="1" />
        <Node type="in" id="2" />
        <Node type="in" id="3" />
        <Node type="in" id="4" />
        <Node type="out" id="5" />
        <Node type="out" id="6" />
        <Node type="out" id="7" />
        <Node type="hid" id="68" />
      </Nodes>
      <Connections>
        <Con id="19" src="3" tgt="7" wght="-2.3845670036873781" />
        <Con id="27" src="4" tgt="6" wght="3.3150294234723243" />
        <Con id="28" src="4" tgt="5" wght="-0.00990278107638283" />
        <Con id="30" src="0" tgt="6" wght="-1.4098697993904352" />
        <Con id="32" src="2" tgt="6" wght="3.6856006710918923" />
        <Con id="48" src="2" tgt="7" wght="-4.0680781020254049" />
        <Con id="54" src="4" tgt="7" wght="-4.335405709588704" />
        <Con id="69" src="1" tgt="68" wght="1.9850226389899783" />
        <Con id="70" src="68" tgt="6" wght="3.3623867542177237" />
      </Connections>
    </Network>
    <Network id="5229" birthGen="131" fitness="0">
      <Nodes>
        <Node type="bias" id="0" />
        <Node type="in" id="1" />
        <Node type="in" id="2" />
        <Node type="in" id="3" />
        <Node type="in" id="4" />
        <Node type="out" id="5" />
        <Node type="out" id="6" />
        <Node type="out" id="7" />
        <Node type="hid" id="68" />
      </Nodes>
      <Connections>
        <Con id="19" src="3" tgt="7" wght="-2.3845670036873781" />
        <Con id="27" src="4" tgt="6" wght="3.3150294234723243" />
        <Con id="28" src="4" tgt="5" wght="-0.00990278107638283" />
        <Con id="30" src="0" tgt="6" wght="-1.4098697993904352" />
        <Con id="32" src="2" tgt="6" wght="4.9533670853323493" />
        <Con id="48" src="2" tgt="7" wght="-4.0680781020254049" />
        <Con id="54" src="4" tgt="7" wght="-3.7243920341356782" />
        <Con id="69" src="1" tgt="68" wght="1.9850226389899783" />
        <Con id="70" src="68" tgt="6" wght="3.3623867542177237" />
      </Connections>
    </Network>
    <Network id="5230" birthGen="131" fitness="0">
      <Nodes>
        <Node type="bias" id="0" />
        <Node type="in" id="1" />
        <Node type="in" id="2" />
        <Node type="in" id="3" />
        <Node type="in" id="4" />
        <Node type="out" id="5" />
        <Node type="out" id="6" />
        <Node type="out" id="7" />
        <Node type="hid" id="68" />
      </Nodes>
      <Connections>
        <Con id="19" src="3" tgt="7" wght="-2.3845670036873781" />
        <Con id="27" src="4" tgt="6" wght="3.3150294234723243" />
        <Con id="28" src="4" tgt="5" wght="-0.00990278107638283" />
        <Con id="30" src="0" tgt="6" wght="-1.4111661182350288" />
        <Con id="32" src="2" tgt="6" wght="4.9533670853323493" />
        <Con id="48" src="2" tgt="7" wght="-4.0680781020254049" />
        <Con id="54" src="4" tgt="7" wght="-4.335405709588704" />
        <Con id="69" src="1" tgt="68" wght="1.9850226389899783" />
        <Con id="70" src="68" tgt="6" wght="3.3623867542177237" />
      </Connections>
    </Network>
    <Network id="5231" birthGen="131" fitness="0">
      <Nodes>
        <Node type="bias" id="0" />
        <Node type="in" id="1" />
        <Node type="in" id="2" />
        <Node type="in" id="3" />
        <Node type="in" id="4" />
        <Node type="out" id="5" />
        <Node type="out" id="6" />
        <Node type="out" id="7" />
        <Node type="hid" id="65" />
      </Nodes>
      <Connections>
        <Con id="19" src="3" tgt="7" wght="-5" />
        <Con id="27" src="4" tgt="6" wght="2.9572699511128957" />
        <Con id="28" src="4" tgt="5" wght="3.5703223943710327" />
        <Con id="30" src="0" tgt="6" wght="1.1310110445209209" />
        <Con id="32" src="2" tgt="6" wght="3.254925745695239" />
        <Con id="66" src="1" tgt="65" wght="-3.7008193043623883" />
        <Con id="67" src="65" tgt="6" wght="4.6613244041813893" />
        <Con id="107" src="65" tgt="7" wght="-0.0086105680527649945" />
      </Connections>
    </Network>
    <Network id="5232" birthGen="131" fitness="0">
      <Nodes>
        <Node type="bias" id="0" />
        <Node type="in" id="1" />
        <Node type="in" id="2" />
        <Node type="in" id="3" />
        <Node type="in" id="4" />
        <Node type="out" id="5" />
        <Node type="out" id="6" />
        <Node type="out" id="7" />
        <Node type="hid" id="65" />
      </Nodes>
      <Connections>
        <Con id="19" src="3" tgt="7" wght="-5" />
        <Con id="27" src="4" tgt="6" wght="1.3786864262509064" />
        <Con id="28" src="4" tgt="5" wght="3.5703223943710327" />
        <Con id="30" src="0" tgt="6" wght="1.1310110445209209" />
        <Con id="32" src="2" tgt="6" wght="4.2376334857143645" />
        <Con id="66" src="1" tgt="65" wght="-3.7008193043623883" />
        <Con id="67" src="65" tgt="6" wght="4.6613244041813893" />
        <Con id="107" src="65" tgt="7" wght="-0.13007930547414584" />
      </Connections>
    </Network>
    <Network id="5233" birthGen="131" fitness="0">
      <Nodes>
        <Node type="bias" id="0" />
        <Node type="in" id="1" />
        <Node type="in" id="2" />
        <Node type="in" id="3" />
        <Node type="in" id="4" />
        <Node type="out" id="5" />
        <Node type="out" id="6" />
        <Node type="out" id="7" />
        <Node type="hid" id="65" />
      </Nodes>
      <Connections>
        <Con id="19" src="3" tgt="7" wght="-5" />
        <Con id="27" src="4" tgt="6" wght="2.9969882816340929" />
        <Con id="28" src="4" tgt="5" wght="3.5703223943710327" />
        <Con id="30" src="0" tgt="6" wght="1.135679082510755" />
        <Con id="32" src="2" tgt="6" wght="3.254925745695239" />
        <Con id="66" src="1" tgt="65" wght="-3.705842916250615" />
        <Con id="67" src="65" tgt="6" wght="4.6613244041813893" />
        <Con id="107" src="65" tgt="7" wght="-0.0086105680527649945" />
      </Connections>
    </Network>
    <Network id="5234" birthGen="131" fitness="0">
      <Nodes>
        <Node type="bias" id="0" />
        <Node type="in" id="1" />
        <Node type="in" id="2" />
        <Node type="in" id="3" />
        <Node type="in" id="4" />
        <Node type="out" id="5" />
        <Node type="out" id="6" />
        <Node type="out" id="7" />
        <Node type="hid" id="65" />
      </Nodes>
      <Connections>
        <Con id="19" src="3" tgt="7" wght="-5" />
        <Con id="27" src="4" tgt="6" wght="2.9969882816340929" />
        <Con id="28" src="4" tgt="5" wght="3.5703223943710327" />
        <Con id="30" src="0" tgt="6" wght="-2.7246546978130937" />
        <Con id="32" src="2" tgt="6" wght="3.254925745695239" />
        <Con id="66" src="1" tgt="65" wght="-3.7008193043623883" />
        <Con id="67" src="65" tgt="6" wght="4.6613244041813893" />
        <Con id="107" src="65" tgt="7" wght="2.0302892988547683" />
      </Connections>
    </Network>
    <Network id="5235" birthGen="131" fitness="0">
      <Nodes>
        <Node type="bias" id="0" />
        <Node type="in" id="1" />
        <Node type="in" id="2" />
        <Node type="in" id="3" />
        <Node type="in" id="4" />
        <Node type="out" id="5" />
        <Node type="out" id="6" />
        <Node type="out" id="7" />
        <Node type="hid" id="65" />
      </Nodes>
      <Connections>
        <Con id="19" src="3" tgt="7" wght="-5" />
        <Con id="27" src="4" tgt="6" wght="2.9969882816340929" />
        <Con id="28" src="4" tgt="5" wght="3.5703223943710327" />
        <Con id="30" src="0" tgt="6" wght="1.3880213114546502" />
        <Con id="32" src="2" tgt="6" wght="3.254925745695239" />
        <Con id="66" src="1" tgt="65" wght="-3.7008193043623883" />
        <Con id="67" src="65" tgt="6" wght="4.6613244041813893" />
        <Con id="107" src="65" tgt="7" wght="0.52323736847966917" />
      </Connections>
    </Network>
    <Network id="5236" birthGen="131" fitness="0">
      <Nodes>
        <Node type="bias" id="0" />
        <Node type="in" id="1" />
        <Node type="in" id="2" />
        <Node type="in" id="3" />
        <Node type="in" id="4" />
        <Node type="out" id="5" />
        <Node type="out" id="6" />
        <Node type="out" id="7" />
        <Node type="hid" id="65" />
      </Nodes>
      <Connections>
        <Con id="19" src="3" tgt="7" wght="-5" />
        <Con id="27" src="4" tgt="6" wght="3.19069366132239" />
        <Con id="28" src="4" tgt="5" wght="-4.9541260252410062" />
        <Con id="30" src="0" tgt="6" wght="1.1310110445209209" />
        <Con id="32" src="2" tgt="6" wght="4.0887229237630223" />
        <Con id="66" src="1" tgt="65" wght="-3.7008193043623883" />
        <Con id="67" src="65" tgt="6" wght="4.6613244041813893" />
        <Con id="107" src="65" tgt="7" wght="-0.0086105680527649945" />
      </Connections>
    </Network>
    <Network id="5237" birthGen="131" fitness="0">
      <Nodes>
        <Node type="bias" id="0" />
        <Node type="in" id="1" />
        <Node type="in" id="2" />
        <Node type="in" id="3" />
        <Node type="in" id="4" />
        <Node type="out" id="5" />
        <Node type="out" id="6" />
        <Node type="out" id="7" />
        <Node type="hid" id="65" />
      </Nodes>
      <Connections>
        <Con id="19" src="3" tgt="7" wght="-4.982636395194584" />
        <Con id="27" src="4" tgt="6" wght="2.9969882816340929" />
        <Con id="28" src="4" tgt="5" wght="-4.4335641547363007" />
        <Con id="30" src="0" tgt="6" wght="1.1310110445209209" />
        <Con id="32" src="2" tgt="6" wght="2.4138013878082858" />
        <Con id="66" src="1" tgt="65" wght="-3.7008193043623883" />
        <Con id="67" src="65" tgt="6" wght="4.2426547477220806" />
        <Con id="107" src="65" tgt="7" wght="-0.56754774467919444" />
      </Connections>
    </Network>
    <Network id="5238" birthGen="131" fitness="0">
      <Nodes>
        <Node type="bias" id="0" />
        <Node type="in" id="1" />
        <Node type="in" id="2" />
        <Node type="in" id="3" />
        <Node type="in" id="4" />
        <Node type="out" id="5" />
        <Node type="out" id="6" />
        <Node type="out" id="7" />
        <Node type="hid" id="59" />
        <Node type="hid" id="111" />
      </Nodes>
      <Connections>
        <Con id="19" src="3" tgt="7" wght="-5" />
        <Con id="27" src="4" tgt="6" wght="2.6171775454190955" />
        <Con id="28" src="4" tgt="5" wght="0.43047535704287" />
        <Con id="32" src="2" tgt="6" wght="4.002120306816475" />
        <Con id="54" src="4" tgt="7" wght="4.5080484161185916" />
        <Con id="60" src="0" tgt="59" wght="3.4792124048207742" />
        <Con id="61" src="59" tgt="6" wght="5" />
        <Con id="112" src="1" tgt="111" wght="-2.3788240281750519" />
        <Con id="113" src="111" tgt="6" wght="-2.9658011209371478" />
        <Con id="114" src="1" tgt="59" wght="-0.40015601868104866" />
      </Connections>
    </Network>
    <Network id="5239" birthGen="131" fitness="0">
      <Nodes>
        <Node type="bias" id="0" />
        <Node type="in" id="1" />
        <Node type="in" id="2" />
        <Node type="in" id="3" />
        <Node type="in" id="4" />
        <Node type="out" id="5" />
        <Node type="out" id="6" />
        <Node type="out" id="7" />
        <Node type="hid" id="59" />
        <Node type="hid" id="111" />
      </Nodes>
      <Connections>
        <Con id="19" src="3" tgt="7" wght="-5" />
        <Con id="27" src="4" tgt="6" wght="2.6171775454190955" />
        <Con id="28" src="4" tgt="5" wght="0.43047535704287" />
        <Con id="32" src="2" tgt="6" wght="4.002120306816475" />
        <Con id="54" src="4" tgt="7" wght="4.5080484161185916" />
        <Con id="60" src="0" tgt="59" wght="3.4792124048207742" />
        <Con id="61" src="59" tgt="6" wght="5" />
        <Con id="112" src="1" tgt="111" wght="-2.3732901087048317" />
        <Con id="113" src="111" tgt="6" wght="-2.9658011209371478" />
        <Con id="114" src="1" tgt="59" wght="-0.40015601868104866" />
      </Connections>
    </Network>
    <Network id="5240" birthGen="131" fitness="0">
      <Nodes>
        <Node type="bias" id="0" />
        <Node type="in" id="1" />
        <Node type="in" id="2" />
        <Node type="in" id="3" />
        <Node type="in" id="4" />
        <Node type="out" id="5" />
        <Node type="out" id="6" />
        <Node type="out" id="7" />
        <Node type="hid" id="59" />
        <Node type="hid" id="111" />
      </Nodes>
      <Connections>
        <Con id="19" src="3" tgt="7" wght="-5" />
        <Con id="27" src="4" tgt="6" wght="2.6171775454190955" />
        <Con id="28" src="4" tgt="5" wght="0.43047535704287" />
        <Con id="32" src="2" tgt="6" wght="4.002120306816475" />
        <Con id="54" src="4" tgt="7" wght="4.5080484161185916" />
        <Con id="60" src="0" tgt="59" wght="3.4792124048207742" />
        <Con id="61" src="59" tgt="6" wght="5" />
        <Con id="85" src="59" tgt="5" wght="1.4353934116661549" />
        <Con id="112" src="1" tgt="111" wght="-2.3788240281750519" />
        <Con id="113" src="111" tgt="6" wght="-2.9658011209371478" />
        <Con id="114" src="1" tgt="59" wght="-0.40015601868104866" />
      </Connections>
    </Network>
    <Network id="5241" birthGen="131" fitness="0">
      <Nodes>
        <Node type="bias" id="0" />
        <Node type="in" id="1" />
        <Node type="in" id="2" />
        <Node type="in" id="3" />
        <Node type="in" id="4" />
        <Node type="out" id="5" />
        <Node type="out" id="6" />
        <Node type="out" id="7" />
        <Node type="hid" id="59" />
        <Node type="hid" id="111" />
      </Nodes>
      <Connections>
        <Con id="19" src="3" tgt="7" wght="-5" />
        <Con id="27" src="4" tgt="6" wght="2.6171775454190955" />
        <Con id="28" src="4" tgt="5" wght="-1.0835237149149179" />
        <Con id="32" src="2" tgt="6" wght="4.002120306816475" />
        <Con id="54" src="4" tgt="7" wght="4.5080484161185916" />
        <Con id="60" src="0" tgt="59" wght="4.692083615809679" />
        <Con id="61" src="59" tgt="6" wght="5" />
        <Con id="112" src="1" tgt="111" wght="-2.3788240281750519" />
        <Con id="113" src="111" tgt="6" wght="-1.0527736553922296" />
        <Con id="114" src="1" tgt="59" wght="-0.40015601868104866" />
      </Connections>
    </Network>
    <Network id="5242" birthGen="131" fitness="0">
      <Nodes>
        <Node type="bias" id="0" />
        <Node type="in" id="1" />
        <Node type="in" id="2" />
        <Node type="in" id="3" />
        <Node type="in" id="4" />
        <Node type="out" id="5" />
        <Node type="out" id="6" />
        <Node type="out" id="7" />
        <Node type="hid" id="59" />
        <Node type="hid" id="111" />
      </Nodes>
      <Connections>
        <Con id="19" src="3" tgt="7" wght="-5" />
        <Con id="27" src="4" tgt="6" wght="2.8733907507073795" />
        <Con id="28" src="4" tgt="5" wght="0.43047535704287" />
        <Con id="32" src="2" tgt="6" wght="4.002120306816475" />
        <Con id="54" src="4" tgt="7" wght="4.5080484161185916" />
        <Con id="60" src="0" tgt="59" wght="2.5847092613003242" />
        <Con id="61" src="59" tgt="6" wght="5" />
        <Con id="112" src="1" tgt="111" wght="-3.5819086181963322" />
        <Con id="113" src="111" tgt="6" wght="-2.9658011209371478" />
        <Con id="114" src="1" tgt="59" wght="-0.40015601868104866" />
      </Connections>
    </Network>
    <Network id="5243" birthGen="131" fitness="0">
      <Nodes>
        <Node type="bias" id="0" />
        <Node type="in" id="1" />
        <Node type="in" id="2" />
        <Node type="in" id="3" />
        <Node type="in" id="4" />
        <Node type="out" id="5" />
        <Node type="out" id="6" />
        <Node type="out" id="7" />
        <Node type="hid" id="59" />
        <Node type="hid" id="111" />
      </Nodes>
      <Connections>
        <Con id="19" src="3" tgt="7" wght="-4.9970572646786566" />
        <Con id="27" src="4" tgt="6" wght="2.8733907507073795" />
        <Con id="28" src="4" tgt="5" wght="0.43047535704287" />
        <Con id="32" src="2" tgt="6" wght="4.002120306816475" />
        <Con id="54" src="4" tgt="7" wght="4.5080484161185916" />
        <Con id="60" src="0" tgt="59" wght="2.5847092613003242" />
        <Con id="61" src="59" tgt="6" wght="5" />
        <Con id="112" src="1" tgt="111" wght="-2.3788240281750519" />
        <Con id="113" src="111" tgt="6" wght="-2.983951477691476" />
        <Con id="114" src="1" tgt="59" wght="-0.40015601868104866" />
      </Connections>
    </Network>
    <Network id="5244" birthGen="131" fitness="0">
      <Nodes>
        <Node type="bias" id="0" />
        <Node type="in" id="1" />
        <Node type="in" id="2" />
        <Node type="in" id="3" />
        <Node type="in" id="4" />
        <Node type="out" id="5" />
        <Node type="out" id="6" />
        <Node type="out" id="7" />
        <Node type="hid" id="59" />
        <Node type="hid" id="111" />
      </Nodes>
      <Connections>
        <Con id="19" src="3" tgt="7" wght="-4.9970572646786566" />
        <Con id="27" src="4" tgt="6" wght="2.8733907507073795" />
        <Con id="28" src="4" tgt="5" wght="0.43047535704287" />
        <Con id="32" src="2" tgt="6" wght="4.09231880425608" />
        <Con id="54" src="4" tgt="7" wght="4.5080484161185916" />
        <Con id="60" src="0" tgt="59" wght="2.5847092613003242" />
        <Con id="61" src="59" tgt="6" wght="5" />
        <Con id="112" src="1" tgt="111" wght="-2.3788240281750519" />
        <Con id="113" src="111" tgt="6" wght="-2.9658011209371478" />
        <Con id="114" src="1" tgt="59" wght="-0.40015601868104866" />
      </Connections>
    </Network>
    <Network id="5245" birthGen="131" fitness="0">
      <Nodes>
        <Node type="bias" id="0" />
        <Node type="in" id="1" />
        <Node type="in" id="2" />
        <Node type="in" id="3" />
        <Node type="in" id="4" />
        <Node type="out" id="5" />
        <Node type="out" id="6" />
        <Node type="out" id="7" />
        <Node type="hid" id="59" />
        <Node type="hid" id="111" />
      </Nodes>
      <Connections>
        <Con id="19" src="3" tgt="7" wght="-4.9970572646786566" />
        <Con id="27" src="4" tgt="6" wght="2.8733907507073795" />
        <Con id="28" src="4" tgt="5" wght="0.43047535704287" />
        <Con id="32" src="2" tgt="6" wght="2.3802097484000617" />
        <Con id="54" src="4" tgt="7" wght="4.5080484161185916" />
        <Con id="60" src="0" tgt="59" wght="2.5847092613003242" />
        <Con id="61" src="59" tgt="6" wght="5" />
        <Con id="112" src="1" tgt="111" wght="-2.3788240281750519" />
        <Con id="113" src="111" tgt="6" wght="-2.9658011209371478" />
        <Con id="114" src="1" tgt="59" wght="-0.40015601868104866" />
      </Connections>
    </Network>
    <Network id="5246" birthGen="131" fitness="0">
      <Nodes>
        <Node type="bias" id="0" />
        <Node type="in" id="1" />
        <Node type="in" id="2" />
        <Node type="in" id="3" />
        <Node type="in" id="4" />
        <Node type="out" id="5" />
        <Node type="out" id="6" />
        <Node type="out" id="7" />
        <Node type="hid" id="59" />
        <Node type="hid" id="111" />
      </Nodes>
      <Connections>
        <Con id="19" src="3" tgt="7" wght="-4.9970572646786566" />
        <Con id="27" src="4" tgt="6" wght="2.8910487523671318" />
        <Con id="28" src="4" tgt="5" wght="0.43047535704287" />
        <Con id="32" src="2" tgt="6" wght="4.002120306816475" />
        <Con id="54" src="4" tgt="7" wght="4.5080484161185916" />
        <Con id="60" src="0" tgt="59" wght="2.5847092613003242" />
        <Con id="61" src="59" tgt="6" wght="5" />
        <Con id="112" src="1" tgt="111" wght="-2.3788240281750519" />
        <Con id="113" src="111" tgt="6" wght="-2.9658011209371478" />
        <Con id="114" src="1" tgt="59" wght="-0.40015601868104866" />
      </Connections>
    </Network>
    <Network id="5247" birthGen="131" fitness="0">
      <Nodes>
        <Node type="bias" id="0" />
        <Node type="in" id="1" />
        <Node type="in" id="2" />
        <Node type="in" id="3" />
        <Node type="in" id="4" />
        <Node type="out" id="5" />
        <Node type="out" id="6" />
        <Node type="out" id="7" />
        <Node type="hid" id="59" />
      </Nodes>
      <Connections>
        <Con id="19" src="3" tgt="7" wght="-3.8279552923341784" />
        <Con id="25" src="1" tgt="6" wght="-1.2918493636174966" />
        <Con id="27" src="4" tgt="6" wght="4.1415248271776415" />
        <Con id="28" src="4" tgt="5" wght="4.2260220106117732" />
        <Con id="32" src="2" tgt="6" wght="3.8790461854143992" />
        <Con id="60" src="0" tgt="59" wght="0.55840118043875486" />
        <Con id="61" src="59" tgt="6" wght="2.4031312169131551" />
        <Con id="106" src="59" tgt="7" wght="-2.8669664682820439" />
      </Connections>
    </Network>
    <Network id="5248" birthGen="131" fitness="0">
      <Nodes>
        <Node type="bias" id="0" />
        <Node type="in" id="1" />
        <Node type="in" id="2" />
        <Node type="in" id="3" />
        <Node type="in" id="4" />
        <Node type="out" id="5" />
        <Node type="out" id="6" />
        <Node type="out" id="7" />
        <Node type="hid" id="59" />
      </Nodes>
      <Connections>
        <Con id="19" src="3" tgt="7" wght="-3.8279552923341784" />
        <Con id="25" src="1" tgt="6" wght="-1.2918493636174966" />
        <Con id="27" src="4" tgt="6" wght="3.7774726750343826" />
        <Con id="28" src="4" tgt="5" wght="4.2563421573520426" />
        <Con id="32" src="2" tgt="6" wght="3.875405021007146" />
        <Con id="60" src="0" tgt="59" wght="0.55840118043875486" />
        <Con id="61" src="59" tgt="6" wght="2.4031312169131551" />
        <Con id="106" src="59" tgt="7" wght="-2.8669664682820439" />
      </Connections>
    </Network>
    <Network id="5249" birthGen="131" fitness="0">
      <Nodes>
        <Node type="bias" id="0" />
        <Node type="in" id="1" />
        <Node type="in" id="2" />
        <Node type="in" id="3" />
        <Node type="in" id="4" />
        <Node type="out" id="5" />
        <Node type="out" id="6" />
        <Node type="out" id="7" />
        <Node type="hid" id="59" />
      </Nodes>
      <Connections>
        <Con id="19" src="3" tgt="7" wght="-3.8279552923341784" />
        <Con id="25" src="1" tgt="6" wght="-1.2763076524507857" />
        <Con id="27" src="4" tgt="6" wght="4.1415248271776415" />
        <Con id="28" src="4" tgt="5" wght="4.2563421573520426" />
        <Con id="32" src="2" tgt="6" wght="3.875405021007146" />
        <Con id="60" src="0" tgt="59" wght="0.55840118043875486" />
        <Con id="61" src="59" tgt="6" wght="2.4031312169131551" />
        <Con id="106" src="59" tgt="7" wght="-2.8669664682820439" />
      </Connections>
    </Network>
    <Network id="5250" birthGen="131" fitness="0">
      <Nodes>
        <Node type="bias" id="0" />
        <Node type="in" id="1" />
        <Node type="in" id="2" />
        <Node type="in" id="3" />
        <Node type="in" id="4" />
        <Node type="out" id="5" />
        <Node type="out" id="6" />
        <Node type="out" id="7" />
        <Node type="hid" id="59" />
      </Nodes>
      <Connections>
        <Con id="19" src="3" tgt="7" wght="-0.52382418885827065" />
        <Con id="25" src="1" tgt="6" wght="2.4357948917895555" />
        <Con id="27" src="4" tgt="6" wght="4.1415248271776415" />
        <Con id="28" src="4" tgt="5" wght="4.2563421573520426" />
        <Con id="32" src="2" tgt="6" wght="3.875405021007146" />
        <Con id="60" src="0" tgt="59" wght="0.55840118043875486" />
        <Con id="61" src="59" tgt="6" wght="2.4031312169131551" />
        <Con id="106" src="59" tgt="7" wght="-2.8669664682820439" />
      </Connections>
    </Network>
    <Network id="5251" birthGen="131" fitness="0">
      <Nodes>
        <Node type="bias" id="0" />
        <Node type="in" id="1" />
        <Node type="in" id="2" />
        <Node type="in" id="3" />
        <Node type="in" id="4" />
        <Node type="out" id="5" />
        <Node type="out" id="6" />
        <Node type="out" id="7" />
        <Node type="hid" id="59" />
      </Nodes>
      <Connections>
        <Con id="19" src="3" tgt="7" wght="-3.8279552923341784" />
        <Con id="25" src="1" tgt="6" wght="-1.2918493636174966" />
        <Con id="27" src="4" tgt="6" wght="4.09165334741841" />
        <Con id="28" src="4" tgt="5" wght="4.2563421573520426" />
        <Con id="32" src="2" tgt="6" wght="3.5796837853362682" />
        <Con id="60" src="0" tgt="59" wght="0.55840118043875486" />
        <Con id="61" src="59" tgt="6" wght="2.4031312169131551" />
        <Con id="106" src="59" tgt="7" wght="-2.8669664682820439" />
      </Connections>
    </Network>
    <Network id="5252" birthGen="131" fitness="0">
      <Nodes>
        <Node type="bias" id="0" />
        <Node type="in" id="1" />
        <Node type="in" id="2" />
        <Node type="in" id="3" />
        <Node type="in" id="4" />
        <Node type="out" id="5" />
        <Node type="out" id="6" />
        <Node type="out" id="7" />
        <Node type="hid" id="59" />
      </Nodes>
      <Connections>
        <Con id="19" src="3" tgt="7" wght="-3.8279552923341784" />
        <Con id="25" src="1" tgt="6" wght="-0.57618960367938388" />
        <Con id="27" src="4" tgt="6" wght="4.1415248271776415" />
        <Con id="28" src="4" tgt="5" wght="4.2053957367312318" />
        <Con id="32" src="2" tgt="6" wght="3.875405021007146" />
        <Con id="60" src="0" tgt="59" wght="0.55840118043875486" />
        <Con id="61" src="59" tgt="6" wght="2.4031312169131551" />
        <Con id="106" src="59" tgt="7" wght="-2.8546556609230254" />
      </Connections>
    </Network>
    <Network id="5253" birthGen="131" fitness="0">
      <Nodes>
        <Node type="bias" id="0" />
        <Node type="in" id="1" />
        <Node type="in" id="2" />
        <Node type="in" id="3" />
        <Node type="in" id="4" />
        <Node type="out" id="5" />
        <Node type="out" id="6" />
        <Node type="out" id="7" />
        <Node type="hid" id="59" />
      </Nodes>
      <Connections>
        <Con id="19" src="3" tgt="7" wght="-3.8279552923341784" />
        <Con id="25" src="1" tgt="6" wght="-0.57618960367938388" />
        <Con id="27" src="4" tgt="6" wght="4.1415248271776415" />
        <Con id="28" src="4" tgt="5" wght="4.2563421573520426" />
        <Con id="32" src="2" tgt="6" wght="3.875405021007146" />
        <Con id="60" src="0" tgt="59" wght="0.5333095407919386" />
        <Con id="61" src="59" tgt="6" wght="2.4031312169131551" />
        <Con id="106" src="59" tgt="7" wght="-2.8669664682820439" />
      </Connections>
    </Network>
    <Network id="5254" birthGen="131" fitness="0">
      <Nodes>
        <Node type="bias" id="0" />
        <Node type="in" id="1" />
        <Node type="in" id="2" />
        <Node type="in" id="3" />
        <Node type="in" id="4" />
        <Node type="out" id="5" />
        <Node type="out" id="6" />
        <Node type="out" id="7" />
        <Node type="hid" id="59" />
      </Nodes>
      <Connections>
        <Con id="19" src="3" tgt="7" wght="-3.8279552923341784" />
        <Con id="25" src="1" tgt="6" wght="-0.57618960367938388" />
        <Con id="27" src="4" tgt="6" wght="4.1415248271776415" />
        <Con id="28" src="4" tgt="5" wght="4.2563421573520426" />
        <Con id="32" src="2" tgt="6" wght="3.875405021007146" />
        <Con id="60" src="0" tgt="59" wght="0.55840118043875486" />
        <Con id="61" src="59" tgt="6" wght="2.8139180554953138" />
        <Con id="106" src="59" tgt="7" wght="-2.8669664682820439" />
      </Connections>
    </Network>
    <Network id="5255" birthGen="131" fitness="0">
      <Nodes>
        <Node type="bias" id="0" />
        <Node type="in" id="1" />
        <Node type="in" id="2" />
        <Node type="in" id="3" />
        <Node type="in" id="4" />
        <Node type="out" id="5" />
        <Node type="out" id="6" />
        <Node type="out" id="7" />
        <Node type="hid" id="59" />
      </Nodes>
      <Connections>
        <Con id="19" src="3" tgt="7" wght="-3.8279552923341784" />
        <Con id="25" src="1" tgt="6" wght="-0.57618960367938388" />
        <Con id="27" src="4" tgt="6" wght="4.1415248271776415" />
        <Con id="28" src="4" tgt="5" wght="4.2563421573520426" />
        <Con id="32" src="2" tgt="6" wght="3.875405021007146" />
        <Con id="60" src="0" tgt="59" wght="0.54741487921430465" />
        <Con id="61" src="59" tgt="6" wght="2.4031312169131551" />
        <Con id="106" src="59" tgt="7" wght="-2.856824396405977" />
      </Connections>
    </Network>
    <Network id="5256" birthGen="131" fitness="0">
      <Nodes>
        <Node type="bias" id="0" />
        <Node type="in" id="1" />
        <Node type="in" id="2" />
        <Node type="in" id="3" />
        <Node type="in" id="4" />
        <Node type="out" id="5" />
        <Node type="out" id="6" />
        <Node type="out" id="7" />
        <Node type="hid" id="59" />
        <Node type="hid" id="102" />
      </Nodes>
      <Connections>
        <Con id="19" src="3" tgt="7" wght="-3.8793496803632017" />
        <Con id="27" src="4" tgt="6" wght="-2.5638914218175053" />
        <Con id="28" src="4" tgt="5" wght="-2.2286129496304521" />
        <Con id="32" src="2" tgt="6" wght="5" />
        <Con id="60" src="0" tgt="59" wght="3.4131042924452988" />
        <Con id="61" src="59" tgt="6" wght="4.1603584582384823" />
        <Con id="103" src="1" tgt="102" wght="-0.87096787198499992" />
        <Con id="104" src="102" tgt="6" wght="-4.6878805599794759" />
        <Con id="128" src="102" tgt="59" wght="1.9406630228695192" />
      </Connections>
    </Network>
    <Network id="5257" birthGen="131" fitness="0">
      <Nodes>
        <Node type="bias" id="0" />
        <Node type="in" id="1" />
        <Node type="in" id="2" />
        <Node type="in" id="3" />
        <Node type="in" id="4" />
        <Node type="out" id="5" />
        <Node type="out" id="6" />
        <Node type="out" id="7" />
        <Node type="hid" id="59" />
        <Node type="hid" id="102" />
      </Nodes>
      <Connections>
        <Con id="19" src="3" tgt="7" wght="-5" />
        <Con id="27" src="4" tgt="6" wght="-2.840078950885768" />
        <Con id="28" src="4" tgt="5" wght="-2.2286129496304521" />
        <Con id="32" src="2" tgt="6" wght="5" />
        <Con id="60" src="0" tgt="59" wght="3.4131042924452988" />
        <Con id="61" src="59" tgt="6" wght="4.1603584582384823" />
        <Con id="103" src="1" tgt="102" wght="-0.87096787198499992" />
        <Con id="104" src="102" tgt="6" wght="-4.6878805599794759" />
        <Con id="128" src="102" tgt="59" wght="1.9406630228695192" />
      </Connections>
    </Network>
    <Network id="5258" birthGen="131" fitness="0">
      <Nodes>
        <Node type="bias" id="0" />
        <Node type="in" id="1" />
        <Node type="in" id="2" />
        <Node type="in" id="3" />
        <Node type="in" id="4" />
        <Node type="out" id="5" />
        <Node type="out" id="6" />
        <Node type="out" id="7" />
        <Node type="hid" id="59" />
        <Node type="hid" id="102" />
      </Nodes>
      <Connections>
        <Con id="19" src="3" tgt="7" wght="-5" />
        <Con id="27" src="4" tgt="6" wght="-2.5638914218175053" />
        <Con id="28" src="4" tgt="5" wght="-2.2286129496304521" />
        <Con id="32" src="2" tgt="6" wght="5" />
        <Con id="60" src="0" tgt="59" wght="3.4131042924452988" />
        <Con id="61" src="59" tgt="6" wght="4.1603584582384823" />
        <Con id="103" src="1" tgt="102" wght="-0.87096787198499992" />
        <Con id="104" src="102" tgt="6" wght="-4.6878805599794759" />
        <Con id="128" src="102" tgt="59" wght="0.78450145063599952" />
      </Connections>
    </Network>
    <Network id="5259" birthGen="131" fitness="0">
      <Nodes>
        <Node type="bias" id="0" />
        <Node type="in" id="1" />
        <Node type="in" id="2" />
        <Node type="in" id="3" />
        <Node type="in" id="4" />
        <Node type="out" id="5" />
        <Node type="out" id="6" />
        <Node type="out" id="7" />
        <Node type="hid" id="59" />
        <Node type="hid" id="102" />
      </Nodes>
      <Connections>
        <Con id="19" src="3" tgt="7" wght="-4.9928814166307767" />
        <Con id="27" src="4" tgt="6" wght="-2.5638914218175053" />
        <Con id="28" src="4" tgt="5" wght="-2.2286129496304521" />
        <Con id="32" src="2" tgt="6" wght="5" />
        <Con id="60" src="0" tgt="59" wght="3.4131042924452988" />
        <Con id="61" src="59" tgt="6" wght="4.1603584582384823" />
        <Con id="103" src="1" tgt="102" wght="-0.87096787198499992" />
        <Con id="104" src="102" tgt="6" wght="-4.6366341545220928" />
        <Con id="128" src="102" tgt="59" wght="1.9406630228695192" />
      </Connections>
    </Network>
    <Network id="5260" birthGen="131" fitness="0">
      <Nodes>
        <Node type="bias" id="0" />
        <Node type="in" id="1" />
        <Node type="in" id="2" />
        <Node type="in" id="3" />
        <Node type="in" id="4" />
        <Node type="out" id="5" />
        <Node type="out" id="6" />
        <Node type="out" id="7" />
        <Node type="hid" id="49" />
      </Nodes>
      <Connections>
        <Con id="25" src="1" tgt="6" wght="3.5292775663959226" />
        <Con id="26" src="3" tgt="6" wght="-1.1537863684583334" />
        <Con id="28" src="4" tgt="5" wght="-2.2130203819687337" />
        <Con id="46" src="0" tgt="7" wght="-4.1509279479457444" />
        <Con id="48" src="2" tgt="7" wght="-3.6256891114541028" />
        <Con id="50" src="0" tgt="49" wght="4.9598135225732234" />
        <Con id="51" src="49" tgt="6" wght="4.5329827954323276" />
        <Con id="52" src="3" tgt="7" wght="0.58124880551453306" />
        <Con id="53" src="49" tgt="7" wght="-3.8836836256086826" />
        <Con id="54" src="4" tgt="7" wght="-3.9206107965857249" />
      </Connections>
    </Network>
    <Network id="5261" birthGen="131" fitness="0">
      <Nodes>
        <Node type="bias" id="0" />
        <Node type="in" id="1" />
        <Node type="in" id="2" />
        <Node type="in" id="3" />
        <Node type="in" id="4" />
        <Node type="out" id="5" />
        <Node type="out" id="6" />
        <Node type="out" id="7" />
        <Node type="hid" id="49" />
      </Nodes>
      <Connections>
        <Con id="25" src="1" tgt="6" wght="4.5687567606063242" />
        <Con id="26" src="3" tgt="6" wght="-1.1537863684583334" />
        <Con id="28" src="4" tgt="5" wght="-2.2130203819687337" />
        <Con id="46" src="0" tgt="7" wght="-4.1166034240776463" />
        <Con id="48" src="2" tgt="7" wght="-3.6256891114541028" />
        <Con id="50" src="0" tgt="49" wght="4.9598135225732234" />
        <Con id="51" src="49" tgt="6" wght="4.109176599766454" />
        <Con id="52" src="3" tgt="7" wght="0.58124880551453306" />
        <Con id="53" src="49" tgt="7" wght="-3.8836836256086826" />
        <Con id="54" src="4" tgt="7" wght="-3.9206107965857249" />
      </Connections>
    </Network>
    <Network id="5262" birthGen="131" fitness="0">
      <Nodes>
        <Node type="bias" id="0" />
        <Node type="in" id="1" />
        <Node type="in" id="2" />
        <Node type="in" id="3" />
        <Node type="in" id="4" />
        <Node type="out" id="5" />
        <Node type="out" id="6" />
        <Node type="out" id="7" />
        <Node type="hid" id="49" />
      </Nodes>
      <Connections>
        <Con id="25" src="1" tgt="6" wght="3.5292775663959226" />
        <Con id="26" src="3" tgt="6" wght="-1.1537863684583334" />
        <Con id="28" src="4" tgt="5" wght="-2.2130203819687337" />
        <Con id="46" src="0" tgt="7" wght="-4.1166034240776463" />
        <Con id="48" src="2" tgt="7" wght="-3.6256891114541028" />
        <Con id="50" src="0" tgt="49" wght="4.9598135225732234" />
        <Con id="51" src="49" tgt="6" wght="4.5329827954323276" />
        <Con id="52" src="3" tgt="7" wght="0.22011816688998653" />
        <Con id="53" src="49" tgt="7" wght="-3.7158966053733837" />
        <Con id="54" src="4" tgt="7" wght="-3.9206107965857249" />
      </Connections>
    </Network>
    <Network id="5263" birthGen="131" fitness="0">
      <Nodes>
        <Node type="bias" id="0" />
        <Node type="in" id="1" />
        <Node type="in" id="2" />
        <Node type="in" id="3" />
        <Node type="in" id="4" />
        <Node type="out" id="5" />
        <Node type="out" id="6" />
        <Node type="out" id="7" />
        <Node type="hid" id="49" />
      </Nodes>
      <Connections>
        <Con id="23" src="3" tgt="5" wght="-3.9871753007173538" />
        <Con id="25" src="1" tgt="6" wght="3.5292775663959226" />
        <Con id="26" src="3" tgt="6" wght="-1.1537863684583334" />
        <Con id="28" src="4" tgt="5" wght="-2.2130203819687337" />
        <Con id="46" src="0" tgt="7" wght="-4.1166034240776463" />
        <Con id="48" src="2" tgt="7" wght="-3.6256891114541028" />
        <Con id="50" src="0" tgt="49" wght="4.9598135225732234" />
        <Con id="51" src="49" tgt="6" wght="4.5329827954323276" />
        <Con id="52" src="3" tgt="7" wght="0.58124880551453306" />
        <Con id="53" src="49" tgt="7" wght="-3.8836836256086826" />
        <Con id="54" src="4" tgt="7" wght="-3.9206107965857249" />
      </Connections>
    </Network>
    <Network id="5264" birthGen="131" fitness="0">
      <Nodes>
        <Node type="bias" id="0" />
        <Node type="in" id="1" />
        <Node type="in" id="2" />
        <Node type="in" id="3" />
        <Node type="in" id="4" />
        <Node type="out" id="5" />
        <Node type="out" id="6" />
        <Node type="out" id="7" />
      </Nodes>
      <Connections>
        <Con id="25" src="1" tgt="6" wght="1.3859824324591612" />
        <Con id="27" src="4" tgt="6" wght="2.1725005458924516" />
        <Con id="28" src="4" tgt="5" wght="3.414271499764145" />
      </Connections>
    </Network>
    <Network id="5265" birthGen="131" fitness="0">
      <Nodes>
        <Node type="bias" id="0" />
        <Node type="in" id="1" />
        <Node type="in" id="2" />
        <Node type="in" id="3" />
        <Node type="in" id="4" />
        <Node type="out" id="5" />
        <Node type="out" id="6" />
        <Node type="out" id="7" />
      </Nodes>
      <Connections>
        <Con id="25" src="1" tgt="6" wght="1.3859824324591612" />
        <Con id="27" src="4" tgt="6" wght="2.173381323976193" />
        <Con id="28" src="4" tgt="5" wght="3.4359993308808443" />
      </Connections>
    </Network>
    <Network id="5266" birthGen="131" fitness="0">
      <Nodes>
        <Node type="bias" id="0" />
        <Node type="in" id="1" />
        <Node type="in" id="2" />
        <Node type="in" id="3" />
        <Node type="in" id="4" />
        <Node type="out" id="5" />
        <Node type="out" id="6" />
        <Node type="out" id="7" />
      </Nodes>
      <Connections>
        <Con id="25" src="1" tgt="6" wght="1.3859824324591612" />
        <Con id="27" src="4" tgt="6" wght="2.1840288354729438" />
        <Con id="28" src="4" tgt="5" wght="3.4359993308808443" />
      </Connections>
    </Network>
  </Networks>
</Root>