<?xml version="1.0" encoding="utf-8"?>
<Root>
  <ActivationFunctions>
    <Fn id="0" name="SteepenedSigmoid" prob="1" />
  </ActivationFunctions>
  <Networks>
    <Network id="71052" birthGen="1771" fitness="0">
      <Nodes>
        <Node type="bias" id="0" />
        <Node type="in" id="1" />
        <Node type="in" id="2" />
        <Node type="in" id="3" />
        <Node type="in" id="4" />
        <Node type="out" id="5" />
        <Node type="out" id="6" />
        <Node type="hid" id="48" />
        <Node type="hid" id="58" />
        <Node type="hid" id="101" />
        <Node type="hid" id="200" />
        <Node type="hid" id="253" />
        <Node type="hid" id="273" />
        <Node type="hid" id="370" />
        <Node type="hid" id="443" />
        <Node type="hid" id="732" />
        <Node type="hid" id="758" />
        <Node type="hid" id="774" />
        <Node type="hid" id="984" />
        <Node type="hid" id="1031" />
        <Node type="hid" id="1151" />
        <Node type="hid" id="1180" />
        <Node type="hid" id="1478" />
      </Nodes>
      <Connections>
        <Con id="49" src="0" tgt="48" wght="-2.0721971785601179" />
        <Con id="102" src="48" tgt="101" wght="-4.9015770860965286" />
        <Con id="128" src="48" tgt="58" wght="-4.1132562476628767" />
        <Con id="168" src="101" tgt="58" wght="2.3634208642267263" />
        <Con id="201" src="0" tgt="200" wght="-1.1046056041855776" />
        <Con id="202" src="200" tgt="48" wght="1.1248747360927873" />
        <Con id="255" src="253" tgt="6" wght="3.933623146482117" />
        <Con id="266" src="48" tgt="253" wght="2.6734094086708708" />
        <Con id="274" src="58" tgt="273" wght="4.6835146309616125" />
        <Con id="282" src="48" tgt="273" wght="-2.68574560564385" />
        <Con id="301" src="0" tgt="101" wght="-2.2335865847506566" />
        <Con id="313" src="0" tgt="6" wght="2.8215327520197806" />
        <Con id="315" src="3" tgt="48" wght="1.598575869605122" />
        <Con id="333" src="200" tgt="101" wght="1.5998518412137717" />
        <Con id="334" src="58" tgt="253" wght="0.62095192382484088" />
        <Con id="336" src="101" tgt="273" wght="-0.38969557876709177" />
        <Con id="340" src="2" tgt="101" wght="4.6532520281647649" />
        <Con id="346" src="58" tgt="5" wght="4.05619538967302" />
        <Con id="362" src="200" tgt="58" wght="4.8104092006687438" />
        <Con id="363" src="200" tgt="6" wght="3.3757790585063674" />
        <Con id="368" src="200" tgt="5" wght="2.42234786218939" />
        <Con id="371" src="58" tgt="370" wght="-1.4154533948749304" />
        <Con id="397" src="101" tgt="370" wght="-2.178248715364933" />
        <Con id="398" src="4" tgt="253" wght="-1.0638894903858875" />
        <Con id="403" src="273" tgt="370" wght="-3.4726134056701903" />
        <Con id="420" src="200" tgt="370" wght="-3.2857504918382139" />
        <Con id="444" src="253" tgt="443" wght="-1.3243061344081957" />
        <Con id="445" src="443" tgt="273" wght="4.7067853546406511" />
        <Con id="453" src="2" tgt="273" wght="1.6548796685602387" />
        <Con id="514" src="101" tgt="443" wght="-0.97027555897093853" />
        <Con id="536" src="370" tgt="5" wght="-0.16157530497267969" />
        <Con id="545" src="443" tgt="370" wght="0.302141222968784" />
        <Con id="648" src="2" tgt="370" wght="3.651401097013347" />
        <Con id="733" src="1" tgt="732" wght="-2.7387074433822884" />
        <Con id="734" src="732" tgt="6" wght="-0.41501457486747895" />
        <Con id="759" src="370" tgt="758" wght="-2.7002778442481836" />
        <Con id="760" src="758" tgt="6" wght="-4.9995903797073069" />
        <Con id="761" src="732" tgt="101" wght="-4.3732355782330377" />
        <Con id="768" src="58" tgt="758" wght="0.32658071379061754" />
        <Con id="770" src="0" tgt="732" wght="0.20706516274265227" />
        <Con id="775" src="1" tgt="774" wght="2.42574196949394" />
        <Con id="776" src="774" tgt="101" wght="-3.2924932163990719" />
        <Con id="810" src="2" tgt="758" wght="-1.3022638516395793" />
        <Con id="838" src="774" tgt="253" wght="0.41200302037588094" />
        <Con id="956" src="774" tgt="758" wght="2.6476066437060743" />
        <Con id="985" src="101" tgt="984" wght="-4.3260029234049968" />
        <Con id="986" src="984" tgt="6" wght="4.99970770633612" />
        <Con id="988" src="101" tgt="758" wght="-2.2026706486940384" />
        <Con id="1003" src="1" tgt="273" wght="-4.4892641482874751" />
        <Con id="1032" src="253" tgt="1031" wght="5" />
        <Con id="1033" src="1031" tgt="370" wght="2.2580904449870429" />
        <Con id="1043" src="253" tgt="5" wght="4.3458808294559663" />
        <Con id="1046" src="984" tgt="370" wght="2.7240089032949069" />
        <Con id="1058" src="1031" tgt="758" wght="0.5863525765016675" />
        <Con id="1059" src="732" tgt="5" wght="-1.2115085637196898" />
        <Con id="1078" src="774" tgt="984" wght="-3.0014060280448711" />
        <Con id="1115" src="1031" tgt="6" wght="-0.0885455304698447" />
        <Con id="1126" src="3" tgt="774" wght="5" />
        <Con id="1152" src="732" tgt="1151" wght="-2.9537434148905453" />
        <Con id="1153" src="1151" tgt="253" wght="3.9721992955868921" />
        <Con id="1156" src="273" tgt="758" wght="5" />
        <Con id="1160" src="732" tgt="200" wght="-3.0415029295599405" />
        <Con id="1181" src="3" tgt="1180" wght="3.9292048459067148" />
        <Con id="1182" src="1180" tgt="273" wght="2.5017251959613933" />
        <Con id="1220" src="3" tgt="1151" wght="2.8304825481751479" />
        <Con id="1226" src="732" tgt="984" wght="-2.1559168402410251" />
        <Con id="1231" src="253" tgt="370" wght="-4.02569742972058" />
        <Con id="1262" src="48" tgt="1151" wght="0.33346061111478614" />
        <Con id="1263" src="1180" tgt="6" wght="0.79937609983892766" />
        <Con id="1269" src="1180" tgt="101" wght="5" />
        <Con id="1335" src="0" tgt="1151" wght="-2.5337730169265686" />
        <Con id="1345" src="1180" tgt="1031" wght="-2.2487887856412052" />
        <Con id="1479" src="443" tgt="1478" wght="4.9035400045878363" />
        <Con id="1480" src="1478" tgt="758" wght="4.6670217426925378" />
        <Con id="1516" src="273" tgt="1478" wght="-1.3729455322027206" />
      </Connections>
    </Network>
    <Network id="71049" birthGen="1771" fitness="0">
      <Nodes>
        <Node type="bias" id="0" />
        <Node type="in" id="1" />
        <Node type="in" id="2" />
        <Node type="in" id="3" />
        <Node type="in" id="4" />
        <Node type="out" id="5" />
        <Node type="out" id="6" />
        <Node type="hid" id="48" />
        <Node type="hid" id="58" />
        <Node type="hid" id="101" />
        <Node type="hid" id="200" />
        <Node type="hid" id="253" />
        <Node type="hid" id="273" />
        <Node type="hid" id="370" />
        <Node type="hid" id="443" />
        <Node type="hid" id="732" />
        <Node type="hid" id="758" />
        <Node type="hid" id="774" />
        <Node type="hid" id="984" />
        <Node type="hid" id="1031" />
        <Node type="hid" id="1151" />
        <Node type="hid" id="1180" />
        <Node type="hid" id="1478" />
      </Nodes>
      <Connections>
        <Con id="49" src="0" tgt="48" wght="-2.0721971785601179" />
        <Con id="102" src="48" tgt="101" wght="-4.9015770860965286" />
        <Con id="128" src="48" tgt="58" wght="-4.1132562476628767" />
        <Con id="168" src="101" tgt="58" wght="1.6495613356527832" />
        <Con id="201" src="0" tgt="200" wght="-1.1046056041855776" />
        <Con id="202" src="200" tgt="48" wght="2.1179101729118113" />
        <Con id="255" src="253" tgt="6" wght="4.0429782289992211" />
        <Con id="266" src="48" tgt="253" wght="2.6734094086708708" />
        <Con id="274" src="58" tgt="273" wght="4.6835146309616125" />
        <Con id="282" src="48" tgt="273" wght="-2.68574560564385" />
        <Con id="301" src="0" tgt="101" wght="-2.2335865847506566" />
        <Con id="313" src="0" tgt="6" wght="2.8215327520197806" />
        <Con id="315" src="3" tgt="48" wght="1.598575869605122" />
        <Con id="333" src="200" tgt="101" wght="1.5998518412137717" />
        <Con id="334" src="58" tgt="253" wght="0.62095192382484088" />
        <Con id="336" src="101" tgt="273" wght="-0.38969557876709177" />
        <Con id="340" src="2" tgt="101" wght="4.6532520281647649" />
        <Con id="346" src="58" tgt="5" wght="4.05619538967302" />
        <Con id="362" src="200" tgt="58" wght="4.8104092006687438" />
        <Con id="363" src="200" tgt="6" wght="3.3757790585063674" />
        <Con id="368" src="200" tgt="5" wght="2.415077442576798" />
        <Con id="371" src="58" tgt="370" wght="-1.4154533948749304" />
        <Con id="397" src="101" tgt="370" wght="-2.178248715364933" />
        <Con id="398" src="4" tgt="253" wght="-1.0638894903858875" />
        <Con id="403" src="273" tgt="370" wght="-3.4726134056701903" />
        <Con id="420" src="200" tgt="370" wght="-3.2857504918382139" />
        <Con id="444" src="253" tgt="443" wght="-1.3243061344081957" />
        <Con id="445" src="443" tgt="273" wght="4.7067853546406511" />
        <Con id="453" src="2" tgt="273" wght="1.6548796685602387" />
        <Con id="514" src="101" tgt="443" wght="-0.99514639550587913" />
        <Con id="536" src="370" tgt="5" wght="-0.16157530497267969" />
        <Con id="545" src="443" tgt="370" wght="0.302141222968784" />
        <Con id="648" src="2" tgt="370" wght="3.6399891016475014" />
        <Con id="733" src="1" tgt="732" wght="-2.7387074433822884" />
        <Con id="734" src="732" tgt="6" wght="-0.41501457486747895" />
        <Con id="759" src="370" tgt="758" wght="-2.7002778442481836" />
        <Con id="760" src="758" tgt="6" wght="-4.9995903797073069" />
        <Con id="761" src="732" tgt="101" wght="-4.3732355782330377" />
        <Con id="768" src="58" tgt="758" wght="0.32658071379061754" />
        <Con id="770" src="0" tgt="732" wght="0.20706516274265227" />
        <Con id="775" src="1" tgt="774" wght="2.42574196949394" />
        <Con id="776" src="774" tgt="101" wght="-3.2924932163990719" />
        <Con id="810" src="2" tgt="758" wght="-1.3022638516395793" />
        <Con id="838" src="774" tgt="253" wght="0.41200302037588094" />
        <Con id="956" src="774" tgt="758" wght="2.6476066437060743" />
        <Con id="985" src="101" tgt="984" wght="-4.3260029234049968" />
        <Con id="986" src="984" tgt="6" wght="4.99970770633612" />
        <Con id="988" src="101" tgt="758" wght="-2.2026706486940384" />
        <Con id="1003" src="1" tgt="273" wght="-4.4892641482874751" />
        <Con id="1032" src="253" tgt="1031" wght="5" />
        <Con id="1033" src="1031" tgt="370" wght="2.2580904449870429" />
        <Con id="1043" src="253" tgt="5" wght="4.3458808294559663" />
        <Con id="1046" src="984" tgt="370" wght="2.7240089032949069" />
        <Con id="1058" src="1031" tgt="758" wght="0.5863525765016675" />
        <Con id="1059" src="732" tgt="5" wght="-1.2115085637196898" />
        <Con id="1078" src="774" tgt="984" wght="-3.0014060280448711" />
        <Con id="1115" src="1031" tgt="6" wght="-0.0885455304698447" />
        <Con id="1126" src="3" tgt="774" wght="5" />
        <Con id="1152" src="732" tgt="1151" wght="-2.9537434148905453" />
        <Con id="1153" src="1151" tgt="253" wght="3.9721992955868921" />
        <Con id="1156" src="273" tgt="758" wght="5" />
        <Con id="1160" src="732" tgt="200" wght="-3.0415029295599405" />
        <Con id="1181" src="3" tgt="1180" wght="3.9292048459067148" />
        <Con id="1182" src="1180" tgt="273" wght="2.5017251959613933" />
        <Con id="1220" src="3" tgt="1151" wght="2.811939126047323" />
        <Con id="1226" src="732" tgt="984" wght="-2.1559168402410251" />
        <Con id="1231" src="253" tgt="370" wght="-4.02569742972058" />
        <Con id="1262" src="48" tgt="1151" wght="0.34978699868904906" />
        <Con id="1263" src="1180" tgt="6" wght="0.79937609983892766" />
        <Con id="1269" src="1180" tgt="101" wght="5" />
        <Con id="1335" src="0" tgt="1151" wght="-2.5337730169265686" />
        <Con id="1345" src="1180" tgt="1031" wght="-2.2487887856412052" />
        <Con id="1479" src="443" tgt="1478" wght="4.9035400045878363" />
        <Con id="1480" src="1478" tgt="758" wght="4.6670217426925378" />
        <Con id="1516" src="273" tgt="1478" wght="-1.3729455322027206" />
      </Connections>
    </Network>
    <Network id="71019" birthGen="1771" fitness="0">
      <Nodes>
        <Node type="bias" id="0" />
        <Node type="in" id="1" />
        <Node type="in" id="2" />
        <Node type="in" id="3" />
        <Node type="in" id="4" />
        <Node type="out" id="5" />
        <Node type="out" id="6" />
        <Node type="hid" id="48" />
        <Node type="hid" id="58" />
        <Node type="hid" id="101" />
        <Node type="hid" id="200" />
        <Node type="hid" id="253" />
        <Node type="hid" id="273" />
        <Node type="hid" id="370" />
        <Node type="hid" id="443" />
        <Node type="hid" id="732" />
        <Node type="hid" id="758" />
        <Node type="hid" id="774" />
        <Node type="hid" id="984" />
        <Node type="hid" id="1031" />
        <Node type="hid" id="1151" />
        <Node type="hid" id="1180" />
        <Node type="hid" id="1478" />
      </Nodes>
      <Connections>
        <Con id="49" src="0" tgt="48" wght="-2.0721971785601179" />
        <Con id="102" src="48" tgt="101" wght="-4.9015770860965286" />
        <Con id="128" src="48" tgt="58" wght="-4.1132562476628767" />
        <Con id="168" src="101" tgt="58" wght="2.3634208642267263" />
        <Con id="201" src="0" tgt="200" wght="-1.1046056041855776" />
        <Con id="202" src="200" tgt="48" wght="1.1248747360927873" />
        <Con id="255" src="253" tgt="6" wght="3.933623146482117" />
        <Con id="266" src="48" tgt="253" wght="2.6734094086708708" />
        <Con id="274" src="58" tgt="273" wght="4.6835146309616125" />
        <Con id="282" src="48" tgt="273" wght="-2.68574560564385" />
        <Con id="301" src="0" tgt="101" wght="-2.2335865847506566" />
        <Con id="313" src="0" tgt="6" wght="2.8215327520197806" />
        <Con id="315" src="3" tgt="48" wght="1.598575869605122" />
        <Con id="333" src="200" tgt="101" wght="1.5998518412137717" />
        <Con id="334" src="58" tgt="253" wght="0.63504291574574812" />
        <Con id="336" src="101" tgt="273" wght="-0.38969557876709177" />
        <Con id="340" src="2" tgt="101" wght="4.6532520281647649" />
        <Con id="346" src="58" tgt="5" wght="4.05619538967302" />
        <Con id="362" src="200" tgt="58" wght="4.8104092006687438" />
        <Con id="363" src="200" tgt="6" wght="3.3757790585063674" />
        <Con id="368" src="200" tgt="5" wght="2.415077442576798" />
        <Con id="371" src="58" tgt="370" wght="-1.4154533948749304" />
        <Con id="397" src="101" tgt="370" wght="-2.4586440033401971" />
        <Con id="398" src="4" tgt="253" wght="-1.0638894903858875" />
        <Con id="403" src="273" tgt="370" wght="-3.4894597175229616" />
        <Con id="420" src="200" tgt="370" wght="-3.2857504918382139" />
        <Con id="444" src="253" tgt="443" wght="-1.3243061344081957" />
        <Con id="445" src="443" tgt="273" wght="4.7067853546406511" />
        <Con id="453" src="2" tgt="273" wght="1.6548796685602387" />
        <Con id="514" src="101" tgt="443" wght="-0.99514639550587913" />
        <Con id="536" src="370" tgt="5" wght="-0.16157530497267969" />
        <Con id="545" src="443" tgt="370" wght="0.29119688390888082" />
        <Con id="648" src="2" tgt="370" wght="3.651401097013347" />
        <Con id="733" src="1" tgt="732" wght="-2.7387074433822884" />
        <Con id="734" src="732" tgt="6" wght="-0.41501457486747895" />
        <Con id="759" src="370" tgt="758" wght="-2.7002778442481836" />
        <Con id="760" src="758" tgt="6" wght="-4.9995903797073069" />
        <Con id="761" src="732" tgt="101" wght="-4.3732355782330377" />
        <Con id="768" src="58" tgt="758" wght="0.32658071379061754" />
        <Con id="770" src="0" tgt="732" wght="0.20706516274265227" />
        <Con id="775" src="1" tgt="774" wght="2.42574196949394" />
        <Con id="776" src="774" tgt="101" wght="-3.2924932163990719" />
        <Con id="810" src="2" tgt="758" wght="-1.3022638516395793" />
        <Con id="838" src="774" tgt="253" wght="0.41200302037588094" />
        <Con id="956" src="774" tgt="758" wght="2.6476066437060743" />
        <Con id="985" src="101" tgt="984" wght="-4.3260029234049968" />
        <Con id="986" src="984" tgt="6" wght="4.99970770633612" />
        <Con id="988" src="101" tgt="758" wght="-2.2026706486940384" />
        <Con id="998" src="0" tgt="443" wght="-1.654208772815764" />
        <Con id="1003" src="1" tgt="273" wght="-4.4892641482874751" />
        <Con id="1032" src="253" tgt="1031" wght="4.98508786441463" />
        <Con id="1033" src="1031" tgt="370" wght="2.2580904449870429" />
        <Con id="1043" src="253" tgt="5" wght="4.3458808294559663" />
        <Con id="1046" src="984" tgt="370" wght="2.7240089032949069" />
        <Con id="1058" src="1031" tgt="758" wght="0.5863525765016675" />
        <Con id="1059" src="732" tgt="5" wght="-1.2115085637196898" />
        <Con id="1078" src="774" tgt="984" wght="-3.0014060280448711" />
        <Con id="1115" src="1031" tgt="6" wght="-0.096221677124822727" />
        <Con id="1126" src="3" tgt="774" wght="5" />
        <Con id="1152" src="732" tgt="1151" wght="-2.9537434148905453" />
        <Con id="1153" src="1151" tgt="253" wght="3.9721992955868921" />
        <Con id="1156" src="273" tgt="758" wght="5" />
        <Con id="1160" src="732" tgt="200" wght="-3.0415029295599405" />
        <Con id="1181" src="3" tgt="1180" wght="3.9292048459067148" />
        <Con id="1182" src="1180" tgt="273" wght="3.4656462140803663" />
        <Con id="1220" src="3" tgt="1151" wght="2.811939126047323" />
        <Con id="1226" src="732" tgt="984" wght="-3.5433684415692333" />
        <Con id="1231" src="253" tgt="370" wght="-4.02569742972058" />
        <Con id="1262" src="48" tgt="1151" wght="0.34978699868904906" />
        <Con id="1263" src="1180" tgt="6" wght="0.79937609983892766" />
        <Con id="1269" src="1180" tgt="101" wght="5" />
        <Con id="1335" src="0" tgt="1151" wght="-2.5337730169265686" />
        <Con id="1345" src="1180" tgt="1031" wght="-1.2747395318001509" />
        <Con id="1479" src="443" tgt="1478" wght="4.9035400045878363" />
        <Con id="1480" src="1478" tgt="758" wght="4.6670217426925378" />
        <Con id="1516" src="273" tgt="1478" wght="-1.3729455322027206" />
      </Connections>
    </Network>
    <Network id="71053" birthGen="1771" fitness="0">
      <Nodes>
        <Node type="bias" id="0" />
        <Node type="in" id="1" />
        <Node type="in" id="2" />
        <Node type="in" id="3" />
        <Node type="in" id="4" />
        <Node type="out" id="5" />
        <Node type="out" id="6" />
        <Node type="hid" id="48" />
        <Node type="hid" id="58" />
        <Node type="hid" id="101" />
        <Node type="hid" id="200" />
        <Node type="hid" id="253" />
        <Node type="hid" id="273" />
        <Node type="hid" id="370" />
        <Node type="hid" id="443" />
        <Node type="hid" id="732" />
        <Node type="hid" id="758" />
        <Node type="hid" id="774" />
        <Node type="hid" id="984" />
        <Node type="hid" id="1031" />
        <Node type="hid" id="1151" />
        <Node type="hid" id="1180" />
        <Node type="hid" id="1478" />
      </Nodes>
      <Connections>
        <Con id="49" src="0" tgt="48" wght="-2.0721971785601179" />
        <Con id="102" src="48" tgt="101" wght="-4.9015770860965286" />
        <Con id="128" src="48" tgt="58" wght="-4.1132562476628767" />
        <Con id="168" src="101" tgt="58" wght="2.3634208642267263" />
        <Con id="201" src="0" tgt="200" wght="-1.1046056041855776" />
        <Con id="202" src="200" tgt="48" wght="1.1248747360927873" />
        <Con id="255" src="253" tgt="6" wght="3.933623146482117" />
        <Con id="266" src="48" tgt="253" wght="2.6734094086708708" />
        <Con id="274" src="58" tgt="273" wght="4.6835146309616125" />
        <Con id="282" src="48" tgt="273" wght="-2.68574560564385" />
        <Con id="301" src="0" tgt="101" wght="-2.2335865847506566" />
        <Con id="313" src="0" tgt="6" wght="2.8215327520197806" />
        <Con id="315" src="3" tgt="48" wght="1.598575869605122" />
        <Con id="333" src="200" tgt="101" wght="1.5998518412137717" />
        <Con id="334" src="58" tgt="253" wght="0.62095192382484088" />
        <Con id="336" src="101" tgt="273" wght="-0.38969557876709177" />
        <Con id="340" src="2" tgt="101" wght="4.6532520281647649" />
        <Con id="346" src="58" tgt="5" wght="4.05619538967302" />
        <Con id="362" src="200" tgt="58" wght="4.8104092006687438" />
        <Con id="363" src="200" tgt="6" wght="3.3757790585063674" />
        <Con id="368" src="200" tgt="5" wght="2.42234786218939" />
        <Con id="371" src="58" tgt="370" wght="-1.4154533948749304" />
        <Con id="397" src="101" tgt="370" wght="-2.178248715364933" />
        <Con id="398" src="4" tgt="253" wght="-1.0638894903858875" />
        <Con id="403" src="273" tgt="370" wght="-3.4726134056701903" />
        <Con id="420" src="200" tgt="370" wght="-3.2857504918382139" />
        <Con id="444" src="253" tgt="443" wght="-1.3243061344081957" />
        <Con id="445" src="443" tgt="273" wght="4.7067853546406511" />
        <Con id="453" src="2" tgt="273" wght="1.6548796685602387" />
        <Con id="514" src="101" tgt="443" wght="-0.93953956969125174" />
        <Con id="536" src="370" tgt="5" wght="-0.16157530497267969" />
        <Con id="545" src="443" tgt="370" wght="0.302141222968784" />
        <Con id="648" src="2" tgt="370" wght="3.651401097013347" />
        <Con id="733" src="1" tgt="732" wght="-2.7387074433822884" />
        <Con id="734" src="732" tgt="6" wght="-0.41501457486747895" />
        <Con id="759" src="370" tgt="758" wght="-2.7002778442481836" />
        <Con id="760" src="758" tgt="6" wght="-4.9995903797073069" />
        <Con id="761" src="732" tgt="101" wght="-4.3732355782330377" />
        <Con id="768" src="58" tgt="758" wght="0.32658071379061754" />
        <Con id="770" src="0" tgt="732" wght="0.20706516274265227" />
        <Con id="775" src="1" tgt="774" wght="2.42574196949394" />
        <Con id="776" src="774" tgt="101" wght="-3.2924932163990719" />
        <Con id="810" src="2" tgt="758" wght="-1.3022638516395793" />
        <Con id="838" src="774" tgt="253" wght="0.41200302037588094" />
        <Con id="956" src="774" tgt="758" wght="2.6476066437060743" />
        <Con id="985" src="101" tgt="984" wght="-4.3260029234049968" />
        <Con id="986" src="984" tgt="6" wght="4.99970770633612" />
        <Con id="988" src="101" tgt="758" wght="-2.2026706486940384" />
        <Con id="1003" src="1" tgt="273" wght="-4.4892641482874751" />
        <Con id="1032" src="253" tgt="1031" wght="5" />
        <Con id="1033" src="1031" tgt="370" wght="2.2580904449870429" />
        <Con id="1043" src="253" tgt="5" wght="4.3458808294559663" />
        <Con id="1046" src="984" tgt="370" wght="2.7240089032949069" />
        <Con id="1058" src="1031" tgt="758" wght="0.5863525765016675" />
        <Con id="1059" src="732" tgt="5" wght="-1.2115085637196898" />
        <Con id="1078" src="774" tgt="984" wght="-3.0014060280448711" />
        <Con id="1115" src="1031" tgt="6" wght="-0.0885455304698447" />
        <Con id="1126" src="3" tgt="774" wght="5" />
        <Con id="1152" src="732" tgt="1151" wght="-2.9537434148905453" />
        <Con id="1153" src="1151" tgt="253" wght="3.9721992955868921" />
        <Con id="1156" src="273" tgt="758" wght="5" />
        <Con id="1160" src="732" tgt="200" wght="-3.0415029295599405" />
        <Con id="1181" src="3" tgt="1180" wght="3.9292048459067148" />
        <Con id="1182" src="1180" tgt="273" wght="2.5017251959613933" />
        <Con id="1220" src="3" tgt="1151" wght="2.811939126047323" />
        <Con id="1226" src="732" tgt="984" wght="-2.1559168402410251" />
        <Con id="1231" src="253" tgt="370" wght="-4.02569742972058" />
        <Con id="1262" src="48" tgt="1151" wght="0.34978699868904906" />
        <Con id="1263" src="1180" tgt="6" wght="0.79937609983892766" />
        <Con id="1269" src="1180" tgt="101" wght="5" />
        <Con id="1335" src="0" tgt="1151" wght="-2.5337730169265686" />
        <Con id="1345" src="1180" tgt="1031" wght="-2.2487887856412052" />
        <Con id="1479" src="443" tgt="1478" wght="4.9035400045878363" />
        <Con id="1480" src="1478" tgt="758" wght="4.6670217426925378" />
        <Con id="1516" src="273" tgt="1478" wght="-1.3729455322027206" />
      </Connections>
    </Network>
    <Network id="71031" birthGen="1771" fitness="0">
      <Nodes>
        <Node type="bias" id="0" />
        <Node type="in" id="1" />
        <Node type="in" id="2" />
        <Node type="in" id="3" />
        <Node type="in" id="4" />
        <Node type="out" id="5" />
        <Node type="out" id="6" />
        <Node type="hid" id="48" />
        <Node type="hid" id="58" />
        <Node type="hid" id="101" />
        <Node type="hid" id="200" />
        <Node type="hid" id="253" />
        <Node type="hid" id="273" />
        <Node type="hid" id="370" />
        <Node type="hid" id="443" />
        <Node type="hid" id="732" />
        <Node type="hid" id="758" />
        <Node type="hid" id="774" />
        <Node type="hid" id="984" />
        <Node type="hid" id="1031" />
        <Node type="hid" id="1151" />
        <Node type="hid" id="1180" />
        <Node type="hid" id="1478" />
      </Nodes>
      <Connections>
        <Con id="49" src="0" tgt="48" wght="-2.0721971785601179" />
        <Con id="102" src="48" tgt="101" wght="-3.5478822193579651" />
        <Con id="128" src="48" tgt="58" wght="-4.1132562476628767" />
        <Con id="168" src="101" tgt="58" wght="2.3634208642267263" />
        <Con id="201" src="0" tgt="200" wght="-1.1046056041855776" />
        <Con id="202" src="200" tgt="48" wght="1.1248747360927873" />
        <Con id="255" src="253" tgt="6" wght="3.5092095145279827" />
        <Con id="266" src="48" tgt="253" wght="2.6722052919951751" />
        <Con id="274" src="58" tgt="273" wght="4.6650986718773808" />
        <Con id="282" src="48" tgt="273" wght="-2.5215630666215048" />
        <Con id="301" src="0" tgt="101" wght="-0.95962534886548612" />
        <Con id="313" src="0" tgt="6" wght="2.8215327520197806" />
        <Con id="315" src="3" tgt="48" wght="1.598575869605122" />
        <Con id="333" src="200" tgt="101" wght="3.3668101072937646" />
        <Con id="334" src="58" tgt="253" wght="0.62095192382484088" />
        <Con id="336" src="101" tgt="273" wght="-0.38969557876709177" />
        <Con id="340" src="2" tgt="101" wght="5" />
        <Con id="346" src="58" tgt="5" wght="4.05619538967302" />
        <Con id="362" src="200" tgt="58" wght="4.8104092006687438" />
        <Con id="363" src="200" tgt="6" wght="3.8376412895324523" />
        <Con id="368" src="200" tgt="5" wght="2.415077442576798" />
        <Con id="371" src="58" tgt="370" wght="-4.1583421779796481" />
        <Con id="397" src="101" tgt="370" wght="-2.4471165636514041" />
        <Con id="398" src="4" tgt="253" wght="-1.046603517210575" />
        <Con id="403" src="273" tgt="370" wght="-2.3865175054714949" />
        <Con id="420" src="200" tgt="370" wght="-3.323105611225722" />
        <Con id="444" src="253" tgt="443" wght="-1.6180161760557927" />
        <Con id="445" src="443" tgt="273" wght="2.7617256834243484" />
        <Con id="453" src="2" tgt="273" wght="2.8001667832061821" />
        <Con id="510" src="3" tgt="370" wght="-3.8698661335964473" />
        <Con id="514" src="101" tgt="443" wght="0.80258073732712809" />
        <Con id="536" src="370" tgt="5" wght="-0.16157530497267969" />
        <Con id="545" src="443" tgt="370" wght="0.302141222968784" />
        <Con id="648" src="2" tgt="370" wght="4.9889497434693482" />
        <Con id="733" src="1" tgt="732" wght="-2.7387074433822884" />
        <Con id="734" src="732" tgt="6" wght="0.86447752675780665" />
        <Con id="759" src="370" tgt="758" wght="-2.6876255859046454" />
        <Con id="760" src="758" tgt="6" wght="-2.6627613218165154" />
        <Con id="761" src="732" tgt="101" wght="-4.3818972701233" />
        <Con id="768" src="58" tgt="758" wght="0.33103555419978165" />
        <Con id="770" src="0" tgt="732" wght="0.20977234160556429" />
        <Con id="775" src="1" tgt="774" wght="3.550504537583056" />
        <Con id="776" src="774" tgt="101" wght="-3.3173900550033029" />
        <Con id="810" src="2" tgt="758" wght="-3.870614615165326" />
        <Con id="838" src="774" tgt="253" wght="5" />
        <Con id="956" src="774" tgt="758" wght="2.6462583633700723" />
        <Con id="985" src="101" tgt="984" wght="-4.36183837951166" />
        <Con id="986" src="984" tgt="6" wght="5" />
        <Con id="988" src="101" tgt="758" wght="-1.154318078815852" />
        <Con id="1003" src="1" tgt="273" wght="-4.4892641482874751" />
        <Con id="1027" src="200" tgt="758" wght="-3.100028489716351" />
        <Con id="1032" src="253" tgt="1031" wght="5" />
        <Con id="1033" src="1031" tgt="370" wght="3.086953326768263" />
        <Con id="1043" src="253" tgt="5" wght="3.3295458865673728" />
        <Con id="1046" src="984" tgt="370" wght="2.620652623403446" />
        <Con id="1058" src="1031" tgt="758" wght="-1.1489112087035558" />
        <Con id="1059" src="732" tgt="5" wght="-1.2115085637196898" />
        <Con id="1078" src="774" tgt="984" wght="-3.4454800929604605" />
        <Con id="1115" src="1031" tgt="6" wght="-1.7990975862178864" />
        <Con id="1126" src="3" tgt="774" wght="0.8470515519170857" />
        <Con id="1152" src="732" tgt="1151" wght="-2.9537434148905453" />
        <Con id="1153" src="1151" tgt="253" wght="4.745528294436677" />
        <Con id="1160" src="732" tgt="200" wght="-3.0740549133474397" />
        <Con id="1181" src="3" tgt="1180" wght="4.784472137394399" />
        <Con id="1182" src="1180" tgt="273" wght="4.6977772062697438" />
        <Con id="1226" src="732" tgt="984" wght="-3.5262889671137754" />
        <Con id="1231" src="253" tgt="370" wght="-5" />
        <Con id="1262" src="48" tgt="1151" wght="0.15635126313821729" />
        <Con id="1263" src="1180" tgt="6" wght="0.54180106613785028" />
        <Con id="1269" src="1180" tgt="101" wght="3.4939504579276219" />
        <Con id="1335" src="0" tgt="1151" wght="-2.667381545323297" />
        <Con id="1479" src="443" tgt="1478" wght="5" />
        <Con id="1480" src="1478" tgt="758" wght="5" />
      </Connections>
    </Network>
    <Network id="71034" birthGen="1771" fitness="0">
      <Nodes>
        <Node type="bias" id="0" />
        <Node type="in" id="1" />
        <Node type="in" id="2" />
        <Node type="in" id="3" />
        <Node type="in" id="4" />
        <Node type="out" id="5" />
        <Node type="out" id="6" />
        <Node type="hid" id="48" />
        <Node type="hid" id="58" />
        <Node type="hid" id="101" />
        <Node type="hid" id="200" />
        <Node type="hid" id="253" />
        <Node type="hid" id="273" />
        <Node type="hid" id="370" />
        <Node type="hid" id="443" />
        <Node type="hid" id="732" />
        <Node type="hid" id="758" />
        <Node type="hid" id="774" />
        <Node type="hid" id="984" />
        <Node type="hid" id="1031" />
        <Node type="hid" id="1151" />
        <Node type="hid" id="1180" />
      </Nodes>
      <Connections>
        <Con id="49" src="0" tgt="48" wght="-2.0721971785601179" />
        <Con id="102" src="48" tgt="101" wght="-4.9015770860965286" />
        <Con id="128" src="48" tgt="58" wght="-4.1132562476628767" />
        <Con id="168" src="101" tgt="58" wght="2.3634208642267263" />
        <Con id="201" src="0" tgt="200" wght="-1.1046056041855776" />
        <Con id="202" src="200" tgt="48" wght="1.1248747360927873" />
        <Con id="255" src="253" tgt="6" wght="3.933623146482117" />
        <Con id="266" src="48" tgt="253" wght="2.6802554033749182" />
        <Con id="274" src="58" tgt="273" wght="4.4463354800658674" />
        <Con id="282" src="48" tgt="273" wght="-2.5215630666215048" />
        <Con id="301" src="0" tgt="101" wght="-4.41919141130607" />
        <Con id="313" src="0" tgt="6" wght="2.8577292467516879" />
        <Con id="315" src="3" tgt="48" wght="1.598575869605122" />
        <Con id="333" src="200" tgt="101" wght="4.5012589744995752" />
        <Con id="334" src="58" tgt="253" wght="1.1257914140420355" />
        <Con id="336" src="101" tgt="273" wght="-0.38969557876709177" />
        <Con id="340" src="2" tgt="101" wght="4.9908663789469507" />
        <Con id="346" src="58" tgt="5" wght="4.05619538967302" />
        <Con id="362" src="200" tgt="58" wght="4.8104092006687438" />
        <Con id="363" src="200" tgt="6" wght="3.8078968283138921" />
        <Con id="368" src="200" tgt="5" wght="2.415077442576798" />
        <Con id="371" src="58" tgt="370" wght="2.1707912188409373" />
        <Con id="397" src="101" tgt="370" wght="-2.4471165636514041" />
        <Con id="398" src="4" tgt="253" wght="-0.95656049639200391" />
        <Con id="403" src="273" tgt="370" wght="-2.3865175054714949" />
        <Con id="420" src="200" tgt="370" wght="-3.3405723915027581" />
        <Con id="444" src="253" tgt="443" wght="-1.0222568010471695" />
        <Con id="445" src="443" tgt="273" wght="2.7617256834243484" />
        <Con id="453" src="2" tgt="273" wght="4.9876589951851535" />
        <Con id="510" src="3" tgt="370" wght="-3.8698661335964473" />
        <Con id="514" src="101" tgt="443" wght="0.76194206207872994" />
        <Con id="536" src="370" tgt="5" wght="-0.16157530497267969" />
        <Con id="545" src="443" tgt="370" wght="0.302141222968784" />
        <Con id="648" src="2" tgt="370" wght="4.9970021063156249" />
        <Con id="733" src="1" tgt="732" wght="-2.7387074433822884" />
        <Con id="734" src="732" tgt="6" wght="0.85597327122451594" />
        <Con id="759" src="370" tgt="758" wght="-2.7369524352250489" />
        <Con id="760" src="758" tgt="6" wght="-3.4029610047980863" />
        <Con id="761" src="732" tgt="101" wght="-4.9043066138265967" />
        <Con id="768" src="58" tgt="758" wght="1.5436279641949862" />
        <Con id="770" src="0" tgt="732" wght="0.20912900747765403" />
        <Con id="775" src="1" tgt="774" wght="2.4407520350060086" />
        <Con id="776" src="774" tgt="101" wght="-3.2924932163990719" />
        <Con id="810" src="2" tgt="758" wght="-3.9021711766626459" />
        <Con id="838" src="774" tgt="253" wght="5" />
        <Con id="956" src="774" tgt="758" wght="2.6625367982293593" />
        <Con id="958" src="443" tgt="758" wght="5" />
        <Con id="985" src="101" tgt="984" wght="-3.7205576379240219" />
        <Con id="986" src="984" tgt="6" wght="5" />
        <Con id="988" src="101" tgt="758" wght="-1.1542927249194608" />
        <Con id="1003" src="1" tgt="273" wght="-4.4677767243438486" />
        <Con id="1032" src="253" tgt="1031" wght="3.0977086236335074" />
        <Con id="1033" src="1031" tgt="370" wght="3.086953326768263" />
        <Con id="1043" src="253" tgt="5" wght="2.8590132026851416" />
        <Con id="1046" src="984" tgt="370" wght="2.7611534797374957" />
        <Con id="1058" src="1031" tgt="758" wght="-3.2759645348414779" />
        <Con id="1059" src="732" tgt="5" wght="-1.3733727221578789" />
        <Con id="1078" src="774" tgt="984" wght="-3.0014060280448711" />
        <Con id="1115" src="1031" tgt="6" wght="-3.6846371458852092" />
        <Con id="1126" src="3" tgt="774" wght="4.831508223712115" />
        <Con id="1152" src="732" tgt="1151" wght="-2.9537434148905453" />
        <Con id="1153" src="1151" tgt="253" wght="5" />
        <Con id="1160" src="732" tgt="200" wght="-3.0415029295599405" />
        <Con id="1181" src="3" tgt="1180" wght="3.8611074117943645" />
        <Con id="1182" src="1180" tgt="273" wght="4.6955204008981317" />
        <Con id="1226" src="732" tgt="984" wght="-3.5236999532800382" />
        <Con id="1231" src="253" tgt="370" wght="-4.9593193274491831" />
        <Con id="1262" src="48" tgt="1151" wght="0.95478316801060226" />
        <Con id="1269" src="1180" tgt="101" wght="3.470348205555251" />
        <Con id="1335" src="0" tgt="1151" wght="2.0773242662708831" />
      </Connections>
    </Network>
    <Network id="71005" birthGen="1770" fitness="0">
      <Nodes>
        <Node type="bias" id="0" />
        <Node type="in" id="1" />
        <Node type="in" id="2" />
        <Node type="in" id="3" />
        <Node type="in" id="4" />
        <Node type="out" id="5" />
        <Node type="out" id="6" />
        <Node type="hid" id="48" />
        <Node type="hid" id="58" />
        <Node type="hid" id="101" />
        <Node type="hid" id="200" />
        <Node type="hid" id="253" />
        <Node type="hid" id="273" />
        <Node type="hid" id="370" />
        <Node type="hid" id="443" />
        <Node type="hid" id="732" />
        <Node type="hid" id="758" />
        <Node type="hid" id="774" />
        <Node type="hid" id="816" />
        <Node type="hid" id="872" />
        <Node type="hid" id="1318" />
        <Node type="hid" id="1440" />
      </Nodes>
      <Connections>
        <Con id="49" src="0" tgt="48" wght="-2.0805434113456172" />
        <Con id="102" src="48" tgt="101" wght="-2.8556257272092913" />
        <Con id="103" src="101" tgt="6" wght="2.1531335514220271" />
        <Con id="128" src="48" tgt="58" wght="-4.0804192924434037" />
        <Con id="168" src="101" tgt="58" wght="2.4022783477229814" />
        <Con id="201" src="0" tgt="200" wght="-1.823844719668646" />
        <Con id="202" src="200" tgt="48" wght="0.82024051034900214" />
        <Con id="255" src="253" tgt="6" wght="0.438682371750474" />
        <Con id="266" src="48" tgt="253" wght="4.9928415361195881" />
        <Con id="274" src="58" tgt="273" wght="-5" />
        <Con id="282" src="48" tgt="273" wght="1.0431478125974536" />
        <Con id="301" src="0" tgt="101" wght="0.19544506445527077" />
        <Con id="313" src="0" tgt="6" wght="-0.70012720797554118" />
        <Con id="315" src="3" tgt="48" wght="1.5848166521031839" />
        <Con id="333" src="200" tgt="101" wght="-4.9864407370897741" />
        <Con id="334" src="58" tgt="253" wght="1.0910431714728475" />
        <Con id="336" src="101" tgt="273" wght="3.4002978121861815" />
        <Con id="346" src="58" tgt="5" wght="3.5494905488672233" />
        <Con id="362" src="200" tgt="58" wght="4.8293926542302765" />
        <Con id="363" src="200" tgt="6" wght="-1.1181358210013115" />
        <Con id="368" src="200" tgt="5" wght="-0.68971002118078206" />
        <Con id="371" src="58" tgt="370" wght="-0.38328762143507344" />
        <Con id="398" src="4" tgt="253" wght="3.3470276352714623" />
        <Con id="420" src="200" tgt="370" wght="1.7007314832881093" />
        <Con id="432" src="200" tgt="273" wght="2.1857768533070017" />
        <Con id="444" src="253" tgt="443" wght="-2.3782904059102568" />
        <Con id="445" src="443" tgt="273" wght="-4.6265097754076123" />
        <Con id="453" src="2" tgt="273" wght="2.0853309910074267" />
        <Con id="464" src="48" tgt="370" wght="-0.0061396410860681261" />
        <Con id="466" src="2" tgt="253" wght="2.0608429468941774" />
        <Con id="492" src="3" tgt="253" wght="-2.483808321489021" />
        <Con id="510" src="3" tgt="370" wght="-0.983175216242671" />
        <Con id="514" src="101" tgt="443" wght="-4.3386727107224932" />
        <Con id="536" src="370" tgt="5" wght="-0.16157530497267969" />
        <Con id="541" src="253" tgt="370" wght="2.2368214698508382" />
        <Con id="545" src="443" tgt="370" wght="-0.67252172846595037" />
        <Con id="546" src="443" tgt="6" wght="1.1148915304429083" />
        <Con id="648" src="2" tgt="370" wght="-3.92243946571393" />
        <Con id="709" src="4" tgt="370" wght="3.0416987592046909" />
        <Con id="733" src="1" tgt="732" wght="-1.2416546553198955" />
        <Con id="734" src="732" tgt="6" wght="-2.6041212481578837" />
        <Con id="759" src="370" tgt="758" wght="-4.9862146338979505" />
        <Con id="760" src="758" tgt="6" wght="2.81203493798386" />
        <Con id="761" src="732" tgt="101" wght="-4.2181030744881189" />
        <Con id="768" src="58" tgt="758" wght="-5" />
        <Con id="775" src="1" tgt="774" wght="4.6759812844758883" />
        <Con id="776" src="774" tgt="101" wght="3.0088726100574936" />
        <Con id="812" src="732" tgt="443" wght="-5" />
        <Con id="817" src="101" tgt="816" wght="1.2985472427681088" />
        <Con id="818" src="816" tgt="443" wght="0.85865193391216543" />
        <Con id="847" src="732" tgt="200" wght="-0.3820830022868168" />
        <Con id="859" src="48" tgt="758" wght="-3.2461188962722458" />
        <Con id="868" src="774" tgt="273" wght="1.5081493172354536" />
        <Con id="873" src="273" tgt="872" wght="-3.67987113270219" />
        <Con id="874" src="872" tgt="370" wght="4.9935272286574648" />
        <Con id="925" src="253" tgt="872" wght="3.4917195669245458" />
        <Con id="939" src="816" tgt="872" wght="-0.26076018286147368" />
        <Con id="982" src="816" tgt="370" wght="-1.8830921733620565" />
        <Con id="998" src="0" tgt="443" wght="0.77925126068294048" />
        <Con id="1005" src="0" tgt="774" wght="-1.7101672154898238" />
        <Con id="1019" src="443" tgt="758" wght="-1.2751872950227199" />
        <Con id="1021" src="58" tgt="6" wght="2.5984008140364674" />
        <Con id="1042" src="0" tgt="273" wght="-3.2778499555190144" />
        <Con id="1051" src="4" tgt="443" wght="-4.5891146600707406" />
        <Con id="1060" src="48" tgt="816" wght="-3.9570684746814888" />
        <Con id="1063" src="872" tgt="5" wght="-3.2186711207032204" />
        <Con id="1088" src="48" tgt="774" wght="0.43856974655315389" />
        <Con id="1089" src="774" tgt="758" wght="4.317936290145326" />
        <Con id="1095" src="732" tgt="58" wght="-2.3876572336822979" />
        <Con id="1099" src="732" tgt="253" wght="2.560281278565526" />
        <Con id="1126" src="3" tgt="774" wght="2.7025822123931209" />
        <Con id="1143" src="774" tgt="370" wght="-2.1302312453702967" />
        <Con id="1156" src="273" tgt="758" wght="2.2898720344528556" />
        <Con id="1170" src="774" tgt="816" wght="0.20074642390148456" />
        <Con id="1172" src="58" tgt="443" wght="-1.9847401683700918" />
        <Con id="1319" src="101" tgt="1318" wght="2.6077680662274361" />
        <Con id="1320" src="1318" tgt="758" wght="3.9383480760542531" />
        <Con id="1346" src="2" tgt="872" wght="-1.6827909245365644" />
        <Con id="1441" src="200" tgt="1440" wght="5" />
        <Con id="1442" src="1440" tgt="253" wght="4.8534920369386887" />
        <Con id="1486" src="732" tgt="1318" wght="3.4581470477091973" />
      </Connections>
    </Network>
    <Network id="71036" birthGen="1771" fitness="0">
      <Nodes>
        <Node type="bias" id="0" />
        <Node type="in" id="1" />
        <Node type="in" id="2" />
        <Node type="in" id="3" />
        <Node type="in" id="4" />
        <Node type="out" id="5" />
        <Node type="out" id="6" />
        <Node type="hid" id="48" />
        <Node type="hid" id="58" />
        <Node type="hid" id="101" />
        <Node type="hid" id="200" />
        <Node type="hid" id="253" />
        <Node type="hid" id="273" />
        <Node type="hid" id="370" />
        <Node type="hid" id="443" />
        <Node type="hid" id="732" />
        <Node type="hid" id="758" />
        <Node type="hid" id="774" />
        <Node type="hid" id="984" />
        <Node type="hid" id="1031" />
        <Node type="hid" id="1151" />
        <Node type="hid" id="1180" />
        <Node type="hid" id="1483" />
      </Nodes>
      <Connections>
        <Con id="49" src="0" tgt="48" wght="-2.0721971785601179" />
        <Con id="102" src="48" tgt="101" wght="-5" />
        <Con id="128" src="48" tgt="58" wght="-4.1132562476628767" />
        <Con id="168" src="101" tgt="58" wght="2.3634208642267263" />
        <Con id="201" src="0" tgt="200" wght="-1.1046056041855776" />
        <Con id="202" src="200" tgt="48" wght="1.1248747360927873" />
        <Con id="255" src="253" tgt="6" wght="2.2357625662006013" />
        <Con id="266" src="48" tgt="253" wght="2.6708793155691049" />
        <Con id="274" src="58" tgt="273" wght="4.2065221425910249" />
        <Con id="282" src="48" tgt="273" wght="-2.5058690709965017" />
        <Con id="301" src="0" tgt="101" wght="-0.66613167642692217" />
        <Con id="313" src="0" tgt="6" wght="2.8116219401143967" />
        <Con id="315" src="3" tgt="48" wght="1.598575869605122" />
        <Con id="333" src="200" tgt="101" wght="-0.88459418155252934" />
        <Con id="334" src="58" tgt="253" wght="3.9860999225266371" />
        <Con id="336" src="101" tgt="273" wght="-3.0532052087687069" />
        <Con id="340" src="2" tgt="101" wght="5" />
        <Con id="346" src="58" tgt="5" wght="4.05619538967302" />
        <Con id="362" src="200" tgt="58" wght="4.8104092006687438" />
        <Con id="363" src="200" tgt="6" wght="3.3198496747391069" />
        <Con id="368" src="200" tgt="5" wght="2.415077442576798" />
        <Con id="371" src="58" tgt="370" wght="3.0402161454290346" />
        <Con id="397" src="101" tgt="370" wght="-2.4471165636514041" />
        <Con id="398" src="4" tgt="253" wght="-0.92053079691340267" />
        <Con id="403" src="273" tgt="370" wght="-1.9536226919093713" />
        <Con id="420" src="200" tgt="370" wght="-2.1654267773405458" />
        <Con id="444" src="253" tgt="443" wght="-0.49213715361757449" />
        <Con id="445" src="443" tgt="273" wght="3.8708991674982158" />
        <Con id="453" src="2" tgt="273" wght="4.41321649347697" />
        <Con id="510" src="3" tgt="370" wght="-3.8698661335964473" />
        <Con id="514" src="101" tgt="443" wght="1.3755925607960411" />
        <Con id="536" src="370" tgt="5" wght="-0.16157530497267969" />
        <Con id="545" src="443" tgt="370" wght="4.9002960288773663" />
        <Con id="648" src="2" tgt="370" wght="4.9889497434693482" />
        <Con id="733" src="1" tgt="732" wght="-2.7387074433822884" />
        <Con id="734" src="732" tgt="6" wght="0.86447752675780665" />
        <Con id="759" src="370" tgt="758" wght="-2.6886159277842157" />
        <Con id="760" src="758" tgt="6" wght="2.9763232563572206" />
        <Con id="761" src="732" tgt="101" wght="-3.0048302887007594" />
        <Con id="770" src="0" tgt="732" wght="0.19424799110821028" />
        <Con id="775" src="1" tgt="774" wght="2.4315889793438541" />
        <Con id="776" src="774" tgt="101" wght="-1.3300749311925391" />
        <Con id="810" src="2" tgt="758" wght="-3.9363402736975606" />
        <Con id="838" src="774" tgt="253" wght="4.0698250150308013" />
        <Con id="956" src="774" tgt="758" wght="2.6610057045453877" />
        <Con id="958" src="443" tgt="758" wght="-4.2935201178759632" />
        <Con id="985" src="101" tgt="984" wght="-3.9519600140076507" />
        <Con id="986" src="984" tgt="6" wght="3.9632215727633859" />
        <Con id="988" src="101" tgt="758" wght="-2.1960899472287121" />
        <Con id="1003" src="1" tgt="273" wght="0.29677451571712521" />
        <Con id="1033" src="1031" tgt="370" wght="2.2515261166959881" />
        <Con id="1043" src="253" tgt="5" wght="1.6352661905111949" />
        <Con id="1046" src="984" tgt="370" wght="2.7073174113360134" />
        <Con id="1058" src="1031" tgt="758" wght="-3.1274578222064471" />
        <Con id="1059" src="732" tgt="5" wght="-1.2115085637196898" />
        <Con id="1078" src="774" tgt="984" wght="-2.9958290667103928" />
        <Con id="1115" src="1031" tgt="6" wght="-0.12230708269609521" />
        <Con id="1152" src="732" tgt="1151" wght="-2.9142878664745084" />
        <Con id="1153" src="1151" tgt="253" wght="0.076996878348882136" />
        <Con id="1160" src="732" tgt="200" wght="-3.0203025445753942" />
        <Con id="1181" src="3" tgt="1180" wght="3.8912733608532579" />
        <Con id="1182" src="1180" tgt="273" wght="4.9516338146219825" />
        <Con id="1218" src="732" tgt="1180" wght="-0.11210422497242689" />
        <Con id="1226" src="732" tgt="984" wght="3.1812076969072223" />
        <Con id="1231" src="253" tgt="370" wght="3.6487225650862722" />
        <Con id="1262" src="48" tgt="1151" wght="-0.48147334505846584" />
        <Con id="1269" src="1180" tgt="101" wght="2.3071402311325073" />
        <Con id="1335" src="0" tgt="1151" wght="4.9984745518761136" />
        <Con id="1345" src="1180" tgt="1031" wght="2.6224244525656104" />
        <Con id="1368" src="4" tgt="101" wght="0.36083052516350533" />
        <Con id="1453" src="48" tgt="984" wght="0.73341052892255532" />
        <Con id="1484" src="58" tgt="1483" wght="-0.88351541081840468" />
        <Con id="1485" src="1483" tgt="758" wght="5" />
      </Connections>
    </Network>
    <Network id="71042" birthGen="1771" fitness="0">
      <Nodes>
        <Node type="bias" id="0" />
        <Node type="in" id="1" />
        <Node type="in" id="2" />
        <Node type="in" id="3" />
        <Node type="in" id="4" />
        <Node type="out" id="5" />
        <Node type="out" id="6" />
        <Node type="hid" id="48" />
        <Node type="hid" id="58" />
        <Node type="hid" id="101" />
        <Node type="hid" id="200" />
        <Node type="hid" id="253" />
        <Node type="hid" id="273" />
        <Node type="hid" id="370" />
        <Node type="hid" id="443" />
        <Node type="hid" id="732" />
        <Node type="hid" id="758" />
        <Node type="hid" id="774" />
        <Node type="hid" id="984" />
        <Node type="hid" id="1031" />
        <Node type="hid" id="1151" />
        <Node type="hid" id="1180" />
        <Node type="hid" id="1483" />
        <Node type="hid" id="1518" />
      </Nodes>
      <Connections>
        <Con id="49" src="0" tgt="48" wght="-2.0721971785601179" />
        <Con id="102" src="48" tgt="101" wght="-4.8959794941440249" />
        <Con id="128" src="48" tgt="58" wght="-4.1132562476628767" />
        <Con id="168" src="101" tgt="58" wght="2.3634208642267263" />
        <Con id="201" src="0" tgt="200" wght="-1.1046056041855776" />
        <Con id="202" src="200" tgt="48" wght="1.1248747360927873" />
        <Con id="255" src="253" tgt="6" wght="2.2357625662006013" />
        <Con id="266" src="48" tgt="253" wght="2.6734094086708708" />
        <Con id="274" src="58" tgt="273" wght="5" />
        <Con id="282" src="48" tgt="273" wght="-2.5058690709965017" />
        <Con id="301" src="0" tgt="101" wght="0.11889268249626772" />
        <Con id="313" src="0" tgt="6" wght="4.4383041253326638" />
        <Con id="315" src="3" tgt="48" wght="1.598575869605122" />
        <Con id="333" src="200" tgt="101" wght="0.82409524358808994" />
        <Con id="334" src="58" tgt="253" wght="0.73056585155427456" />
        <Con id="336" src="101" tgt="273" wght="-0.89296484924421893" />
        <Con id="340" src="2" tgt="101" wght="-3.3844187902286649" />
        <Con id="346" src="58" tgt="5" wght="4.05619538967302" />
        <Con id="362" src="200" tgt="58" wght="4.8104092006687438" />
        <Con id="363" src="200" tgt="6" wght="3.3372348869771109" />
        <Con id="368" src="200" tgt="5" wght="2.415077442576798" />
        <Con id="371" src="58" tgt="370" wght="2.7486202748617861" />
        <Con id="397" src="101" tgt="370" wght="-2.433809803164066" />
        <Con id="398" src="4" tgt="253" wght="-0.98087883412641685" />
        <Con id="403" src="273" tgt="370" wght="-2.3865175054714949" />
        <Con id="420" src="200" tgt="370" wght="-4.444464555251785" />
        <Con id="444" src="253" tgt="443" wght="-0.56667031697748793" />
        <Con id="453" src="2" tgt="273" wght="-1.6505444841459394" />
        <Con id="510" src="3" tgt="370" wght="-3.8748396345131693" />
        <Con id="514" src="101" tgt="443" wght="0.79069964510883317" />
        <Con id="536" src="370" tgt="5" wght="-0.16157530497267969" />
        <Con id="545" src="443" tgt="370" wght="4.8509481014779841" />
        <Con id="648" src="2" tgt="370" wght="4.9939638341421846" />
        <Con id="733" src="1" tgt="732" wght="-2.7494925390714933" />
        <Con id="734" src="732" tgt="6" wght="0.86447752675780665" />
        <Con id="759" src="370" tgt="758" wght="-2.7214584562534" />
        <Con id="760" src="758" tgt="6" wght="3.4597822916243315" />
        <Con id="761" src="732" tgt="101" wght="-3.0048302887007594" />
        <Con id="770" src="0" tgt="732" wght="0.19424799110821028" />
        <Con id="775" src="1" tgt="774" wght="2.451421362010755" />
        <Con id="776" src="774" tgt="101" wght="-1.8371197198486018" />
        <Con id="810" src="2" tgt="758" wght="-3.9479955217383" />
        <Con id="838" src="774" tgt="253" wght="4.0608795105845195" />
        <Con id="956" src="774" tgt="758" wght="2.9562883728001159" />
        <Con id="958" src="443" tgt="758" wght="-3.2628444595194055" />
        <Con id="985" src="101" tgt="984" wght="-3.9477159655691354" />
        <Con id="986" src="984" tgt="6" wght="3.9368157602858798" />
        <Con id="988" src="101" tgt="758" wght="-2.1960899472287121" />
        <Con id="1003" src="1" tgt="273" wght="-2.1320387200718582" />
        <Con id="1028" src="732" tgt="774" wght="-2.2285838733691521" />
        <Con id="1032" src="253" tgt="1031" wght="4.4425387762226061" />
        <Con id="1033" src="1031" tgt="370" wght="2.2515261166959881" />
        <Con id="1043" src="253" tgt="5" wght="1.653378619812429" />
        <Con id="1046" src="984" tgt="370" wght="2.7629608982062872" />
        <Con id="1058" src="1031" tgt="758" wght="-3.1203961781965228" />
        <Con id="1059" src="732" tgt="5" wght="-1.2115085637196898" />
        <Con id="1078" src="774" tgt="984" wght="-2.9969035405294364" />
        <Con id="1115" src="1031" tgt="6" wght="-0.12230708269609521" />
        <Con id="1152" src="732" tgt="1151" wght="-2.639307111377645" />
        <Con id="1153" src="1151" tgt="253" wght="-0.87018936978588046" />
        <Con id="1160" src="732" tgt="200" wght="-3.0311132144589155" />
        <Con id="1179" src="1" tgt="984" wght="-3.3290019957348704" />
        <Con id="1181" src="3" tgt="1180" wght="3.8917471435445323" />
        <Con id="1182" src="1180" tgt="273" wght="4.6500763148435285" />
        <Con id="1208" src="758" tgt="5" wght="-0.7731642946600914" />
        <Con id="1218" src="732" tgt="1180" wght="0.054630377082149378" />
        <Con id="1226" src="732" tgt="984" wght="3.1812076969072223" />
        <Con id="1231" src="253" tgt="370" wght="4.4190695136785507" />
        <Con id="1262" src="48" tgt="1151" wght="0.75808203070049585" />
        <Con id="1269" src="1180" tgt="101" wght="2.3071402311325073" />
        <Con id="1335" src="0" tgt="1151" wght="5" />
        <Con id="1368" src="4" tgt="101" wght="0.3558324882760644" />
        <Con id="1453" src="48" tgt="984" wght="0.72779217397507712" />
        <Con id="1484" src="58" tgt="1483" wght="-1.6828414305024508" />
        <Con id="1485" src="1483" tgt="758" wght="5" />
        <Con id="1519" src="443" tgt="1518" wght="3.8293755792098589" />
        <Con id="1520" src="1518" tgt="273" wght="5" />
      </Connections>
    </Network>
    <Network id="71037" birthGen="1771" fitness="0">
      <Nodes>
        <Node type="bias" id="0" />
        <Node type="in" id="1" />
        <Node type="in" id="2" />
        <Node type="in" id="3" />
        <Node type="in" id="4" />
        <Node type="out" id="5" />
        <Node type="out" id="6" />
        <Node type="hid" id="48" />
        <Node type="hid" id="58" />
        <Node type="hid" id="101" />
        <Node type="hid" id="200" />
        <Node type="hid" id="253" />
        <Node type="hid" id="273" />
        <Node type="hid" id="370" />
        <Node type="hid" id="443" />
        <Node type="hid" id="732" />
        <Node type="hid" id="758" />
        <Node type="hid" id="774" />
        <Node type="hid" id="984" />
        <Node type="hid" id="1031" />
        <Node type="hid" id="1151" />
        <Node type="hid" id="1180" />
        <Node type="hid" id="1483" />
        <Node type="hid" id="1518" />
      </Nodes>
      <Connections>
        <Con id="49" src="0" tgt="48" wght="-2.0721971785601179" />
        <Con id="102" src="48" tgt="101" wght="-4.8959794941440249" />
        <Con id="128" src="48" tgt="58" wght="-4.1132562476628767" />
        <Con id="168" src="101" tgt="58" wght="2.3634208642267263" />
        <Con id="201" src="0" tgt="200" wght="-1.1046056041855776" />
        <Con id="202" src="200" tgt="48" wght="1.1248747360927873" />
        <Con id="255" src="253" tgt="6" wght="2.2357625662006013" />
        <Con id="266" src="48" tgt="253" wght="2.6734094086708708" />
        <Con id="274" src="58" tgt="273" wght="5" />
        <Con id="282" src="48" tgt="273" wght="-2.5058690709965017" />
        <Con id="301" src="0" tgt="101" wght="0.11889268249626772" />
        <Con id="313" src="0" tgt="6" wght="4.4383041253326638" />
        <Con id="315" src="3" tgt="48" wght="1.598575869605122" />
        <Con id="333" src="200" tgt="101" wght="-0.88459418155252934" />
        <Con id="334" src="58" tgt="253" wght="0.73056585155427456" />
        <Con id="336" src="101" tgt="273" wght="-0.89296484924421893" />
        <Con id="340" src="2" tgt="101" wght="-4.293351446102271" />
        <Con id="346" src="58" tgt="5" wght="4.05619538967302" />
        <Con id="362" src="200" tgt="58" wght="4.8104092006687438" />
        <Con id="363" src="200" tgt="6" wght="3.3372348869771109" />
        <Con id="368" src="200" tgt="5" wght="2.415077442576798" />
        <Con id="371" src="58" tgt="370" wght="2.7486202748617861" />
        <Con id="397" src="101" tgt="370" wght="-2.433809803164066" />
        <Con id="398" src="4" tgt="253" wght="-0.98087883412641685" />
        <Con id="403" src="273" tgt="370" wght="-2.3865175054714949" />
        <Con id="420" src="200" tgt="370" wght="-4.444464555251785" />
        <Con id="444" src="253" tgt="443" wght="-0.56667031697748793" />
        <Con id="453" src="2" tgt="273" wght="-1.6505444841459394" />
        <Con id="510" src="3" tgt="370" wght="-3.8748396345131693" />
        <Con id="514" src="101" tgt="443" wght="0.79069964510883317" />
        <Con id="536" src="370" tgt="5" wght="-0.16157530497267969" />
        <Con id="545" src="443" tgt="370" wght="4.8509481014779841" />
        <Con id="648" src="2" tgt="370" wght="4.9939638341421846" />
        <Con id="733" src="1" tgt="732" wght="-2.7494925390714933" />
        <Con id="734" src="732" tgt="6" wght="0.86447752675780665" />
        <Con id="759" src="370" tgt="758" wght="-2.7214584562534" />
        <Con id="760" src="758" tgt="6" wght="3.4597822916243315" />
        <Con id="761" src="732" tgt="101" wght="-3.0048302887007594" />
        <Con id="770" src="0" tgt="732" wght="0.19424799110821028" />
        <Con id="775" src="1" tgt="774" wght="2.451421362010755" />
        <Con id="776" src="774" tgt="101" wght="-2.6016340054468183" />
        <Con id="810" src="2" tgt="758" wght="-3.9479955217383" />
        <Con id="838" src="774" tgt="253" wght="4.0608795105845195" />
        <Con id="956" src="774" tgt="758" wght="2.9562883728001159" />
        <Con id="958" src="443" tgt="758" wght="-3.2628444595194055" />
        <Con id="985" src="101" tgt="984" wght="-3.9477159655691354" />
        <Con id="986" src="984" tgt="6" wght="3.9368157602858798" />
        <Con id="988" src="101" tgt="758" wght="-2.1960899472287121" />
        <Con id="1003" src="1" tgt="273" wght="-2.1320387200718582" />
        <Con id="1028" src="732" tgt="774" wght="-2.2285838733691521" />
        <Con id="1032" src="253" tgt="1031" wght="4.4425387762226061" />
        <Con id="1033" src="1031" tgt="370" wght="2.2515261166959881" />
        <Con id="1043" src="253" tgt="5" wght="1.653378619812429" />
        <Con id="1046" src="984" tgt="370" wght="2.7629608982062872" />
        <Con id="1058" src="1031" tgt="758" wght="-3.1203961781965228" />
        <Con id="1059" src="732" tgt="5" wght="-1.2115085637196898" />
        <Con id="1078" src="774" tgt="984" wght="-2.9969035405294364" />
        <Con id="1115" src="1031" tgt="6" wght="-0.12230708269609521" />
        <Con id="1152" src="732" tgt="1151" wght="-2.639307111377645" />
        <Con id="1153" src="1151" tgt="253" wght="-0.87018936978588046" />
        <Con id="1160" src="732" tgt="200" wght="-4.1848637427956907" />
        <Con id="1179" src="1" tgt="984" wght="-3.3290019957348704" />
        <Con id="1181" src="3" tgt="1180" wght="3.8917471435445323" />
        <Con id="1182" src="1180" tgt="273" wght="4.6500763148435285" />
        <Con id="1208" src="758" tgt="5" wght="-0.7731642946600914" />
        <Con id="1218" src="732" tgt="1180" wght="0.054630377082149378" />
        <Con id="1226" src="732" tgt="984" wght="3.1812076969072223" />
        <Con id="1231" src="253" tgt="370" wght="4.41554814600449" />
        <Con id="1262" src="48" tgt="1151" wght="0.75808203070049585" />
        <Con id="1269" src="1180" tgt="101" wght="2.3071402311325073" />
        <Con id="1335" src="0" tgt="1151" wght="5" />
        <Con id="1368" src="4" tgt="101" wght="0.3558324882760644" />
        <Con id="1453" src="48" tgt="984" wght="0.72779217397507712" />
        <Con id="1484" src="58" tgt="1483" wght="-1.6828414305024508" />
        <Con id="1485" src="1483" tgt="758" wght="5" />
        <Con id="1519" src="443" tgt="1518" wght="3.8293755792098589" />
        <Con id="1520" src="1518" tgt="273" wght="5" />
      </Connections>
    </Network>
    <Network id="71055" birthGen="1770" fitness="0">
      <Nodes>
        <Node type="bias" id="0" />
        <Node type="in" id="1" />
        <Node type="in" id="2" />
        <Node type="in" id="3" />
        <Node type="in" id="4" />
        <Node type="out" id="5" />
        <Node type="out" id="6" />
        <Node type="hid" id="48" />
        <Node type="hid" id="58" />
        <Node type="hid" id="101" />
        <Node type="hid" id="200" />
        <Node type="hid" id="253" />
        <Node type="hid" id="273" />
        <Node type="hid" id="370" />
        <Node type="hid" id="443" />
        <Node type="hid" id="732" />
        <Node type="hid" id="758" />
        <Node type="hid" id="774" />
        <Node type="hid" id="984" />
        <Node type="hid" id="1031" />
        <Node type="hid" id="1151" />
        <Node type="hid" id="1180" />
        <Node type="hid" id="1478" />
      </Nodes>
      <Connections>
        <Con id="49" src="0" tgt="48" wght="-2.0721971785601179" />
        <Con id="102" src="48" tgt="101" wght="-4.9015770860965286" />
        <Con id="128" src="48" tgt="58" wght="-4.1132562476628767" />
        <Con id="168" src="101" tgt="58" wght="2.3634208642267263" />
        <Con id="201" src="0" tgt="200" wght="-1.1046056041855776" />
        <Con id="202" src="200" tgt="48" wght="1.1248747360927873" />
        <Con id="255" src="253" tgt="6" wght="3.933623146482117" />
        <Con id="266" src="48" tgt="253" wght="2.6734094086708708" />
        <Con id="274" src="58" tgt="273" wght="4.6835146309616125" />
        <Con id="282" src="48" tgt="273" wght="-2.68574560564385" />
        <Con id="301" src="0" tgt="101" wght="-2.2335865847506566" />
        <Con id="313" src="0" tgt="6" wght="2.8215327520197806" />
        <Con id="315" src="3" tgt="48" wght="1.598575869605122" />
        <Con id="333" src="200" tgt="101" wght="1.5998518412137717" />
        <Con id="334" src="58" tgt="253" wght="0.62095192382484088" />
        <Con id="336" src="101" tgt="273" wght="-0.38969557876709177" />
        <Con id="340" src="2" tgt="101" wght="4.6532520281647649" />
        <Con id="346" src="58" tgt="5" wght="4.05619538967302" />
        <Con id="362" src="200" tgt="58" wght="4.8104092006687438" />
        <Con id="363" src="200" tgt="6" wght="3.3757790585063674" />
        <Con id="368" src="200" tgt="5" wght="2.415077442576798" />
        <Con id="371" src="58" tgt="370" wght="-1.4154533948749304" />
        <Con id="397" src="101" tgt="370" wght="-2.178248715364933" />
        <Con id="398" src="4" tgt="253" wght="-1.0638894903858875" />
        <Con id="403" src="273" tgt="370" wght="-3.4726134056701903" />
        <Con id="420" src="200" tgt="370" wght="-3.2857504918382139" />
        <Con id="444" src="253" tgt="443" wght="-1.3243061344081957" />
        <Con id="445" src="443" tgt="273" wght="4.7067853546406511" />
        <Con id="453" src="2" tgt="273" wght="1.6548796685602387" />
        <Con id="514" src="101" tgt="443" wght="-0.97027555897093853" />
        <Con id="536" src="370" tgt="5" wght="-0.16157530497267969" />
        <Con id="545" src="443" tgt="370" wght="0.302141222968784" />
        <Con id="648" src="2" tgt="370" wght="3.651401097013347" />
        <Con id="733" src="1" tgt="732" wght="-2.7387074433822884" />
        <Con id="734" src="732" tgt="6" wght="-0.41501457486747895" />
        <Con id="759" src="370" tgt="758" wght="-2.7002778442481836" />
        <Con id="760" src="758" tgt="6" wght="-4.9995903797073069" />
        <Con id="761" src="732" tgt="101" wght="-4.3732355782330377" />
        <Con id="768" src="58" tgt="758" wght="0.32658071379061754" />
        <Con id="770" src="0" tgt="732" wght="0.20706516274265227" />
        <Con id="775" src="1" tgt="774" wght="2.42574196949394" />
        <Con id="776" src="774" tgt="101" wght="-3.2924932163990719" />
        <Con id="810" src="2" tgt="758" wght="-1.3022638516395793" />
        <Con id="838" src="774" tgt="253" wght="0.41200302037588094" />
        <Con id="956" src="774" tgt="758" wght="2.6476066437060743" />
        <Con id="985" src="101" tgt="984" wght="-4.3260029234049968" />
        <Con id="986" src="984" tgt="6" wght="4.99970770633612" />
        <Con id="988" src="101" tgt="758" wght="-2.2026706486940384" />
        <Con id="998" src="0" tgt="443" wght="-1.0586232971653737" />
        <Con id="1003" src="1" tgt="273" wght="-4.4892641482874751" />
        <Con id="1032" src="253" tgt="1031" wght="4.98508786441463" />
        <Con id="1033" src="1031" tgt="370" wght="2.2580904449870429" />
        <Con id="1043" src="253" tgt="5" wght="4.3458808294559663" />
        <Con id="1046" src="984" tgt="370" wght="2.7240089032949069" />
        <Con id="1058" src="1031" tgt="758" wght="0.5863525765016675" />
        <Con id="1059" src="732" tgt="5" wght="-1.2115085637196898" />
        <Con id="1078" src="774" tgt="984" wght="-3.0014060280448711" />
        <Con id="1115" src="1031" tgt="6" wght="-0.0885455304698447" />
        <Con id="1126" src="3" tgt="774" wght="5" />
        <Con id="1152" src="732" tgt="1151" wght="-2.9537434148905453" />
        <Con id="1153" src="1151" tgt="253" wght="3.9721992955868921" />
        <Con id="1156" src="273" tgt="758" wght="5" />
        <Con id="1160" src="732" tgt="200" wght="-3.0415029295599405" />
        <Con id="1181" src="3" tgt="1180" wght="3.9292048459067148" />
        <Con id="1182" src="1180" tgt="273" wght="3.4656462140803663" />
        <Con id="1220" src="3" tgt="1151" wght="2.811939126047323" />
        <Con id="1226" src="732" tgt="984" wght="-2.1559168402410251" />
        <Con id="1231" src="253" tgt="370" wght="-4.02569742972058" />
        <Con id="1262" src="48" tgt="1151" wght="0.34978699868904906" />
        <Con id="1263" src="1180" tgt="6" wght="0.79937609983892766" />
        <Con id="1269" src="1180" tgt="101" wght="5" />
        <Con id="1335" src="0" tgt="1151" wght="-2.5337730169265686" />
        <Con id="1345" src="1180" tgt="1031" wght="-2.2487887856412052" />
        <Con id="1479" src="443" tgt="1478" wght="4.9035400045878363" />
        <Con id="1480" src="1478" tgt="758" wght="4.6670217426925378" />
        <Con id="1516" src="273" tgt="1478" wght="-1.3729455322027206" />
      </Connections>
    </Network>
    <Network id="71056" birthGen="1770" fitness="0">
      <Nodes>
        <Node type="bias" id="0" />
        <Node type="in" id="1" />
        <Node type="in" id="2" />
        <Node type="in" id="3" />
        <Node type="in" id="4" />
        <Node type="out" id="5" />
        <Node type="out" id="6" />
        <Node type="hid" id="48" />
        <Node type="hid" id="58" />
        <Node type="hid" id="101" />
        <Node type="hid" id="200" />
        <Node type="hid" id="253" />
        <Node type="hid" id="273" />
        <Node type="hid" id="370" />
        <Node type="hid" id="443" />
        <Node type="hid" id="732" />
        <Node type="hid" id="758" />
        <Node type="hid" id="774" />
        <Node type="hid" id="984" />
        <Node type="hid" id="1031" />
        <Node type="hid" id="1151" />
        <Node type="hid" id="1180" />
        <Node type="hid" id="1478" />
      </Nodes>
      <Connections>
        <Con id="49" src="0" tgt="48" wght="-2.0721971785601179" />
        <Con id="102" src="48" tgt="101" wght="-3.5478822193579651" />
        <Con id="128" src="48" tgt="58" wght="-4.1132562476628767" />
        <Con id="168" src="101" tgt="58" wght="2.3634208642267263" />
        <Con id="201" src="0" tgt="200" wght="-1.1046056041855776" />
        <Con id="202" src="200" tgt="48" wght="1.1248747360927873" />
        <Con id="255" src="253" tgt="6" wght="3.5092095145279827" />
        <Con id="266" src="48" tgt="253" wght="2.6722052919951751" />
        <Con id="274" src="58" tgt="273" wght="4.6650986718773808" />
        <Con id="282" src="48" tgt="273" wght="-2.5215630666215048" />
        <Con id="301" src="0" tgt="101" wght="-0.95962534886548612" />
        <Con id="313" src="0" tgt="6" wght="2.8215327520197806" />
        <Con id="315" src="3" tgt="48" wght="1.598575869605122" />
        <Con id="333" src="200" tgt="101" wght="3.3668101072937646" />
        <Con id="334" src="58" tgt="253" wght="0.62095192382484088" />
        <Con id="336" src="101" tgt="273" wght="-0.38969557876709177" />
        <Con id="340" src="2" tgt="101" wght="5" />
        <Con id="346" src="58" tgt="5" wght="4.05619538967302" />
        <Con id="362" src="200" tgt="58" wght="4.8104092006687438" />
        <Con id="363" src="200" tgt="6" wght="3.8376412895324523" />
        <Con id="368" src="200" tgt="5" wght="2.415077442576798" />
        <Con id="371" src="58" tgt="370" wght="-4.1583421779796481" />
        <Con id="397" src="101" tgt="370" wght="-2.4471165636514041" />
        <Con id="398" src="4" tgt="253" wght="-1.046603517210575" />
        <Con id="403" src="273" tgt="370" wght="-2.3865175054714949" />
        <Con id="420" src="200" tgt="370" wght="-3.323105611225722" />
        <Con id="444" src="253" tgt="443" wght="-1.6180161760557927" />
        <Con id="445" src="443" tgt="273" wght="2.7617256834243484" />
        <Con id="453" src="2" tgt="273" wght="2.8001667832061821" />
        <Con id="510" src="3" tgt="370" wght="-3.8698661335964473" />
        <Con id="514" src="101" tgt="443" wght="0.80258073732712809" />
        <Con id="536" src="370" tgt="5" wght="-0.16157530497267969" />
        <Con id="545" src="443" tgt="370" wght="0.302141222968784" />
        <Con id="648" src="2" tgt="370" wght="4.9889497434693482" />
        <Con id="733" src="1" tgt="732" wght="-2.7387074433822884" />
        <Con id="734" src="732" tgt="6" wght="0.86447752675780665" />
        <Con id="759" src="370" tgt="758" wght="-2.6876255859046454" />
        <Con id="760" src="758" tgt="6" wght="-2.6627613218165154" />
        <Con id="761" src="732" tgt="101" wght="-4.3818972701233" />
        <Con id="768" src="58" tgt="758" wght="0.33103555419978165" />
        <Con id="770" src="0" tgt="732" wght="0.20977234160556429" />
        <Con id="775" src="1" tgt="774" wght="3.550504537583056" />
        <Con id="776" src="774" tgt="101" wght="-3.3173900550033029" />
        <Con id="810" src="2" tgt="758" wght="-3.870614615165326" />
        <Con id="838" src="774" tgt="253" wght="5" />
        <Con id="956" src="774" tgt="758" wght="2.6462583633700723" />
        <Con id="985" src="101" tgt="984" wght="-4.36183837951166" />
        <Con id="986" src="984" tgt="6" wght="5" />
        <Con id="988" src="101" tgt="758" wght="-1.154318078815852" />
        <Con id="1003" src="1" tgt="273" wght="-4.4892641482874751" />
        <Con id="1027" src="200" tgt="758" wght="-3.100028489716351" />
        <Con id="1032" src="253" tgt="1031" wght="5" />
        <Con id="1033" src="1031" tgt="370" wght="3.086953326768263" />
        <Con id="1043" src="253" tgt="5" wght="3.3295458865673728" />
        <Con id="1046" src="984" tgt="370" wght="2.620652623403446" />
        <Con id="1058" src="1031" tgt="758" wght="-1.1489112087035558" />
        <Con id="1059" src="732" tgt="5" wght="-1.2115085637196898" />
        <Con id="1078" src="774" tgt="984" wght="-3.4454800929604605" />
        <Con id="1115" src="1031" tgt="6" wght="-1.7990975862178864" />
        <Con id="1126" src="3" tgt="774" wght="0.8470515519170857" />
        <Con id="1152" src="732" tgt="1151" wght="-2.9537434148905453" />
        <Con id="1153" src="1151" tgt="253" wght="4.745528294436677" />
        <Con id="1160" src="732" tgt="200" wght="-3.0740549133474397" />
        <Con id="1181" src="3" tgt="1180" wght="4.784472137394399" />
        <Con id="1182" src="1180" tgt="273" wght="4.6977772062697438" />
        <Con id="1226" src="732" tgt="984" wght="-3.5262889671137754" />
        <Con id="1231" src="253" tgt="370" wght="-5" />
        <Con id="1262" src="48" tgt="1151" wght="0.15635126313821729" />
        <Con id="1263" src="1180" tgt="6" wght="0.54180106613785028" />
        <Con id="1269" src="1180" tgt="101" wght="3.4939504579276219" />
        <Con id="1335" src="0" tgt="1151" wght="-2.667381545323297" />
        <Con id="1479" src="443" tgt="1478" wght="5" />
        <Con id="1480" src="1478" tgt="758" wght="5" />
      </Connections>
    </Network>
    <Network id="71057" birthGen="1770" fitness="0">
      <Nodes>
        <Node type="bias" id="0" />
        <Node type="in" id="1" />
        <Node type="in" id="2" />
        <Node type="in" id="3" />
        <Node type="in" id="4" />
        <Node type="out" id="5" />
        <Node type="out" id="6" />
        <Node type="hid" id="48" />
        <Node type="hid" id="58" />
        <Node type="hid" id="101" />
        <Node type="hid" id="200" />
        <Node type="hid" id="253" />
        <Node type="hid" id="273" />
        <Node type="hid" id="370" />
        <Node type="hid" id="443" />
        <Node type="hid" id="732" />
        <Node type="hid" id="758" />
        <Node type="hid" id="774" />
        <Node type="hid" id="984" />
        <Node type="hid" id="1031" />
        <Node type="hid" id="1151" />
        <Node type="hid" id="1180" />
        <Node type="hid" id="1478" />
      </Nodes>
      <Connections>
        <Con id="49" src="0" tgt="48" wght="-2.0721971785601179" />
        <Con id="102" src="48" tgt="101" wght="-3.5478822193579651" />
        <Con id="128" src="48" tgt="58" wght="-4.1132562476628767" />
        <Con id="168" src="101" tgt="58" wght="2.3634208642267263" />
        <Con id="201" src="0" tgt="200" wght="-1.1046056041855776" />
        <Con id="202" src="200" tgt="48" wght="1.1248747360927873" />
        <Con id="255" src="253" tgt="6" wght="3.5092095145279827" />
        <Con id="266" src="48" tgt="253" wght="2.6722052919951751" />
        <Con id="274" src="58" tgt="273" wght="4.6650986718773808" />
        <Con id="282" src="48" tgt="273" wght="-2.5215630666215048" />
        <Con id="301" src="0" tgt="101" wght="-0.95962534886548612" />
        <Con id="313" src="0" tgt="6" wght="2.8215327520197806" />
        <Con id="315" src="3" tgt="48" wght="1.598575869605122" />
        <Con id="333" src="200" tgt="101" wght="3.3668101072937646" />
        <Con id="334" src="58" tgt="253" wght="0.62095192382484088" />
        <Con id="336" src="101" tgt="273" wght="-0.38969557876709177" />
        <Con id="340" src="2" tgt="101" wght="5" />
        <Con id="346" src="58" tgt="5" wght="4.05619538967302" />
        <Con id="362" src="200" tgt="58" wght="4.8104092006687438" />
        <Con id="363" src="200" tgt="6" wght="3.8376412895324523" />
        <Con id="368" src="200" tgt="5" wght="2.415077442576798" />
        <Con id="371" src="58" tgt="370" wght="-4.1583421779796481" />
        <Con id="397" src="101" tgt="370" wght="-2.4471165636514041" />
        <Con id="398" src="4" tgt="253" wght="-1.046603517210575" />
        <Con id="403" src="273" tgt="370" wght="-2.3865175054714949" />
        <Con id="420" src="200" tgt="370" wght="-3.323105611225722" />
        <Con id="444" src="253" tgt="443" wght="-1.6180161760557927" />
        <Con id="445" src="443" tgt="273" wght="2.7617256834243484" />
        <Con id="453" src="2" tgt="273" wght="2.8001667832061821" />
        <Con id="510" src="3" tgt="370" wght="-3.8698661335964473" />
        <Con id="514" src="101" tgt="443" wght="0.80258073732712809" />
        <Con id="536" src="370" tgt="5" wght="-0.16157530497267969" />
        <Con id="545" src="443" tgt="370" wght="0.302141222968784" />
        <Con id="648" src="2" tgt="370" wght="4.9889497434693482" />
        <Con id="733" src="1" tgt="732" wght="-2.7387074433822884" />
        <Con id="734" src="732" tgt="6" wght="0.86447752675780665" />
        <Con id="759" src="370" tgt="758" wght="-2.6876255859046454" />
        <Con id="760" src="758" tgt="6" wght="-2.6627613218165154" />
        <Con id="761" src="732" tgt="101" wght="-4.3818972701233" />
        <Con id="768" src="58" tgt="758" wght="0.33103555419978165" />
        <Con id="770" src="0" tgt="732" wght="0.20977234160556429" />
        <Con id="775" src="1" tgt="774" wght="3.550504537583056" />
        <Con id="776" src="774" tgt="101" wght="-3.3173900550033029" />
        <Con id="810" src="2" tgt="758" wght="-3.870614615165326" />
        <Con id="838" src="774" tgt="253" wght="5" />
        <Con id="956" src="774" tgt="758" wght="2.6462583633700723" />
        <Con id="985" src="101" tgt="984" wght="-4.36183837951166" />
        <Con id="986" src="984" tgt="6" wght="5" />
        <Con id="988" src="101" tgt="758" wght="-1.154318078815852" />
        <Con id="1003" src="1" tgt="273" wght="-4.4892641482874751" />
        <Con id="1027" src="200" tgt="758" wght="-3.100028489716351" />
        <Con id="1032" src="253" tgt="1031" wght="5" />
        <Con id="1033" src="1031" tgt="370" wght="3.086953326768263" />
        <Con id="1043" src="253" tgt="5" wght="3.3295458865673728" />
        <Con id="1046" src="984" tgt="370" wght="2.620652623403446" />
        <Con id="1058" src="1031" tgt="758" wght="-1.1489112087035558" />
        <Con id="1059" src="732" tgt="5" wght="-1.2115085637196898" />
        <Con id="1078" src="774" tgt="984" wght="-3.4454800929604605" />
        <Con id="1115" src="1031" tgt="6" wght="-1.7990975862178864" />
        <Con id="1126" src="3" tgt="774" wght="0.8470515519170857" />
        <Con id="1152" src="732" tgt="1151" wght="-2.9537434148905453" />
        <Con id="1153" src="1151" tgt="253" wght="4.745528294436677" />
        <Con id="1160" src="732" tgt="200" wght="-3.0740549133474397" />
        <Con id="1181" src="3" tgt="1180" wght="5" />
        <Con id="1182" src="1180" tgt="273" wght="4.6977772062697438" />
        <Con id="1226" src="732" tgt="984" wght="-3.5262889671137754" />
        <Con id="1231" src="253" tgt="370" wght="-5" />
        <Con id="1262" src="48" tgt="1151" wght="0.15635126313821729" />
        <Con id="1263" src="1180" tgt="6" wght="0.54180106613785028" />
        <Con id="1269" src="1180" tgt="101" wght="3.4939504579276219" />
        <Con id="1335" src="0" tgt="1151" wght="-2.667381545323297" />
        <Con id="1479" src="443" tgt="1478" wght="5" />
        <Con id="1480" src="1478" tgt="758" wght="5" />
      </Connections>
    </Network>
    <Network id="71058" birthGen="1770" fitness="0">
      <Nodes>
        <Node type="bias" id="0" />
        <Node type="in" id="1" />
        <Node type="in" id="2" />
        <Node type="in" id="3" />
        <Node type="in" id="4" />
        <Node type="out" id="5" />
        <Node type="out" id="6" />
        <Node type="hid" id="48" />
        <Node type="hid" id="58" />
        <Node type="hid" id="101" />
        <Node type="hid" id="200" />
        <Node type="hid" id="253" />
        <Node type="hid" id="273" />
        <Node type="hid" id="370" />
        <Node type="hid" id="443" />
        <Node type="hid" id="732" />
        <Node type="hid" id="758" />
        <Node type="hid" id="774" />
        <Node type="hid" id="984" />
        <Node type="hid" id="1031" />
        <Node type="hid" id="1151" />
        <Node type="hid" id="1180" />
        <Node type="hid" id="1478" />
      </Nodes>
      <Connections>
        <Con id="49" src="0" tgt="48" wght="-2.0721971785601179" />
        <Con id="102" src="48" tgt="101" wght="-3.5478822193579651" />
        <Con id="128" src="48" tgt="58" wght="-4.1132562476628767" />
        <Con id="168" src="101" tgt="58" wght="2.3634208642267263" />
        <Con id="201" src="0" tgt="200" wght="-1.1046056041855776" />
        <Con id="202" src="200" tgt="48" wght="1.1248747360927873" />
        <Con id="255" src="253" tgt="6" wght="3.5092095145279827" />
        <Con id="266" src="48" tgt="253" wght="2.6722052919951751" />
        <Con id="274" src="58" tgt="273" wght="4.6650986718773808" />
        <Con id="282" src="48" tgt="273" wght="-2.5215630666215048" />
        <Con id="301" src="0" tgt="101" wght="-0.95962534886548612" />
        <Con id="313" src="0" tgt="6" wght="2.8215327520197806" />
        <Con id="315" src="3" tgt="48" wght="2.0295546902343631" />
        <Con id="333" src="200" tgt="101" wght="3.3668101072937646" />
        <Con id="334" src="58" tgt="253" wght="0.62095192382484088" />
        <Con id="336" src="101" tgt="273" wght="-0.38969557876709177" />
        <Con id="340" src="2" tgt="101" wght="5" />
        <Con id="346" src="58" tgt="5" wght="4.05619538967302" />
        <Con id="362" src="200" tgt="58" wght="4.8104092006687438" />
        <Con id="363" src="200" tgt="6" wght="3.8376412895324523" />
        <Con id="368" src="200" tgt="5" wght="2.415077442576798" />
        <Con id="371" src="58" tgt="370" wght="-4.1583421779796481" />
        <Con id="397" src="101" tgt="370" wght="-2.4471165636514041" />
        <Con id="398" src="4" tgt="253" wght="-1.046603517210575" />
        <Con id="403" src="273" tgt="370" wght="-2.3865175054714949" />
        <Con id="420" src="200" tgt="370" wght="-3.323105611225722" />
        <Con id="444" src="253" tgt="443" wght="-1.6180161760557927" />
        <Con id="445" src="443" tgt="273" wght="2.7617256834243484" />
        <Con id="453" src="2" tgt="273" wght="2.8001667832061821" />
        <Con id="510" src="3" tgt="370" wght="-3.8698661335964473" />
        <Con id="514" src="101" tgt="443" wght="0.80258073732712809" />
        <Con id="536" src="370" tgt="5" wght="-0.16157530497267969" />
        <Con id="545" src="443" tgt="370" wght="0.302141222968784" />
        <Con id="648" src="2" tgt="370" wght="4.9889497434693482" />
        <Con id="733" src="1" tgt="732" wght="-2.7387074433822884" />
        <Con id="734" src="732" tgt="6" wght="0.86447752675780665" />
        <Con id="759" src="370" tgt="758" wght="-2.6876255859046454" />
        <Con id="760" src="758" tgt="6" wght="-2.6627613218165154" />
        <Con id="761" src="732" tgt="101" wght="-4.3818972701233" />
        <Con id="768" src="58" tgt="758" wght="0.33103555419978165" />
        <Con id="770" src="0" tgt="732" wght="0.20977234160556429" />
        <Con id="775" src="1" tgt="774" wght="3.550504537583056" />
        <Con id="776" src="774" tgt="101" wght="-3.3173900550033029" />
        <Con id="810" src="2" tgt="758" wght="-3.870614615165326" />
        <Con id="838" src="774" tgt="253" wght="5" />
        <Con id="956" src="774" tgt="758" wght="2.6462583633700723" />
        <Con id="985" src="101" tgt="984" wght="-4.36183837951166" />
        <Con id="986" src="984" tgt="6" wght="5" />
        <Con id="988" src="101" tgt="758" wght="-1.154318078815852" />
        <Con id="1003" src="1" tgt="273" wght="-4.4892641482874751" />
        <Con id="1027" src="200" tgt="758" wght="-3.100028489716351" />
        <Con id="1032" src="253" tgt="1031" wght="5" />
        <Con id="1033" src="1031" tgt="370" wght="3.086953326768263" />
        <Con id="1043" src="253" tgt="5" wght="3.3295458865673728" />
        <Con id="1046" src="984" tgt="370" wght="2.620652623403446" />
        <Con id="1058" src="1031" tgt="758" wght="-1.1489112087035558" />
        <Con id="1059" src="732" tgt="5" wght="-1.2115085637196898" />
        <Con id="1078" src="774" tgt="984" wght="-3.4454800929604605" />
        <Con id="1115" src="1031" tgt="6" wght="-1.7990975862178864" />
        <Con id="1126" src="3" tgt="774" wght="0.8470515519170857" />
        <Con id="1152" src="732" tgt="1151" wght="-2.9537434148905453" />
        <Con id="1153" src="1151" tgt="253" wght="4.745528294436677" />
        <Con id="1160" src="732" tgt="200" wght="-3.0740549133474397" />
        <Con id="1181" src="3" tgt="1180" wght="4.784472137394399" />
        <Con id="1182" src="1180" tgt="273" wght="4.6977772062697438" />
        <Con id="1226" src="732" tgt="984" wght="-3.5262889671137754" />
        <Con id="1231" src="253" tgt="370" wght="-5" />
        <Con id="1262" src="48" tgt="1151" wght="0.15635126313821729" />
        <Con id="1263" src="1180" tgt="6" wght="0.54180106613785028" />
        <Con id="1269" src="1180" tgt="101" wght="3.4939504579276219" />
        <Con id="1335" src="0" tgt="1151" wght="-2.667381545323297" />
        <Con id="1479" src="443" tgt="1478" wght="5" />
        <Con id="1480" src="1478" tgt="758" wght="5" />
      </Connections>
    </Network>
    <Network id="71059" birthGen="1770" fitness="0">
      <Nodes>
        <Node type="bias" id="0" />
        <Node type="in" id="1" />
        <Node type="in" id="2" />
        <Node type="in" id="3" />
        <Node type="in" id="4" />
        <Node type="out" id="5" />
        <Node type="out" id="6" />
        <Node type="hid" id="48" />
        <Node type="hid" id="58" />
        <Node type="hid" id="101" />
        <Node type="hid" id="200" />
        <Node type="hid" id="253" />
        <Node type="hid" id="273" />
        <Node type="hid" id="370" />
        <Node type="hid" id="443" />
        <Node type="hid" id="732" />
        <Node type="hid" id="758" />
        <Node type="hid" id="774" />
        <Node type="hid" id="984" />
        <Node type="hid" id="1031" />
        <Node type="hid" id="1151" />
        <Node type="hid" id="1180" />
        <Node type="hid" id="1478" />
      </Nodes>
      <Connections>
        <Con id="49" src="0" tgt="48" wght="-2.0721971785601179" />
        <Con id="102" src="48" tgt="101" wght="-3.5478822193579651" />
        <Con id="128" src="48" tgt="58" wght="-4.1132562476628767" />
        <Con id="168" src="101" tgt="58" wght="2.3634208642267263" />
        <Con id="201" src="0" tgt="200" wght="-1.1046056041855776" />
        <Con id="202" src="200" tgt="48" wght="1.1248747360927873" />
        <Con id="255" src="253" tgt="6" wght="3.5092095145279827" />
        <Con id="266" src="48" tgt="253" wght="2.6722052919951751" />
        <Con id="274" src="58" tgt="273" wght="4.6650986718773808" />
        <Con id="282" src="48" tgt="273" wght="-2.5215630666215048" />
        <Con id="301" src="0" tgt="101" wght="-0.95962534886548612" />
        <Con id="313" src="0" tgt="6" wght="2.8215327520197806" />
        <Con id="315" src="3" tgt="48" wght="2.0295546902343631" />
        <Con id="333" src="200" tgt="101" wght="3.3668101072937646" />
        <Con id="334" src="58" tgt="253" wght="0.62095192382484088" />
        <Con id="336" src="101" tgt="273" wght="-0.38969557876709177" />
        <Con id="340" src="2" tgt="101" wght="5" />
        <Con id="346" src="58" tgt="5" wght="4.05619538967302" />
        <Con id="362" src="200" tgt="58" wght="4.8104092006687438" />
        <Con id="363" src="200" tgt="6" wght="3.8376412895324523" />
        <Con id="368" src="200" tgt="5" wght="2.415077442576798" />
        <Con id="371" src="58" tgt="370" wght="-4.1583421779796481" />
        <Con id="397" src="101" tgt="370" wght="-2.4471165636514041" />
        <Con id="398" src="4" tgt="253" wght="-1.046603517210575" />
        <Con id="403" src="273" tgt="370" wght="-2.3865175054714949" />
        <Con id="420" src="200" tgt="370" wght="-3.323105611225722" />
        <Con id="444" src="253" tgt="443" wght="-1.6180161760557927" />
        <Con id="445" src="443" tgt="273" wght="2.7617256834243484" />
        <Con id="453" src="2" tgt="273" wght="2.8001667832061821" />
        <Con id="510" src="3" tgt="370" wght="-3.8698661335964473" />
        <Con id="514" src="101" tgt="443" wght="0.80258073732712809" />
        <Con id="536" src="370" tgt="5" wght="-0.16157530497267969" />
        <Con id="545" src="443" tgt="370" wght="0.302141222968784" />
        <Con id="648" src="2" tgt="370" wght="4.9889497434693482" />
        <Con id="733" src="1" tgt="732" wght="-2.7387074433822884" />
        <Con id="734" src="732" tgt="6" wght="0.86447752675780665" />
        <Con id="759" src="370" tgt="758" wght="-2.6876255859046454" />
        <Con id="760" src="758" tgt="6" wght="-2.6627613218165154" />
        <Con id="761" src="732" tgt="101" wght="-4.3818972701233" />
        <Con id="768" src="58" tgt="758" wght="0.33103555419978165" />
        <Con id="770" src="0" tgt="732" wght="0.20977234160556429" />
        <Con id="775" src="1" tgt="774" wght="3.550504537583056" />
        <Con id="776" src="774" tgt="101" wght="-3.3173900550033029" />
        <Con id="810" src="2" tgt="758" wght="-3.870614615165326" />
        <Con id="838" src="774" tgt="253" wght="5" />
        <Con id="956" src="774" tgt="758" wght="2.6462583633700723" />
        <Con id="985" src="101" tgt="984" wght="-4.36183837951166" />
        <Con id="986" src="984" tgt="6" wght="5" />
        <Con id="988" src="101" tgt="758" wght="-1.154318078815852" />
        <Con id="1003" src="1" tgt="273" wght="-4.4892641482874751" />
        <Con id="1027" src="200" tgt="758" wght="-3.100028489716351" />
        <Con id="1032" src="253" tgt="1031" wght="5" />
        <Con id="1033" src="1031" tgt="370" wght="3.086953326768263" />
        <Con id="1043" src="253" tgt="5" wght="3.3295458865673728" />
        <Con id="1046" src="984" tgt="370" wght="2.620652623403446" />
        <Con id="1058" src="1031" tgt="758" wght="-1.1489112087035558" />
        <Con id="1059" src="732" tgt="5" wght="-1.2115085637196898" />
        <Con id="1078" src="774" tgt="984" wght="-3.4454800929604605" />
        <Con id="1115" src="1031" tgt="6" wght="-1.7990975862178864" />
        <Con id="1126" src="3" tgt="774" wght="0.8470515519170857" />
        <Con id="1152" src="732" tgt="1151" wght="-2.9537434148905453" />
        <Con id="1153" src="1151" tgt="253" wght="4.745528294436677" />
        <Con id="1160" src="732" tgt="200" wght="-3.0740549133474397" />
        <Con id="1181" src="3" tgt="1180" wght="4.784472137394399" />
        <Con id="1182" src="1180" tgt="273" wght="4.6977772062697438" />
        <Con id="1226" src="732" tgt="984" wght="-3.5262889671137754" />
        <Con id="1231" src="253" tgt="370" wght="-5" />
        <Con id="1262" src="48" tgt="1151" wght="0.15635126313821729" />
        <Con id="1263" src="1180" tgt="6" wght="0.54180106613785028" />
        <Con id="1269" src="1180" tgt="101" wght="3.4939504579276219" />
        <Con id="1335" src="0" tgt="1151" wght="-2.667381545323297" />
        <Con id="1479" src="443" tgt="1478" wght="5" />
        <Con id="1480" src="1478" tgt="758" wght="5" />
      </Connections>
    </Network>
    <Network id="71060" birthGen="1770" fitness="0">
      <Nodes>
        <Node type="bias" id="0" />
        <Node type="in" id="1" />
        <Node type="in" id="2" />
        <Node type="in" id="3" />
        <Node type="in" id="4" />
        <Node type="out" id="5" />
        <Node type="out" id="6" />
        <Node type="hid" id="48" />
        <Node type="hid" id="58" />
        <Node type="hid" id="101" />
        <Node type="hid" id="200" />
        <Node type="hid" id="253" />
        <Node type="hid" id="273" />
        <Node type="hid" id="370" />
        <Node type="hid" id="443" />
        <Node type="hid" id="732" />
        <Node type="hid" id="758" />
        <Node type="hid" id="774" />
        <Node type="hid" id="984" />
        <Node type="hid" id="1031" />
        <Node type="hid" id="1151" />
        <Node type="hid" id="1180" />
      </Nodes>
      <Connections>
        <Con id="49" src="0" tgt="48" wght="-2.0721971785601179" />
        <Con id="102" src="48" tgt="101" wght="-4.9015770860965286" />
        <Con id="128" src="48" tgt="58" wght="-4.1132562476628767" />
        <Con id="168" src="101" tgt="58" wght="2.3634208642267263" />
        <Con id="201" src="0" tgt="200" wght="-1.1046056041855776" />
        <Con id="202" src="200" tgt="48" wght="1.1248747360927873" />
        <Con id="255" src="253" tgt="6" wght="3.933623146482117" />
        <Con id="266" src="48" tgt="253" wght="2.6802554033749182" />
        <Con id="274" src="58" tgt="273" wght="4.4463354800658674" />
        <Con id="282" src="48" tgt="273" wght="-2.5215630666215048" />
        <Con id="301" src="0" tgt="101" wght="-4.41919141130607" />
        <Con id="313" src="0" tgt="6" wght="2.8577292467516879" />
        <Con id="315" src="3" tgt="48" wght="1.598575869605122" />
        <Con id="333" src="200" tgt="101" wght="4.5012589744995752" />
        <Con id="334" src="58" tgt="253" wght="1.1257914140420355" />
        <Con id="336" src="101" tgt="273" wght="-0.38969557876709177" />
        <Con id="340" src="2" tgt="101" wght="4.9908663789469507" />
        <Con id="346" src="58" tgt="5" wght="4.05619538967302" />
        <Con id="362" src="200" tgt="58" wght="4.8104092006687438" />
        <Con id="363" src="200" tgt="6" wght="3.8078968283138921" />
        <Con id="368" src="200" tgt="5" wght="2.415077442576798" />
        <Con id="371" src="58" tgt="370" wght="2.1707912188409373" />
        <Con id="397" src="101" tgt="370" wght="-2.4471165636514041" />
        <Con id="398" src="4" tgt="253" wght="-0.95656049639200391" />
        <Con id="403" src="273" tgt="370" wght="-2.3865175054714949" />
        <Con id="420" src="200" tgt="370" wght="-3.3405723915027581" />
        <Con id="444" src="253" tgt="443" wght="-1.0222568010471695" />
        <Con id="445" src="443" tgt="273" wght="2.7617256834243484" />
        <Con id="453" src="2" tgt="273" wght="4.9876589951851535" />
        <Con id="510" src="3" tgt="370" wght="-3.8698661335964473" />
        <Con id="514" src="101" tgt="443" wght="0.76194206207872994" />
        <Con id="536" src="370" tgt="5" wght="-0.16157530497267969" />
        <Con id="545" src="443" tgt="370" wght="0.302141222968784" />
        <Con id="648" src="2" tgt="370" wght="4.9970021063156249" />
        <Con id="733" src="1" tgt="732" wght="-2.7387074433822884" />
        <Con id="734" src="732" tgt="6" wght="0.85597327122451594" />
        <Con id="759" src="370" tgt="758" wght="-2.7369524352250489" />
        <Con id="760" src="758" tgt="6" wght="-3.4029610047980863" />
        <Con id="761" src="732" tgt="101" wght="-4.9043066138265967" />
        <Con id="768" src="58" tgt="758" wght="1.5436279641949862" />
        <Con id="770" src="0" tgt="732" wght="0.20912900747765403" />
        <Con id="775" src="1" tgt="774" wght="2.4407520350060086" />
        <Con id="776" src="774" tgt="101" wght="-3.2924932163990719" />
        <Con id="810" src="2" tgt="758" wght="-3.9021711766626459" />
        <Con id="838" src="774" tgt="253" wght="5" />
        <Con id="956" src="774" tgt="758" wght="2.6625367982293593" />
        <Con id="958" src="443" tgt="758" wght="5" />
        <Con id="985" src="101" tgt="984" wght="-3.7205576379240219" />
        <Con id="986" src="984" tgt="6" wght="5" />
        <Con id="988" src="101" tgt="758" wght="-1.1542927249194608" />
        <Con id="1003" src="1" tgt="273" wght="-4.4677767243438486" />
        <Con id="1032" src="253" tgt="1031" wght="3.0977086236335074" />
        <Con id="1033" src="1031" tgt="370" wght="3.086953326768263" />
        <Con id="1043" src="253" tgt="5" wght="2.8590132026851416" />
        <Con id="1046" src="984" tgt="370" wght="2.7611534797374957" />
        <Con id="1058" src="1031" tgt="758" wght="-3.2759645348414779" />
        <Con id="1059" src="732" tgt="5" wght="-1.3743144627515649" />
        <Con id="1078" src="774" tgt="984" wght="-3.0014060280448711" />
        <Con id="1115" src="1031" tgt="6" wght="-3.6846371458852092" />
        <Con id="1126" src="3" tgt="774" wght="4.831508223712115" />
        <Con id="1152" src="732" tgt="1151" wght="-2.9537434148905453" />
        <Con id="1153" src="1151" tgt="253" wght="5" />
        <Con id="1160" src="732" tgt="200" wght="-3.0415029295599405" />
        <Con id="1181" src="3" tgt="1180" wght="3.8611074117943645" />
        <Con id="1182" src="1180" tgt="273" wght="4.6955204008981317" />
        <Con id="1226" src="732" tgt="984" wght="-3.5236999532800382" />
        <Con id="1231" src="253" tgt="370" wght="-4.9507538980617847" />
        <Con id="1262" src="48" tgt="1151" wght="0.95478316801060226" />
        <Con id="1269" src="1180" tgt="101" wght="3.470348205555251" />
        <Con id="1335" src="0" tgt="1151" wght="2.0773242662708831" />
      </Connections>
    </Network>
    <Network id="71061" birthGen="1770" fitness="0">
      <Nodes>
        <Node type="bias" id="0" />
        <Node type="in" id="1" />
        <Node type="in" id="2" />
        <Node type="in" id="3" />
        <Node type="in" id="4" />
        <Node type="out" id="5" />
        <Node type="out" id="6" />
        <Node type="hid" id="48" />
        <Node type="hid" id="58" />
        <Node type="hid" id="101" />
        <Node type="hid" id="200" />
        <Node type="hid" id="253" />
        <Node type="hid" id="273" />
        <Node type="hid" id="370" />
        <Node type="hid" id="443" />
        <Node type="hid" id="732" />
        <Node type="hid" id="758" />
        <Node type="hid" id="774" />
        <Node type="hid" id="984" />
        <Node type="hid" id="1031" />
        <Node type="hid" id="1151" />
        <Node type="hid" id="1180" />
      </Nodes>
      <Connections>
        <Con id="49" src="0" tgt="48" wght="-2.0721971785601179" />
        <Con id="102" src="48" tgt="101" wght="-4.9015770860965286" />
        <Con id="128" src="48" tgt="58" wght="-4.1132562476628767" />
        <Con id="168" src="101" tgt="58" wght="2.3634208642267263" />
        <Con id="201" src="0" tgt="200" wght="-1.1046056041855776" />
