<?xml version="1.0" encoding="utf-8"?>
<Root>
  <ActivationFunctions>
    <Fn id="0" name="SteepenedSigmoid" prob="1" />
  </ActivationFunctions>
  <Networks>
    <Network id="8837" birthGen="220" fitness="1000.4703979492188">
      <Nodes>
        <Node type="bias" id="0" />
        <Node type="in" id="1" />
        <Node type="in" id="2" />
        <Node type="in" id="3" />
        <Node type="in" id="4" />
        <Node type="out" id="5" />
        <Node type="out" id="6" />
        <Node type="hid" id="74" />
        <Node type="hid" id="110" />
        <Node type="hid" id="135" />
        <Node type="hid" id="145" />
      </Nodes>
      <Connections>
        <Con id="96" src="3" tgt="74" wght="-3.953855548035583" />
        <Con id="111" src="2" tgt="110" wght="-3.26023637787693" />
        <Con id="136" src="3" tgt="135" wght="4.5658752023055724" />
        <Con id="146" src="74" tgt="145" wght="2.5887247827804565" />
        <Con id="147" src="145" tgt="6" wght="5" />
        <Con id="168" src="2" tgt="135" wght="-1.98368322778282" />
        <Con id="177" src="135" tgt="5" wght="-1.7576645818455436" />
        <Con id="180" src="110" tgt="145" wght="-0.017874540812117687" />
      </Connections>
    </Network>
    <Network id="8844" birthGen="220" fitness="1000.572265625">
      <Nodes>
        <Node type="bias" id="0" />
        <Node type="in" id="1" />
        <Node type="in" id="2" />
        <Node type="in" id="3" />
        <Node type="in" id="4" />
        <Node type="out" id="5" />
        <Node type="out" id="6" />
        <Node type="hid" id="74" />
        <Node type="hid" id="110" />
        <Node type="hid" id="135" />
        <Node type="hid" id="145" />
      </Nodes>
      <Connections>
        <Con id="96" src="3" tgt="74" wght="-3.9620658038588674" />
        <Con id="111" src="2" tgt="110" wght="-3.3348823243180434" />
        <Con id="130" src="110" tgt="74" wght="3.5637715877965093" />
        <Con id="136" src="3" tgt="135" wght="4.3395631046169045" />
        <Con id="146" src="74" tgt="145" wght="3.7406780474945864" />
        <Con id="147" src="145" tgt="6" wght="5" />
        <Con id="168" src="2" tgt="135" wght="-1.9662289425847568" />
        <Con id="177" src="135" tgt="5" wght="-1.044795244104552" />
        <Con id="180" src="110" tgt="145" wght="-1.1971023547338631" />
      </Connections>
    </Network>
    <Network id="8842" birthGen="220" fitness="1000.5659790039063">
      <Nodes>
        <Node type="bias" id="0" />
        <Node type="in" id="1" />
        <Node type="in" id="2" />
        <Node type="in" id="3" />
        <Node type="in" id="4" />
        <Node type="out" id="5" />
        <Node type="out" id="6" />
        <Node type="hid" id="74" />
        <Node type="hid" id="110" />
        <Node type="hid" id="135" />
        <Node type="hid" id="145" />
      </Nodes>
      <Connections>
        <Con id="96" src="3" tgt="74" wght="-3.9620658038588674" />
        <Con id="111" src="2" tgt="110" wght="-3.3348823243180434" />
        <Con id="130" src="110" tgt="74" wght="4.0079734396416109" />
        <Con id="136" src="3" tgt="135" wght="4.5658752023055724" />
        <Con id="146" src="74" tgt="145" wght="3.7406780474945864" />
        <Con id="147" src="145" tgt="6" wght="5" />
        <Con id="168" src="2" tgt="135" wght="-2.2502262483363036" />
        <Con id="177" src="135" tgt="5" wght="-1.7377460883424707" />
        <Con id="180" src="110" tgt="145" wght="-1.1971023547338631" />
      </Connections>
    </Network>
    <Network id="8849" birthGen="220" fitness="1000.5288696289063">
      <Nodes>
        <Node type="bias" id="0" />
        <Node type="in" id="1" />
        <Node type="in" id="2" />
        <Node type="in" id="3" />
        <Node type="in" id="4" />
        <Node type="out" id="5" />
        <Node type="out" id="6" />
        <Node type="hid" id="74" />
        <Node type="hid" id="110" />
        <Node type="hid" id="135" />
        <Node type="hid" id="145" />
        <Node type="hid" id="193" />
      </Nodes>
      <Connections>
        <Con id="96" src="3" tgt="74" wght="-3.4383735260135695" />
        <Con id="111" src="2" tgt="110" wght="-2.4966298896614743" />
        <Con id="136" src="3" tgt="135" wght="4.0124261567287993" />
        <Con id="147" src="145" tgt="6" wght="4.3153214844785666" />
        <Con id="168" src="2" tgt="135" wght="-1.9779807185594493" />
        <Con id="177" src="135" tgt="5" wght="-1.0966831999271991" />
        <Con id="180" src="110" tgt="145" wght="-1.1495806470924712" />
        <Con id="195" src="193" tgt="145" wght="5" />
      </Connections>
    </Network>
    <Network id="8851" birthGen="220" fitness="1000.4803466796875">
      <Nodes>
        <Node type="bias" id="0" />
        <Node type="in" id="1" />
        <Node type="in" id="2" />
        <Node type="in" id="3" />
        <Node type="in" id="4" />
        <Node type="out" id="5" />
        <Node type="out" id="6" />
        <Node type="hid" id="74" />
        <Node type="hid" id="110" />
        <Node type="hid" id="135" />
        <Node type="hid" id="145" />
        <Node type="hid" id="193" />
      </Nodes>
      <Connections>
        <Con id="96" src="3" tgt="74" wght="-3.4383735260135695" />
        <Con id="111" src="2" tgt="110" wght="-2.4966298896614743" />
        <Con id="136" src="3" tgt="135" wght="4.55035331659019" />
        <Con id="147" src="145" tgt="6" wght="4.3153214844785666" />
        <Con id="168" src="2" tgt="135" wght="-1.9779807185594493" />
        <Con id="177" src="135" tgt="5" wght="-1.0966831999271991" />
        <Con id="180" src="110" tgt="145" wght="-1.1495806470924712" />
        <Con id="195" src="193" tgt="145" wght="5" />
        <Con id="220" src="145" tgt="74" wght="-0.59729482978582382" />
      </Connections>
    </Network>
    <Network id="8854" birthGen="220" fitness="1000.5181884765625">
      <Nodes>
        <Node type="bias" id="0" />
        <Node type="in" id="1" />
        <Node type="in" id="2" />
        <Node type="in" id="3" />
        <Node type="in" id="4" />
        <Node type="out" id="5" />
        <Node type="out" id="6" />
        <Node type="hid" id="74" />
        <Node type="hid" id="110" />
        <Node type="hid" id="135" />
        <Node type="hid" id="145" />
        <Node type="hid" id="193" />
      </Nodes>
      <Connections>
        <Con id="96" src="3" tgt="74" wght="-3.7508193007950172" />
        <Con id="111" src="2" tgt="110" wght="-5" />
        <Con id="136" src="3" tgt="135" wght="4.5600644035559261" />
        <Con id="147" src="145" tgt="6" wght="5" />
        <Con id="168" src="2" tgt="135" wght="-1.9779807185594493" />
        <Con id="177" src="135" tgt="5" wght="-0.69067974827606782" />
        <Con id="180" src="110" tgt="145" wght="-1.1442861964580755" />
        <Con id="195" src="193" tgt="145" wght="4.4455311088271952" />
        <Con id="208" src="74" tgt="6" wght="-3.8077768450602889" />
        <Con id="212" src="74" tgt="145" wght="-4.5493174763396382" />
      </Connections>
    </Network>
    <Network id="8858" birthGen="220" fitness="1000.5862426757813">
      <Nodes>
        <Node type="bias" id="0" />
        <Node type="in" id="1" />
        <Node type="in" id="2" />
        <Node type="in" id="3" />
        <Node type="in" id="4" />
        <Node type="out" id="5" />
        <Node type="out" id="6" />
        <Node type="hid" id="22" />
        <Node type="hid" id="74" />
        <Node type="hid" id="83" />
        <Node type="hid" id="110" />
        <Node type="hid" id="135" />
        <Node type="hid" id="145" />
        <Node type="hid" id="189" />
      </Nodes>
      <Connections>
        <Con id="96" src="3" tgt="74" wght="-4.7683971687344187" />
        <Con id="97" src="22" tgt="6" wght="1.4199156311859222" />
        <Con id="111" src="2" tgt="110" wght="-2.2002007691039562" />
        <Con id="113" src="1" tgt="22" wght="3.1660986179485917" />
        <Con id="120" src="110" tgt="5" wght="2.7908046590164304" />
        <Con id="136" src="3" tgt="135" wght="4.9563777720514484" />
        <Con id="146" src="74" tgt="145" wght="-5" />
        <Con id="147" src="145" tgt="6" wght="5" />
        <Con id="168" src="2" tgt="135" wght="-1.6218044041608966" />
        <Con id="177" src="135" tgt="5" wght="-1.9828884029393121" />
        <Con id="191" src="189" tgt="83" wght="3.7746093363740156" />
      </Connections>
    </Network>
    <Network id="8862" birthGen="220" fitness="1000.5162963867188">
      <Nodes>
        <Node type="bias" id="0" />
        <Node type="in" id="1" />
        <Node type="in" id="2" />
        <Node type="in" id="3" />
        <Node type="in" id="4" />
        <Node type="out" id="5" />
        <Node type="out" id="6" />
        <Node type="hid" id="22" />
        <Node type="hid" id="74" />
        <Node type="hid" id="83" />
        <Node type="hid" id="110" />
        <Node type="hid" id="135" />
        <Node type="hid" id="145" />
        <Node type="hid" id="200" />
      </Nodes>
      <Connections>
        <Con id="85" src="83" tgt="22" wght="-5" />
        <Con id="97" src="22" tgt="6" wght="3.5488476018705564" />
        <Con id="112" src="110" tgt="83" wght="-3.7316863697245477" />
        <Con id="136" src="3" tgt="135" wght="1.3679217943434849" />
        <Con id="146" src="74" tgt="145" wght="3.7340568673529413" />
        <Con id="147" src="145" tgt="6" wght="5" />
        <Con id="168" src="2" tgt="135" wght="-0.36941347822393955" />
        <Con id="177" src="135" tgt="5" wght="-1.5381577963937347" />
        <Con id="180" src="110" tgt="145" wght="-1.7452094319314264" />
        <Con id="201" src="3" tgt="200" wght="-4.6610265085468949" />
        <Con id="202" src="200" tgt="74" wght="5" />
      </Connections>
    </Network>
    <Network id="8863" birthGen="220" fitness="1000.5162963867188">
      <Nodes>
        <Node type="bias" id="0" />
        <Node type="in" id="1" />
        <Node type="in" id="2" />
        <Node type="in" id="3" />
        <Node type="in" id="4" />
        <Node type="out" id="5" />
        <Node type="out" id="6" />
        <Node type="hid" id="22" />
        <Node type="hid" id="74" />
        <Node type="hid" id="83" />
        <Node type="hid" id="110" />
        <Node type="hid" id="135" />
        <Node type="hid" id="145" />
        <Node type="hid" id="200" />
      </Nodes>
      <Connections>
        <Con id="85" src="83" tgt="22" wght="-5" />
        <Con id="97" src="22" tgt="6" wght="3.5488476018705564" />
        <Con id="112" src="110" tgt="83" wght="-3.7316863697245477" />
        <Con id="136" src="3" tgt="135" wght="1.3679217943434849" />
        <Con id="146" src="74" tgt="145" wght="3.7340568673529413" />
        <Con id="147" src="145" tgt="6" wght="5" />
        <Con id="168" src="2" tgt="135" wght="-0.36941347822393955" />
        <Con id="177" src="135" tgt="5" wght="-1.5381577963937347" />
        <Con id="180" src="110" tgt="145" wght="-0.49237648083859131" />
        <Con id="201" src="3" tgt="200" wght="-3.4716613644551004" />
        <Con id="202" src="200" tgt="74" wght="3.6945109729317904" />
      </Connections>
    </Network>
    <Network id="8869" birthGen="220" fitness="1000.6268920898438">
      <Nodes>
        <Node type="bias" id="0" />
        <Node type="in" id="1" />
        <Node type="in" id="2" />
        <Node type="in" id="3" />
        <Node type="in" id="4" />
        <Node type="out" id="5" />
        <Node type="out" id="6" />
        <Node type="hid" id="22" />
        <Node type="hid" id="74" />
        <Node type="hid" id="83" />
        <Node type="hid" id="110" />
        <Node type="hid" id="135" />
        <Node type="hid" id="145" />
      </Nodes>
      <Connections>
        <Con id="85" src="83" tgt="22" wght="-4.7785250206714531" />
        <Con id="96" src="3" tgt="74" wght="-2.3366636290962122" />
        <Con id="97" src="22" tgt="6" wght="3.297736226048344" />
        <Con id="112" src="110" tgt="83" wght="-4.06017915264666" />
        <Con id="136" src="3" tgt="135" wght="1.186956600653218" />
        <Con id="146" src="74" tgt="145" wght="3.7113118980862208" />
        <Con id="147" src="145" tgt="6" wght="4.9690735224351537" />
        <Con id="168" src="2" tgt="135" wght="-0.4752460566217358" />
        <Con id="177" src="135" tgt="5" wght="-2.2693309191263022" />
        <Con id="180" src="110" tgt="145" wght="-1.2061366394475492" />
      </Connections>
    </Network>
    <Network id="8874" birthGen="220" fitness="1000.5702514648438">
      <Nodes>
        <Node type="bias" id="0" />
        <Node type="in" id="1" />
        <Node type="in" id="2" />
        <Node type="in" id="3" />
        <Node type="in" id="4" />
        <Node type="out" id="5" />
        <Node type="out" id="6" />
        <Node type="hid" id="74" />
        <Node type="hid" id="83" />
        <Node type="hid" id="110" />
        <Node type="hid" id="135" />
        <Node type="hid" id="145" />
      </Nodes>
      <Connections>
        <Con id="96" src="3" tgt="74" wght="-3.9658842236092857" />
        <Con id="112" src="110" tgt="83" wght="-3.2131551674065646" />
        <Con id="120" src="110" tgt="5" wght="0.023014531470835209" />
        <Con id="136" src="3" tgt="135" wght="5" />
        <Con id="146" src="74" tgt="145" wght="3.939137101580116" />
        <Con id="147" src="145" tgt="6" wght="5" />
        <Con id="168" src="2" tgt="135" wght="-1.9893132020779345" />
        <Con id="177" src="135" tgt="5" wght="-0.81971608680895014" />
        <Con id="203" src="83" tgt="145" wght="-4.2585185732047766" />
      </Connections>
    </Network>
    <Network id="8875" birthGen="221" fitness="0">
      <Nodes>
        <Node type="bias" id="0" />
        <Node type="in" id="1" />
        <Node type="in" id="2" />
        <Node type="in" id="3" />
        <Node type="in" id="4" />
        <Node type="out" id="5" />
        <Node type="out" id="6" />
        <Node type="hid" id="74" />
        <Node type="hid" id="110" />
        <Node type="hid" id="135" />
        <Node type="hid" id="145" />
      </Nodes>
      <Connections>
        <Con id="96" src="3" tgt="74" wght="-3.953855548035583" />
        <Con id="111" src="2" tgt="110" wght="-3.26023637787693" />
        <Con id="136" src="3" tgt="135" wght="4.5658752023055724" />
        <Con id="146" src="74" tgt="145" wght="2.5716282473877072" />
        <Con id="147" src="145" tgt="6" wght="-4.0889046201482415" />
        <Con id="168" src="2" tgt="135" wght="-1.98368322778282" />
        <Con id="177" src="135" tgt="5" wght="-1.7576645818455436" />
        <Con id="180" src="110" tgt="145" wght="-0.017874540812117687" />
      </Connections>
    </Network>
    <Network id="8876" birthGen="221" fitness="0">
      <Nodes>
        <Node type="bias" id="0" />
        <Node type="in" id="1" />
        <Node type="in" id="2" />
        <Node type="in" id="3" />
        <Node type="in" id="4" />
        <Node type="out" id="5" />
        <Node type="out" id="6" />
        <Node type="hid" id="74" />
        <Node type="hid" id="110" />
        <Node type="hid" id="135" />
        <Node type="hid" id="145" />
      </Nodes>
      <Connections>
        <Con id="96" src="3" tgt="74" wght="-3.953855548035583" />
        <Con id="111" src="2" tgt="110" wght="-3.26023637787693" />
        <Con id="136" src="3" tgt="135" wght="4.5658752023055724" />
        <Con id="146" src="74" tgt="145" wght="2.5977581661093461" />
        <Con id="147" src="145" tgt="6" wght="5" />
        <Con id="168" src="2" tgt="135" wght="-1.98368322778282" />
        <Con id="177" src="135" tgt="5" wght="-1.7576645818455436" />
        <Con id="180" src="110" tgt="145" wght="-0.017874540812117687" />
      </Connections>
    </Network>
    <Network id="8877" birthGen="221" fitness="0">
      <Nodes>
        <Node type="bias" id="0" />
        <Node type="in" id="1" />
        <Node type="in" id="2" />
        <Node type="in" id="3" />
        <Node type="in" id="4" />
        <Node type="out" id="5" />
        <Node type="out" id="6" />
        <Node type="hid" id="74" />
        <Node type="hid" id="110" />
        <Node type="hid" id="135" />
        <Node type="hid" id="145" />
      </Nodes>
      <Connections>
        <Con id="96" src="3" tgt="74" wght="-3.953855548035583" />
        <Con id="111" src="2" tgt="110" wght="-3.26023637787693" />
        <Con id="136" src="3" tgt="135" wght="4.5658752023055724" />
        <Con id="146" src="74" tgt="145" wght="2.5887247827804565" />
        <Con id="147" src="145" tgt="6" wght="4.9198089057813608" />
        <Con id="168" src="2" tgt="135" wght="-1.98368322778282" />
        <Con id="177" src="135" tgt="5" wght="-1.7576645818455436" />
        <Con id="180" src="110" tgt="145" wght="-0.90713543396810981" />
      </Connections>
    </Network>
    <Network id="8878" birthGen="221" fitness="0">
      <Nodes>
        <Node type="bias" id="0" />
        <Node type="in" id="1" />
        <Node type="in" id="2" />
        <Node type="in" id="3" />
        <Node type="in" id="4" />
        <Node type="out" id="5" />
        <Node type="out" id="6" />
        <Node type="hid" id="74" />
        <Node type="hid" id="110" />
        <Node type="hid" id="135" />
        <Node type="hid" id="145" />
      </Nodes>
      <Connections>
        <Con id="96" src="3" tgt="74" wght="-3.9620658038588674" />
        <Con id="111" src="2" tgt="110" wght="-4.99119629012281" />
        <Con id="130" src="110" tgt="74" wght="4.0079734396416109" />
        <Con id="136" src="3" tgt="135" wght="4.5658752023055724" />
        <Con id="146" src="74" tgt="145" wght="3.7406780474945864" />
        <Con id="147" src="145" tgt="6" wght="5" />
        <Con id="168" src="2" tgt="135" wght="-2.2502262483363036" />
        <Con id="177" src="135" tgt="5" wght="-1.7377460883424707" />
        <Con id="180" src="110" tgt="145" wght="-1.1971023547338631" />
      </Connections>
    </Network>
    <Network id="8879" birthGen="221" fitness="0">
      <Nodes>
        <Node type="bias" id="0" />
        <Node type="in" id="1" />
        <Node type="in" id="2" />
        <Node type="in" id="3" />
        <Node type="in" id="4" />
        <Node type="out" id="5" />
        <Node type="out" id="6" />
        <Node type="hid" id="74" />
        <Node type="hid" id="110" />
        <Node type="hid" id="135" />
        <Node type="hid" id="145" />
      </Nodes>
      <Connections>
        <Con id="96" src="3" tgt="74" wght="-3.9620658038588674" />
        <Con id="111" src="2" tgt="110" wght="-3.3348823243180434" />
        <Con id="130" src="110" tgt="74" wght="4.0079734396416109" />
        <Con id="136" src="3" tgt="135" wght="4.5658752023055724" />
        <Con id="146" src="74" tgt="145" wght="3.7406780474945864" />
        <Con id="147" src="145" tgt="6" wght="5" />
        <Con id="168" src="2" tgt="135" wght="-2.2502262483363036" />
        <Con id="177" src="135" tgt="5" wght="-1.7377460883424707" />
        <Con id="180" src="110" tgt="145" wght="-1.1971023547338631" />
      </Connections>
    </Network>
    <Network id="8880" birthGen="221" fitness="0">
      <Nodes>
        <Node type="bias" id="0" />
        <Node type="in" id="1" />
        <Node type="in" id="2" />
        <Node type="in" id="3" />
        <Node type="in" id="4" />
        <Node type="out" id="5" />
        <Node type="out" id="6" />
        <Node type="hid" id="74" />
        <Node type="hid" id="110" />
        <Node type="hid" id="135" />
        <Node type="hid" id="145" />
      </Nodes>
      <Connections>
        <Con id="96" src="3" tgt="74" wght="-3.9620658038588674" />
        <Con id="111" src="2" tgt="110" wght="-3.3348823243180434" />
        <Con id="130" src="110" tgt="74" wght="4.0079734396416109" />
        <Con id="136" src="3" tgt="135" wght="4.5658752023055724" />
        <Con id="146" src="74" tgt="145" wght="3.7406780474945864" />
        <Con id="147" src="145" tgt="6" wght="5" />
        <Con id="168" src="2" tgt="135" wght="-2.2502262483363036" />
        <Con id="177" src="135" tgt="5" wght="-1.7377460883424707" />
        <Con id="180" src="110" tgt="145" wght="-1.1971023547338631" />
      </Connections>
    </Network>
    <Network id="8881" birthGen="221" fitness="0">
      <Nodes>
        <Node type="bias" id="0" />
        <Node type="in" id="1" />
        <Node type="in" id="2" />
        <Node type="in" id="3" />
        <Node type="in" id="4" />
        <Node type="out" id="5" />
        <Node type="out" id="6" />
        <Node type="hid" id="74" />
        <Node type="hid" id="110" />
        <Node type="hid" id="135" />
        <Node type="hid" id="145" />
        <Node type="hid" id="193" />
      </Nodes>
      <Connections>
        <Con id="96" src="3" tgt="74" wght="-3.4383735260135695" />
        <Con id="111" src="2" tgt="110" wght="-2.4885845676876581" />
        <Con id="136" src="3" tgt="135" wght="4.0124261567287993" />
        <Con id="147" src="145" tgt="6" wght="4.3153214844785666" />
        <Con id="168" src="2" tgt="135" wght="-1.9779807185594493" />
        <Con id="177" src="135" tgt="5" wght="-1.0966831999271991" />
        <Con id="180" src="110" tgt="145" wght="-1.1495806470924712" />
        <Con id="195" src="193" tgt="145" wght="5" />
      </Connections>
    </Network>
    <Network id="8882" birthGen="221" fitness="0">
      <Nodes>
        <Node type="bias" id="0" />
        <Node type="in" id="1" />
        <Node type="in" id="2" />
        <Node type="in" id="3" />
        <Node type="in" id="4" />
        <Node type="out" id="5" />
        <Node type="out" id="6" />
        <Node type="hid" id="74" />
        <Node type="hid" id="110" />
        <Node type="hid" id="135" />
        <Node type="hid" id="145" />
        <Node type="hid" id="193" />
      </Nodes>
      <Connections>
        <Con id="96" src="3" tgt="74" wght="-4.6483705379300133" />
        <Con id="111" src="2" tgt="110" wght="-2.4966298896614743" />
        <Con id="136" src="3" tgt="135" wght="4.0124261567287993" />
        <Con id="147" src="145" tgt="6" wght="4.8194321041266965" />
        <Con id="168" src="2" tgt="135" wght="-1.9779807185594493" />
        <Con id="177" src="135" tgt="5" wght="-1.0966831999271991" />
        <Con id="180" src="110" tgt="145" wght="-1.6675567204296473" />
        <Con id="195" src="193" tgt="145" wght="5" />
      </Connections>
    </Network>
    <Network id="8883" birthGen="221" fitness="0">
      <Nodes>
        <Node type="bias" id="0" />
        <Node type="in" id="1" />
        <Node type="in" id="2" />
        <Node type="in" id="3" />
        <Node type="in" id="4" />
        <Node type="out" id="5" />
        <Node type="out" id="6" />
        <Node type="hid" id="74" />
        <Node type="hid" id="110" />
        <Node type="hid" id="135" />
        <Node type="hid" id="145" />
        <Node type="hid" id="193" />
      </Nodes>
      <Connections>
        <Con id="96" src="3" tgt="74" wght="-3.4383735260135695" />
        <Con id="111" src="2" tgt="110" wght="-2.4966298896614743" />
        <Con id="136" src="3" tgt="135" wght="2.0429872209206223" />
        <Con id="147" src="145" tgt="6" wght="4.3153214844785666" />
        <Con id="168" src="2" tgt="135" wght="-1.9779807185594493" />
        <Con id="177" src="135" tgt="5" wght="-1.0966831999271991" />
        <Con id="180" src="110" tgt="145" wght="-1.1495806470924712" />
        <Con id="195" src="193" tgt="145" wght="5" />
      </Connections>
    </Network>
    <Network id="8884" birthGen="221" fitness="0">
      <Nodes>
        <Node type="bias" id="0" />
        <Node type="in" id="1" />
        <Node type="in" id="2" />
        <Node type="in" id="3" />
        <Node type="in" id="4" />
        <Node type="out" id="5" />
        <Node type="out" id="6" />
        <Node type="hid" id="74" />
        <Node type="hid" id="110" />
        <Node type="hid" id="135" />
        <Node type="hid" id="145" />
        <Node type="hid" id="193" />
      </Nodes>
      <Connections>
        <Con id="96" src="3" tgt="74" wght="-3.4383735260135695" />
        <Con id="111" src="2" tgt="110" wght="-2.4966298896614743" />
        <Con id="136" src="3" tgt="135" wght="4.0124261567287993" />
        <Con id="147" src="145" tgt="6" wght="4.3381083863838308" />
        <Con id="168" src="2" tgt="135" wght="-1.9582057114848817" />
        <Con id="177" src="135" tgt="5" wght="-1.0850718597165712" />
        <Con id="180" src="110" tgt="145" wght="-1.1495806470924712" />
        <Con id="195" src="193" tgt="145" wght="5" />
      </Connections>
    </Network>
    <Network id="8885" birthGen="221" fitness="0">
      <Nodes>
        <Node type="bias" id="0" />
        <Node type="in" id="1" />
        <Node type="in" id="2" />
        <Node type="in" id="3" />
        <Node type="in" id="4" />
        <Node type="out" id="5" />
        <Node type="out" id="6" />
        <Node type="hid" id="74" />
        <Node type="hid" id="110" />
        <Node type="hid" id="135" />
        <Node type="hid" id="145" />
        <Node type="hid" id="193" />
      </Nodes>
      <Connections>
        <Con id="96" src="3" tgt="74" wght="-3.4383735260135695" />
        <Con id="111" src="2" tgt="110" wght="-2.4966298896614743" />
        <Con id="136" src="3" tgt="135" wght="3.9240821477834933" />
        <Con id="147" src="145" tgt="6" wght="3.9939020603883142" />
        <Con id="168" src="2" tgt="135" wght="-1.9779807185594493" />
        <Con id="177" src="135" tgt="5" wght="-1.0966831999271991" />
        <Con id="180" src="110" tgt="145" wght="-2.42970775046646" />
        <Con id="195" src="193" tgt="145" wght="5" />
        <Con id="220" src="145" tgt="74" wght="-0.59729482978582382" />
      </Connections>
    </Network>
    <Network id="8886" birthGen="221" fitness="0">
      <Nodes>
        <Node type="bias" id="0" />
        <Node type="in" id="1" />
        <Node type="in" id="2" />
        <Node type="in" id="3" />
        <Node type="in" id="4" />
        <Node type="out" id="5" />
        <Node type="out" id="6" />
        <Node type="hid" id="74" />
        <Node type="hid" id="110" />
        <Node type="hid" id="135" />
        <Node type="hid" id="145" />
        <Node type="hid" id="193" />
      </Nodes>
      <Connections>
        <Con id="96" src="3" tgt="74" wght="-3.4383735260135695" />
        <Con id="111" src="2" tgt="110" wght="-2.4966298896614743" />
        <Con id="136" src="3" tgt="135" wght="4.0941364195438821" />
        <Con id="147" src="145" tgt="6" wght="4.3153214844785666" />
        <Con id="168" src="2" tgt="135" wght="-1.9779807185594493" />
        <Con id="177" src="135" tgt="5" wght="-2.5248232466364104" />
        <Con id="180" src="110" tgt="145" wght="-1.1495806470924712" />
        <Con id="195" src="193" tgt="145" wght="3.6744813535042007" />
        <Con id="220" src="145" tgt="74" wght="-0.59729482978582382" />
      </Connections>
    </Network>
    <Network id="8887" birthGen="221" fitness="0">
      <Nodes>
        <Node type="bias" id="0" />
        <Node type="in" id="1" />
        <Node type="in" id="2" />
        <Node type="in" id="3" />
        <Node type="in" id="4" />
        <Node type="out" id="5" />
        <Node type="out" id="6" />
        <Node type="hid" id="74" />
        <Node type="hid" id="110" />
        <Node type="hid" id="135" />
        <Node type="hid" id="145" />
        <Node type="hid" id="193" />
      </Nodes>
      <Connections>
        <Con id="96" src="3" tgt="74" wght="-5" />
        <Con id="111" src="2" tgt="110" wght="-2.4966298896614743" />
        <Con id="136" src="3" tgt="135" wght="4.55035331659019" />
        <Con id="147" src="145" tgt="6" wght="4.3153214844785666" />
        <Con id="168" src="2" tgt="135" wght="-2.61711597578704" />
        <Con id="177" src="135" tgt="5" wght="-1.0966831999271991" />
        <Con id="180" src="110" tgt="145" wght="-1.1495806470924712" />
        <Con id="195" src="193" tgt="145" wght="5" />
        <Con id="220" src="145" tgt="74" wght="-0.59729482978582382" />
      </Connections>
    </Network>
    <Network id="8888" birthGen="221" fitness="0">
      <Nodes>
        <Node type="bias" id="0" />
        <Node type="in" id="1" />
        <Node type="in" id="2" />
        <Node type="in" id="3" />
        <Node type="in" id="4" />
        <Node type="out" id="5" />
        <Node type="out" id="6" />
        <Node type="hid" id="74" />
        <Node type="hid" id="110" />
        <Node type="hid" id="135" />
        <Node type="hid" id="145" />
        <Node type="hid" id="193" />
      </Nodes>
      <Connections>
        <Con id="96" src="3" tgt="74" wght="-3.4383735260135695" />
        <Con id="111" src="2" tgt="110" wght="-2.4966298896614743" />
        <Con id="136" src="3" tgt="135" wght="4.55035331659019" />
        <Con id="147" src="145" tgt="6" wght="4.3153214844785666" />
        <Con id="168" src="2" tgt="135" wght="-1.9779807185594493" />
        <Con id="177" src="135" tgt="5" wght="-1.0966831999271991" />
        <Con id="180" src="110" tgt="145" wght="-1.1495806470924712" />
        <Con id="183" src="4" tgt="110" wght="-1.1004808731377125" />
        <Con id="195" src="193" tgt="145" wght="5" />
        <Con id="220" src="145" tgt="74" wght="-0.59729482978582382" />
      </Connections>
    </Network>
    <Network id="8889" birthGen="221" fitness="0">
      <Nodes>
        <Node type="bias" id="0" />
        <Node type="in" id="1" />
        <Node type="in" id="2" />
        <Node type="in" id="3" />
        <Node type="in" id="4" />
        <Node type="out" id="5" />
        <Node type="out" id="6" />
        <Node type="hid" id="74" />
        <Node type="hid" id="110" />
        <Node type="hid" id="135" />
        <Node type="hid" id="145" />
        <Node type="hid" id="193" />
      </Nodes>
      <Connections>
        <Con id="96" src="3" tgt="74" wght="-3.4383735260135695" />
        <Con id="111" src="2" tgt="110" wght="-2.4966298896614743" />
        <Con id="136" src="3" tgt="135" wght="4.55035331659019" />
        <Con id="147" src="145" tgt="6" wght="4.7757341032086567" />
        <Con id="168" src="2" tgt="135" wght="-1.9779807185594493" />
        <Con id="177" src="135" tgt="5" wght="-0.87315095447481772" />
        <Con id="180" src="110" tgt="145" wght="-1.1495806470924712" />
        <Con id="195" src="193" tgt="145" wght="5" />
        <Con id="220" src="145" tgt="74" wght="-0.59729482978582382" />
      </Connections>
    </Network>
    <Network id="8890" birthGen="221" fitness="0">
      <Nodes>
        <Node type="bias" id="0" />
        <Node type="in" id="1" />
        <Node type="in" id="2" />
        <Node type="in" id="3" />
        <Node type="in" id="4" />
        <Node type="out" id="5" />
        <Node type="out" id="6" />
        <Node type="hid" id="74" />
        <Node type="hid" id="110" />
        <Node type="hid" id="135" />
        <Node type="hid" id="145" />
        <Node type="hid" id="193" />
      </Nodes>
      <Connections>
        <Con id="96" src="3" tgt="74" wght="-3.7508193007950172" />
        <Con id="111" src="2" tgt="110" wght="-5" />
        <Con id="136" src="3" tgt="135" wght="4.5600644035559261" />
        <Con id="147" src="145" tgt="6" wght="5" />
        <Con id="168" src="2" tgt="135" wght="-1.9779807185594493" />
        <Con id="177" src="135" tgt="5" wght="-0.69067974827606782" />
        <Con id="180" src="110" tgt="145" wght="-1.3089126149447121" />
        <Con id="195" src="193" tgt="145" wght="4.4455311088271952" />
        <Con id="208" src="74" tgt="6" wght="-3.8077768450602889" />
        <Con id="212" src="74" tgt="145" wght="-4.5493174763396382" />
      </Connections>
    </Network>
    <Network id="8891" birthGen="221" fitness="0">
      <Nodes>
        <Node type="bias" id="0" />
        <Node type="in" id="1" />
        <Node type="in" id="2" />
        <Node type="in" id="3" />
        <Node type="in" id="4" />
        <Node type="out" id="5" />
        <Node type="out" id="6" />
        <Node type="hid" id="74" />
        <Node type="hid" id="110" />
        <Node type="hid" id="135" />
        <Node type="hid" id="145" />
        <Node type="hid" id="193" />
      </Nodes>
      <Connections>
        <Con id="96" src="3" tgt="74" wght="-3.7444377400032476" />
        <Con id="111" src="2" tgt="110" wght="-5" />
        <Con id="136" src="3" tgt="135" wght="4.5600644035559261" />
        <Con id="147" src="145" tgt="6" wght="5" />
        <Con id="168" src="2" tgt="135" wght="-1.9779807185594493" />
        <Con id="177" src="135" tgt="5" wght="-0.69067974827606782" />
        <Con id="180" src="110" tgt="145" wght="-1.1450891981267115" />
        <Con id="195" src="193" tgt="145" wght="4.4455311088271952" />
        <Con id="208" src="74" tgt="6" wght="-3.8077768450602889" />
        <Con id="212" src="74" tgt="145" wght="-4.5493174763396382" />
      </Connections>
    </Network>
    <Network id="8892" birthGen="221" fitness="0">
      <Nodes>
        <Node type="bias" id="0" />
        <Node type="in" id="1" />
        <Node type="in" id="2" />
        <Node type="in" id="3" />
        <Node type="in" id="4" />
        <Node type="out" id="5" />
        <Node type="out" id="6" />
        <Node type="hid" id="74" />
        <Node type="hid" id="110" />
        <Node type="hid" id="135" />
        <Node type="hid" id="145" />
        <Node type="hid" id="193" />
      </Nodes>
      <Connections>
        <Con id="96" src="3" tgt="74" wght="-3.7508193007950172" />
        <Con id="111" src="2" tgt="110" wght="-5" />
        <Con id="136" src="3" tgt="135" wght="4.5600644035559261" />
        <Con id="147" src="145" tgt="6" wght="5" />
        <Con id="168" src="2" tgt="135" wght="3.66368078161031" />
        <Con id="177" src="135" tgt="5" wght="-0.69067974827606782" />
        <Con id="180" src="110" tgt="145" wght="-1.1442861964580755" />
        <Con id="195" src="193" tgt="145" wght="4.4455311088271952" />
        <Con id="208" src="74" tgt="6" wght="-3.8077768450602889" />
        <Con id="212" src="74" tgt="145" wght="-4.5493174763396382" />
      </Connections>
    </Network>
    <Network id="8893" birthGen="221" fitness="0">
      <Nodes>
        <Node type="bias" id="0" />
        <Node type="in" id="1" />
        <Node type="in" id="2" />
        <Node type="in" id="3" />
        <Node type="in" id="4" />
        <Node type="out" id="5" />
        <Node type="out" id="6" />
        <Node type="hid" id="74" />
        <Node type="hid" id="110" />
        <Node type="hid" id="135" />
        <Node type="hid" id="145" />
        <Node type="hid" id="193" />
      </Nodes>
      <Connections>
        <Con id="96" src="3" tgt="74" wght="-3.7508193007950172" />
        <Con id="111" src="2" tgt="110" wght="-5" />
        <Con id="136" src="3" tgt="135" wght="4.5600644035559261" />
        <Con id="147" src="145" tgt="6" wght="5" />
        <Con id="168" src="2" tgt="135" wght="-1.9779807185594493" />
        <Con id="177" src="135" tgt="5" wght="-0.69067974827606782" />
        <Con id="180" src="110" tgt="145" wght="-1.1442861964580755" />
        <Con id="195" src="193" tgt="145" wght="4.4455311088271952" />
        <Con id="208" src="74" tgt="6" wght="-3.8148621503498039" />
        <Con id="212" src="74" tgt="145" wght="-4.5493174763396382" />
      </Connections>
    </Network>
    <Network id="8894" birthGen="221" fitness="0">
      <Nodes>
        <Node type="bias" id="0" />
        <Node type="in" id="1" />
        <Node type="in" id="2" />
        <Node type="in" id="3" />
        <Node type="in" id="4" />
        <Node type="out" id="5" />
        <Node type="out" id="6" />
        <Node type="hid" id="22" />
        <Node type="hid" id="74" />
        <Node type="hid" id="83" />
        <Node type="hid" id="110" />
        <Node type="hid" id="135" />
        <Node type="hid" id="145" />
        <Node type="hid" id="189" />
      </Nodes>
      <Connections>
        <Con id="96" src="3" tgt="74" wght="-4.7516329759128348" />
        <Con id="97" src="22" tgt="6" wght="1.4199156311859222" />
        <Con id="111" src="2" tgt="110" wght="-2.2002007691039562" />
        <Con id="113" src="1" tgt="22" wght="3.1417223565695718" />
        <Con id="120" src="110" tgt="5" wght="2.7908046590164304" />
        <Con id="136" src="3" tgt="135" wght="4.9563777720514484" />
        <Con id="146" src="74" tgt="145" wght="-5" />
        <Con id="147" src="145" tgt="6" wght="5" />
        <Con id="168" src="2" tgt="135" wght="-1.6218044041608966" />
        <Con id="177" src="135" tgt="5" wght="-1.9828884029393121" />
        <Con id="191" src="189" tgt="83" wght="3.7746093363740156" />
      </Connections>
    </Network>
    <Network id="8895" birthGen="221" fitness="0">
      <Nodes>
        <Node type="bias" id="0" />
        <Node type="in" id="1" />
        <Node type="in" id="2" />
        <Node type="in" id="3" />
        <Node type="in" id="4" />
        <Node type="out" id="5" />
        <Node type="out" id="6" />
        <Node type="hid" id="22" />
        <Node type="hid" id="74" />
        <Node type="hid" id="83" />
        <Node type="hid" id="110" />
        <Node type="hid" id="135" />
        <Node type="hid" id="145" />
        <Node type="hid" id="189" />
      </Nodes>
      <Connections>
        <Con id="96" src="3" tgt="74" wght="-4.7683971687344187" />
        <Con id="97" src="22" tgt="6" wght="1.4199156311859222" />
        <Con id="111" src="2" tgt="110" wght="-2.2002007691039562" />
        <Con id="113" src="1" tgt="22" wght="3.1660986179485917" />
        <Con id="120" src="110" tgt="5" wght="2.8327212969876561" />
        <Con id="136" src="3" tgt="135" wght="4.9563777720514484" />
        <Con id="146" src="74" tgt="145" wght="-5" />
        <Con id="147" src="145" tgt="6" wght="5" />
        <Con id="168" src="2" tgt="135" wght="-1.6218044041608966" />
        <Con id="177" src="135" tgt="5" wght="-1.9828884029393121" />
        <Con id="191" src="189" tgt="83" wght="3.7746093363740156" />
      </Connections>
    </Network>
    <Network id="8896" birthGen="221" fitness="0">
      <Nodes>
        <Node type="bias" id="0" />
        <Node type="in" id="1" />
        <Node type="in" id="2" />
        <Node type="in" id="3" />
        <Node type="in" id="4" />
        <Node type="out" id="5" />
        <Node type="out" id="6" />
        <Node type="hid" id="22" />
        <Node type="hid" id="74" />
        <Node type="hid" id="83" />
        <Node type="hid" id="110" />
        <Node type="hid" id="135" />
        <Node type="hid" id="145" />
        <Node type="hid" id="189" />
      </Nodes>
      <Connections>
        <Con id="96" src="3" tgt="74" wght="-4.7306982011461978" />
        <Con id="97" src="22" tgt="6" wght="1.4199156311859222" />
        <Con id="111" src="2" tgt="110" wght="-2.2002007691039562" />
        <Con id="113" src="1" tgt="22" wght="3.1660986179485917" />
        <Con id="120" src="110" tgt="5" wght="2.7908046590164304" />
        <Con id="136" src="3" tgt="135" wght="4.9563777720514484" />
        <Con id="146" src="74" tgt="145" wght="-5" />
        <Con id="147" src="145" tgt="6" wght="5" />
        <Con id="168" src="2" tgt="135" wght="-1.6218044041608966" />
        <Con id="177" src="135" tgt="5" wght="-1.9828884029393121" />
        <Con id="191" src="189" tgt="83" wght="3.7746093363740156" />
      </Connections>
    </Network>
    <Network id="8897" birthGen="221" fitness="0">
      <Nodes>
        <Node type="bias" id="0" />
        <Node type="in" id="1" />
        <Node type="in" id="2" />
        <Node type="in" id="3" />
        <Node type="in" id="4" />
        <Node type="out" id="5" />
        <Node type="out" id="6" />
        <Node type="hid" id="22" />
        <Node type="hid" id="74" />
        <Node type="hid" id="83" />
        <Node type="hid" id="110" />
        <Node type="hid" id="135" />
        <Node type="hid" id="145" />
        <Node type="hid" id="189" />
      </Nodes>
      <Connections>
        <Con id="96" src="3" tgt="74" wght="-4.7683971687344187" />
        <Con id="97" src="22" tgt="6" wght="1.4199156311859222" />
        <Con id="111" src="2" tgt="110" wght="-2.2002007691039562" />
        <Con id="113" src="1" tgt="22" wght="3.1660986179485917" />
        <Con id="120" src="110" tgt="5" wght="2.7918727688960119" />
        <Con id="136" src="3" tgt="135" wght="4.9563777720514484" />
        <Con id="146" src="74" tgt="145" wght="-5" />
        <Con id="147" src="145" tgt="6" wght="5" />
        <Con id="168" src="2" tgt="135" wght="-1.6218044041608966" />
        <Con id="177" src="135" tgt="5" wght="-1.9828884029393121" />
        <Con id="191" src="189" tgt="83" wght="3.7746093363740156" />
      </Connections>
    </Network>
    <Network id="8898" birthGen="221" fitness="0">
      <Nodes>
        <Node type="bias" id="0" />
        <Node type="in" id="1" />
        <Node type="in" id="2" />
        <Node type="in" id="3" />
        <Node type="in" id="4" />
        <Node type="out" id="5" />
        <Node type="out" id="6" />
        <Node type="hid" id="22" />
        <Node type="hid" id="74" />
        <Node type="hid" id="83" />
        <Node type="hid" id="110" />
        <Node type="hid" id="135" />
        <Node type="hid" id="145" />
        <Node type="hid" id="200" />
      </Nodes>
      <Connections>
        <Con id="85" src="83" tgt="22" wght="-5" />
        <Con id="97" src="22" tgt="6" wght="3.5488476018705564" />
        <Con id="112" src="110" tgt="83" wght="-3.7316863697245477" />
        <Con id="136" src="3" tgt="135" wght="1.3679217943434849" />
        <Con id="146" src="74" tgt="145" wght="3.7340568673529413" />
        <Con id="147" src="145" tgt="6" wght="5" />
        <Con id="168" src="2" tgt="135" wght="-0.34034269508216064" />
        <Con id="177" src="135" tgt="5" wght="-1.5381577963937347" />
        <Con id="180" src="110" tgt="145" wght="-1.7452094319314264" />
        <Con id="201" src="3" tgt="200" wght="-4.6610265085468949" />
        <Con id="202" src="200" tgt="74" wght="5" />
      </Connections>
    </Network>
    <Network id="8899" birthGen="221" fitness="0">
      <Nodes>
        <Node type="bias" id="0" />
        <Node type="in" id="1" />
        <Node type="in" id="2" />
        <Node type="in" id="3" />
        <Node type="in" id="4" />
        <Node type="out" id="5" />
        <Node type="out" id="6" />
        <Node type="hid" id="22" />
        <Node type="hid" id="74" />
        <Node type="hid" id="83" />
        <Node type="hid" id="110" />
        <Node type="hid" id="135" />
        <Node type="hid" id="145" />
        <Node type="hid" id="200" />
      </Nodes>
      <Connections>
        <Con id="85" src="83" tgt="22" wght="-5" />
        <Con id="97" src="22" tgt="6" wght="3.5488476018705564" />
        <Con id="112" src="110" tgt="83" wght="-3.7316863697245477" />
        <Con id="136" src="3" tgt="135" wght="1.3679217943434849" />
        <Con id="146" src="74" tgt="145" wght="3.7340568673529413" />
        <Con id="147" src="145" tgt="6" wght="5" />
        <Con id="168" src="2" tgt="135" wght="0.456455095841546" />
        <Con id="177" src="135" tgt="5" wght="-1.5381577963937347" />
        <Con id="180" src="110" tgt="145" wght="-1.7452094319314264" />
        <Con id="201" src="3" tgt="200" wght="-4.6610265085468949" />
        <Con id="202" src="200" tgt="74" wght="5" />
      </Connections>
    </Network>
    <Network id="8900" birthGen="221" fitness="0">
      <Nodes>
        <Node type="bias" id="0" />
        <Node type="in" id="1" />
        <Node type="in" id="2" />
        <Node type="in" id="3" />
        <Node type="in" id="4" />
        <Node type="out" id="5" />
        <Node type="out" id="6" />
        <Node type="hid" id="22" />
        <Node type="hid" id="74" />
        <Node type="hid" id="83" />
        <Node type="hid" id="110" />
        <Node type="hid" id="135" />
        <Node type="hid" id="145" />
        <Node type="hid" id="200" />
      </Nodes>
      <Connections>
        <Con id="85" src="83" tgt="22" wght="-5" />
        <Con id="97" src="22" tgt="6" wght="3.5488476018705564" />
        <Con id="112" src="110" tgt="83" wght="-3.7316863697245477" />
        <Con id="136" src="3" tgt="135" wght="1.3679217943434849" />
        <Con id="146" src="74" tgt="145" wght="3.7340568673529413" />
        <Con id="147" src="145" tgt="6" wght="5" />
        <Con id="168" src="2" tgt="135" wght="-0.36941347822393955" />
        <Con id="177" src="135" tgt="5" wght="-1.5381577963937347" />
        <Con id="180" src="110" tgt="145" wght="-0.49237648083859131" />
        <Con id="201" src="3" tgt="200" wght="-4.6610265085468949" />
        <Con id="202" src="200" tgt="74" wght="3.6945109729317904" />
      </Connections>
    </Network>
    <Network id="8901" birthGen="221" fitness="0">
      <Nodes>
        <Node type="bias" id="0" />
        <Node type="in" id="1" />
        <Node type="in" id="2" />
        <Node type="in" id="3" />
        <Node type="in" id="4" />
        <Node type="out" id="5" />
        <Node type="out" id="6" />
        <Node type="hid" id="22" />
        <Node type="hid" id="74" />
        <Node type="hid" id="83" />
        <Node type="hid" id="110" />
        <Node type="hid" id="135" />
        <Node type="hid" id="145" />
      </Nodes>
      <Connections>
        <Con id="85" src="83" tgt="22" wght="-5" />
        <Con id="96" src="3" tgt="74" wght="-3.9629332877373185" />
        <Con id="97" src="22" tgt="6" wght="3.297736226048344" />
        <Con id="112" src="110" tgt="83" wght="-4.06017915264666" />
        <Con id="136" src="3" tgt="135" wght="2.021531054778948" />
        <Con id="146" src="74" tgt="145" wght="3.9112101159109898" />
        <Con id="147" src="145" tgt="6" wght="4.20194455319047" />
        <Con id="168" src="2" tgt="135" wght="-0.4752460566217358" />
        <Con id="177" src="135" tgt="5" wght="-2.2237902127900271" />
        <Con id="180" src="110" tgt="145" wght="-1.2061366394475492" />
      </Connections>
    </Network>
    <Network id="8902" birthGen="221" fitness="0">
      <Nodes>
        <Node type="bias" id="0" />
        <Node type="in" id="1" />
        <Node type="in" id="2" />
        <Node type="in" id="3" />
        <Node type="in" id="4" />
        <Node type="out" id="5" />
        <Node type="out" id="6" />
        <Node type="hid" id="22" />
        <Node type="hid" id="74" />
        <Node type="hid" id="83" />
        <Node type="hid" id="110" />
        <Node type="hid" id="135" />
        <Node type="hid" id="145" />
      </Nodes>
      <Connections>
        <Con id="85" src="83" tgt="22" wght="-4.7785250206714531" />
        <Con id="96" src="3" tgt="74" wght="-4.6913776833795566" />
        <Con id="97" src="22" tgt="6" wght="3.297736226048344" />
        <Con id="112" src="110" tgt="83" wght="-4.06017915264666" />
        <Con id="136" src="3" tgt="135" wght="3.2783839838680375" />
        <Con id="146" src="74" tgt="145" wght="3.9166581618136647" />
        <Con id="147" src="145" tgt="6" wght="4.9690735224351537" />
        <Con id="168" src="2" tgt="135" wght="-0.4752460566217358" />
        <Con id="177" src="135" tgt="5" wght="-2.2237902127900271" />
        <Con id="180" src="110" tgt="145" wght="-1.2061366394475492" />
      </Connections>
    </Network>
    <Network id="8903" birthGen="221" fitness="0">
      <Nodes>
        <Node type="bias" id="0" />
        <Node type="in" id="1" />
        <Node type="in" id="2" />
        <Node type="in" id="3" />
        <Node type="in" id="4" />
        <Node type="out" id="5" />
        <Node type="out" id="6" />
        <Node type="hid" id="22" />
        <Node type="hid" id="74" />
        <Node type="hid" id="83" />
        <Node type="hid" id="110" />
        <Node type="hid" id="135" />
        <Node type="hid" id="145" />
      </Nodes>
      <Connections>
        <Con id="85" src="83" tgt="22" wght="-4.7785250206714531" />
        <Con id="96" src="3" tgt="74" wght="-3.6569600903735364" />
        <Con id="97" src="22" tgt="6" wght="3.297736226048344" />
        <Con id="112" src="110" tgt="83" wght="-4.06017915264666" />
        <Con id="136" src="3" tgt="135" wght="2.021531054778948" />
        <Con id="146" src="74" tgt="145" wght="3.9112101159109898" />
        <Con id="147" src="145" tgt="6" wght="4.9690735224351537" />
        <Con id="168" src="2" tgt="135" wght="-0.4752460566217358" />
        <Con id="177" src="135" tgt="5" wght="-2.2237902127900271" />
        <Con id="180" src="110" tgt="145" wght="-1.2061366394475492" />
      </Connections>
    </Network>
    <Network id="8904" birthGen="221" fitness="0">
      <Nodes>
        <Node type="bias" id="0" />
        <Node type="in" id="1" />
        <Node type="in" id="2" />
        <Node type="in" id="3" />
        <Node type="in" id="4" />
        <Node type="out" id="5" />
        <Node type="out" id="6" />
        <Node type="hid" id="22" />
        <Node type="hid" id="74" />
        <Node type="hid" id="83" />
        <Node type="hid" id="110" />
        <Node type="hid" id="135" />
        <Node type="hid" id="145" />
      </Nodes>
      <Connections>
        <Con id="85" src="83" tgt="22" wght="-4.7785250206714531" />
        <Con id="96" src="3" tgt="74" wght="-3.9629332877373185" />
        <Con id="97" src="22" tgt="6" wght="3.297736226048344" />
        <Con id="112" src="110" tgt="83" wght="-4.06017915264666" />
        <Con id="136" src="3" tgt="135" wght="2.021531054778948" />
        <Con id="146" src="74" tgt="145" wght="3.9112101159109898" />
        <Con id="147" src="145" tgt="6" wght="4.9690735224351537" />
        <Con id="168" src="2" tgt="135" wght="-0.4752460566217358" />
        <Con id="177" src="135" tgt="5" wght="-2.2237902127900271" />
        <Con id="180" src="110" tgt="145" wght="-1.9658399920971905" />
      </Connections>
    </Network>
    <Network id="8905" birthGen="221" fitness="0">
      <Nodes>
        <Node type="bias" id="0" />
        <Node type="in" id="1" />
        <Node type="in" id="2" />
        <Node type="in" id="3" />
        <Node type="in" id="4" />
        <Node type="out" id="5" />
        <Node type="out" id="6" />
        <Node type="hid" id="22" />
        <Node type="hid" id="74" />
        <Node type="hid" id="83" />
        <Node type="hid" id="110" />
        <Node type="hid" id="135" />
        <Node type="hid" id="145" />
      </Nodes>
      <Connections>
        <Con id="85" src="83" tgt="22" wght="-4.00298511374193" />
        <Con id="96" src="3" tgt="74" wght="-3.9629332877373185" />
        <Con id="97" src="22" tgt="6" wght="3.297736226048344" />
        <Con id="112" src="110" tgt="83" wght="-4.06017915264666" />
        <Con id="136" src="3" tgt="135" wght="2.021531054778948" />
        <Con id="146" src="74" tgt="145" wght="3.9112101159109898" />
        <Con id="147" src="145" tgt="6" wght="4.9690735224351537" />
        <Con id="168" src="2" tgt="135" wght="-0.4752460566217358" />
        <Con id="177" src="135" tgt="5" wght="-0.93060939225056094" />
        <Con id="180" src="110" tgt="145" wght="-1.2061366394475492" />
      </Connections>
    </Network>
    <Network id="8906" birthGen="221" fitness="0">
      <Nodes>
        <Node type="bias" id="0" />
        <Node type="in" id="1" />
        <Node type="in" id="2" />
        <Node type="in" id="3" />
        <Node type="in" id="4" />
        <Node type="out" id="5" />
        <Node type="out" id="6" />
        <Node type="hid" id="22" />
        <Node type="hid" id="74" />
        <Node type="hid" id="83" />
        <Node type="hid" id="110" />
        <Node type="hid" id="135" />
        <Node type="hid" id="145" />
      </Nodes>
      <Connections>
        <Con id="85" src="83" tgt="22" wght="-4.7785250206714531" />
        <Con id="96" src="3" tgt="74" wght="-2.3366636290962122" />
        <Con id="97" src="22" tgt="6" wght="3.297736226048344" />
        <Con id="112" src="110" tgt="83" wght="-4.06017915264666" />
        <Con id="136" src="3" tgt="135" wght="1.186956600653218" />
        <Con id="146" src="74" tgt="145" wght="3.7113118980862208" />
        <Con id="147" src="145" tgt="6" wght="4.9690735224351537" />
        <Con id="168" src="2" tgt="135" wght="-0.47185010445379016" />
        <Con id="177" src="135" tgt="5" wght="-2.2503537131028186" />
        <Con id="180" src="110" tgt="145" wght="-1.2061366394475492" />
      </Connections>
    </Network>
    <Network id="8907" birthGen="221" fitness="0">
      <Nodes>
        <Node type="bias" id="0" />
        <Node type="in" id="1" />
        <Node type="in" id="2" />
        <Node type="in" id="3" />
        <Node type="in" id="4" />
        <Node type="out" id="5" />
        <Node type="out" id="6" />
        <Node type="hid" id="22" />
        <Node type="hid" id="74" />
        <Node type="hid" id="83" />
        <Node type="hid" id="110" />
        <Node type="hid" id="135" />
        <Node type="hid" id="145" />
      </Nodes>
      <Connections>
        <Con id="85" src="83" tgt="22" wght="-4.7785250206714531" />
        <Con id="96" src="3" tgt="74" wght="-2.3366636290962122" />
        <Con id="97" src="22" tgt="6" wght="3.297736226048344" />
        <Con id="112" src="110" tgt="83" wght="-4.06017915264666" />
        <Con id="136" src="3" tgt="135" wght="-0.28764853403910684" />
        <Con id="146" src="74" tgt="145" wght="3.7113118980862208" />
        <Con id="147" src="145" tgt="6" wght="4.9690735224351537" />
        <Con id="168" src="2" tgt="135" wght="-0.4752460566217358" />
        <Con id="177" src="135" tgt="5" wght="-2.2693309191263022" />
        <Con id="180" src="110" tgt="145" wght="-1.2061366394475492" />
      </Connections>
    </Network>
    <Network id="8908" birthGen="221" fitness="0">
      <Nodes>
        <Node type="bias" id="0" />
        <Node type="in" id="1" />
        <Node type="in" id="2" />
        <Node type="in" id="3" />
        <Node type="in" id="4" />
        <Node type="out" id="5" />
        <Node type="out" id="6" />
        <Node type="hid" id="22" />
        <Node type="hid" id="74" />
        <Node type="hid" id="83" />
        <Node type="hid" id="110" />
        <Node type="hid" id="135" />
        <Node type="hid" id="145" />
      </Nodes>
      <Connections>
        <Con id="85" src="83" tgt="22" wght="-4.7785250206714531" />
        <Con id="96" src="3" tgt="74" wght="-2.3366636290962122" />
        <Con id="97" src="22" tgt="6" wght="3.2963772058615688" />
        <Con id="112" src="110" tgt="83" wght="-4.06017915264666" />
        <Con id="136" src="3" tgt="135" wght="1.186956600653218" />
        <Con id="146" src="74" tgt="145" wght="3.7113118980862208" />
        <Con id="147" src="145" tgt="6" wght="4.9690735224351537" />
        <Con id="168" src="2" tgt="135" wght="-0.47753017052697722" />
        <Con id="177" src="135" tgt="5" wght="-2.2693309191263022" />
        <Con id="180" src="110" tgt="145" wght="-1.2061366394475492" />
      </Connections>
    </Network>
    <Network id="8909" birthGen="221" fitness="0">
      <Nodes>
        <Node type="bias" id="0" />
        <Node type="in" id="1" />
        <Node type="in" id="2" />
        <Node type="in" id="3" />
        <Node type="in" id="4" />
        <Node type="out" id="5" />
        <Node type="out" id="6" />
        <Node type="hid" id="22" />
        <Node type="hid" id="74" />
        <Node type="hid" id="83" />
        <Node type="hid" id="110" />
        <Node type="hid" id="135" />
        <Node type="hid" id="145" />
      </Nodes>
      <Connections>
        <Con id="85" src="83" tgt="22" wght="-4.7785250206714531" />
        <Con id="96" src="3" tgt="74" wght="-2.3366636290962122" />
        <Con id="97" src="22" tgt="6" wght="3.297736226048344" />
        <Con id="112" src="110" tgt="83" wght="-4.06017915264666" />
        <Con id="136" src="3" tgt="135" wght="-0.3105808645720729" />
        <Con id="146" src="74" tgt="145" wght="3.7113118980862208" />
        <Con id="147" src="145" tgt="6" wght="4.9690735224351537" />
        <Con id="168" src="2" tgt="135" wght="-0.4752460566217358" />
        <Con id="177" src="135" tgt="5" wght="-1.4204606218351095" />
        <Con id="180" src="110" tgt="145" wght="-1.2061366394475492" />
      </Connections>
    </Network>
    <Network id="8910" birthGen="221" fitness="0">
      <Nodes>
        <Node type="bias" id="0" />
        <Node type="in" id="1" />
        <Node type="in" id="2" />
        <Node type="in" id="3" />
        <Node type="in" id="4" />
        <Node type="out" id="5" />
        <Node type="out" id="6" />
        <Node type="hid" id="74" />
        <Node type="hid" id="83" />
        <Node type="hid" id="110" />
        <Node type="hid" id="135" />
        <Node type="hid" id="145" />
      </Nodes>
      <Connections>
        <Con id="96" src="3" tgt="74" wght="-3.9658842236092857" />
        <Con id="112" src="110" tgt="83" wght="-3.2131551674065646" />
        <Con id="120" src="110" tgt="5" wght="0.023014531470835209" />
        <Con id="136" src="3" tgt="135" wght="5" />
        <Con id="146" src="74" tgt="145" wght="3.939137101580116" />
        <Con id="147" src="145" tgt="6" wght="5" />
        <Con id="168" src="2" tgt="135" wght="-1.9893132020779345" />
        <Con id="177" src="135" tgt="5" wght="-0.81971608680895014" />
        <Con id="203" src="83" tgt="145" wght="-4.2585185732047766" />
      </Connections>
    </Network>
    <Network id="8911" birthGen="221" fitness="0">
      <Nodes>
        <Node type="bias" id="0" />
        <Node type="in" id="1" />
        <Node type="in" id="2" />
        <Node type="in" id="3" />
        <Node type="in" id="4" />
        <Node type="out" id="5" />
        <Node type="out" id="6" />
        <Node type="hid" id="74" />
        <Node type="hid" id="83" />
        <Node type="hid" id="110" />
        <Node type="hid" id="135" />
        <Node type="hid" id="145" />
      </Nodes>
      <Connections>
        <Con id="96" src="3" tgt="74" wght="-3.9658842236092857" />
        <Con id="112" src="110" tgt="83" wght="-3.2131551674065646" />
        <Con id="120" src="110" tgt="5" wght="0.023014531470835209" />
        <Con id="136" src="3" tgt="135" wght="5" />
        <Con id="146" src="74" tgt="145" wght="3.939137101580116" />
        <Con id="147" src="145" tgt="6" wght="5" />
        <Con id="168" src="2" tgt="135" wght="-1.9893132020779345" />
        <Con id="177" src="135" tgt="5" wght="-0.81971608680895014" />
        <Con id="203" src="83" tgt="145" wght="-4.2585185732047766" />
      </Connections>
    </Network>
    <Network id="8912" birthGen="221" fitness="0">
      <Nodes>
        <Node type="bias" id="0" />
        <Node type="in" id="1" />
        <Node type="in" id="2" />
        <Node type="in" id="3" />
        <Node type="in" id="4" />
        <Node type="out" id="5" />
        <Node type="out" id="6" />
        <Node type="hid" id="74" />
        <Node type="hid" id="83" />
        <Node type="hid" id="110" />
        <Node type="hid" id="135" />
        <Node type="hid" id="145" />
      </Nodes>
      <Connections>
        <Con id="96" src="3" tgt="74" wght="-4.0761429891651337" />
        <Con id="112" src="110" tgt="83" wght="-3.2131551674065646" />
        <Con id="120" src="110" tgt="5" wght="0.023014531470835209" />
        <Con id="136" src="3" tgt="135" wght="5" />
        <Con id="146" src="74" tgt="145" wght="5" />
        <Con id="147" src="145" tgt="6" wght="5" />
        <Con id="168" src="2" tgt="135" wght="-2.7244037626708177" />
        <Con id="177" src="135" tgt="5" wght="-0.81971608680895014" />
        <Con id="203" src="83" tgt="145" wght="-4.2585185732047766" />
      </Connections>
    </Network>
    <Network id="8913" birthGen="221" fitness="0">
      <Nodes>
        <Node type="bias" id="0" />
        <Node type="in" id="1" />
        <Node type="in" id="2" />
        <Node type="in" id="3" />
        <Node type="in" id="4" />
        <Node type="out" id="5" />
        <Node type="out" id="6" />
        <Node type="hid" id="74" />
        <Node type="hid" id="83" />
        <Node type="hid" id="110" />
        <Node type="hid" id="135" />
        <Node type="hid" id="145" />
      </Nodes>
      <Connections>
        <Con id="96" src="3" tgt="74" wght="-3.9658842236092857" />
        <Con id="112" src="110" tgt="83" wght="-3.2131551674065646" />
        <Con id="120" src="110" tgt="5" wght="-1.7030061729864854" />
        <Con id="136" src="3" tgt="135" wght="5" />
        <Con id="146" src="74" tgt="145" wght="3.939137101580116" />
        <Con id="147" src="145" tgt="6" wght="5" />
        <Con id="168" src="2" tgt="135" wght="-1.9893132020779345" />
        <Con id="177" src="135" tgt="5" wght="-0.81971608680895014" />
        <Con id="203" src="83" tgt="145" wght="-4.2585185732047766" />
      </Connections>
    </Network>
  </Networks>
</Root>