<?xml version="1.0" encoding="utf-8"?>
<Root>
  <ActivationFunctions>
    <Fn id="0" name="SteepenedSigmoid" prob="1" />
  </ActivationFunctions>
  <Networks>
    <Network id="95963" birthGen="2386" fitness="1000.5289306640625">
      <Nodes>
        <Node type="bias" id="0" />
        <Node type="in" id="1" />
        <Node type="in" id="2" />
        <Node type="in" id="3" />
        <Node type="in" id="4" />
        <Node type="out" id="5" />
        <Node type="out" id="6" />
        <Node type="hid" id="52" />
        <Node type="hid" id="131" />
        <Node type="hid" id="670" />
      </Nodes>
      <Connections>
        <Con id="17" src="0" tgt="5" wght="0.16528753093478463" />
        <Con id="132" src="3" tgt="131" wght="0.74103845224372644" />
        <Con id="155" src="1" tgt="52" wght="0.95481444975249241" />
        <Con id="171" src="0" tgt="52" wght="-5" />
        <Con id="177" src="1" tgt="131" wght="-0.88274363230031094" />
        <Con id="178" src="52" tgt="5" wght="-0.03532630352981958" />
        <Con id="189" src="0" tgt="131" wght="-0.67232626722676292" />
        <Con id="200" src="131" tgt="5" wght="-1.3618630995612073" />
        <Con id="323" src="52" tgt="131" wght="2.2742858690283549" />
        <Con id="671" src="52" tgt="670" wght="-3.4502470170814132" />
        <Con id="672" src="670" tgt="5" wght="-0.48394891497752962" />
      </Connections>
    </Network>
    <Network id="96505" birthGen="2400" fitness="1000.45703125">
      <Nodes>
        <Node type="bias" id="0" />
        <Node type="in" id="1" />
        <Node type="in" id="2" />
        <Node type="in" id="3" />
        <Node type="in" id="4" />
        <Node type="out" id="5" />
        <Node type="out" id="6" />
        <Node type="hid" id="52" />
        <Node type="hid" id="131" />
        <Node type="hid" id="670" />
      </Nodes>
      <Connections>
        <Con id="17" src="0" tgt="5" wght="0.16528753093478463" />
        <Con id="132" src="3" tgt="131" wght="0.74103845224372644" />
        <Con id="155" src="1" tgt="52" wght="0.92542617238391278" />
        <Con id="171" src="0" tgt="52" wght="-5" />
        <Con id="177" src="1" tgt="131" wght="-0.88274363230031094" />
        <Con id="178" src="52" tgt="5" wght="-0.03532630352981958" />
        <Con id="189" src="0" tgt="131" wght="-0.670063714854698" />
        <Con id="200" src="131" tgt="5" wght="-1.3618630995612073" />
        <Con id="323" src="52" tgt="131" wght="2.2586494908530406" />
        <Con id="671" src="52" tgt="670" wght="-3.4502470170814132" />
        <Con id="672" src="670" tgt="5" wght="-0.48394891497752962" />
      </Connections>
    </Network>
    <Network id="96469" birthGen="2399" fitness="1000.4529418945313">
      <Nodes>
        <Node type="bias" id="0" />
        <Node type="in" id="1" />
        <Node type="in" id="2" />
        <Node type="in" id="3" />
        <Node type="in" id="4" />
        <Node type="out" id="5" />
        <Node type="out" id="6" />
        <Node type="hid" id="52" />
        <Node type="hid" id="131" />
        <Node type="hid" id="670" />
      </Nodes>
      <Connections>
        <Con id="17" src="0" tgt="5" wght="0.16528753093478463" />
        <Con id="132" src="3" tgt="131" wght="0.74103845224372644" />
        <Con id="155" src="1" tgt="52" wght="0.95481444975249241" />
        <Con id="171" src="0" tgt="52" wght="-5" />
        <Con id="177" src="1" tgt="131" wght="-0.88274363230031094" />
        <Con id="178" src="52" tgt="5" wght="0.84966638899677682" />
        <Con id="189" src="0" tgt="131" wght="-0.67232626722676292" />
        <Con id="200" src="131" tgt="5" wght="-1.3618630995612073" />
        <Con id="323" src="52" tgt="131" wght="0.86473682985008171" />
        <Con id="671" src="52" tgt="670" wght="-3.4537369627857042" />
        <Con id="672" src="670" tgt="5" wght="-0.48394891497752962" />
      </Connections>
    </Network>
    <Network id="96506" birthGen="2400" fitness="1000.1504516601563">
      <Nodes>
        <Node type="bias" id="0" />
        <Node type="in" id="1" />
        <Node type="in" id="2" />
        <Node type="in" id="3" />
        <Node type="in" id="4" />
        <Node type="out" id="5" />
        <Node type="out" id="6" />
        <Node type="hid" id="52" />
        <Node type="hid" id="131" />
        <Node type="hid" id="670" />
      </Nodes>
      <Connections>
        <Con id="17" src="0" tgt="5" wght="0.16528753093478463" />
        <Con id="132" src="3" tgt="131" wght="0.74103845224372644" />
        <Con id="155" src="1" tgt="52" wght="0.95481444975249241" />
        <Con id="171" src="0" tgt="52" wght="-5" />
        <Con id="177" src="1" tgt="131" wght="-0.88274363230031094" />
        <Con id="178" src="52" tgt="5" wght="-0.03532630352981958" />
        <Con id="189" src="0" tgt="131" wght="-0.67232626722676292" />
        <Con id="200" src="131" tgt="5" wght="-1.3618630995612073" />
        <Con id="323" src="52" tgt="131" wght="3.6429762393007663" />
        <Con id="671" src="52" tgt="670" wght="-3.5992379492546722" />
        <Con id="672" src="670" tgt="5" wght="-0.48394891497752962" />
      </Connections>
    </Network>
    <Network id="96465" birthGen="2399" fitness="1000.503662109375">
      <Nodes>
        <Node type="bias" id="0" />
        <Node type="in" id="1" />
        <Node type="in" id="2" />
        <Node type="in" id="3" />
        <Node type="in" id="4" />
        <Node type="out" id="5" />
        <Node type="out" id="6" />
        <Node type="hid" id="52" />
        <Node type="hid" id="131" />
        <Node type="hid" id="670" />
      </Nodes>
      <Connections>
        <Con id="17" src="0" tgt="5" wght="0.16528753093478463" />
        <Con id="132" src="3" tgt="131" wght="0.71962359963715727" />
        <Con id="155" src="1" tgt="52" wght="0.95481444975249241" />
        <Con id="171" src="0" tgt="52" wght="-5" />
        <Con id="177" src="1" tgt="131" wght="-0.87968593185003485" />
        <Con id="178" src="52" tgt="5" wght="-0.03532630352981958" />
        <Con id="189" src="0" tgt="131" wght="-0.67232626722676292" />
        <Con id="200" src="131" tgt="5" wght="-1.3618630995612073" />
        <Con id="671" src="52" tgt="670" wght="-3.4768425997172803" />
        <Con id="672" src="670" tgt="5" wght="-0.48190872186507089" />
      </Connections>
    </Network>
    <Network id="96502" birthGen="2399" fitness="1000.4534912109375">
      <Nodes>
        <Node type="bias" id="0" />
        <Node type="in" id="1" />
        <Node type="in" id="2" />
        <Node type="in" id="3" />
        <Node type="in" id="4" />
        <Node type="out" id="5" />
        <Node type="out" id="6" />
        <Node type="hid" id="52" />
        <Node type="hid" id="131" />
        <Node type="hid" id="670" />
      </Nodes>
      <Connections>
        <Con id="17" src="0" tgt="5" wght="0.14653138750329753" />
        <Con id="132" src="3" tgt="131" wght="0.71217088023523278" />
        <Con id="155" src="1" tgt="52" wght="0.96370023925286041" />
        <Con id="171" src="0" tgt="52" wght="-5" />
        <Con id="177" src="1" tgt="131" wght="-1.4081305451691151" />
        <Con id="178" src="52" tgt="5" wght="1.752633653298902" />
        <Con id="189" src="0" tgt="131" wght="-0.046929198202648126" />
        <Con id="200" src="131" tgt="5" wght="-1.6829497888259148" />
        <Con id="323" src="52" tgt="131" wght="1.7803199725486669" />
        <Con id="671" src="52" tgt="670" wght="-3.6975927527978558" />
        <Con id="672" src="670" tgt="5" wght="-0.49343893498066965" />
        <Con id="675" src="670" tgt="131" wght="0.36342143685670453" />
      </Connections>
    </Network>
    <Network id="96470" birthGen="2399" fitness="1000.4113159179688">
      <Nodes>
        <Node type="bias" id="0" />
        <Node type="in" id="1" />
        <Node type="in" id="2" />
        <Node type="in" id="3" />
        <Node type="in" id="4" />
        <Node type="out" id="5" />
        <Node type="out" id="6" />
        <Node type="hid" id="52" />
        <Node type="hid" id="131" />
        <Node type="hid" id="670" />
      </Nodes>
      <Connections>
        <Con id="17" src="0" tgt="5" wght="0.16528753093478463" />
        <Con id="132" src="3" tgt="131" wght="0.74103845224372644" />
        <Con id="155" src="1" tgt="52" wght="0.95481444975249241" />
        <Con id="171" src="0" tgt="52" wght="-5" />
        <Con id="177" src="1" tgt="131" wght="-0.88274363230031094" />
        <Con id="189" src="0" tgt="131" wght="-0.67232626722676292" />
        <Con id="200" src="131" tgt="5" wght="-1.3618630995612073" />
        <Con id="323" src="52" tgt="131" wght="0.86473682985008171" />
        <Con id="671" src="52" tgt="670" wght="-3.4502470170814132" />
        <Con id="672" src="670" tgt="5" wght="-0.48394891497752962" />
      </Connections>
    </Network>
    <Network id="96528" birthGen="2400" fitness="1000.514892578125">
      <Nodes>
        <Node type="bias" id="0" />
        <Node type="in" id="1" />
        <Node type="in" id="2" />
        <Node type="in" id="3" />
        <Node type="in" id="4" />
        <Node type="out" id="5" />
        <Node type="out" id="6" />
        <Node type="hid" id="52" />
        <Node type="hid" id="131" />
        <Node type="hid" id="670" />
      </Nodes>
      <Connections>
        <Con id="17" src="0" tgt="5" wght="0.15480944087335732" />
        <Con id="132" src="3" tgt="131" wght="0.73702601739333751" />
        <Con id="155" src="1" tgt="52" wght="0.97213756219023084" />
        <Con id="171" src="0" tgt="52" wght="-4.9579980431664641" />
        <Con id="177" src="1" tgt="131" wght="-1.3800895203150418" />
        <Con id="200" src="131" tgt="5" wght="-1.3618630995612073" />
        <Con id="323" src="52" tgt="131" wght="1.4651189053364968" />
        <Con id="671" src="52" tgt="670" wght="-3.4587700516789082" />
        <Con id="672" src="670" tgt="5" wght="-0.48210676768723365" />
        <Con id="675" src="670" tgt="131" wght="0.15213566675166593" />
      </Connections>
    </Network>
    <Network id="96163" birthGen="2391" fitness="1000.4910278320313">
      <Nodes>
        <Node type="bias" id="0" />
        <Node type="in" id="1" />
        <Node type="in" id="2" />
        <Node type="in" id="3" />
        <Node type="in" id="4" />
        <Node type="out" id="5" />
        <Node type="out" id="6" />
        <Node type="hid" id="52" />
        <Node type="hid" id="131" />
        <Node type="hid" id="670" />
      </Nodes>
      <Connections>
        <Con id="17" src="0" tgt="5" wght="0.15480944087335732" />
        <Con id="132" src="3" tgt="131" wght="0.74103845224372644" />
        <Con id="155" src="1" tgt="52" wght="0.97213756219023084" />
        <Con id="171" src="0" tgt="52" wght="-4.9579980431664641" />
        <Con id="177" src="1" tgt="131" wght="-1.3800895203150418" />
        <Con id="200" src="131" tgt="5" wght="-1.3618630995612073" />
        <Con id="323" src="52" tgt="131" wght="1.4651189053364968" />
        <Con id="671" src="52" tgt="670" wght="-3.4587700516789082" />
        <Con id="672" src="670" tgt="5" wght="-0.48210676768723365" />
        <Con id="675" src="670" tgt="131" wght="0.15213566675166593" />
      </Connections>
    </Network>
    <Network id="96346" birthGen="2395" fitness="1000.5137939453125">
      <Nodes>
        <Node type="bias" id="0" />
        <Node type="in" id="1" />
        <Node type="in" id="2" />
        <Node type="in" id="3" />
        <Node type="in" id="4" />
        <Node type="out" id="5" />
        <Node type="out" id="6" />
        <Node type="hid" id="52" />
        <Node type="hid" id="131" />
        <Node type="hid" id="670" />
      </Nodes>
      <Connections>
        <Con id="17" src="0" tgt="5" wght="0.13264040598747531" />
        <Con id="132" src="3" tgt="131" wght="0.75713191041322114" />
        <Con id="155" src="1" tgt="52" wght="0.97213756219023084" />
        <Con id="171" src="0" tgt="52" wght="-5" />
        <Con id="177" src="1" tgt="131" wght="-0.90372833925153151" />
        <Con id="200" src="131" tgt="5" wght="-1.8701482802920171" />
        <Con id="671" src="52" tgt="670" wght="-4.6216625471602528" />
        <Con id="672" src="670" tgt="5" wght="-0.48210676768723365" />
      </Connections>
    </Network>
    <Network id="95759" birthGen="2381" fitness="1000.5277709960938">
      <Nodes>
        <Node type="bias" id="0" />
        <Node type="in" id="1" />
        <Node type="in" id="2" />
        <Node type="in" id="3" />
        <Node type="in" id="4" />
        <Node type="out" id="5" />
        <Node type="out" id="6" />
        <Node type="hid" id="52" />
        <Node type="hid" id="131" />
        <Node type="hid" id="670" />
      </Nodes>
      <Connections>
        <Con id="17" src="0" tgt="5" wght="0.14832069990325031" />
        <Con id="132" src="3" tgt="131" wght="0.74103845224372644" />
        <Con id="155" src="1" tgt="52" wght="0.96971090847887842" />
        <Con id="171" src="0" tgt="52" wght="-4.9629119861391624" />
        <Con id="177" src="1" tgt="131" wght="-0.89793299241756741" />
        <Con id="189" src="0" tgt="131" wght="-0.87198519081596615" />
        <Con id="200" src="131" tgt="5" wght="-1.3618630995612073" />
        <Con id="323" src="52" tgt="131" wght="1.4643470823015454" />
        <Con id="671" src="52" tgt="670" wght="-1.4991065335283746" />
        <Con id="672" src="670" tgt="5" wght="-0.42880747012844339" />
        <Con id="675" src="670" tgt="131" wght="0.31413211792037693" />
      </Connections>
    </Network>
    <Network id="96543" birthGen="2401" fitness="0">
      <Nodes>
        <Node type="bias" id="0" />
        <Node type="in" id="1" />
        <Node type="in" id="2" />
        <Node type="in" id="3" />
        <Node type="in" id="4" />
        <Node type="out" id="5" />
        <Node type="out" id="6" />
        <Node type="hid" id="52" />
        <Node type="hid" id="131" />
        <Node type="hid" id="670" />
      </Nodes>
      <Connections>
        <Con id="17" src="0" tgt="5" wght="0.16528753093478463" />
        <Con id="132" src="3" tgt="131" wght="0.71962359963715727" />
        <Con id="171" src="0" tgt="52" wght="-5" />
        <Con id="177" src="1" tgt="131" wght="-0.87968593185003485" />
        <Con id="178" src="52" tgt="5" wght="-0.03532630352981958" />
        <Con id="189" src="0" tgt="131" wght="-0.67232626722676292" />
        <Con id="200" src="131" tgt="5" wght="-1.3618630995612073" />
        <Con id="671" src="52" tgt="670" wght="-3.4768425997172803" />
        <Con id="672" src="670" tgt="5" wght="-0.48190872186507089" />
      </Connections>
    </Network>
    <Network id="96544" birthGen="2401" fitness="0">
      <Nodes>
        <Node type="bias" id="0" />
        <Node type="in" id="1" />
        <Node type="in" id="2" />
        <Node type="in" id="3" />
        <Node type="in" id="4" />
        <Node type="out" id="5" />
        <Node type="out" id="6" />
        <Node type="hid" id="52" />
        <Node type="hid" id="131" />
        <Node type="hid" id="670" />
      </Nodes>
      <Connections>
        <Con id="17" src="0" tgt="5" wght="0.16528753093478463" />
        <Con id="132" src="3" tgt="131" wght="0.71962359963715727" />
        <Con id="171" src="0" tgt="52" wght="-5" />
        <Con id="177" src="1" tgt="131" wght="-0.87968593185003485" />
        <Con id="178" src="52" tgt="5" wght="-0.03532630352981958" />
        <Con id="189" src="0" tgt="131" wght="-0.67232626722676292" />
        <Con id="200" src="131" tgt="5" wght="-1.3618630995612073" />
        <Con id="671" src="52" tgt="670" wght="-3.4768425997172803" />
        <Con id="672" src="670" tgt="5" wght="-0.48190872186507089" />
      </Connections>
    </Network>
    <Network id="96545" birthGen="2401" fitness="0">
      <Nodes>
        <Node type="bias" id="0" />
        <Node type="in" id="1" />
        <Node type="in" id="2" />
        <Node type="in" id="3" />
        <Node type="in" id="4" />
        <Node type="out" id="5" />
        <Node type="out" id="6" />
        <Node type="hid" id="52" />
        <Node type="hid" id="131" />
        <Node type="hid" id="670" />
      </Nodes>
      <Connections>
        <Con id="17" src="0" tgt="5" wght="0.16528753093478463" />
        <Con id="132" src="3" tgt="131" wght="0.71962359963715727" />
        <Con id="155" src="1" tgt="52" wght="0.95481444975249241" />
        <Con id="171" src="0" tgt="52" wght="-5" />
        <Con id="177" src="1" tgt="131" wght="-0.87968593185003485" />
        <Con id="178" src="52" tgt="5" wght="-0.03532630352981958" />
        <Con id="200" src="131" tgt="5" wght="-1.3618630995612073" />
        <Con id="671" src="52" tgt="670" wght="-3.4768425997172803" />
        <Con id="672" src="670" tgt="5" wght="-0.48190872186507089" />
      </Connections>
    </Network>
    <Network id="96546" birthGen="2401" fitness="0">
      <Nodes>
        <Node type="bias" id="0" />
        <Node type="in" id="1" />
        <Node type="in" id="2" />
        <Node type="in" id="3" />
        <Node type="in" id="4" />
        <Node type="out" id="5" />
        <Node type="out" id="6" />
        <Node type="hid" id="52" />
        <Node type="hid" id="131" />
        <Node type="hid" id="670" />
      </Nodes>
      <Connections>
        <Con id="17" src="0" tgt="5" wght="0.16528753093478463" />
        <Con id="132" src="3" tgt="131" wght="0.71962359963715727" />
        <Con id="155" src="1" tgt="52" wght="0.95481444975249241" />
        <Con id="171" src="0" tgt="52" wght="-5" />
        <Con id="177" src="1" tgt="131" wght="-0.87968593185003485" />
        <Con id="178" src="52" tgt="5" wght="-0.03532630352981958" />
        <Con id="189" src="0" tgt="131" wght="-0.67232626722676292" />
        <Con id="200" src="131" tgt="5" wght="-1.3618630995612073" />
        <Con id="671" src="52" tgt="670" wght="-3.4768425997172803" />
        <Con id="672" src="670" tgt="5" wght="-0.48190872186507089" />
      </Connections>
    </Network>
    <Network id="96547" birthGen="2401" fitness="0">
      <Nodes>
        <Node type="bias" id="0" />
        <Node type="in" id="1" />
        <Node type="in" id="2" />
        <Node type="in" id="3" />
        <Node type="in" id="4" />
        <Node type="out" id="5" />
        <Node type="out" id="6" />
        <Node type="hid" id="52" />
        <Node type="hid" id="131" />
        <Node type="hid" id="670" />
      </Nodes>
      <Connections>
        <Con id="17" src="0" tgt="5" wght="0.14653138750329753" />
        <Con id="132" src="3" tgt="131" wght="0.71217088023523278" />
        <Con id="155" src="1" tgt="52" wght="0.96370023925286041" />
        <Con id="171" src="0" tgt="52" wght="-5" />
        <Con id="177" src="1" tgt="131" wght="-1.4081305451691151" />
        <Con id="178" src="52" tgt="5" wght="1.752633653298902" />
        <Con id="189" src="0" tgt="131" wght="-0.046929198202648126" />
        <Con id="200" src="131" tgt="5" wght="-1.6829497888259148" />
        <Con id="323" src="52" tgt="131" wght="1.7803199725486669" />
        <Con id="671" src="52" tgt="670" wght="-3.6975927527978558" />
        <Con id="675" src="670" tgt="131" wght="0.36342143685670453" />
      </Connections>
    </Network>
    <Network id="96548" birthGen="2401" fitness="0">
      <Nodes>
        <Node type="bias" id="0" />
        <Node type="in" id="1" />
        <Node type="in" id="2" />
        <Node type="in" id="3" />
        <Node type="in" id="4" />
        <Node type="out" id="5" />
        <Node type="out" id="6" />
        <Node type="hid" id="52" />
        <Node type="hid" id="131" />
        <Node type="hid" id="670" />
      </Nodes>
      <Connections>
        <Con id="17" src="0" tgt="5" wght="-3.5595052782446146" />
        <Con id="132" src="3" tgt="131" wght="0.71217088023523278" />
        <Con id="155" src="1" tgt="52" wght="0.96370023925286041" />
        <Con id="171" src="0" tgt="52" wght="-5" />
        <Con id="177" src="1" tgt="131" wght="-1.4081305451691151" />
        <Con id="178" src="52" tgt="5" wght="1.752633653298902" />
        <Con id="189" src="0" tgt="131" wght="-0.046929198202648126" />
        <Con id="200" src="131" tgt="5" wght="-1.6829497888259148" />
        <Con id="323" src="52" tgt="131" wght="-3.310349378734827" />
        <Con id="671" src="52" tgt="670" wght="4.1926557803526521" />
        <Con id="672" src="670" tgt="5" wght="-0.49343893498066965" />
        <Con id="675" src="670" tgt="131" wght="0.36342143685670453" />
      </Connections>
    </Network>
    <Network id="96549" birthGen="2401" fitness="0">
      <Nodes>
        <Node type="bias" id="0" />
        <Node type="in" id="1" />
        <Node type="in" id="2" />
        <Node type="in" id="3" />
        <Node type="in" id="4" />
        <Node type="out" id="5" />
        <Node type="out" id="6" />
        <Node type="hid" id="52" />
        <Node type="hid" id="131" />
        <Node type="hid" id="670" />
      </Nodes>
      <Connections>
        <Con id="17" src="0" tgt="5" wght="0.14653138750329753" />
        <Con id="132" src="3" tgt="131" wght="0.71217088023523278" />
        <Con id="155" src="1" tgt="52" wght="0.96370023925286041" />
        <Con id="171" src="0" tgt="52" wght="-5" />
        <Con id="177" src="1" tgt="131" wght="-1.4081305451691151" />
        <Con id="178" src="52" tgt="5" wght="1.752633653298902" />
        <Con id="189" src="0" tgt="131" wght="-0.021221795093271417" />
        <Con id="200" src="131" tgt="5" wght="-1.6935142685945805" />
        <Con id="323" src="52" tgt="131" wght="1.7803199725486669" />
        <Con id="671" src="52" tgt="670" wght="-3.6975927527978558" />
        <Con id="672" src="670" tgt="5" wght="-0.49343893498066965" />
        <Con id="675" src="670" tgt="131" wght="0.36342143685670453" />
      </Connections>
    </Network>
    <Network id="96550" birthGen="2401" fitness="0">
      <Nodes>
        <Node type="bias" id="0" />
        <Node type="in" id="1" />
        <Node type="in" id="2" />
        <Node type="in" id="3" />
        <Node type="in" id="4" />
        <Node type="out" id="5" />
        <Node type="out" id="6" />
        <Node type="hid" id="52" />
        <Node type="hid" id="131" />
        <Node type="hid" id="670" />
      </Nodes>
      <Connections>
        <Con id="17" src="0" tgt="5" wght="0.14653138750329753" />
        <Con id="132" src="3" tgt="131" wght="0.71217088023523278" />
        <Con id="155" src="1" tgt="52" wght="1.0145715261178714" />
        <Con id="171" src="0" tgt="52" wght="-5" />
        <Con id="177" src="1" tgt="131" wght="-1.4081305451691151" />
        <Con id="178" src="52" tgt="5" wght="1.74102018952803" />
        <Con id="189" src="0" tgt="131" wght="-0.0048381220854717272" />
        <Con id="200" src="131" tgt="5" wght="-1.6829497888259148" />
        <Con id="323" src="52" tgt="131" wght="1.7803199725486669" />
        <Con id="671" src="52" tgt="670" wght="-3.6975927527978558" />
        <Con id="672" src="670" tgt="5" wght="-0.49343893498066965" />
        <Con id="675" src="670" tgt="131" wght="0.36342143685670453" />
      </Connections>
    </Network>
    <Network id="96551" birthGen="2401" fitness="0">
      <Nodes>
        <Node type="bias" id="0" />
        <Node type="in" id="1" />
        <Node type="in" id="2" />
        <Node type="in" id="3" />
        <Node type="in" id="4" />
        <Node type="out" id="5" />
        <Node type="out" id="6" />
        <Node type="hid" id="52" />
        <Node type="hid" id="131" />
        <Node type="hid" id="670" />
      </Nodes>
      <Connections>
        <Con id="17" src="0" tgt="5" wght="0.16528753093478463" />
        <Con id="132" src="3" tgt="131" wght="0.74103845224372644" />
        <Con id="155" src="1" tgt="52" wght="0.95481444975249241" />
        <Con id="171" src="0" tgt="52" wght="-5" />
        <Con id="177" src="1" tgt="131" wght="-0.88274363230031094" />
        <Con id="200" src="131" tgt="5" wght="-1.3618630995612073" />
        <Con id="323" src="52" tgt="131" wght="0.86473682985008171" />
        <Con id="671" src="52" tgt="670" wght="-3.4502470170814132" />
        <Con id="672" src="670" tgt="5" wght="-0.48394891497752962" />
      </Connections>
    </Network>
    <Network id="96552" birthGen="2401" fitness="0">
      <Nodes>
        <Node type="bias" id="0" />
        <Node type="in" id="1" />
        <Node type="in" id="2" />
        <Node type="in" id="3" />
        <Node type="in" id="4" />
        <Node type="out" id="5" />
        <Node type="out" id="6" />
        <Node type="hid" id="52" />
        <Node type="hid" id="131" />
        <Node type="hid" id="670" />
      </Nodes>
      <Connections>
        <Con id="17" src="0" tgt="5" wght="0.16528753093478463" />
        <Con id="132" src="3" tgt="131" wght="0.74103845224372644" />
        <Con id="155" src="1" tgt="52" wght="0.95481444975249241" />
        <Con id="171" src="0" tgt="52" wght="-5" />
        <Con id="177" src="1" tgt="131" wght="-0.88274363230031094" />
        <Con id="189" src="0" tgt="131" wght="-0.67232626722676292" />
        <Con id="200" src="131" tgt="5" wght="-1.3618630995612073" />
        <Con id="323" src="52" tgt="131" wght="0.86473682985008171" />
        <Con id="671" src="52" tgt="670" wght="-3.4502470170814132" />
        <Con id="672" src="670" tgt="5" wght="-0.50496605724140742" />
      </Connections>
    </Network>
    <Network id="96553" birthGen="2401" fitness="0">
      <Nodes>
        <Node type="bias" id="0" />
        <Node type="in" id="1" />
        <Node type="in" id="2" />
        <Node type="in" id="3" />
        <Node type="in" id="4" />
        <Node type="out" id="5" />
        <Node type="out" id="6" />
        <Node type="hid" id="52" />
        <Node type="hid" id="131" />
        <Node type="hid" id="670" />
      </Nodes>
      <Connections>
        <Con id="17" src="0" tgt="5" wght="0.16528753093478463" />
        <Con id="132" src="3" tgt="131" wght="0.74103845224372644" />
        <Con id="155" src="1" tgt="52" wght="0.95481444975249241" />
        <Con id="177" src="1" tgt="131" wght="-0.88274363230031094" />
        <Con id="189" src="0" tgt="131" wght="-0.67232626722676292" />
        <Con id="200" src="131" tgt="5" wght="-1.3618630995612073" />
        <Con id="323" src="52" tgt="131" wght="0.86473682985008171" />
        <Con id="671" src="52" tgt="670" wght="-3.4502470170814132" />
        <Con id="672" src="670" tgt="5" wght="-0.48394891497752962" />
      </Connections>
    </Network>
    <Network id="96554" birthGen="2401" fitness="0">
      <Nodes>
        <Node type="bias" id="0" />
        <Node type="in" id="1" />
        <Node type="in" id="2" />
        <Node type="in" id="3" />
        <Node type="in" id="4" />
        <Node type="out" id="5" />
        <Node type="out" id="6" />
        <Node type="hid" id="52" />
        <Node type="hid" id="131" />
        <Node type="hid" id="670" />
      </Nodes>
      <Connections>
        <Con id="17" src="0" tgt="5" wght="0.16528753093478463" />
        <Con id="132" src="3" tgt="131" wght="0.74103845224372644" />
        <Con id="155" src="1" tgt="52" wght="0.95481444975249241" />
        <Con id="171" src="0" tgt="52" wght="-5" />
        <Con id="177" src="1" tgt="131" wght="-0.73228188324719667" />
        <Con id="189" src="0" tgt="131" wght="-1.9203206710517406" />
        <Con id="200" src="131" tgt="5" wght="-1.3618630995612073" />
        <Con id="323" src="52" tgt="131" wght="0.86473682985008171" />
        <Con id="671" src="52" tgt="670" wght="-3.4502470170814132" />
        <Con id="672" src="670" tgt="5" wght="-0.48394891497752962" />
      </Connections>
    </Network>
    <Network id="96555" birthGen="2401" fitness="0">
      <Nodes>
        <Node type="bias" id="0" />
        <Node type="in" id="1" />
        <Node type="in" id="2" />
        <Node type="in" id="3" />
        <Node type="in" id="4" />
        <Node type="out" id="5" />
        <Node type="out" id="6" />
        <Node type="hid" id="52" />
        <Node type="hid" id="131" />
        <Node type="hid" id="670" />
      </Nodes>
      <Connections>
        <Con id="17" src="0" tgt="5" wght="0.16528753093478463" />
        <Con id="132" src="3" tgt="131" wght="0.74103845224372644" />
        <Con id="155" src="1" tgt="52" wght="0.95481444975249241" />
        <Con id="171" src="0" tgt="52" wght="-5" />
        <Con id="177" src="1" tgt="131" wght="-0.88274363230031094" />
        <Con id="189" src="0" tgt="131" wght="-0.67232626722676292" />
        <Con id="200" src="131" tgt="5" wght="-1.3618630995612073" />
        <Con id="323" src="52" tgt="131" wght="0.86473682985008171" />
        <Con id="671" src="52" tgt="670" wght="-3.4502470170814132" />
        <Con id="672" src="670" tgt="5" wght="-0.48394891497752962" />
      </Connections>
    </Network>
    <Network id="96556" birthGen="2401" fitness="0">
      <Nodes>
        <Node type="bias" id="0" />
        <Node type="in" id="1" />
        <Node type="in" id="2" />
        <Node type="in" id="3" />
        <Node type="in" id="4" />
        <Node type="out" id="5" />
        <Node type="out" id="6" />
        <Node type="hid" id="52" />
        <Node type="hid" id="131" />
        <Node type="hid" id="670" />
      </Nodes>
      <Connections>
        <Con id="17" src="0" tgt="5" wght="0.16528753093478463" />
        <Con id="132" src="3" tgt="131" wght="-1.2818006938323379" />
        <Con id="155" src="1" tgt="52" wght="0.95481444975249241" />
        <Con id="171" src="0" tgt="52" wght="-5" />
        <Con id="177" src="1" tgt="131" wght="-0.88274363230031094" />
        <Con id="189" src="0" tgt="131" wght="-0.67232626722676292" />
        <Con id="200" src="131" tgt="5" wght="-1.3618630995612073" />
        <Con id="323" src="52" tgt="131" wght="-0.60527076479047537" />
        <Con id="671" src="52" tgt="670" wght="-3.4502470170814132" />
        <Con id="672" src="670" tgt="5" wght="-0.48394891497752962" />
      </Connections>
    </Network>
    <Network id="96557" birthGen="2401" fitness="0">
      <Nodes>
        <Node type="bias" id="0" />
        <Node type="in" id="1" />
        <Node type="in" id="2" />
        <Node type="in" id="3" />
        <Node type="in" id="4" />
        <Node type="out" id="5" />
        <Node type="out" id="6" />
        <Node type="hid" id="52" />
        <Node type="hid" id="131" />
        <Node type="hid" id="670" />
      </Nodes>
      <Connections>
        <Con id="17" src="0" tgt="5" wght="0.15480944087335732" />
        <Con id="132" src="3" tgt="131" wght="0.73702601739333751" />
        <Con id="155" src="1" tgt="52" wght="0.97213756219023084" />
        <Con id="171" src="0" tgt="52" wght="-4.9579980431664641" />
        <Con id="177" src="1" tgt="131" wght="-1.3800895203150418" />
        <Con id="200" src="131" tgt="5" wght="-1.3618630995612073" />
        <Con id="323" src="52" tgt="131" wght="1.4651189053364968" />
        <Con id="671" src="52" tgt="670" wght="-3.4587700516789082" />
        <Con id="672" src="670" tgt="5" wght="-0.48210676768723365" />
        <Con id="675" src="670" tgt="131" wght="0.270799997721565" />
      </Connections>
    </Network>
    <Network id="96558" birthGen="2401" fitness="0">
      <Nodes>
        <Node type="bias" id="0" />
        <Node type="in" id="1" />
        <Node type="in" id="2" />
        <Node type="in" id="3" />
        <Node type="in" id="4" />
        <Node type="out" id="5" />
        <Node type="out" id="6" />
        <Node type="hid" id="52" />
        <Node type="hid" id="131" />
        <Node type="hid" id="670" />
      </Nodes>
      <Connections>
        <Con id="132" src="3" tgt="131" wght="0.73702601739333751" />
        <Con id="155" src="1" tgt="52" wght="0.97213756219023084" />
        <Con id="171" src="0" tgt="52" wght="-4.9579980431664641" />
        <Con id="177" src="1" tgt="131" wght="-1.3800895203150418" />
        <Con id="200" src="131" tgt="5" wght="-1.3618630995612073" />
        <Con id="323" src="52" tgt="131" wght="1.4651189053364968" />
        <Con id="671" src="52" tgt="670" wght="-3.4587700516789082" />
        <Con id="672" src="670" tgt="5" wght="-0.48210676768723365" />
        <Con id="675" src="670" tgt="131" wght="0.15213566675166593" />
      </Connections>
    </Network>
    <Network id="96559" birthGen="2401" fitness="0">
      <Nodes>
        <Node type="bias" id="0" />
        <Node type="in" id="1" />
        <Node type="in" id="2" />
        <Node type="in" id="3" />
        <Node type="in" id="4" />
        <Node type="out" id="5" />
        <Node type="out" id="6" />
        <Node type="hid" id="52" />
        <Node type="hid" id="131" />
        <Node type="hid" id="670" />
      </Nodes>
      <Connections>
        <Con id="17" src="0" tgt="5" wght="0.15480944087335732" />
        <Con id="132" src="3" tgt="131" wght="0.73702601739333751" />
        <Con id="155" src="1" tgt="52" wght="0.97213756219023084" />
        <Con id="171" src="0" tgt="52" wght="-4.9579980431664641" />
        <Con id="177" src="1" tgt="131" wght="-1.3800895203150418" />
        <Con id="200" src="131" tgt="5" wght="-1.3618630995612073" />
        <Con id="323" src="52" tgt="131" wght="1.4651189053364968" />
        <Con id="672" src="670" tgt="5" wght="-0.48210676768723365" />
        <Con id="675" src="670" tgt="131" wght="0.15213566675166593" />
      </Connections>
    </Network>
    <Network id="96560" birthGen="2401" fitness="0">
      <Nodes>
        <Node type="bias" id="0" />
        <Node type="in" id="1" />
        <Node type="in" id="2" />
        <Node type="in" id="3" />
        <Node type="in" id="4" />
        <Node type="out" id="5" />
        <Node type="out" id="6" />
        <Node type="hid" id="52" />
        <Node type="hid" id="131" />
        <Node type="hid" id="670" />
      </Nodes>
      <Connections>
        <Con id="17" src="0" tgt="5" wght="0.14653138750329753" />
        <Con id="155" src="1" tgt="52" wght="0.96718081081297058" />
        <Con id="171" src="0" tgt="52" wght="-5" />
        <Con id="178" src="52" tgt="5" wght="1.752633653298902" />
        <Con id="200" src="131" tgt="5" wght="-1.6980444082702155" />
        <Con id="671" src="52" tgt="670" wght="-3.6975927527978558" />
        <Con id="672" src="670" tgt="5" wght="-0.49343893498066965" />
        <Con id="675" src="670" tgt="131" wght="0.36342143685670453" />
      </Connections>
    </Network>
    <Network id="96561" birthGen="2401" fitness="0">
      <Nodes>
        <Node type="bias" id="0" />
        <Node type="in" id="1" />
        <Node type="in" id="2" />
        <Node type="in" id="3" />
        <Node type="in" id="4" />
        <Node type="out" id="5" />
        <Node type="out" id="6" />
        <Node type="hid" id="52" />
        <Node type="hid" id="131" />
        <Node type="hid" id="670" />
      </Nodes>
      <Connections>
        <Con id="17" src="0" tgt="5" wght="0.14653138750329753" />
        <Con id="155" src="1" tgt="52" wght="0.96718081081297058" />
        <Con id="171" src="0" tgt="52" wght="-5" />
        <Con id="178" src="52" tgt="5" wght="1.752633653298902" />
        <Con id="200" src="131" tgt="5" wght="-1.6980444082702155" />
        <Con id="671" src="52" tgt="670" wght="-3.6975927527978558" />
        <Con id="672" src="670" tgt="5" wght="-0.49343893498066965" />
        <Con id="675" src="670" tgt="131" wght="0.36342143685670453" />
      </Connections>
    </Network>
    <Network id="96562" birthGen="2401" fitness="0">
      <Nodes>
        <Node type="bias" id="0" />
        <Node type="in" id="1" />
        <Node type="in" id="2" />
        <Node type="in" id="3" />
        <Node type="in" id="4" />
        <Node type="out" id="5" />
        <Node type="out" id="6" />
        <Node type="hid" id="52" />
        <Node type="hid" id="131" />
        <Node type="hid" id="670" />
      </Nodes>
      <Connections>
        <Con id="17" src="0" tgt="5" wght="0.14653138750329753" />
        <Con id="155" src="1" tgt="52" wght="0.96718081081297058" />
        <Con id="171" src="0" tgt="52" wght="-5" />
        <Con id="177" src="1" tgt="131" wght="-1.4400592094927891" />
        <Con id="178" src="52" tgt="5" wght="1.7569852246838771" />
        <Con id="200" src="131" tgt="5" wght="-1.685206671663863" />
        <Con id="671" src="52" tgt="670" wght="-3.6975927527978558" />
        <Con id="672" src="670" tgt="5" wght="-0.49343893498066965" />
        <Con id="675" src="670" tgt="131" wght="0.36342143685670453" />
      </Connections>
    </Network>
    <Network id="96563" birthGen="2401" fitness="0">
      <Nodes>
        <Node type="bias" id="0" />
        <Node type="in" id="1" />
        <Node type="in" id="2" />
        <Node type="in" id="3" />
        <Node type="in" id="4" />
        <Node type="out" id="5" />
        <Node type="out" id="6" />
        <Node type="hid" id="52" />
        <Node type="hid" id="131" />
        <Node type="hid" id="670" />
      </Nodes>
      <Connections>
        <Con id="17" src="0" tgt="5" wght="0.14653138750329753" />
        <Con id="132" src="3" tgt="131" wght="0.71217088023523278" />
        <Con id="155" src="1" tgt="52" wght="0.96718081081297058" />
        <Con id="171" src="0" tgt="52" wght="-4.2964439540118811" />
        <Con id="177" src="1" tgt="131" wght="-1.4490529242902994" />
        <Con id="178" src="52" tgt="5" wght="1.752633653298902" />
        <Con id="200" src="131" tgt="5" wght="-1.6980444082702155" />
        <Con id="671" src="52" tgt="670" wght="-2.8224583153685381" />
        <Con id="672" src="670" tgt="5" wght="-0.49343893498066965" />
        <Con id="675" src="670" tgt="131" wght="0.36342143685670453" />
      </Connections>
    </Network>
    <Network id="96564" birthGen="2401" fitness="0">
      <Nodes>
        <Node type="bias" id="0" />
        <Node type="in" id="1" />
        <Node type="in" id="2" />
        <Node type="in" id="3" />
        <Node type="in" id="4" />
        <Node type="out" id="5" />
        <Node type="out" id="6" />
        <Node type="hid" id="52" />
        <Node type="hid" id="131" />
        <Node type="hid" id="670" />
      </Nodes>
      <Connections>
        <Con id="17" src="0" tgt="5" wght="0.14653138750329753" />
        <Con id="132" src="3" tgt="131" wght="0.71217088023523278" />
        <Con id="155" src="1" tgt="52" wght="0.96718081081297058" />
        <Con id="171" src="0" tgt="52" wght="-5" />
        <Con id="177" src="1" tgt="131" wght="-1.4490529242902994" />
        <Con id="200" src="131" tgt="5" wght="-1.6980444082702155" />
        <Con id="671" src="52" tgt="670" wght="-3.6975927527978558" />
        <Con id="672" src="670" tgt="5" wght="-0.49343893498066965" />
        <Con id="675" src="670" tgt="131" wght="0.36342143685670453" />
      </Connections>
    </Network>
    <Network id="96565" birthGen="2401" fitness="0">
      <Nodes>
        <Node type="bias" id="0" />
        <Node type="in" id="1" />
        <Node type="in" id="2" />
        <Node type="in" id="3" />
        <Node type="in" id="4" />
        <Node type="out" id="5" />
        <Node type="out" id="6" />
        <Node type="hid" id="52" />
        <Node type="hid" id="131" />
        <Node type="hid" id="670" />
      </Nodes>
      <Connections>
        <Con id="17" src="0" tgt="5" wght="0.14653138750329753" />
        <Con id="132" src="3" tgt="131" wght="0.71217088023523278" />
        <Con id="155" src="1" tgt="52" wght="0.96718081081297058" />
        <Con id="171" src="0" tgt="52" wght="-5" />
        <Con id="177" src="1" tgt="131" wght="-1.4490529242902994" />
        <Con id="178" src="52" tgt="5" wght="1.752633653298902" />
        <Con id="200" src="131" tgt="5" wght="-1.6980444082702155" />
        <Con id="671" src="52" tgt="670" wght="-3.6975927527978558" />
        <Con id="672" src="670" tgt="5" wght="-0.49343893498066965" />
        <Con id="675" src="670" tgt="131" wght="1.2373902051849479" />
      </Connections>
    </Network>
    <Network id="96566" birthGen="2401" fitness="0">
      <Nodes>
        <Node type="bias" id="0" />
        <Node type="in" id="1" />
        <Node type="in" id="2" />
        <Node type="in" id="3" />
        <Node type="in" id="4" />
        <Node type="out" id="5" />
        <Node type="out" id="6" />
        <Node type="hid" id="52" />
        <Node type="hid" id="131" />
        <Node type="hid" id="670" />
      </Nodes>
      <Connections>
        <Con id="17" src="0" tgt="5" wght="0.14653138750329753" />
        <Con id="132" src="3" tgt="131" wght="0.71217088023523278" />
        <Con id="155" src="1" tgt="52" wght="0.96718081081297058" />
        <Con id="171" src="0" tgt="52" wght="-5" />
        <Con id="177" src="1" tgt="131" wght="-1.4490529242902994" />
        <Con id="178" src="52" tgt="5" wght="1.752633653298902" />
        <Con id="200" src="131" tgt="5" wght="-1.6980444082702155" />
        <Con id="671" src="52" tgt="670" wght="-3.6975927527978558" />
        <Con id="672" src="670" tgt="5" wght="3.7514512566849589" />
        <Con id="675" src="670" tgt="131" wght="0.36342143685670453" />
      </Connections>
    </Network>
    <Network id="96567" birthGen="2401" fitness="0">
      <Nodes>
        <Node type="bias" id="0" />
        <Node type="in" id="1" />
        <Node type="in" id="2" />
        <Node type="in" id="3" />
        <Node type="in" id="4" />
        <Node type="out" id="5" />
        <Node type="out" id="6" />
        <Node type="hid" id="52" />
        <Node type="hid" id="131" />
        <Node type="hid" id="670" />
      </Nodes>
      <Connections>
        <Con id="17" src="0" tgt="5" wght="0.14653138750329753" />
        <Con id="132" src="3" tgt="131" wght="0.71217088023523278" />
        <Con id="155" src="1" tgt="52" wght="0.96718081081297058" />
        <Con id="171" src="0" tgt="52" wght="-5" />
        <Con id="177" src="1" tgt="131" wght="-2.1025166791919991" />
        <Con id="178" src="52" tgt="5" wght="1.752633653298902" />
        <Con id="200" src="131" tgt="5" wght="-1.6980444082702155" />
        <Con id="671" src="52" tgt="670" wght="-3.6975927527978558" />
        <Con id="672" src="670" tgt="5" wght="-0.49343893498066965" />
        <Con id="675" src="670" tgt="131" wght="0.36342143685670453" />
      </Connections>
    </Network>
    <Network id="96568" birthGen="2401" fitness="0">
      <Nodes>
        <Node type="bias" id="0" />
        <Node type="in" id="1" />
        <Node type="in" id="2" />
        <Node type="in" id="3" />
        <Node type="in" id="4" />
        <Node type="out" id="5" />
        <Node type="out" id="6" />
        <Node type="hid" id="52" />
        <Node type="hid" id="131" />
        <Node type="hid" id="670" />
      </Nodes>
      <Connections>
        <Con id="17" src="0" tgt="5" wght="0.14653138750329753" />
        <Con id="132" src="3" tgt="131" wght="0.71217088023523278" />
        <Con id="155" src="1" tgt="52" wght="0.96718081081297058" />
        <Con id="177" src="1" tgt="131" wght="-1.4490529242902994" />
        <Con id="178" src="52" tgt="5" wght="1.752633653298902" />
        <Con id="200" src="131" tgt="5" wght="-1.6980444082702155" />
        <Con id="671" src="52" tgt="670" wght="-3.6975927527978558" />
        <Con id="672" src="670" tgt="5" wght="-0.49343893498066965" />
        <Con id="675" src="670" tgt="131" wght="0.36342143685670453" />
      </Connections>
    </Network>
    <Network id="96569" birthGen="2401" fitness="0">
      <Nodes>
        <Node type="bias" id="0" />
        <Node type="in" id="1" />
        <Node type="in" id="2" />
        <Node type="in" id="3" />
        <Node type="in" id="4" />
        <Node type="out" id="5" />
        <Node type="out" id="6" />
        <Node type="hid" id="52" />
        <Node type="hid" id="131" />
        <Node type="hid" id="670" />
      </Nodes>
      <Connections>
        <Con id="17" src="0" tgt="5" wght="0.14653138750329753" />
        <Con id="132" src="3" tgt="131" wght="0.71217088023523278" />
        <Con id="155" src="1" tgt="52" wght="0.96718081081297058" />
        <Con id="177" src="1" tgt="131" wght="-1.4490529242902994" />
        <Con id="178" src="52" tgt="5" wght="1.752633653298902" />
        <Con id="200" src="131" tgt="5" wght="-1.6980444082702155" />
        <Con id="671" src="52" tgt="670" wght="-3.6975927527978558" />
        <Con id="672" src="670" tgt="5" wght="-0.49343893498066965" />
        <Con id="675" src="670" tgt="131" wght="0.36342143685670453" />
      </Connections>
    </Network>
    <Network id="96570" birthGen="2401" fitness="0">
      <Nodes>
        <Node type="bias" id="0" />
        <Node type="in" id="1" />
        <Node type="in" id="2" />
        <Node type="in" id="3" />
        <Node type="in" id="4" />
        <Node type="out" id="5" />
        <Node type="out" id="6" />
        <Node type="hid" id="52" />
        <Node type="hid" id="131" />
        <Node type="hid" id="670" />
      </Nodes>
      <Connections>
        <Con id="17" src="0" tgt="5" wght="0.14653138750329753" />
        <Con id="132" src="3" tgt="131" wght="0.71217088023523278" />
        <Con id="155" src="1" tgt="52" wght="0.96718081081297058" />
        <Con id="171" src="0" tgt="52" wght="-5" />
        <Con id="177" src="1" tgt="131" wght="-1.4281758535765232" />
        <Con id="200" src="131" tgt="5" wght="-1.7159448314774561" />
        <Con id="671" src="52" tgt="670" wght="-3.6975927527978558" />
        <Con id="672" src="670" tgt="5" wght="-0.49343893498066965" />
        <Con id="675" src="670" tgt="131" wght="0.36342143685670453" />
      </Connections>
    </Network>
    <Network id="96571" birthGen="2401" fitness="0">
      <Nodes>
        <Node type="bias" id="0" />
        <Node type="in" id="1" />
        <Node type="in" id="2" />
        <Node type="in" id="3" />
        <Node type="in" id="4" />
        <Node type="out" id="5" />
        <Node type="out" id="6" />
        <Node type="hid" id="52" />
        <Node type="hid" id="131" />
        <Node type="hid" id="670" />
      </Nodes>
      <Connections>
        <Con id="17" src="0" tgt="5" wght="0.14653138750329753" />
        <Con id="132" src="3" tgt="131" wght="-1.3143854745470827" />
        <Con id="155" src="1" tgt="52" wght="0.96718081081297058" />
        <Con id="171" src="0" tgt="52" wght="-5" />
        <Con id="177" src="1" tgt="131" wght="-1.4281758535765232" />
        <Con id="178" src="52" tgt="5" wght="1.752633653298902" />
        <Con id="200" src="131" tgt="5" wght="-1.7159448314774561" />
        <Con id="671" src="52" tgt="670" wght="-3.6975927527978558" />
        <Con id="672" src="670" tgt="5" wght="-0.46538548794086942" />
        <Con id="675" src="670" tgt="131" wght="0.36342143685670453" />
      </Connections>
    </Network>
    <Network id="96572" birthGen="2401" fitness="0">
      <Nodes>
        <Node type="bias" id="0" />
        <Node type="in" id="1" />
        <Node type="in" id="2" />
        <Node type="in" id="3" />
        <Node type="in" id="4" />
        <Node type="out" id="5" />
        <Node type="out" id="6" />
        <Node type="hid" id="52" />
        <Node type="hid" id="131" />
        <Node type="hid" id="670" />
      </Nodes>
      <Connections>
        <Con id="17" src="0" tgt="5" wght="0.14653138750329753" />
        <Con id="132" src="3" tgt="131" wght="0.71217088023523278" />
        <Con id="171" src="0" tgt="52" wght="-5" />
        <Con id="177" src="1" tgt="131" wght="-1.4281758535765232" />
        <Con id="178" src="52" tgt="5" wght="1.752633653298902" />
        <Con id="200" src="131" tgt="5" wght="-1.7159448314774561" />
        <Con id="671" src="52" tgt="670" wght="-3.6975927527978558" />
        <Con id="672" src="670" tgt="5" wght="-0.49343893498066965" />
        <Con id="675" src="670" tgt="131" wght="0.36342143685670453" />
      </Connections>
    </Network>
    <Network id="96573" birthGen="2401" fitness="0">
      <Nodes>
        <Node type="bias" id="0" />
        <Node type="in" id="1" />
        <Node type="in" id="2" />
        <Node type="in" id="3" />
        <Node type="in" id="4" />
        <Node type="out" id="5" />
        <Node type="out" id="6" />
        <Node type="hid" id="52" />
        <Node type="hid" id="131" />
        <Node type="hid" id="670" />
      </Nodes>
      <Connections>
        <Con id="17" src="0" tgt="5" wght="0.14653138750329753" />
        <Con id="132" src="3" tgt="131" wght="0.71217088023523278" />
        <Con id="155" src="1" tgt="52" wght="0.96718081081297058" />
        <Con id="177" src="1" tgt="131" wght="-1.4281758535765232" />
        <Con id="178" src="52" tgt="5" wght="1.752633653298902" />
        <Con id="200" src="131" tgt="5" wght="-1.7159448314774561" />
        <Con id="671" src="52" tgt="670" wght="-3.6975927527978558" />
        <Con id="672" src="670" tgt="5" wght="-0.49343893498066965" />
        <Con id="675" src="670" tgt="131" wght="0.36342143685670453" />
      </Connections>
    </Network>
    <Network id="96574" birthGen="2401" fitness="0">
      <Nodes>
        <Node type="bias" id="0" />
        <Node type="in" id="1" />
        <Node type="in" id="2" />
        <Node type="in" id="3" />
        <Node type="in" id="4" />
        <Node type="out" id="5" />
        <Node type="out" id="6" />
        <Node type="hid" id="52" />
        <Node type="hid" id="131" />
        <Node type="hid" id="670" />
      </Nodes>
      <Connections>
        <Con id="17" src="0" tgt="5" wght="0.14653138750329753" />
        <Con id="132" src="3" tgt="131" wght="1.1431153955983975" />
        <Con id="155" src="1" tgt="52" wght="0.96718081081297058" />
        <Con id="171" src="0" tgt="52" wght="-5" />
        <Con id="177" src="1" tgt="131" wght="-1.4281758535765232" />
        <Con id="178" src="52" tgt="5" wght="1.752633653298902" />
        <Con id="200" src="131" tgt="5" wght="-1.7159448314774561" />
        <Con id="671" src="52" tgt="670" wght="-3.6975927527978558" />
        <Con id="672" src="670" tgt="5" wght="-0.49343893498066965" />
        <Con id="675" src="670" tgt="131" wght="0.36342143685670453" />
      </Connections>
    </Network>
    <Network id="96575" birthGen="2401" fitness="0">
      <Nodes>
        <Node type="bias" id="0" />
        <Node type="in" id="1" />
        <Node type="in" id="2" />
        <Node type="in" id="3" />
        <Node type="in" id="4" />
        <Node type="out" id="5" />
        <Node type="out" id="6" />
        <Node type="hid" id="52" />
        <Node type="hid" id="131" />
        <Node type="hid" id="670" />
      </Nodes>
      <Connections>
        <Con id="17" src="0" tgt="5" wght="0.14653138750329753" />
        <Con id="132" src="3" tgt="131" wght="0.71217088023523278" />
        <Con id="171" src="0" tgt="52" wght="-5" />
        <Con id="177" src="1" tgt="131" wght="-1.4281758535765232" />
        <Con id="178" src="52" tgt="5" wght="1.752633653298902" />
        <Con id="200" src="131" tgt="5" wght="-1.7159448314774561" />
        <Con id="671" src="52" tgt="670" wght="-3.6975927527978558" />
        <Con id="672" src="670" tgt="5" wght="-0.49343893498066965" />
        <Con id="675" src="670" tgt="131" wght="0.36342143685670453" />
      </Connections>
    </Network>
    <Network id="96576" birthGen="2401" fitness="0">
      <Nodes>
        <Node type="bias" id="0" />
        <Node type="in" id="1" />
        <Node type="in" id="2" />
        <Node type="in" id="3" />
        <Node type="in" id="4" />
        <Node type="out" id="5" />
        <Node type="out" id="6" />
        <Node type="hid" id="52" />
        <Node type="hid" id="131" />
        <Node type="hid" id="670" />
      </Nodes>
      <Connections>
        <Con id="17" src="0" tgt="5" wght="0.14653138750329753" />
        <Con id="132" src="3" tgt="131" wght="0.71217088023523278" />
        <Con id="155" src="1" tgt="52" wght="1.2932959049137818" />
        <Con id="171" src="0" tgt="52" wght="-5" />
        <Con id="177" src="1" tgt="131" wght="-1.4281758535765232" />
        <Con id="178" src="52" tgt="5" wght="1.752633653298902" />
        <Con id="200" src="131" tgt="5" wght="-1.7159448314774561" />
        <Con id="671" src="52" tgt="670" wght="-3.6975927527978558" />
        <Con id="672" src="670" tgt="5" wght="-0.49343893498066965" />
        <Con id="675" src="670" tgt="131" wght="1.9024741016014095" />
      </Connections>
    </Network>
    <Network id="96577" birthGen="2401" fitness="0">
      <Nodes>
        <Node type="bias" id="0" />
        <Node type="in" id="1" />
        <Node type="in" id="2" />
        <Node type="in" id="3" />
        <Node type="in" id="4" />
        <Node type="out" id="5" />
        <Node type="out" id="6" />
        <Node type="hid" id="52" />
        <Node type="hid" id="131" />
        <Node type="hid" id="670" />
      </Nodes>
      <Connections>
        <Con id="17" src="0" tgt="5" wght="0.13264040598747531" />
        <Con id="132" src="3" tgt="131" wght="0.75713191041322114" />
        <Con id="155" src="1" tgt="52" wght="0.97213756219023084" />
        <Con id="171" src="0" tgt="52" wght="-5" />
        <Con id="177" src="1" tgt="131" wght="-0.90372833925153151" />
        <Con id="200" src="131" tgt="5" wght="-1.8701482802920171" />
        <Con id="671" src="52" tgt="670" wght="-4.6216625471602528" />
        <Con id="672" src="670" tgt="5" wght="-0.48210676768723365" />
      </Connections>
    </Network>
    <Network id="96578" birthGen="2401" fitness="0">
      <Nodes>
        <Node type="bias" id="0" />
        <Node type="in" id="1" />
        <Node type="in" id="2" />
        <Node type="in" id="3" />
        <Node type="in" id="4" />
        <Node type="out" id="5" />
        <Node type="out" id="6" />
        <Node type="hid" id="52" />
        <Node type="hid" id="131" />
        <Node type="hid" id="670" />
      </Nodes>
      <Connections>
        <Con id="17" src="0" tgt="5" wght="-0.28271490678464972" />
        <Con id="132" src="3" tgt="131" wght="0.75713191041322114" />
        <Con id="155" src="1" tgt="52" wght="0.97213756219023084" />
        <Con id="171" src="0" tgt="52" wght="-5" />
        <Con id="177" src="1" tgt="131" wght="-0.90372833925153151" />
        <Con id="200" src="131" tgt="5" wght="-1.8701482802920171" />
        <Con id="671" src="52" tgt="670" wght="-4.6216625471602528" />
        <Con id="672" src="670" tgt="5" wght="-0.48210676768723365" />
      </Connections>
    </Network>
    <Network id="96579" birthGen="2401" fitness="0">
      <Nodes>
        <Node type="bias" id="0" />
        <Node type="in" id="1" />
        <Node type="in" id="2" />
        <Node type="in" id="3" />
        <Node type="in" id="4" />
        <Node type="out" id="5" />
        <Node type="out" id="6" />
        <Node type="hid" id="52" />
        <Node type="hid" id="131" />
        <Node type="hid" id="670" />
      </Nodes>
      <Connections>
        <Con id="17" src="0" tgt="5" wght="0.13264040598747531" />
        <Con id="132" src="3" tgt="131" wght="1.146987922438411" />
        <Con id="155" src="1" tgt="52" wght="0.97213756219023084" />
        <Con id="171" src="0" tgt="52" wght="-5" />
        <Con id="177" src="1" tgt="131" wght="-0.90372833925153151" />
        <Con id="200" src="131" tgt="5" wght="-1.8701482802920171" />
        <Con id="671" src="52" tgt="670" wght="-4.6216625471602528" />
        <Con id="672" src="670" tgt="5" wght="-0.48210676768723365" />
      </Connections>
    </Network>
    <Network id="96580" birthGen="2401" fitness="0">
      <Nodes>
        <Node type="bias" id="0" />
        <Node type="in" id="1" />
        <Node type="in" id="2" />
        <Node type="in" id="3" />
        <Node type="in" id="4" />
        <Node type="out" id="5" />
        <Node type="out" id="6" />
        <Node type="hid" id="52" />
        <Node type="hid" id="131" />
        <Node type="hid" id="670" />
      </Nodes>
      <Connections>
        <Con id="17" src="0" tgt="5" wght="0.14832069990325031" />
        <Con id="132" src="3" tgt="131" wght="0.74103845224372644" />
        <Con id="155" src="1" tgt="52" wght="0.96971090847887842" />
        <Con id="171" src="0" tgt="52" wght="-4.9629119861391624" />
        <Con id="177" src="1" tgt="131" wght="-0.89793299241756741" />
        <Con id="189" src="0" tgt="131" wght="-0.87198519081596615" />
        <Con id="200" src="131" tgt="5" wght="-1.3618630995612073" />
        <Con id="323" src="52" tgt="131" wght="1.4643470823015454" />
        <Con id="672" src="670" tgt="5" wght="-0.42880747012844339" />
        <Con id="675" src="670" tgt="131" wght="0.31413211792037693" />
      </Connections>
    </Network>
    <Network id="96581" birthGen="2401" fitness="0">
      <Nodes>
        <Node type="bias" id="0" />
        <Node type="in" id="1" />
        <Node type="in" id="2" />
        <Node type="in" id="3" />
        <Node type="in" id="4" />
        <Node type="out" id="5" />
        <Node type="out" id="6" />
        <Node type="hid" id="52" />
        <Node type="hid" id="131" />
        <Node type="hid" id="670" />
      </Nodes>
      <Connections>
        <Con id="17" src="0" tgt="5" wght="0.14832069990325031" />
        <Con id="132" src="3" tgt="131" wght="0.74103845224372644" />
        <Con id="155" src="1" tgt="52" wght="0.96971090847887842" />
        <Con id="171" src="0" tgt="52" wght="-4.9629119861391624" />
        <Con id="177" src="1" tgt="131" wght="-0.89793299241756741" />
        <Con id="189" src="0" tgt="131" wght="-0.87198519081596615" />
        <Con id="200" src="131" tgt="5" wght="-1.3618630995612073" />
        <Con id="323" src="52" tgt="131" wght="1.4643470823015454" />
        <Con id="671" src="52" tgt="670" wght="-1.4991065335283746" />
        <Con id="672" src="670" tgt="5" wght="-0.42880747012844339" />
      </Connections>
    </Network>
  </Networks>
</Root>