<?xml version="1.0" encoding="utf-8"?>
<Root>
  <ActivationFunctions>
    <Fn id="0" name="SteepenedSigmoid" prob="1" />
  </ActivationFunctions>
  <Networks>
    <Network id="92165" birthGen="2297" fitness="670.58416748046875">
      <Nodes>
        <Node type="bias" id="0" />
        <Node type="in" id="1" />
        <Node type="in" id="2" />
        <Node type="in" id="3" />
        <Node type="in" id="4" />
        <Node type="out" id="5" />
        <Node type="out" id="6" />
        <Node type="hid" id="185" />
        <Node type="hid" id="489" />
        <Node type="hid" id="526" />
      </Nodes>
      <Connections>
        <Con id="22" src="3" tgt="5" wght="0.025109754392676275" />
        <Con id="39" src="3" tgt="6" wght="-1.9053640972680956" />
        <Con id="40" src="0" tgt="6" wght="0.26359855197370052" />
        <Con id="191" src="185" tgt="6" wght="4.9790578077677" />
        <Con id="207" src="1" tgt="185" wght="2.3622484757072097" />
        <Con id="505" src="185" tgt="489" wght="3.6041661435208554" />
        <Con id="532" src="1" tgt="489" wght="-1.4165940650372695" />
        <Con id="536" src="0" tgt="489" wght="-4.4619845505803823" />
        <Con id="551" src="185" tgt="526" wght="-3.20175654128603" />
        <Con id="560" src="526" tgt="489" wght="2.8778023023308905" />
      </Connections>
    </Network>
    <Network id="92287" birthGen="2300" fitness="667.62408447265625">
      <Nodes>
        <Node type="bias" id="0" />
        <Node type="in" id="1" />
        <Node type="in" id="2" />
        <Node type="in" id="3" />
        <Node type="in" id="4" />
        <Node type="out" id="5" />
        <Node type="out" id="6" />
        <Node type="hid" id="185" />
        <Node type="hid" id="489" />
        <Node type="hid" id="634" />
        <Node type="hid" id="682" />
      </Nodes>
      <Connections>
        <Con id="22" src="3" tgt="5" wght="0.025109754392676275" />
        <Con id="39" src="3" tgt="6" wght="-1.8537282948829457" />
        <Con id="191" src="185" tgt="6" wght="5" />
        <Con id="503" src="489" tgt="6" wght="4.8897068766812772" />
        <Con id="636" src="634" tgt="489" wght="0.35662961472120391" />
        <Con id="683" src="3" tgt="682" wght="4.3725669340054587" />
        <Con id="684" src="682" tgt="185" wght="4.9784722664289935" />
        <Con id="695" src="634" tgt="682" wght="-1.3309440342168519" />
      </Connections>
    </Network>
    <Network id="92292" birthGen="2300" fitness="668.37603759765625">
      <Nodes>
        <Node type="bias" id="0" />
        <Node type="in" id="1" />
        <Node type="in" id="2" />
        <Node type="in" id="3" />
        <Node type="in" id="4" />
        <Node type="out" id="5" />
        <Node type="out" id="6" />
        <Node type="hid" id="185" />
        <Node type="hid" id="489" />
        <Node type="hid" id="526" />
        <Node type="hid" id="634" />
      </Nodes>
      <Connections>
        <Con id="22" src="3" tgt="5" wght="0.025109754392676275" />
        <Con id="39" src="3" tgt="6" wght="-2.0272929774674169" />
        <Con id="40" src="0" tgt="6" wght="0.3950413038048517" />
        <Con id="191" src="185" tgt="6" wght="4.9868449312835095" />
        <Con id="207" src="1" tgt="185" wght="2.3830015258863568" />
        <Con id="216" src="3" tgt="185" wght="4.6310144507729953" />
        <Con id="503" src="489" tgt="6" wght="-1.0196560394624543" />
        <Con id="505" src="185" tgt="489" wght="3.3898965936849739" />
        <Con id="532" src="1" tgt="489" wght="-1.5366670489311218" />
        <Con id="536" src="0" tgt="489" wght="-4.4619845505803823" />
        <Con id="551" src="185" tgt="526" wght="-3.1788718994070169" />
        <Con id="560" src="526" tgt="489" wght="2.9303744792205362" />
        <Con id="636" src="634" tgt="489" wght="4.4338716277199177" />
        <Con id="698" src="1" tgt="526" wght="2.7794302208349109" />
      </Connections>
    </Network>
    <Network id="92296" birthGen="2300" fitness="667.6641845703125">
      <Nodes>
        <Node type="bias" id="0" />
        <Node type="in" id="1" />
        <Node type="in" id="2" />
        <Node type="in" id="3" />
        <Node type="in" id="4" />
        <Node type="out" id="5" />
        <Node type="out" id="6" />
        <Node type="hid" id="185" />
        <Node type="hid" id="489" />
        <Node type="hid" id="634" />
        <Node type="hid" id="682" />
      </Nodes>
      <Connections>
        <Con id="22" src="3" tgt="5" wght="0.025109754392676275" />
        <Con id="39" src="3" tgt="6" wght="-1.8537282948829457" />
        <Con id="191" src="185" tgt="6" wght="5" />
        <Con id="503" src="489" tgt="6" wght="4.8480926780030131" />
        <Con id="636" src="634" tgt="489" wght="-0.14986204398599307" />
        <Con id="652" src="634" tgt="185" wght="-3.3106630761176348" />
        <Con id="683" src="3" tgt="682" wght="2.7126833495635658" />
        <Con id="684" src="682" tgt="185" wght="4.9784722664289935" />
      </Connections>
    </Network>
    <Network id="92301" birthGen="2300" fitness="666.75653076171875">
      <Nodes>
        <Node type="bias" id="0" />
        <Node type="in" id="1" />
        <Node type="in" id="2" />
        <Node type="in" id="3" />
        <Node type="in" id="4" />
        <Node type="out" id="5" />
        <Node type="out" id="6" />
        <Node type="hid" id="185" />
        <Node type="hid" id="489" />
        <Node type="hid" id="634" />
        <Node type="hid" id="682" />
      </Nodes>
      <Connections>
        <Con id="22" src="3" tgt="5" wght="0.025109754392676275" />
        <Con id="39" src="3" tgt="6" wght="-1.847666136662117" />
        <Con id="191" src="185" tgt="6" wght="5" />
        <Con id="503" src="489" tgt="6" wght="4.8480926780030131" />
        <Con id="636" src="634" tgt="489" wght="-0.12431204423475967" />
        <Con id="652" src="634" tgt="185" wght="-3.3106630761176348" />
        <Con id="683" src="3" tgt="682" wght="3.8718733853975209" />
        <Con id="684" src="682" tgt="185" wght="4.9784722664289935" />
      </Connections>
    </Network>
    <Network id="92306" birthGen="2300" fitness="667.35589599609375">
      <Nodes>
        <Node type="bias" id="0" />
        <Node type="in" id="1" />
        <Node type="in" id="2" />
        <Node type="in" id="3" />
        <Node type="in" id="4" />
        <Node type="out" id="5" />
        <Node type="out" id="6" />
        <Node type="hid" id="185" />
        <Node type="hid" id="489" />
        <Node type="hid" id="634" />
        <Node type="hid" id="682" />
      </Nodes>
      <Connections>
        <Con id="22" src="3" tgt="5" wght="0.025109754392676275" />
        <Con id="39" src="3" tgt="6" wght="-1.8537282948829457" />
        <Con id="191" src="185" tgt="6" wght="5" />
        <Con id="503" src="489" tgt="6" wght="5" />
        <Con id="636" src="634" tgt="489" wght="-1.3860837309151293" />
        <Con id="652" src="634" tgt="185" wght="1.1298444541171193" />
        <Con id="683" src="3" tgt="682" wght="3.4935733111962746" />
        <Con id="684" src="682" tgt="185" wght="4.9784722664289935" />
        <Con id="695" src="634" tgt="682" wght="-1.3198507554190664" />
      </Connections>
    </Network>
    <Network id="92309" birthGen="2300" fitness="667.6641845703125">
      <Nodes>
        <Node type="bias" id="0" />
        <Node type="in" id="1" />
        <Node type="in" id="2" />
        <Node type="in" id="3" />
        <Node type="in" id="4" />
        <Node type="out" id="5" />
        <Node type="out" id="6" />
        <Node type="hid" id="185" />
        <Node type="hid" id="489" />
        <Node type="hid" id="634" />
        <Node type="hid" id="682" />
      </Nodes>
      <Connections>
        <Con id="22" src="3" tgt="5" wght="0.025109754392676275" />
        <Con id="39" src="3" tgt="6" wght="-1.8537282948829457" />
        <Con id="191" src="185" tgt="6" wght="5" />
        <Con id="503" src="489" tgt="6" wght="-2.9360743053447869" />
        <Con id="545" src="489" tgt="185" wght="-1.4181381488834595" />
        <Con id="636" src="634" tgt="489" wght="-0.22586789031384241" />
        <Con id="683" src="3" tgt="682" wght="3.7109648891944285" />
        <Con id="684" src="682" tgt="185" wght="5" />
        <Con id="695" src="634" tgt="682" wght="0.21617239034490163" />
      </Connections>
    </Network>
    <Network id="92314" birthGen="2300" fitness="668.604248046875">
      <Nodes>
        <Node type="bias" id="0" />
        <Node type="in" id="1" />
        <Node type="in" id="2" />
        <Node type="in" id="3" />
        <Node type="in" id="4" />
        <Node type="out" id="5" />
        <Node type="out" id="6" />
        <Node type="hid" id="185" />
        <Node type="hid" id="489" />
        <Node type="hid" id="526" />
        <Node type="hid" id="581" />
        <Node type="hid" id="625" />
        <Node type="hid" id="637" />
      </Nodes>
      <Connections>
        <Con id="22" src="3" tgt="5" wght="0.024516675856599758" />
        <Con id="39" src="3" tgt="6" wght="-1.8133274296401432" />
        <Con id="191" src="185" tgt="6" wght="5" />
        <Con id="207" src="1" tgt="185" wght="2.3012184963589419" />
        <Con id="503" src="489" tgt="6" wght="-0.8847928094697477" />
        <Con id="560" src="526" tgt="489" wght="3.1915804972118753" />
        <Con id="626" src="3" tgt="625" wght="-1.2207849453253952" />
        <Con id="632" src="625" tgt="581" wght="5" />
        <Con id="639" src="637" tgt="185" wght="4.98080119139929" />
      </Connections>
    </Network>
    <Network id="92282" birthGen="2299" fitness="668.1951904296875">
      <Nodes>
        <Node type="bias" id="0" />
        <Node type="in" id="1" />
        <Node type="in" id="2" />
        <Node type="in" id="3" />
        <Node type="in" id="4" />
        <Node type="out" id="5" />
        <Node type="out" id="6" />
        <Node type="hid" id="185" />
        <Node type="hid" id="489" />
        <Node type="hid" id="526" />
        <Node type="hid" id="581" />
        <Node type="hid" id="625" />
        <Node type="hid" id="637" />
      </Nodes>
      <Connections>
        <Con id="22" src="3" tgt="5" wght="0.024516675856599758" />
        <Con id="39" src="3" tgt="6" wght="-1.8133274296401432" />
        <Con id="191" src="185" tgt="6" wght="5" />
        <Con id="207" src="1" tgt="185" wght="2.3012184963589419" />
        <Con id="503" src="489" tgt="6" wght="-0.8847928094697477" />
        <Con id="560" src="526" tgt="489" wght="3.223680383494627" />
        <Con id="626" src="3" tgt="625" wght="-1.2284380885814612" />
        <Con id="632" src="625" tgt="581" wght="5" />
        <Con id="639" src="637" tgt="185" wght="4.98080119139929" />
      </Connections>
    </Network>
    <Network id="92320" birthGen="2300" fitness="667.70672607421875">
      <Nodes>
        <Node type="bias" id="0" />
        <Node type="in" id="1" />
        <Node type="in" id="2" />
        <Node type="in" id="3" />
        <Node type="in" id="4" />
        <Node type="out" id="5" />
        <Node type="out" id="6" />
        <Node type="hid" id="185" />
        <Node type="hid" id="489" />
        <Node type="hid" id="526" />
        <Node type="hid" id="581" />
        <Node type="hid" id="625" />
        <Node type="hid" id="637" />
      </Nodes>
      <Connections>
        <Con id="22" src="3" tgt="5" wght="0.024516675856599758" />
        <Con id="39" src="3" tgt="6" wght="-1.8133274296401432" />
        <Con id="191" src="185" tgt="6" wght="5" />
        <Con id="207" src="1" tgt="185" wght="1.2300743632780069" />
        <Con id="503" src="489" tgt="6" wght="-0.8847928094697477" />
        <Con id="560" src="526" tgt="489" wght="3.223680383494627" />
        <Con id="580" src="526" tgt="5" wght="3.2394807832315564" />
        <Con id="626" src="3" tgt="625" wght="-1.9521665833236144" />
        <Con id="632" src="625" tgt="581" wght="4.9880470689826648" />
        <Con id="639" src="637" tgt="185" wght="2.96077039187349" />
      </Connections>
    </Network>
    <Network id="92323" birthGen="2301" fitness="0">
      <Nodes>
        <Node type="bias" id="0" />
        <Node type="in" id="1" />
        <Node type="in" id="2" />
        <Node type="in" id="3" />
        <Node type="in" id="4" />
        <Node type="out" id="5" />
        <Node type="out" id="6" />
        <Node type="hid" id="185" />
        <Node type="hid" id="489" />
        <Node type="hid" id="526" />
      </Nodes>
      <Connections>
        <Con id="22" src="3" tgt="5" wght="0.025109754392676275" />
        <Con id="39" src="3" tgt="6" wght="-1.9053640972680956" />
        <Con id="40" src="0" tgt="6" wght="0.26359855197370052" />
        <Con id="191" src="185" tgt="6" wght="4.9790578077677" />
        <Con id="207" src="1" tgt="185" wght="2.3622484757072097" />
        <Con id="505" src="185" tgt="489" wght="3.6041661435208554" />
        <Con id="532" src="1" tgt="489" wght="-1.4165940650372695" />
        <Con id="536" src="0" tgt="489" wght="-4.6200459116848034" />
        <Con id="551" src="185" tgt="526" wght="-2.1118437145458531" />
        <Con id="560" src="526" tgt="489" wght="2.8778023023308905" />
      </Connections>
    </Network>
    <Network id="92324" birthGen="2301" fitness="0">
      <Nodes>
        <Node type="bias" id="0" />
        <Node type="in" id="1" />
        <Node type="in" id="2" />
        <Node type="in" id="3" />
        <Node type="in" id="4" />
        <Node type="out" id="5" />
        <Node type="out" id="6" />
        <Node type="hid" id="185" />
        <Node type="hid" id="489" />
        <Node type="hid" id="526" />
      </Nodes>
      <Connections>
        <Con id="22" src="3" tgt="5" wght="0.025109754392676275" />
        <Con id="39" src="3" tgt="6" wght="-0.067813503850167489" />
        <Con id="40" src="0" tgt="6" wght="0.66326023648860588" />
        <Con id="191" src="185" tgt="6" wght="4.9790578077677" />
        <Con id="207" src="1" tgt="185" wght="2.3622484757072097" />
        <Con id="505" src="185" tgt="489" wght="3.6041661435208554" />
        <Con id="532" src="1" tgt="489" wght="-1.4165940650372695" />
        <Con id="536" src="0" tgt="489" wght="-4.4619845505803823" />
        <Con id="551" src="185" tgt="526" wght="-3.20175654128603" />
        <Con id="560" src="526" tgt="489" wght="2.8778023023308905" />
      </Connections>
    </Network>
    <Network id="92325" birthGen="2301" fitness="0">
      <Nodes>
        <Node type="bias" id="0" />
        <Node type="in" id="1" />
        <Node type="in" id="2" />
        <Node type="in" id="3" />
        <Node type="in" id="4" />
        <Node type="out" id="5" />
        <Node type="out" id="6" />
        <Node type="hid" id="185" />
        <Node type="hid" id="489" />
        <Node type="hid" id="526" />
      </Nodes>
      <Connections>
        <Con id="22" src="3" tgt="5" wght="0.025109754392676275" />
        <Con id="39" src="3" tgt="6" wght="-1.9053640972680956" />
        <Con id="40" src="0" tgt="6" wght="0.10210274742004202" />
        <Con id="191" src="185" tgt="6" wght="4.9790578077677" />
        <Con id="207" src="1" tgt="185" wght="2.3622484757072097" />
        <Con id="505" src="185" tgt="489" wght="3.6041661435208554" />
        <Con id="532" src="1" tgt="489" wght="-1.4165940650372695" />
        <Con id="536" src="0" tgt="489" wght="-4.4619845505803823" />
        <Con id="551" src="185" tgt="526" wght="-3.20175654128603" />
        <Con id="560" src="526" tgt="489" wght="2.8778023023308905" />
      </Connections>
    </Network>
    <Network id="92326" birthGen="2301" fitness="0">
      <Nodes>
        <Node type="bias" id="0" />
        <Node type="in" id="1" />
        <Node type="in" id="2" />
        <Node type="in" id="3" />
        <Node type="in" id="4" />
        <Node type="out" id="5" />
        <Node type="out" id="6" />
        <Node type="hid" id="185" />
        <Node type="hid" id="489" />
        <Node type="hid" id="526" />
      </Nodes>
      <Connections>
        <Con id="22" src="3" tgt="5" wght="0.024516675856599758" />
        <Con id="39" src="3" tgt="6" wght="-1.8133274296401432" />
        <Con id="40" src="0" tgt="6" wght="0.26359855197370052" />
        <Con id="191" src="185" tgt="6" wght="5" />
        <Con id="207" src="1" tgt="185" wght="1.2300743632780069" />
        <Con id="505" src="185" tgt="489" wght="3.6041661435208554" />
        <Con id="532" src="1" tgt="489" wght="-1.4165940650372695" />
        <Con id="536" src="0" tgt="489" wght="-4.4619845505803823" />
        <Con id="551" src="185" tgt="526" wght="-3.20175654128603" />
        <Con id="560" src="526" tgt="489" wght="2.8778023023308905" />
      </Connections>
    </Network>
    <Network id="92327" birthGen="2301" fitness="0">
      <Nodes>
        <Node type="bias" id="0" />
        <Node type="in" id="1" />
        <Node type="in" id="2" />
        <Node type="in" id="3" />
        <Node type="in" id="4" />
        <Node type="out" id="5" />
        <Node type="out" id="6" />
        <Node type="hid" id="185" />
        <Node type="hid" id="489" />
        <Node type="hid" id="526" />
      </Nodes>
      <Connections>
        <Con id="22" src="3" tgt="5" wght="0.025109754392676275" />
        <Con id="39" src="3" tgt="6" wght="-1.9053640972680956" />
        <Con id="40" src="0" tgt="6" wght="0.26359855197370052" />
        <Con id="191" src="185" tgt="6" wght="4.9790578077677" />
        <Con id="207" src="1" tgt="185" wght="2.3622484757072097" />
        <Con id="505" src="185" tgt="489" wght="3.6041661435208554" />
        <Con id="532" src="1" tgt="489" wght="-1.4165940650372695" />
        <Con id="536" src="0" tgt="489" wght="-4.4619845505803823" />
        <Con id="551" src="185" tgt="526" wght="-3.2238855291170188" />
        <Con id="560" src="526" tgt="489" wght="2.8778023023308905" />
      </Connections>
    </Network>
    <Network id="92328" birthGen="2301" fitness="0">
      <Nodes>
        <Node type="bias" id="0" />
        <Node type="in" id="1" />
        <Node type="in" id="2" />
        <Node type="in" id="3" />
        <Node type="in" id="4" />
        <Node type="out" id="5" />
        <Node type="out" id="6" />
        <Node type="hid" id="185" />
        <Node type="hid" id="489" />
        <Node type="hid" id="526" />
      </Nodes>
      <Connections>
        <Con id="22" src="3" tgt="5" wght="0.025109754392676275" />
        <Con id="39" src="3" tgt="6" wght="-1.9053640972680956" />
        <Con id="40" src="0" tgt="6" wght="0.26359855197370052" />
        <Con id="191" src="185" tgt="6" wght="4.9790578077677" />
        <Con id="207" src="1" tgt="185" wght="2.3622484757072097" />
        <Con id="505" src="185" tgt="489" wght="3.6041661435208554" />
        <Con id="532" src="1" tgt="489" wght="-1.923904884927953" />
        <Con id="536" src="0" tgt="489" wght="-4.4619845505803823" />
        <Con id="551" src="185" tgt="526" wght="-3.20175654128603" />
        <Con id="560" src="526" tgt="489" wght="2.8778023023308905" />
      </Connections>
    </Network>
    <Network id="92329" birthGen="2301" fitness="0">
      <Nodes>
        <Node type="bias" id="0" />
        <Node type="in" id="1" />
        <Node type="in" id="2" />
        <Node type="in" id="3" />
        <Node type="in" id="4" />
        <Node type="out" id="5" />
        <Node type="out" id="6" />
        <Node type="hid" id="185" />
        <Node type="hid" id="489" />
        <Node type="hid" id="634" />
        <Node type="hid" id="682" />
      </Nodes>
      <Connections>
        <Con id="22" src="3" tgt="5" wght="0.025109754392676275" />
        <Con id="39" src="3" tgt="6" wght="-1.8537282948829457" />
        <Con id="191" src="185" tgt="6" wght="5" />
        <Con id="503" src="489" tgt="6" wght="4.8897068766812772" />
        <Con id="636" src="634" tgt="489" wght="0.35662961472120391" />
        <Con id="683" src="3" tgt="682" wght="4.3725669340054587" />
        <Con id="684" src="682" tgt="185" wght="4.9784722664289935" />
        <Con id="695" src="634" tgt="682" wght="-1.3047325084928525" />
      </Connections>
    </Network>
    <Network id="92330" birthGen="2301" fitness="0">
      <Nodes>
        <Node type="bias" id="0" />
        <Node type="in" id="1" />
        <Node type="in" id="2" />
        <Node type="in" id="3" />
        <Node type="in" id="4" />
        <Node type="out" id="5" />
        <Node type="out" id="6" />
        <Node type="hid" id="185" />
        <Node type="hid" id="489" />
        <Node type="hid" id="634" />
        <Node type="hid" id="682" />
      </Nodes>
      <Connections>
        <Con id="22" src="3" tgt="5" wght="0.025109754392676275" />
        <Con id="39" src="3" tgt="6" wght="-4.0143178246416618" />
        <Con id="191" src="185" tgt="6" wght="5" />
        <Con id="503" src="489" tgt="6" wght="4.8897068766812772" />
        <Con id="636" src="634" tgt="489" wght="0.35662961472120391" />
        <Con id="683" src="3" tgt="682" wght="4.3725669340054587" />
        <Con id="684" src="682" tgt="185" wght="4.9784722664289935" />
        <Con id="695" src="634" tgt="682" wght="-1.3309440342168519" />
      </Connections>
    </Network>
    <Network id="92331" birthGen="2301" fitness="0">
      <Nodes>
        <Node type="bias" id="0" />
        <Node type="in" id="1" />
        <Node type="in" id="2" />
        <Node type="in" id="3" />
        <Node type="in" id="4" />
        <Node type="out" id="5" />
        <Node type="out" id="6" />
        <Node type="hid" id="185" />
        <Node type="hid" id="489" />
        <Node type="hid" id="634" />
        <Node type="hid" id="682" />
      </Nodes>
      <Connections>
        <Con id="22" src="3" tgt="5" wght="0.025109754392676275" />
        <Con id="39" src="3" tgt="6" wght="-1.8537282948829457" />
        <Con id="191" src="185" tgt="6" wght="4.9842707686493668" />
        <Con id="503" src="489" tgt="6" wght="4.8897068766812772" />
        <Con id="636" src="634" tgt="489" wght="0.35662961472120391" />
        <Con id="683" src="3" tgt="682" wght="4.3725669340054587" />
        <Con id="684" src="682" tgt="185" wght="4.9784722664289935" />
        <Con id="695" src="634" tgt="682" wght="-1.3309440342168519" />
      </Connections>
    </Network>
    <Network id="92332" birthGen="2301" fitness="0">
      <Nodes>
        <Node type="bias" id="0" />
        <Node type="in" id="1" />
        <Node type="in" id="2" />
        <Node type="in" id="3" />
        <Node type="in" id="4" />
        <Node type="out" id="5" />
        <Node type="out" id="6" />
        <Node type="hid" id="185" />
        <Node type="hid" id="489" />
        <Node type="hid" id="526" />
        <Node type="hid" id="634" />
      </Nodes>
      <Connections>
        <Con id="22" src="3" tgt="5" wght="0.025109754392676275" />
        <Con id="39" src="3" tgt="6" wght="-2.0272929774674169" />
        <Con id="40" src="0" tgt="6" wght="0.39890416263717043" />
        <Con id="191" src="185" tgt="6" wght="4.9868449312835095" />
        <Con id="207" src="1" tgt="185" wght="2.3830015258863568" />
        <Con id="216" src="3" tgt="185" wght="4.6310144507729953" />
        <Con id="503" src="489" tgt="6" wght="-1.0196560394624543" />
        <Con id="505" src="185" tgt="489" wght="3.3898965936849739" />
        <Con id="532" src="1" tgt="489" wght="-1.5366670489311218" />
        <Con id="536" src="0" tgt="489" wght="-4.4619845505803823" />
        <Con id="551" src="185" tgt="526" wght="-3.1788718994070169" />
        <Con id="560" src="526" tgt="489" wght="2.9121237257360812" />
        <Con id="636" src="634" tgt="489" wght="4.4338716277199177" />
        <Con id="698" src="1" tgt="526" wght="2.7728961788398636" />
      </Connections>
    </Network>
    <Network id="92333" birthGen="2301" fitness="0">
      <Nodes>
        <Node type="bias" id="0" />
        <Node type="in" id="1" />
        <Node type="in" id="2" />
        <Node type="in" id="3" />
        <Node type="in" id="4" />
        <Node type="out" id="5" />
        <Node type="out" id="6" />
        <Node type="hid" id="185" />
        <Node type="hid" id="489" />
        <Node type="hid" id="526" />
        <Node type="hid" id="634" />
      </Nodes>
      <Connections>
        <Con id="22" src="3" tgt="5" wght="0.025109754392676275" />
        <Con id="39" src="3" tgt="6" wght="-2.0272929774674169" />
        <Con id="40" src="0" tgt="6" wght="0.3950413038048517" />
        <Con id="191" src="185" tgt="6" wght="4.9868449312835095" />
        <Con id="207" src="1" tgt="185" wght="2.3830015258863568" />
        <Con id="216" src="3" tgt="185" wght="4.5290579310061174" />
        <Con id="503" src="489" tgt="6" wght="-1.0196560394624543" />
        <Con id="505" src="185" tgt="489" wght="3.3898965936849739" />
        <Con id="532" src="1" tgt="489" wght="-1.5366670489311218" />
        <Con id="536" src="0" tgt="489" wght="-4.3173577637860836" />
        <Con id="551" src="185" tgt="526" wght="-3.1788718994070169" />
        <Con id="560" src="526" tgt="489" wght="2.9303744792205362" />
        <Con id="636" src="634" tgt="489" wght="4.4338716277199177" />
        <Con id="698" src="1" tgt="526" wght="2.7794302208349109" />
      </Connections>
    </Network>
    <Network id="92334" birthGen="2301" fitness="0">
      <Nodes>
        <Node type="bias" id="0" />
        <Node type="in" id="1" />
        <Node type="in" id="2" />
        <Node type="in" id="3" />
        <Node type="in" id="4" />
        <Node type="out" id="5" />
        <Node type="out" id="6" />
        <Node type="hid" id="185" />
        <Node type="hid" id="489" />
        <Node type="hid" id="526" />
        <Node type="hid" id="634" />
      </Nodes>
      <Connections>
        <Con id="22" src="3" tgt="5" wght="0.025109754392676275" />
        <Con id="39" src="3" tgt="6" wght="-2.0272929774674169" />
        <Con id="40" src="0" tgt="6" wght="0.3950413038048517" />
        <Con id="191" src="185" tgt="6" wght="4.9868449312835095" />
        <Con id="207" src="1" tgt="185" wght="2.3830015258863568" />
        <Con id="216" src="3" tgt="185" wght="4.6310144507729953" />
        <Con id="503" src="489" tgt="6" wght="-1.0196560394624543" />
        <Con id="505" src="185" tgt="489" wght="3.3898965936849739" />
        <Con id="532" src="1" tgt="489" wght="-1.5366670489311218" />
        <Con id="536" src="0" tgt="489" wght="-4.4619845505803823" />
        <Con id="551" src="185" tgt="526" wght="-3.1788718994070169" />
        <Con id="560" src="526" tgt="489" wght="2.9303744792205362" />
        <Con id="636" src="634" tgt="489" wght="4.4338716277199177" />
        <Con id="698" src="1" tgt="526" wght="1.2473687334074604" />
      </Connections>
    </Network>
    <Network id="92335" birthGen="2301" fitness="0">
      <Nodes>
        <Node type="bias" id="0" />
        <Node type="in" id="1" />
        <Node type="in" id="2" />
        <Node type="in" id="3" />
        <Node type="in" id="4" />
        <Node type="out" id="5" />
        <Node type="out" id="6" />
        <Node type="hid" id="185" />
        <Node type="hid" id="489" />
        <Node type="hid" id="526" />
        <Node type="hid" id="634" />
      </Nodes>
      <Connections>
        <Con id="22" src="3" tgt="5" wght="0.026936020910939863" />
        <Con id="39" src="3" tgt="6" wght="-2.0272929774674169" />
        <Con id="40" src="0" tgt="6" wght="0.3950413038048517" />
        <Con id="191" src="185" tgt="6" wght="4.9868449312835095" />
        <Con id="207" src="1" tgt="185" wght="2.3830015258863568" />
        <Con id="216" src="3" tgt="185" wght="4.6310144507729953" />
        <Con id="503" src="489" tgt="6" wght="-1.0196560394624543" />
        <Con id="505" src="185" tgt="489" wght="3.3898965936849739" />
        <Con id="532" src="1" tgt="489" wght="-1.5366670489311218" />
        <Con id="536" src="0" tgt="489" wght="-4.4619845505803823" />
        <Con id="551" src="185" tgt="526" wght="-3.1855203711178404" />
        <Con id="560" src="526" tgt="489" wght="2.9303744792205362" />
        <Con id="636" src="634" tgt="489" wght="4.4338716277199177" />
        <Con id="698" src="1" tgt="526" wght="2.7794302208349109" />
      </Connections>
    </Network>
    <Network id="92336" birthGen="2301" fitness="0">
      <Nodes>
        <Node type="bias" id="0" />
        <Node type="in" id="1" />
        <Node type="in" id="2" />
        <Node type="in" id="3" />
        <Node type="in" id="4" />
        <Node type="out" id="5" />
        <Node type="out" id="6" />
        <Node type="hid" id="185" />
        <Node type="hid" id="489" />
        <Node type="hid" id="526" />
        <Node type="hid" id="634" />
      </Nodes>
      <Connections>
        <Con id="22" src="3" tgt="5" wght="0.025109754392676275" />
        <Con id="39" src="3" tgt="6" wght="-2.0272929774674169" />
        <Con id="40" src="0" tgt="6" wght="0.3950413038048517" />
        <Con id="191" src="185" tgt="6" wght="4.9868449312835095" />
        <Con id="207" src="1" tgt="185" wght="2.3830015258863568" />
        <Con id="216" src="3" tgt="185" wght="4.6197936740766465" />
        <Con id="503" src="489" tgt="6" wght="-1.0196560394624543" />
        <Con id="505" src="185" tgt="489" wght="3.3898965936849739" />
        <Con id="532" src="1" tgt="489" wght="-1.5366670489311218" />
        <Con id="536" src="0" tgt="489" wght="-4.4619845505803823" />
        <Con id="551" src="185" tgt="526" wght="-3.1788718994070169" />
        <Con id="560" src="526" tgt="489" wght="2.9303744792205362" />
        <Con id="636" src="634" tgt="489" wght="4.4338716277199177" />
        <Con id="698" src="1" tgt="526" wght="2.7794302208349109" />
      </Connections>
    </Network>
    <Network id="92337" birthGen="2301" fitness="0">
      <Nodes>
        <Node type="bias" id="0" />
        <Node type="in" id="1" />
        <Node type="in" id="2" />
        <Node type="in" id="3" />
        <Node type="in" id="4" />
        <Node type="out" id="5" />
        <Node type="out" id="6" />
        <Node type="hid" id="185" />
        <Node type="hid" id="489" />
        <Node type="hid" id="634" />
        <Node type="hid" id="682" />
      </Nodes>
      <Connections>
        <Con id="22" src="3" tgt="5" wght="0.025109754392676275" />
        <Con id="39" src="3" tgt="6" wght="-1.8537282948829457" />
        <Con id="191" src="185" tgt="6" wght="5" />
        <Con id="503" src="489" tgt="6" wght="4.8480926780030131" />
        <Con id="636" src="634" tgt="489" wght="-0.14986204398599307" />
        <Con id="652" src="634" tgt="185" wght="-3.3218746714893355" />
        <Con id="683" src="3" tgt="682" wght="2.7071820031357907" />
        <Con id="684" src="682" tgt="185" wght="4.9784722664289935" />
      </Connections>
    </Network>
    <Network id="92338" birthGen="2301" fitness="0">
      <Nodes>
        <Node type="bias" id="0" />
        <Node type="in" id="1" />
        <Node type="in" id="2" />
        <Node type="in" id="3" />
        <Node type="in" id="4" />
        <Node type="out" id="5" />
        <Node type="out" id="6" />
        <Node type="hid" id="185" />
        <Node type="hid" id="489" />
        <Node type="hid" id="634" />
        <Node type="hid" id="682" />
      </Nodes>
      <Connections>
        <Con id="22" src="3" tgt="5" wght="0.025109754392676275" />
        <Con id="39" src="3" tgt="6" wght="-1.8537282948829457" />
        <Con id="191" src="185" tgt="6" wght="5" />
        <Con id="503" src="489" tgt="6" wght="4.8130532491808236" />
        <Con id="636" src="634" tgt="489" wght="-0.14986204398599307" />
        <Con id="652" src="634" tgt="185" wght="-3.3106630761176348" />
        <Con id="683" src="3" tgt="682" wght="2.7126833495635658" />
        <Con id="684" src="682" tgt="185" wght="4.9794703588761147" />
      </Connections>
    </Network>
    <Network id="92339" birthGen="2301" fitness="0">
      <Nodes>
        <Node type="bias" id="0" />
        <Node type="in" id="1" />
        <Node type="in" id="2" />
        <Node type="in" id="3" />
        <Node type="in" id="4" />
        <Node type="out" id="5" />
        <Node type="out" id="6" />
        <Node type="hid" id="185" />
        <Node type="hid" id="489" />
        <Node type="hid" id="634" />
        <Node type="hid" id="682" />
      </Nodes>
      <Connections>
        <Con id="22" src="3" tgt="5" wght="0.016670890939541841" />
        <Con id="39" src="3" tgt="6" wght="-1.8537282948829457" />
        <Con id="191" src="185" tgt="6" wght="5" />
        <Con id="503" src="489" tgt="6" wght="4.8480926780030131" />
        <Con id="636" src="634" tgt="489" wght="-0.14986204398599307" />
        <Con id="652" src="634" tgt="185" wght="-3.3195019839955577" />
        <Con id="683" src="3" tgt="682" wght="2.7126833495635658" />
        <Con id="684" src="682" tgt="185" wght="4.9784722664289935" />
      </Connections>
    </Network>
    <Network id="92340" birthGen="2301" fitness="0">
      <Nodes>
        <Node type="bias" id="0" />
        <Node type="in" id="1" />
        <Node type="in" id="2" />
        <Node type="in" id="3" />
        <Node type="in" id="4" />
        <Node type="out" id="5" />
        <Node type="out" id="6" />
        <Node type="hid" id="185" />
        <Node type="hid" id="489" />
        <Node type="hid" id="634" />
        <Node type="hid" id="682" />
      </Nodes>
      <Connections>
        <Con id="22" src="3" tgt="5" wght="0.025109754392676275" />
        <Con id="39" src="3" tgt="6" wght="-1.8537282948829457" />
        <Con id="191" src="185" tgt="6" wght="5" />
        <Con id="503" src="489" tgt="6" wght="4.8480926780030131" />
        <Con id="636" src="634" tgt="489" wght="-0.14986204398599307" />
        <Con id="652" src="634" tgt="185" wght="-3.3106630761176348" />
        <Con id="683" src="3" tgt="682" wght="2.7060323517363671" />
        <Con id="684" src="682" tgt="185" wght="4.9723638552658924" />
      </Connections>
    </Network>
    <Network id="92341" birthGen="2301" fitness="0">
      <Nodes>
        <Node type="bias" id="0" />
        <Node type="in" id="1" />
        <Node type="in" id="2" />
        <Node type="in" id="3" />
        <Node type="in" id="4" />
        <Node type="out" id="5" />
        <Node type="out" id="6" />
        <Node type="hid" id="185" />
        <Node type="hid" id="489" />
        <Node type="hid" id="634" />
        <Node type="hid" id="682" />
      </Nodes>
      <Connections>
        <Con id="22" src="3" tgt="5" wght="0.025109754392676275" />
        <Con id="39" src="3" tgt="6" wght="-1.8637820428411018" />
        <Con id="191" src="185" tgt="6" wght="5" />
        <Con id="503" src="489" tgt="6" wght="4.8480926780030131" />
        <Con id="636" src="634" tgt="489" wght="-0.14986204398599307" />
        <Con id="652" src="634" tgt="185" wght="-3.3106630761176348" />
        <Con id="683" src="3" tgt="682" wght="2.721871543626821" />
        <Con id="684" src="682" tgt="185" wght="4.9784722664289935" />
      </Connections>
    </Network>
    <Network id="92342" birthGen="2301" fitness="0">
      <Nodes>
        <Node type="bias" id="0" />
        <Node type="in" id="1" />
        <Node type="in" id="2" />
        <Node type="in" id="3" />
        <Node type="in" id="4" />
        <Node type="out" id="5" />
        <Node type="out" id="6" />
        <Node type="hid" id="185" />
        <Node type="hid" id="489" />
        <Node type="hid" id="634" />
        <Node type="hid" id="682" />
      </Nodes>
      <Connections>
        <Con id="22" src="3" tgt="5" wght="0.025109754392676275" />
        <Con id="39" src="3" tgt="6" wght="-1.878092658673054" />
        <Con id="191" src="185" tgt="6" wght="5" />
        <Con id="503" src="489" tgt="6" wght="4.8567924551589279" />
        <Con id="636" src="634" tgt="489" wght="-0.14986204398599307" />
        <Con id="652" src="634" tgt="185" wght="-3.3106630761176348" />
        <Con id="683" src="3" tgt="682" wght="2.7126833495635658" />
        <Con id="684" src="682" tgt="185" wght="4.9784722664289935" />
      </Connections>
    </Network>
    <Network id="92343" birthGen="2301" fitness="0">
      <Nodes>
        <Node type="bias" id="0" />
        <Node type="in" id="1" />
        <Node type="in" id="2" />
        <Node type="in" id="3" />
        <Node type="in" id="4" />
        <Node type="out" id="5" />
        <Node type="out" id="6" />
        <Node type="hid" id="185" />
        <Node type="hid" id="489" />
        <Node type="hid" id="634" />
        <Node type="hid" id="682" />
      </Nodes>
      <Connections>
        <Con id="22" src="3" tgt="5" wght="2.3378798551857471" />
        <Con id="39" src="3" tgt="6" wght="-1.847666136662117" />
        <Con id="191" src="185" tgt="6" wght="5" />
        <Con id="503" src="489" tgt="6" wght="4.8480926780030131" />
        <Con id="636" src="634" tgt="489" wght="-0.12431204423475967" />
        <Con id="652" src="634" tgt="185" wght="-3.3106630761176348" />
        <Con id="683" src="3" tgt="682" wght="3.8718733853975209" />
        <Con id="684" src="682" tgt="185" wght="4.9784722664289935" />
      </Connections>
    </Network>
    <Network id="92344" birthGen="2301" fitness="0">
      <Nodes>
        <Node type="bias" id="0" />
        <Node type="in" id="1" />
        <Node type="in" id="2" />
        <Node type="in" id="3" />
        <Node type="in" id="4" />
        <Node type="out" id="5" />
        <Node type="out" id="6" />
        <Node type="hid" id="185" />
        <Node type="hid" id="489" />
        <Node type="hid" id="634" />
        <Node type="hid" id="682" />
      </Nodes>
      <Connections>
        <Con id="22" src="3" tgt="5" wght="0.025109754392676275" />
        <Con id="39" src="3" tgt="6" wght="-2.0734122499697314" />
        <Con id="191" src="185" tgt="6" wght="4.7967183262202635" />
        <Con id="503" src="489" tgt="6" wght="4.8480926780030131" />
        <Con id="636" src="634" tgt="489" wght="-0.12431204423475967" />
        <Con id="652" src="634" tgt="185" wght="-3.3106630761176348" />
        <Con id="683" src="3" tgt="682" wght="3.8718733853975209" />
        <Con id="684" src="682" tgt="185" wght="5" />
      </Connections>
    </Network>
    <Network id="92345" birthGen="2301" fitness="0">
      <Nodes>
        <Node type="bias" id="0" />
        <Node type="in" id="1" />
        <Node type="in" id="2" />
        <Node type="in" id="3" />
        <Node type="in" id="4" />
        <Node type="out" id="5" />
        <Node type="out" id="6" />
        <Node type="hid" id="185" />
        <Node type="hid" id="489" />
        <Node type="hid" id="526" />
        <Node type="hid" id="581" />
        <Node type="hid" id="625" />
        <Node type="hid" id="637" />
      </Nodes>
      <Connections>
        <Con id="22" src="3" tgt="5" wght="0.024516675856599758" />
        <Con id="39" src="3" tgt="6" wght="-1.8133274296401432" />
        <Con id="191" src="185" tgt="6" wght="5" />
        <Con id="207" src="1" tgt="185" wght="2.3012184963589419" />
        <Con id="503" src="489" tgt="6" wght="-0.8847928094697477" />
        <Con id="560" src="526" tgt="489" wght="3.223680383494627" />
        <Con id="626" src="3" tgt="625" wght="-1.2284380885814612" />
        <Con id="632" src="625" tgt="581" wght="5" />
        <Con id="639" src="637" tgt="185" wght="4.98080119139929" />
      </Connections>
    </Network>
    <Network id="92346" birthGen="2301" fitness="0">
      <Nodes>
        <Node type="bias" id="0" />
        <Node type="in" id="1" />
        <Node type="in" id="2" />
        <Node type="in" id="3" />
        <Node type="in" id="4" />
        <Node type="out" id="5" />
        <Node type="out" id="6" />
        <Node type="hid" id="185" />
        <Node type="hid" id="489" />
        <Node type="hid" id="634" />
        <Node type="hid" id="682" />
      </Nodes>
      <Connections>
        <Con id="22" src="3" tgt="5" wght="0.025109754392676275" />
        <Con id="39" src="3" tgt="6" wght="-1.847666136662117" />
        <Con id="191" src="185" tgt="6" wght="5" />
        <Con id="503" src="489" tgt="6" wght="4.8480926780030131" />
        <Con id="636" src="634" tgt="489" wght="-0.12431204423475967" />
        <Con id="652" src="634" tgt="185" wght="-3.3106630761176348" />
        <Con id="683" src="3" tgt="682" wght="3.8718733853975209" />
        <Con id="684" src="682" tgt="185" wght="4.9733594797779519" />
      </Connections>
    </Network>
    <Network id="92347" birthGen="2301" fitness="0">
      <Nodes>
        <Node type="bias" id="0" />
        <Node type="in" id="1" />
        <Node type="in" id="2" />
        <Node type="in" id="3" />
        <Node type="in" id="4" />
        <Node type="out" id="5" />
        <Node type="out" id="6" />
        <Node type="hid" id="185" />
        <Node type="hid" id="489" />
        <Node type="hid" id="634" />
        <Node type="hid" id="682" />
      </Nodes>
      <Connections>
        <Con id="22" src="3" tgt="5" wght="0.025109754392676275" />
        <Con id="39" src="3" tgt="6" wght="-0.0086790875142286339" />
        <Con id="191" src="185" tgt="6" wght="5" />
        <Con id="503" src="489" tgt="6" wght="5" />
        <Con id="636" src="634" tgt="489" wght="-1.3860837309151293" />
        <Con id="652" src="634" tgt="185" wght="2.4181436870362476" />
        <Con id="683" src="3" tgt="682" wght="3.4935733111962746" />
        <Con id="684" src="682" tgt="185" wght="4.2794676388858477" />
        <Con id="695" src="634" tgt="682" wght="-1.3198507554190664" />
      </Connections>
    </Network>
    <Network id="92348" birthGen="2301" fitness="0">
      <Nodes>
        <Node type="bias" id="0" />
        <Node type="in" id="1" />
        <Node type="in" id="2" />
        <Node type="in" id="3" />
        <Node type="in" id="4" />
        <Node type="out" id="5" />
        <Node type="out" id="6" />
        <Node type="hid" id="185" />
        <Node type="hid" id="489" />
        <Node type="hid" id="634" />
        <Node type="hid" id="682" />
      </Nodes>
      <Connections>
        <Con id="22" src="3" tgt="5" wght="0.025109754392676275" />
        <Con id="39" src="3" tgt="6" wght="-2.4654666212104703" />
        <Con id="191" src="185" tgt="6" wght="5" />
        <Con id="503" src="489" tgt="6" wght="5" />
        <Con id="636" src="634" tgt="489" wght="-0.48110132403894856" />
        <Con id="652" src="634" tgt="185" wght="1.1298444541171193" />
        <Con id="683" src="3" tgt="682" wght="3.4935733111962746" />
        <Con id="684" src="682" tgt="185" wght="4.9784722664289935" />
        <Con id="695" src="634" tgt="682" wght="-1.3198507554190664" />
      </Connections>
    </Network>
    <Network id="92349" birthGen="2301" fitness="0">
      <Nodes>
        <Node type="bias" id="0" />
        <Node type="in" id="1" />
        <Node type="in" id="2" />
        <Node type="in" id="3" />
        <Node type="in" id="4" />
        <Node type="out" id="5" />
        <Node type="out" id="6" />
        <Node type="hid" id="185" />
        <Node type="hid" id="489" />
        <Node type="hid" id="634" />
        <Node type="hid" id="682" />
      </Nodes>
      <Connections>
        <Con id="22" src="3" tgt="5" wght="0.02983559913172118" />
        <Con id="39" src="3" tgt="6" wght="-1.8537282948829457" />
        <Con id="191" src="185" tgt="6" wght="5" />
        <Con id="503" src="489" tgt="6" wght="-2.9360743053447869" />
        <Con id="545" src="489" tgt="185" wght="-1.4181381488834595" />
        <Con id="636" src="634" tgt="489" wght="-0.22586789031384241" />
        <Con id="683" src="3" tgt="682" wght="3.7356987207454173" />
        <Con id="684" src="682" tgt="185" wght="5" />
        <Con id="695" src="634" tgt="682" wght="0.21617239034490163" />
      </Connections>
    </Network>
    <Network id="92350" birthGen="2301" fitness="0">
      <Nodes>
        <Node type="bias" id="0" />
        <Node type="in" id="1" />
        <Node type="in" id="2" />
        <Node type="in" id="3" />
        <Node type="in" id="4" />
        <Node type="out" id="5" />
        <Node type="out" id="6" />
        <Node type="hid" id="185" />
        <Node type="hid" id="489" />
        <Node type="hid" id="634" />
        <Node type="hid" id="682" />
      </Nodes>
      <Connections>
        <Con id="22" src="3" tgt="5" wght="0.025109754392676275" />
        <Con id="39" src="3" tgt="6" wght="-1.8537282948829457" />
        <Con id="191" src="185" tgt="6" wght="5" />
        <Con id="503" src="489" tgt="6" wght="-2.9360743053447869" />
        <Con id="545" src="489" tgt="185" wght="-1.8755646101378349" />
        <Con id="636" src="634" tgt="489" wght="-0.20199663214583508" />
        <Con id="683" src="3" tgt="682" wght="3.7349151732943344" />
        <Con id="684" src="682" tgt="185" wght="5" />
        <Con id="695" src="634" tgt="682" wght="0.21617239034490163" />
      </Connections>
    </Network>
    <Network id="92351" birthGen="2301" fitness="0">
      <Nodes>
        <Node type="bias" id="0" />
        <Node type="in" id="1" />
        <Node type="in" id="2" />
        <Node type="in" id="3" />
        <Node type="in" id="4" />
        <Node type="out" id="5" />
        <Node type="out" id="6" />
        <Node type="hid" id="185" />
        <Node type="hid" id="489" />
        <Node type="hid" id="634" />
        <Node type="hid" id="682" />
      </Nodes>
      <Connections>
        <Con id="22" src="3" tgt="5" wght="0.025109754392676275" />
        <Con id="39" src="3" tgt="6" wght="-1.8537282948829457" />
        <Con id="191" src="185" tgt="6" wght="5" />
        <Con id="503" src="489" tgt="6" wght="-2.9360743053447869" />
        <Con id="545" src="489" tgt="185" wght="-1.4181381488834595" />
        <Con id="636" src="634" tgt="489" wght="-0.20199663214583508" />
        <Con id="683" src="3" tgt="682" wght="3.7109648891944285" />
        <Con id="684" src="682" tgt="185" wght="5" />
        <Con id="695" src="634" tgt="682" wght="0.21617239034490163" />
      </Connections>
    </Network>
    <Network id="92352" birthGen="2301" fitness="0">
      <Nodes>
        <Node type="bias" id="0" />
        <Node type="in" id="1" />
        <Node type="in" id="2" />
        <Node type="in" id="3" />
        <Node type="in" id="4" />
        <Node type="out" id="5" />
        <Node type="out" id="6" />
        <Node type="hid" id="185" />
        <Node type="hid" id="489" />
        <Node type="hid" id="634" />
        <Node type="hid" id="682" />
      </Nodes>
      <Connections>
        <Con id="22" src="3" tgt="5" wght="0.025109754392676275" />
        <Con id="39" src="3" tgt="6" wght="-1.8537282948829457" />
        <Con id="191" src="185" tgt="6" wght="5" />
        <Con id="503" src="489" tgt="6" wght="-2.9360743053447869" />
        <Con id="545" src="489" tgt="185" wght="-1.4181381488834595" />
        <Con id="636" src="634" tgt="489" wght="-0.22586789031384241" />
        <Con id="683" src="3" tgt="682" wght="3.7349151732943344" />
        <Con id="684" src="682" tgt="185" wght="5" />
        <Con id="695" src="634" tgt="682" wght="0.21617239034490163" />
      </Connections>
    </Network>
    <Network id="92353" birthGen="2301" fitness="0">
      <Nodes>
        <Node type="bias" id="0" />
        <Node type="in" id="1" />
        <Node type="in" id="2" />
        <Node type="in" id="3" />
        <Node type="in" id="4" />
        <Node type="out" id="5" />
        <Node type="out" id="6" />
        <Node type="hid" id="185" />
        <Node type="hid" id="489" />
        <Node type="hid" id="526" />
        <Node type="hid" id="581" />
        <Node type="hid" id="625" />
        <Node type="hid" id="637" />
      </Nodes>
      <Connections>
        <Con id="22" src="3" tgt="5" wght="0.024516675856599758" />
        <Con id="39" src="3" tgt="6" wght="-2.4072445759290035" />
        <Con id="191" src="185" tgt="6" wght="5" />
        <Con id="207" src="1" tgt="185" wght="2.3012184963589419" />
        <Con id="503" src="489" tgt="6" wght="-0.8847928094697477" />
        <Con id="560" src="526" tgt="489" wght="3.1915804972118753" />
        <Con id="626" src="3" tgt="625" wght="-1.2207849453253952" />
        <Con id="632" src="625" tgt="581" wght="4.5382242956495427" />
        <Con id="639" src="637" tgt="185" wght="4.98080119139929" />
      </Connections>
    </Network>
    <Network id="92354" birthGen="2301" fitness="0">
      <Nodes>
        <Node type="bias" id="0" />
        <Node type="in" id="1" />
        <Node type="in" id="2" />
        <Node type="in" id="3" />
        <Node type="in" id="4" />
        <Node type="out" id="5" />
        <Node type="out" id="6" />
        <Node type="hid" id="185" />
        <Node type="hid" id="489" />
        <Node type="hid" id="526" />
        <Node type="hid" id="581" />
        <Node type="hid" id="625" />
        <Node type="hid" id="637" />
      </Nodes>
      <Connections>
        <Con id="22" src="3" tgt="5" wght="0.35259608435263484" />
        <Con id="39" src="3" tgt="6" wght="-1.8133274296401432" />
        <Con id="191" src="185" tgt="6" wght="5" />
        <Con id="207" src="1" tgt="185" wght="2.3012184963589419" />
        <Con id="503" src="489" tgt="6" wght="-0.8847928094697477" />
        <Con id="560" src="526" tgt="489" wght="3.1915804972118753" />
        <Con id="626" src="3" tgt="625" wght="-1.2207849453253952" />
        <Con id="632" src="625" tgt="581" wght="5" />
        <Con id="639" src="637" tgt="185" wght="4.98080119139929" />
      </Connections>
    </Network>
    <Network id="92355" birthGen="2301" fitness="0">
      <Nodes>
        <Node type="bias" id="0" />
        <Node type="in" id="1" />
        <Node type="in" id="2" />
        <Node type="in" id="3" />
        <Node type="in" id="4" />
        <Node type="out" id="5" />
        <Node type="out" id="6" />
        <Node type="hid" id="185" />
        <Node type="hid" id="489" />
        <Node type="hid" id="526" />
        <Node type="hid" id="581" />
        <Node type="hid" id="625" />
        <Node type="hid" id="637" />
      </Nodes>
      <Connections>
        <Con id="22" src="3" tgt="5" wght="0.024516675856599758" />
        <Con id="39" src="3" tgt="6" wght="-1.8133274296401432" />
        <Con id="191" src="185" tgt="6" wght="5" />
        <Con id="207" src="1" tgt="185" wght="2.3012184963589419" />
        <Con id="503" src="489" tgt="6" wght="-0.8847928094697477" />
        <Con id="560" src="526" tgt="489" wght="3.1915804972118753" />
        <Con id="626" src="3" tgt="625" wght="-1.2284380885814612" />
        <Con id="632" src="625" tgt="581" wght="5" />
        <Con id="639" src="637" tgt="185" wght="4.98080119139929" />
      </Connections>
    </Network>
    <Network id="92356" birthGen="2301" fitness="0">
      <Nodes>
        <Node type="bias" id="0" />
        <Node type="in" id="1" />
        <Node type="in" id="2" />
        <Node type="in" id="3" />
        <Node type="in" id="4" />
        <Node type="out" id="5" />
        <Node type="out" id="6" />
        <Node type="hid" id="185" />
        <Node type="hid" id="489" />
        <Node type="hid" id="526" />
        <Node type="hid" id="581" />
        <Node type="hid" id="625" />
        <Node type="hid" id="637" />
      </Nodes>
      <Connections>
        <Con id="22" src="3" tgt="5" wght="0.024516675856599758" />
        <Con id="39" src="3" tgt="6" wght="-1.8133274296401432" />
        <Con id="191" src="185" tgt="6" wght="5" />
        <Con id="207" src="1" tgt="185" wght="2.3012184963589419" />
        <Con id="503" src="489" tgt="6" wght="-0.8847928094697477" />
        <Con id="560" src="526" tgt="489" wght="3.1915804972118753" />
        <Con id="626" src="3" tgt="625" wght="-1.2207849453253952" />
        <Con id="632" src="625" tgt="581" wght="5" />
        <Con id="639" src="637" tgt="185" wght="4.98080119139929" />
      </Connections>
    </Network>
    <Network id="92357" birthGen="2301" fitness="0">
      <Nodes>
        <Node type="bias" id="0" />
        <Node type="in" id="1" />
        <Node type="in" id="2" />
        <Node type="in" id="3" />
        <Node type="in" id="4" />
        <Node type="out" id="5" />
        <Node type="out" id="6" />
        <Node type="hid" id="185" />
        <Node type="hid" id="489" />
        <Node type="hid" id="526" />
        <Node type="hid" id="581" />
        <Node type="hid" id="625" />
        <Node type="hid" id="637" />
      </Nodes>
      <Connections>
        <Con id="22" src="3" tgt="5" wght="0.024516675856599758" />
        <Con id="39" src="3" tgt="6" wght="-1.8133274296401432" />
        <Con id="191" src="185" tgt="6" wght="5" />
        <Con id="207" src="1" tgt="185" wght="1.2300743632780069" />
        <Con id="503" src="489" tgt="6" wght="-0.8847928094697477" />
        <Con id="560" src="526" tgt="489" wght="3.223680383494627" />
        <Con id="580" src="526" tgt="5" wght="3.2394807832315564" />
        <Con id="626" src="3" tgt="625" wght="-1.9521665833236144" />
        <Con id="632" src="625" tgt="581" wght="4.9952613073684322" />
        <Con id="639" src="637" tgt="185" wght="2.96077039187349" />
      </Connections>
    </Network>
    <Network id="92358" birthGen="2301" fitness="0">
      <Nodes>
        <Node type="bias" id="0" />
        <Node type="in" id="1" />
        <Node type="in" id="2" />
        <Node type="in" id="3" />
        <Node type="in" id="4" />
        <Node type="out" id="5" />
        <Node type="out" id="6" />
        <Node type="hid" id="185" />
        <Node type="hid" id="489" />
        <Node type="hid" id="526" />
        <Node type="hid" id="581" />
        <Node type="hid" id="625" />
        <Node type="hid" id="637" />
      </Nodes>
      <Connections>
        <Con id="22" src="3" tgt="5" wght="0.024516675856599758" />
        <Con id="39" src="3" tgt="6" wght="-1.8133274296401432" />
        <Con id="191" src="185" tgt="6" wght="4.1993530963343382" />
        <Con id="207" src="1" tgt="185" wght="1.2300743632780069" />
        <Con id="503" src="489" tgt="6" wght="-0.42482175006872319" />
        <Con id="560" src="526" tgt="489" wght="3.4985613967049987" />
        <Con id="580" src="526" tgt="5" wght="3.2394807832315564" />
        <Con id="626" src="3" tgt="625" wght="-1.9521665833236144" />
        <Con id="632" src="625" tgt="581" wght="4.9880470689826648" />
        <Con id="639" src="637" tgt="185" wght="2.96077039187349" />
      </Connections>
    </Network>
    <Network id="92359" birthGen="2301" fitness="0">
      <Nodes>
        <Node type="bias" id="0" />
        <Node type="in" id="1" />
        <Node type="in" id="2" />
        <Node type="in" id="3" />
        <Node type="in" id="4" />
        <Node type="out" id="5" />
        <Node type="out" id="6" />
        <Node type="hid" id="185" />
        <Node type="hid" id="489" />
        <Node type="hid" id="526" />
        <Node type="hid" id="581" />
        <Node type="hid" id="625" />
        <Node type="hid" id="637" />
      </Nodes>
      <Connections>
        <Con id="22" src="3" tgt="5" wght="0.024516675856599758" />
        <Con id="39" src="3" tgt="6" wght="-1.8133274296401432" />
        <Con id="191" src="185" tgt="6" wght="5" />
        <Con id="207" src="1" tgt="185" wght="1.2300743632780069" />
        <Con id="503" src="489" tgt="6" wght="-0.8847928094697477" />
        <Con id="560" src="526" tgt="489" wght="2.8567710160869617" />
        <Con id="580" src="526" tgt="5" wght="3.2394807832315564" />
        <Con id="626" src="3" tgt="625" wght="-1.9521665833236144" />
        <Con id="632" src="625" tgt="581" wght="4.9880470689826648" />
        <Con id="639" src="637" tgt="185" wght="2.96077039187349" />
      </Connections>
    </Network>
    <Network id="92360" birthGen="2301" fitness="0">
      <Nodes>
        <Node type="bias" id="0" />
        <Node type="in" id="1" />
        <Node type="in" id="2" />
        <Node type="in" id="3" />
        <Node type="in" id="4" />
        <Node type="out" id="5" />
        <Node type="out" id="6" />
        <Node type="hid" id="185" />
        <Node type="hid" id="489" />
        <Node type="hid" id="526" />
        <Node type="hid" id="581" />
        <Node type="hid" id="625" />
        <Node type="hid" id="637" />
      </Nodes>
      <Connections>
        <Con id="22" src="3" tgt="5" wght="0.024516675856599758" />
        <Con id="39" src="3" tgt="6" wght="-1.8133274296401432" />
        <Con id="191" src="185" tgt="6" wght="5" />
        <Con id="207" src="1" tgt="185" wght="1.2192480487762578" />
        <Con id="503" src="489" tgt="6" wght="-0.8847928094697477" />
        <Con id="560" src="526" tgt="489" wght="3.2275383787072687" />
        <Con id="580" src="526" tgt="5" wght="3.2394807832315564" />
        <Con id="626" src="3" tgt="625" wght="-1.9521665833236144" />
        <Con id="632" src="625" tgt="581" wght="4.9880470689826648" />
        <Con id="639" src="637" tgt="185" wght="2.9660825725915911" />
      </Connections>
    </Network>
    <Network id="92361" birthGen="2301" fitness="0">
      <Nodes>
        <Node type="bias" id="0" />
        <Node type="in" id="1" />
        <Node type="in" id="2" />
        <Node type="in" id="3" />
        <Node type="in" id="4" />
        <Node type="out" id="5" />
        <Node type="out" id="6" />
        <Node type="hid" id="185" />
        <Node type="hid" id="489" />
        <Node type="hid" id="526" />
        <Node type="hid" id="581" />
        <Node type="hid" id="625" />
        <Node type="hid" id="637" />
      </Nodes>
      <Connections>
        <Con id="22" src="3" tgt="5" wght="0.024516675856599758" />
        <Con id="39" src="3" tgt="6" wght="-1.8133274296401432" />
        <Con id="191" src="185" tgt="6" wght="5" />
        <Con id="207" src="1" tgt="185" wght="1.2300743632780069" />
        <Con id="503" src="489" tgt="6" wght="-0.8847928094697477" />
        <Con id="560" src="526" tgt="489" wght="3.223680383494627" />
        <Con id="580" src="526" tgt="5" wght="3.2394807832315564" />
        <Con id="626" src="3" tgt="625" wght="-1.9521665833236144" />
        <Con id="632" src="625" tgt="581" wght="4.9880470689826648" />
        <Con id="639" src="637" tgt="185" wght="4.2167753612103063" />
      </Connections>
    </Network>
    <Network id="92362" birthGen="2301" fitness="0">
      <Nodes>
        <Node type="bias" id="0" />
        <Node type="in" id="1" />
        <Node type="in" id="2" />
        <Node type="in" id="3" />
        <Node type="in" id="4" />
        <Node type="out" id="5" />
        <Node type="out" id="6" />
        <Node type="hid" id="185" />
        <Node type="hid" id="489" />
        <Node type="hid" id="526" />
        <Node type="hid" id="581" />
        <Node type="hid" id="625" />
        <Node type="hid" id="637" />
      </Nodes>
      <Connections>
        <Con id="22" src="3" tgt="5" wght="0.024516675856599758" />
        <Con id="39" src="3" tgt="6" wght="-1.8133274296401432" />
        <Con id="191" src="185" tgt="6" wght="5" />
        <Con id="207" src="1" tgt="185" wght="1.2300743632780069" />
        <Con id="503" src="489" tgt="6" wght="-0.8847928094697477" />
        <Con id="560" src="526" tgt="489" wght="3.223680383494627" />
        <Con id="580" src="526" tgt="5" wght="3.2394807832315564" />
        <Con id="626" src="3" tgt="625" wght="-2.6467311294897278" />
        <Con id="632" src="625" tgt="581" wght="4.9880470689826648" />
        <Con id="639" src="637" tgt="185" wght="2.96077039187349" />
      </Connections>
    </Network>
  </Networks>
</Root>