<?xml version="1.0" encoding="utf-8"?>
<Root>
  <ActivationFunctions>
    <Fn id="0" name="SteepenedSigmoid" prob="1" />
  </ActivationFunctions>
  <Networks>
    <Network id="77546" birthGen="1925" fitness="9769.0654296875">
      <Nodes>
        <Node type="bias" id="0" />
        <Node type="in" id="1" />
        <Node type="in" id="2" />
        <Node type="in" id="3" />
        <Node type="in" id="4" />
        <Node type="out" id="5" />
        <Node type="out" id="6" />
        <Node type="out" id="7" />
        <Node type="hid" id="38" />
        <Node type="hid" id="72" />
        <Node type="hid" id="361" />
        <Node type="hid" id="386" />
        <Node type="hid" id="492" />
        <Node type="hid" id="568" />
        <Node type="hid" id="891" />
        <Node type="hid" id="967" />
        <Node type="hid" id="984" />
        <Node type="hid" id="1278" />
        <Node type="hid" id="1289" />
        <Node type="hid" id="1469" />
      </Nodes>
      <Connections>
        <Con id="26" src="3" tgt="6" wght="-0.10606603918701163" />
        <Con id="39" src="1" tgt="38" wght="4.8429773565147753" />
        <Con id="46" src="1" tgt="7" wght="-1.5675624940108959" />
        <Con id="68" src="38" tgt="5" wght="-2.9296500715479956" />
        <Con id="73" src="1" tgt="72" wght="-0.15590499864410909" />
        <Con id="121" src="72" tgt="6" wght="-0.54128529717969776" />
        <Con id="128" src="72" tgt="5" wght="-0.31755345495351439" />
        <Con id="214" src="4" tgt="7" wght="0.1661052261304764" />
        <Con id="227" src="38" tgt="7" wght="1.5642893537929259" />
        <Con id="248" src="2" tgt="7" wght="-0.41290355148671215" />
        <Con id="265" src="0" tgt="6" wght="0.56784386282788046" />
        <Con id="362" src="2" tgt="361" wght="-2.58657019272422" />
        <Con id="363" src="361" tgt="38" wght="-0.7524384189177824" />
        <Con id="374" src="38" tgt="6" wght="-0.71843230263089175" />
        <Con id="380" src="3" tgt="7" wght="-1.9741460323975959" />
        <Con id="385" src="361" tgt="7" wght="-0.80455653369426727" />
        <Con id="396" src="2" tgt="38" wght="-5" />
        <Con id="398" src="1" tgt="361" wght="3.5326996419756376" />
        <Con id="415" src="386" tgt="6" wght="4.9862388395620947" />
        <Con id="425" src="361" tgt="5" wght="4.6216435531392168" />
        <Con id="429" src="0" tgt="38" wght="-5" />
        <Con id="446" src="386" tgt="5" wght="-3.4652427963118981" />
        <Con id="447" src="361" tgt="6" wght="4.1549469878425569" />
        <Con id="462" src="0" tgt="361" wght="-2.1009270989240587" />
        <Con id="493" src="386" tgt="492" wght="-0.62088156957276575" />
        <Con id="495" src="492" tgt="38" wght="4.457750804254669" />
        <Con id="499" src="0" tgt="386" wght="-1.2882576254709153" />
        <Con id="515" src="492" tgt="361" wght="-0.81087933657033129" />
        <Con id="520" src="72" tgt="492" wght="0.2937616525499851" />
        <Con id="524" src="3" tgt="386" wght="4.7885409737297788" />
        <Con id="532" src="4" tgt="386" wght="-1.5881817182525992" />
        <Con id="533" src="0" tgt="492" wght="1.73651137666111" />
        <Con id="534" src="492" tgt="6" wght="4.896856302223517" />
        <Con id="539" src="2" tgt="386" wght="4.9315586750573628" />
        <Con id="547" src="1" tgt="492" wght="2.844570624064966" />
        <Con id="551" src="4" tgt="492" wght="-0.04805048155566069" />
        <Con id="563" src="2" tgt="492" wght="0.29359613450432009" />
        <Con id="564" src="386" tgt="38" wght="4.7484220432188629" />
        <Con id="569" src="1" tgt="568" wght="-1.1537400440266892" />
        <Con id="570" src="568" tgt="361" wght="-4.0022449820519626" />
        <Con id="578" src="3" tgt="492" wght="-4.5874020636200665" />
        <Con id="582" src="568" tgt="5" wght="2.0641154105300679" />
        <Con id="583" src="568" tgt="7" wght="1.3810918842427511" />
        <Con id="603" src="568" tgt="6" wght="-1.4331731747367698" />
        <Con id="651" src="386" tgt="568" wght="-1.7645147535404293" />
        <Con id="733" src="0" tgt="568" wght="2.9822962418709178" />
        <Con id="851" src="72" tgt="386" wght="-1.7824182097070451" />
        <Con id="892" src="72" tgt="891" wght="5" />
        <Con id="893" src="891" tgt="38" wght="2.9345411892641153" />
        <Con id="925" src="891" tgt="6" wght="-1.8164781115782473" />
        <Con id="933" src="3" tgt="568" wght="-5" />
        <Con id="960" src="891" tgt="361" wght="0.16818398484221789" />
        <Con id="968" src="568" tgt="967" wght="-2.4949160582582097" />
        <Con id="969" src="967" tgt="38" wght="-0.85932254080424153" />
        <Con id="985" src="492" tgt="984" wght="-1.558791874689103" />
        <Con id="1001" src="2" tgt="891" wght="-3.912164663642713" />
        <Con id="1009" src="492" tgt="967" wght="1.6916654223442213" />
        <Con id="1037" src="984" tgt="38" wght="0.88905847242391367" />
        <Con id="1045" src="72" tgt="984" wght="2.259251643745543" />
        <Con id="1063" src="984" tgt="568" wght="4.5627718698233366" />
        <Con id="1065" src="2" tgt="568" wght="-2.6252300675612719" />
        <Con id="1066" src="1" tgt="967" wght="-2.9371218971937494" />
        <Con id="1071" src="386" tgt="7" wght="-4.1984064877033234" />
        <Con id="1077" src="891" tgt="568" wght="-0.0036366416962405439" />
        <Con id="1093" src="0" tgt="891" wght="-3.335177483347723" />
        <Con id="1108" src="72" tgt="361" wght="-4.1114206891102612" />
        <Con id="1109" src="72" tgt="568" wght="-1.7944631096135801" />
        <Con id="1126" src="984" tgt="361" wght="-3.9202199518297323" />
        <Con id="1138" src="72" tgt="7" wght="-1.9606768971828832" />
        <Con id="1161" src="492" tgt="5" wght="1.9171375154985195" />
        <Con id="1167" src="386" tgt="984" wght="0.42832555053923155" />
        <Con id="1178" src="361" tgt="967" wght="4.9800988400832509" />
        <Con id="1183" src="492" tgt="7" wght="-0.41013076901435852" />
        <Con id="1204" src="568" tgt="38" wght="-0.64872942280320645" />
        <Con id="1210" src="891" tgt="492" wght="-2.2665632084205285" />
        <Con id="1252" src="0" tgt="984" wght="1.0832846444100142" />
        <Con id="1279" src="984" tgt="1278" wght="-1.3760565806544889" />
        <Con id="1280" src="1278" tgt="7" wght="4.1002518927900482" />
        <Con id="1290" src="72" tgt="1289" wght="4.1268355141693966" />
        <Con id="1291" src="1289" tgt="38" wght="-3.5606660228222609" />
        <Con id="1305" src="361" tgt="1278" wght="4.93211401209575" />
        <Con id="1318" src="4" tgt="1278" wght="-0.71077213405584083" />
        <Con id="1319" src="1278" tgt="967" wght="-0.14133523859029862" />
        <Con id="1320" src="386" tgt="1289" wght="3.8599917711690068" />
        <Con id="1321" src="492" tgt="1278" wght="0.43715894734546223" />
        <Con id="1346" src="891" tgt="1278" wght="2.2669029034098003" />
        <Con id="1353" src="1278" tgt="1289" wght="-1.4001774806319283" />
        <Con id="1406" src="568" tgt="1289" wght="-1.7894391377817356" />
        <Con id="1420" src="568" tgt="1278" wght="-2.377823069691658" />
        <Con id="1470" src="1" tgt="1469" wght="4.97137490129851" />
        <Con id="1471" src="1469" tgt="386" wght="5" />
        <Con id="1477" src="1469" tgt="967" wght="4.4796655979007483" />
      </Connections>
    </Network>
    <Network id="77559" birthGen="1925" fitness="11127.1494140625">
      <Nodes>
        <Node type="bias" id="0" />
        <Node type="in" id="1" />
        <Node type="in" id="2" />
        <Node type="in" id="3" />
        <Node type="in" id="4" />
        <Node type="out" id="5" />
        <Node type="out" id="6" />
        <Node type="out" id="7" />
        <Node type="hid" id="38" />
        <Node type="hid" id="72" />
        <Node type="hid" id="361" />
        <Node type="hid" id="386" />
        <Node type="hid" id="492" />
        <Node type="hid" id="568" />
        <Node type="hid" id="891" />
        <Node type="hid" id="967" />
        <Node type="hid" id="984" />
        <Node type="hid" id="1278" />
        <Node type="hid" id="1289" />
        <Node type="hid" id="1469" />
      </Nodes>
      <Connections>
        <Con id="26" src="3" tgt="6" wght="-0.1027160679727416" />
        <Con id="39" src="1" tgt="38" wght="4.69004152323776" />
        <Con id="46" src="1" tgt="7" wght="-1.5675624940108959" />
        <Con id="68" src="38" tgt="5" wght="-2.9118818675814455" />
        <Con id="73" src="1" tgt="72" wght="-0.15590499864410909" />
        <Con id="121" src="72" tgt="6" wght="-0.4883033129205927" />
        <Con id="128" src="72" tgt="5" wght="-0.31486301595364347" />
        <Con id="214" src="4" tgt="7" wght="0.18008563423050383" />
        <Con id="227" src="38" tgt="7" wght="-2.665685951046969" />
        <Con id="248" src="2" tgt="7" wght="-0.42392128519244165" />
        <Con id="265" src="0" tgt="6" wght="0.56784386282788046" />
        <Con id="362" src="2" tgt="361" wght="-2.58657019272422" />
        <Con id="363" src="361" tgt="38" wght="-0.73280909966329533" />
        <Con id="374" src="38" tgt="6" wght="-0.69297780524507457" />
        <Con id="380" src="3" tgt="7" wght="-1.9741460323975959" />
        <Con id="385" src="361" tgt="7" wght="-4.5472285710275173" />
        <Con id="396" src="2" tgt="38" wght="-4.2842419391816273" />
        <Con id="398" src="1" tgt="361" wght="3.4954020272319277" />
        <Con id="415" src="386" tgt="6" wght="4.9943356223147433" />
        <Con id="425" src="361" tgt="5" wght="3.1514062369464808" />
        <Con id="429" src="0" tgt="38" wght="-4.2604067469016069" />
        <Con id="446" src="386" tgt="5" wght="-4.9906273119543059" />
        <Con id="447" src="361" tgt="6" wght="2.0370736163269472" />
        <Con id="462" src="0" tgt="361" wght="0.0034480247046704271" />
        <Con id="493" src="386" tgt="492" wght="-0.61460206851067711" />
        <Con id="495" src="492" tgt="38" wght="2.6090875736137482" />
        <Con id="499" src="0" tgt="386" wght="-0.89996196807011908" />
        <Con id="515" src="492" tgt="361" wght="-0.81087933657033129" />
        <Con id="520" src="72" tgt="492" wght="1.522235579968954" />
        <Con id="524" src="3" tgt="386" wght="4.7885409737297788" />
        <Con id="532" src="4" tgt="386" wght="-1.5881817182525992" />
        <Con id="533" src="0" tgt="492" wght="1.7348961012831445" />
        <Con id="534" src="492" tgt="6" wght="4.9756774659052851" />
        <Con id="539" src="2" tgt="386" wght="5" />
        <Con id="547" src="1" tgt="492" wght="2.8385423693843479" />
        <Con id="551" src="4" tgt="492" wght="-0.04805048155566069" />
        <Con id="563" src="2" tgt="492" wght="0.29359613450432009" />
        <Con id="564" src="386" tgt="38" wght="4.9553870181843305" />
        <Con id="569" src="1" tgt="568" wght="-1.1537400440266892" />
        <Con id="570" src="568" tgt="361" wght="-3.9826547182222303" />
        <Con id="578" src="3" tgt="492" wght="-4.5874020636200665" />
        <Con id="582" src="568" tgt="5" wght="2.0641154105300679" />
        <Con id="583" src="568" tgt="7" wght="0.43454090552707736" />
        <Con id="603" src="568" tgt="6" wght="-2.8180961353783771" />
        <Con id="651" src="386" tgt="568" wght="-2.0322151328505305" />
        <Con id="733" src="0" tgt="568" wght="3.6614257454611256" />
        <Con id="851" src="72" tgt="386" wght="-1.6519229481172291" />
        <Con id="892" src="72" tgt="891" wght="5" />
        <Con id="893" src="891" tgt="38" wght="2.9345411892641153" />
        <Con id="925" src="891" tgt="6" wght="-1.8543436926789181" />
        <Con id="933" src="3" tgt="568" wght="-4.5153949504524213" />
        <Con id="960" src="891" tgt="361" wght="3.8786620356050951" />
        <Con id="968" src="568" tgt="967" wght="-2.4598451885952848" />
        <Con id="969" src="967" tgt="38" wght="-0.81741834383546641" />
        <Con id="985" src="492" tgt="984" wght="-1.7867088263323621" />
        <Con id="1001" src="2" tgt="891" wght="-3.9271589089185" />
        <Con id="1009" src="492" tgt="967" wght="1.9773087025620937" />
        <Con id="1037" src="984" tgt="38" wght="0.91427692464739863" />
        <Con id="1045" src="72" tgt="984" wght="2.2822745438084246" />
        <Con id="1063" src="984" tgt="568" wght="4.5627718698233366" />
        <Con id="1065" src="2" tgt="568" wght="-2.6252300675612719" />
        <Con id="1066" src="1" tgt="967" wght="-1.5407177296626702" />
        <Con id="1077" src="891" tgt="568" wght="1.885617730380404" />
        <Con id="1093" src="0" tgt="891" wght="-3.3309979467081265" />
        <Con id="1108" src="72" tgt="361" wght="-4.1327277893248535" />
        <Con id="1109" src="72" tgt="568" wght="-1.7805393785238266" />
        <Con id="1126" src="984" tgt="361" wght="-4.9906233456703495" />
        <Con id="1134" src="0" tgt="967" wght="-1.6977604747412025" />
        <Con id="1138" src="72" tgt="7" wght="-1.2059297722494562" />
        <Con id="1161" src="492" tgt="5" wght="1.979396641030291" />
        <Con id="1167" src="386" tgt="984" wght="0.42832555053923155" />
        <Con id="1178" src="361" tgt="967" wght="5" />
        <Con id="1183" src="492" tgt="7" wght="-0.40407150709660611" />
        <Con id="1204" src="568" tgt="38" wght="-0.6386834434958828" />
        <Con id="1210" src="891" tgt="492" wght="0.74079236328874121" />
        <Con id="1279" src="984" tgt="1278" wght="-3.2007681353141635" />
        <Con id="1280" src="1278" tgt="7" wght="3.7749471075253931" />
        <Con id="1290" src="72" tgt="1289" wght="4.1096597636530277" />
        <Con id="1291" src="1289" tgt="38" wght="5" />
        <Con id="1305" src="361" tgt="1278" wght="4.9144315408213277" />
        <Con id="1318" src="4" tgt="1278" wght="-1.5959298700481699" />
        <Con id="1319" src="1278" tgt="967" wght="0.21629690999270534" />
        <Con id="1320" src="386" tgt="1289" wght="4.0143022889328606" />
        <Con id="1321" src="492" tgt="1278" wght="-0.732819219402159" />
        <Con id="1346" src="891" tgt="1278" wght="3.0284429481253028" />
        <Con id="1353" src="1278" tgt="1289" wght="-1.3666799550929674" />
        <Con id="1372" src="3" tgt="891" wght="-4.2142627295106649" />
        <Con id="1406" src="568" tgt="1289" wght="-1.7894391377817356" />
        <Con id="1420" src="568" tgt="1278" wght="-2.377823069691658" />
        <Con id="1470" src="1" tgt="1469" wght="4.8739188945477672" />
        <Con id="1471" src="1469" tgt="386" wght="4.9948147936343492" />
        <Con id="1533" src="1469" tgt="891" wght="2.8517599496990442" />
      </Connections>
    </Network>
    <Network id="77554" birthGen="1925" fitness="10281.7294921875">
      <Nodes>
        <Node type="bias" id="0" />
        <Node type="in" id="1" />
        <Node type="in" id="2" />
        <Node type="in" id="3" />
        <Node type="in" id="4" />
        <Node type="out" id="5" />
        <Node type="out" id="6" />
        <Node type="out" id="7" />
        <Node type="hid" id="38" />
        <Node type="hid" id="72" />
        <Node type="hid" id="361" />
        <Node type="hid" id="386" />
        <Node type="hid" id="492" />
        <Node type="hid" id="568" />
        <Node type="hid" id="891" />
        <Node type="hid" id="967" />
        <Node type="hid" id="984" />
        <Node type="hid" id="1278" />
        <Node type="hid" id="1289" />
        <Node type="hid" id="1469" />
      </Nodes>
      <Connections>
        <Con id="26" src="3" tgt="6" wght="-0.1027160679727416" />
        <Con id="39" src="1" tgt="38" wght="4.8429773565147753" />
        <Con id="46" src="1" tgt="7" wght="-1.5675624940108959" />
        <Con id="68" src="38" tgt="5" wght="-2.9118818675814455" />
        <Con id="73" src="1" tgt="72" wght="-0.15590499864410909" />
        <Con id="121" src="72" tgt="6" wght="-0.4883033129205927" />
        <Con id="128" src="72" tgt="5" wght="-0.31486301595364347" />
        <Con id="214" src="4" tgt="7" wght="0.18008563423050383" />
        <Con id="227" src="38" tgt="7" wght="-2.665685951046969" />
        <Con id="248" src="2" tgt="7" wght="-0.42392128519244165" />
        <Con id="265" src="0" tgt="6" wght="0.56784386282788046" />
        <Con id="362" src="2" tgt="361" wght="-2.58657019272422" />
        <Con id="363" src="361" tgt="38" wght="-0.73280909966329533" />
        <Con id="374" src="38" tgt="6" wght="-0.69297780524507457" />
        <Con id="380" src="3" tgt="7" wght="-1.9741460323975959" />
        <Con id="385" src="361" tgt="7" wght="-4.5472285710275173" />
        <Con id="396" src="2" tgt="38" wght="-4.2842419391816273" />
        <Con id="398" src="1" tgt="361" wght="3.4954020272319277" />
        <Con id="415" src="386" tgt="6" wght="4.9943356223147433" />
        <Con id="425" src="361" tgt="5" wght="3.1514062369464808" />
        <Con id="429" src="0" tgt="38" wght="-4.2604067469016069" />
        <Con id="446" src="386" tgt="5" wght="-4.9906273119543059" />
        <Con id="447" src="361" tgt="6" wght="2.0370736163269472" />
        <Con id="462" src="0" tgt="361" wght="0.0034480247046704271" />
        <Con id="493" src="386" tgt="492" wght="-0.61460206851067711" />
        <Con id="495" src="492" tgt="38" wght="2.6090875736137482" />
        <Con id="499" src="0" tgt="386" wght="-0.89996196807011908" />
        <Con id="515" src="492" tgt="361" wght="-0.81087933657033129" />
        <Con id="520" src="72" tgt="492" wght="1.5356652463861613" />
        <Con id="524" src="3" tgt="386" wght="4.7885409737297788" />
        <Con id="532" src="4" tgt="386" wght="-1.5881817182525992" />
        <Con id="533" src="0" tgt="492" wght="1.7348961012831445" />
        <Con id="534" src="492" tgt="6" wght="4.9756774659052851" />
        <Con id="539" src="2" tgt="386" wght="5" />
        <Con id="547" src="1" tgt="492" wght="2.8385423693843479" />
        <Con id="551" src="4" tgt="492" wght="-0.04805048155566069" />
        <Con id="563" src="2" tgt="492" wght="0.29359613450432009" />
        <Con id="564" src="386" tgt="38" wght="4.9814910090453033" />
        <Con id="569" src="1" tgt="568" wght="-1.1643960575379348" />
        <Con id="570" src="568" tgt="361" wght="-3.9826547182222303" />
        <Con id="578" src="3" tgt="492" wght="-4.5874020636200665" />
        <Con id="582" src="568" tgt="5" wght="2.0641154105300679" />
        <Con id="583" src="568" tgt="7" wght="0.43454090552707736" />
        <Con id="603" src="568" tgt="6" wght="-1.4331731747367698" />
        <Con id="651" src="386" tgt="568" wght="-2.0322151328505305" />
        <Con id="733" src="0" tgt="568" wght="3.6614257454611256" />
        <Con id="851" src="72" tgt="386" wght="-1.6519229481172291" />
        <Con id="892" src="72" tgt="891" wght="5" />
        <Con id="893" src="891" tgt="38" wght="2.9345411892641153" />
        <Con id="925" src="891" tgt="6" wght="-1.8543436926789181" />
        <Con id="933" src="3" tgt="568" wght="-4.5153949504524213" />
        <Con id="960" src="891" tgt="361" wght="3.8786620356050951" />
        <Con id="968" src="568" tgt="967" wght="-2.4598451885952848" />
        <Con id="969" src="967" tgt="38" wght="-0.81741834383546641" />
        <Con id="985" src="492" tgt="984" wght="-1.7867088263323621" />
        <Con id="1001" src="2" tgt="891" wght="-3.9271589089185" />
        <Con id="1009" src="492" tgt="967" wght="1.9773087025620937" />
        <Con id="1037" src="984" tgt="38" wght="0.91427692464739863" />
        <Con id="1045" src="72" tgt="984" wght="2.2822745438084246" />
        <Con id="1063" src="984" tgt="568" wght="4.5627718698233366" />
        <Con id="1065" src="2" tgt="568" wght="-2.6252300675612719" />
        <Con id="1066" src="1" tgt="967" wght="-1.5407177296626702" />
        <Con id="1077" src="891" tgt="568" wght="1.885617730380404" />
        <Con id="1093" src="0" tgt="891" wght="-3.4428464654716162" />
        <Con id="1108" src="72" tgt="361" wght="-4.1327277893248535" />
        <Con id="1109" src="72" tgt="568" wght="-1.7805393785238266" />
        <Con id="1126" src="984" tgt="361" wght="-4.9906233456703495" />
        <Con id="1134" src="0" tgt="967" wght="-1.8481433112174273" />
        <Con id="1138" src="72" tgt="7" wght="-1.2059297722494562" />
        <Con id="1161" src="492" tgt="5" wght="1.979396641030291" />
        <Con id="1167" src="386" tgt="984" wght="0.42832555053923155" />
        <Con id="1178" src="361" tgt="967" wght="4.9809459776834064" />
        <Con id="1183" src="492" tgt="7" wght="-0.40407150709660611" />
        <Con id="1204" src="568" tgt="38" wght="-0.6386834434958828" />
        <Con id="1210" src="891" tgt="492" wght="0.74079236328874121" />
        <Con id="1279" src="984" tgt="1278" wght="-3.2007681353141635" />
        <Con id="1280" src="1278" tgt="7" wght="3.8504159390156634" />
        <Con id="1290" src="72" tgt="1289" wght="4.1096597636530277" />
        <Con id="1291" src="1289" tgt="38" wght="5" />
        <Con id="1305" src="361" tgt="1278" wght="4.9144315408213277" />
        <Con id="1318" src="4" tgt="1278" wght="-1.5959298700481699" />
        <Con id="1319" src="1278" tgt="967" wght="0.21629690999270534" />
        <Con id="1320" src="386" tgt="1289" wght="4.0143022889328606" />
        <Con id="1321" src="492" tgt="1278" wght="-0.732819219402159" />
        <Con id="1346" src="891" tgt="1278" wght="3.0284429481253028" />
        <Con id="1353" src="1278" tgt="1289" wght="-1.3666799550929674" />
        <Con id="1372" src="3" tgt="891" wght="-4.2142627295106649" />
        <Con id="1406" src="568" tgt="1289" wght="-1.7894391377817356" />
        <Con id="1420" src="568" tgt="1278" wght="-2.377823069691658" />
        <Con id="1470" src="1" tgt="1469" wght="4.8739188945477672" />
        <Con id="1471" src="1469" tgt="386" wght="4.9948147936343492" />
        <Con id="1533" src="1469" tgt="891" wght="2.8517599496990442" />
      </Connections>
    </Network>
    <Network id="77552" birthGen="1925" fitness="9882.0849609375">
      <Nodes>
        <Node type="bias" id="0" />
        <Node type="in" id="1" />
        <Node type="in" id="2" />
        <Node type="in" id="3" />
        <Node type="in" id="4" />
        <Node type="out" id="5" />
        <Node type="out" id="6" />
        <Node type="out" id="7" />
        <Node type="hid" id="38" />
        <Node type="hid" id="72" />
        <Node type="hid" id="361" />
        <Node type="hid" id="386" />
        <Node type="hid" id="492" />
        <Node type="hid" id="568" />
        <Node type="hid" id="891" />
        <Node type="hid" id="967" />
        <Node type="hid" id="984" />
        <Node type="hid" id="1278" />
        <Node type="hid" id="1289" />
        <Node type="hid" id="1469" />
      </Nodes>
      <Connections>
        <Con id="26" src="3" tgt="6" wght="-0.1027160679727416" />
        <Con id="39" src="1" tgt="38" wght="4.8429773565147753" />
        <Con id="46" src="1" tgt="7" wght="-1.5675624940108959" />
        <Con id="68" src="38" tgt="5" wght="-2.9118818675814455" />
        <Con id="73" src="1" tgt="72" wght="-0.15590499864410909" />
        <Con id="121" src="72" tgt="6" wght="-0.4883033129205927" />
        <Con id="128" src="72" tgt="5" wght="-0.31486301595364347" />
        <Con id="214" src="4" tgt="7" wght="0.18008563423050383" />
        <Con id="227" src="38" tgt="7" wght="-2.665685951046969" />
        <Con id="248" src="2" tgt="7" wght="-0.42392128519244165" />
        <Con id="265" src="0" tgt="6" wght="0.56784386282788046" />
        <Con id="362" src="2" tgt="361" wght="-2.58657019272422" />
        <Con id="363" src="361" tgt="38" wght="-0.73280909966329533" />
        <Con id="374" src="38" tgt="6" wght="-0.69297780524507457" />
        <Con id="380" src="3" tgt="7" wght="-1.9741460323975959" />
        <Con id="385" src="361" tgt="7" wght="-4.5472285710275173" />
        <Con id="396" src="2" tgt="38" wght="-4.2842419391816273" />
        <Con id="398" src="1" tgt="361" wght="3.4954020272319277" />
        <Con id="415" src="386" tgt="6" wght="4.9943356223147433" />
        <Con id="425" src="361" tgt="5" wght="3.1514062369464808" />
        <Con id="429" src="0" tgt="38" wght="-4.2604067469016069" />
        <Con id="446" src="386" tgt="5" wght="-4.9906273119543059" />
        <Con id="447" src="361" tgt="6" wght="2.0370736163269472" />
        <Con id="462" src="0" tgt="361" wght="0.0034480247046704271" />
        <Con id="493" src="386" tgt="492" wght="-0.61460206851067711" />
        <Con id="495" src="492" tgt="38" wght="2.6090875736137482" />
        <Con id="499" src="0" tgt="386" wght="-0.89996196807011908" />
        <Con id="515" src="492" tgt="361" wght="-0.81087933657033129" />
        <Con id="520" src="72" tgt="492" wght="1.522235579968954" />
        <Con id="524" src="3" tgt="386" wght="4.7885409737297788" />
        <Con id="532" src="4" tgt="386" wght="-1.5881817182525992" />
        <Con id="533" src="0" tgt="492" wght="1.7348961012831445" />
        <Con id="534" src="492" tgt="6" wght="4.9756774659052851" />
        <Con id="539" src="2" tgt="386" wght="5" />
        <Con id="547" src="1" tgt="492" wght="2.8385423693843479" />
        <Con id="551" src="4" tgt="492" wght="-0.04805048155566069" />
        <Con id="563" src="2" tgt="492" wght="0.29359613450432009" />
        <Con id="564" src="386" tgt="38" wght="4.9553870181843305" />
        <Con id="569" src="1" tgt="568" wght="-1.1537400440266892" />
        <Con id="570" src="568" tgt="361" wght="-3.9826547182222303" />
        <Con id="578" src="3" tgt="492" wght="-4.5874020636200665" />
        <Con id="582" src="568" tgt="5" wght="2.0641154105300679" />
        <Con id="583" src="568" tgt="7" wght="0.43454090552707736" />
        <Con id="603" src="568" tgt="6" wght="-1.4331731747367698" />
        <Con id="651" src="386" tgt="568" wght="-2.0322151328505305" />
        <Con id="733" src="0" tgt="568" wght="3.6614257454611256" />
        <Con id="851" src="72" tgt="386" wght="-1.6519229481172291" />
        <Con id="892" src="72" tgt="891" wght="5" />
        <Con id="893" src="891" tgt="38" wght="2.9345411892641153" />
        <Con id="925" src="891" tgt="6" wght="-1.8543436926789181" />
        <Con id="933" src="3" tgt="568" wght="-4.5153949504524213" />
        <Con id="960" src="891" tgt="361" wght="3.8786620356050951" />
        <Con id="968" src="568" tgt="967" wght="-2.4598451885952848" />
        <Con id="969" src="967" tgt="38" wght="-0.81741834383546641" />
        <Con id="985" src="492" tgt="984" wght="-1.7867088263323621" />
        <Con id="1001" src="2" tgt="891" wght="-3.9271589089185" />
        <Con id="1009" src="492" tgt="967" wght="1.9773087025620937" />
        <Con id="1037" src="984" tgt="38" wght="0.91427692464739863" />
        <Con id="1045" src="72" tgt="984" wght="2.2822745438084246" />
        <Con id="1063" src="984" tgt="568" wght="4.5627718698233366" />
        <Con id="1065" src="2" tgt="568" wght="-2.6252300675612719" />
        <Con id="1066" src="1" tgt="967" wght="-1.5407177296626702" />
        <Con id="1077" src="891" tgt="568" wght="1.885617730380404" />
        <Con id="1093" src="0" tgt="891" wght="-3.4428464654716162" />
        <Con id="1108" src="72" tgt="361" wght="-4.1327277893248535" />
        <Con id="1109" src="72" tgt="568" wght="-1.7805393785238266" />
        <Con id="1126" src="984" tgt="361" wght="-4.9906233456703495" />
        <Con id="1134" src="0" tgt="967" wght="-1.8481433112174273" />
        <Con id="1138" src="72" tgt="7" wght="-1.2059297722494562" />
        <Con id="1161" src="492" tgt="5" wght="1.979396641030291" />
        <Con id="1167" src="386" tgt="984" wght="0.42832555053923155" />
        <Con id="1178" src="361" tgt="967" wght="4.9809459776834064" />
        <Con id="1183" src="492" tgt="7" wght="-0.40407150709660611" />
        <Con id="1204" src="568" tgt="38" wght="-0.6386834434958828" />
        <Con id="1210" src="891" tgt="492" wght="0.74079236328874121" />
        <Con id="1279" src="984" tgt="1278" wght="-3.2007681353141635" />
        <Con id="1280" src="1278" tgt="7" wght="3.8504159390156634" />
        <Con id="1290" src="72" tgt="1289" wght="4.1096597636530277" />
        <Con id="1291" src="1289" tgt="38" wght="5" />
        <Con id="1305" src="361" tgt="1278" wght="4.9144315408213277" />
        <Con id="1318" src="4" tgt="1278" wght="-1.5959298700481699" />
        <Con id="1319" src="1278" tgt="967" wght="0.21629690999270534" />
        <Con id="1320" src="386" tgt="1289" wght="4.0143022889328606" />
        <Con id="1321" src="492" tgt="1278" wght="-0.732819219402159" />
        <Con id="1346" src="891" tgt="1278" wght="3.0284429481253028" />
        <Con id="1353" src="1278" tgt="1289" wght="-1.3666799550929674" />
        <Con id="1372" src="3" tgt="891" wght="-4.2142627295106649" />
        <Con id="1406" src="568" tgt="1289" wght="-1.7894391377817356" />
        <Con id="1420" src="568" tgt="1278" wght="-2.377823069691658" />
        <Con id="1470" src="1" tgt="1469" wght="4.8739188945477672" />
        <Con id="1471" src="1469" tgt="386" wght="4.9948147936343492" />
        <Con id="1533" src="1469" tgt="891" wght="2.8517599496990442" />
        <Con id="1553" src="1" tgt="386" wght="-2.0540351141244173" />
      </Connections>
    </Network>
    <Network id="77573" birthGen="1925" fitness="6899.7607421875">
      <Nodes>
        <Node type="bias" id="0" />
        <Node type="in" id="1" />
        <Node type="in" id="2" />
        <Node type="in" id="3" />
        <Node type="in" id="4" />
        <Node type="out" id="5" />
        <Node type="out" id="6" />
        <Node type="out" id="7" />
        <Node type="hid" id="38" />
        <Node type="hid" id="72" />
        <Node type="hid" id="361" />
        <Node type="hid" id="386" />
        <Node type="hid" id="492" />
        <Node type="hid" id="568" />
        <Node type="hid" id="891" />
        <Node type="hid" id="967" />
        <Node type="hid" id="984" />
        <Node type="hid" id="1278" />
        <Node type="hid" id="1289" />
        <Node type="hid" id="1469" />
      </Nodes>
      <Connections>
        <Con id="26" src="3" tgt="6" wght="-0.10606603918701163" />
        <Con id="39" src="1" tgt="38" wght="4.8429773565147753" />
        <Con id="46" src="1" tgt="7" wght="-1.5675624940108959" />
        <Con id="68" src="38" tgt="5" wght="-2.9456552107224869" />
        <Con id="73" src="1" tgt="72" wght="-0.15590499864410909" />
        <Con id="121" src="72" tgt="6" wght="-0.54128529717969776" />
        <Con id="128" src="72" tgt="5" wght="-0.31755345495351439" />
        <Con id="214" src="4" tgt="7" wght="0.1661052261304764" />
        <Con id="227" src="38" tgt="7" wght="2.4958404057272352" />
        <Con id="248" src="2" tgt="7" wght="-0.41290355148671215" />
        <Con id="265" src="0" tgt="6" wght="0.56784386282788046" />
        <Con id="362" src="2" tgt="361" wght="-2.5973495438568963" />
        <Con id="363" src="361" tgt="38" wght="-0.74455622083840911" />
        <Con id="374" src="38" tgt="6" wght="-0.678673358065979" />
        <Con id="380" src="3" tgt="7" wght="-1.963765783266253" />
        <Con id="385" src="361" tgt="7" wght="-4.5250813820581683" />
        <Con id="396" src="2" tgt="38" wght="-4.9954736729973881" />
        <Con id="398" src="1" tgt="361" wght="3.5326996419756376" />
        <Con id="415" src="386" tgt="6" wght="4.0328677478735759" />
        <Con id="425" src="361" tgt="5" wght="4.6216435531392168" />
        <Con id="429" src="0" tgt="38" wght="-5" />
        <Con id="446" src="386" tgt="5" wght="-3.4652427963118981" />
        <Con id="447" src="361" tgt="6" wght="2.0122937975883786" />
        <Con id="462" src="0" tgt="361" wght="-2.1009270989240587" />
        <Con id="493" src="386" tgt="492" wght="-0.62088156957276575" />
        <Con id="495" src="492" tgt="38" wght="4.4625069979675631" />
        <Con id="499" src="0" tgt="386" wght="-1.2882576254709153" />
        <Con id="515" src="492" tgt="361" wght="-0.81087933657033129" />
        <Con id="520" src="72" tgt="492" wght="0.2937616525499851" />
        <Con id="524" src="3" tgt="386" wght="4.7885409737297788" />
        <Con id="532" src="4" tgt="386" wght="-1.5881817182525992" />
        <Con id="533" src="0" tgt="492" wght="1.73651137666111" />
        <Con id="534" src="492" tgt="6" wght="4.9373381812164858" />
        <Con id="539" src="2" tgt="386" wght="4.987269397023832" />
        <Con id="547" src="1" tgt="492" wght="2.8441421670054381" />
        <Con id="551" src="4" tgt="492" wght="-0.04805048155566069" />
        <Con id="563" src="2" tgt="492" wght="0.29359613450432009" />
        <Con id="564" src="386" tgt="38" wght="-2.9640940297394991" />
        <Con id="569" src="1" tgt="568" wght="-1.1537400440266892" />
        <Con id="570" src="568" tgt="361" wght="-4.0014088210122143" />
        <Con id="578" src="3" tgt="492" wght="-4.5958843963287936" />
        <Con id="582" src="568" tgt="5" wght="2.0641154105300679" />
        <Con id="583" src="568" tgt="7" wght="1.3455384584562076" />
        <Con id="603" src="568" tgt="6" wght="-1.4331731747367698" />
        <Con id="651" src="386" tgt="568" wght="-1.7645147535404293" />
        <Con id="733" src="0" tgt="568" wght="2.9752437002084138" />
        <Con id="851" src="72" tgt="386" wght="-1.6519229481172291" />
        <Con id="892" src="72" tgt="891" wght="5" />
        <Con id="893" src="891" tgt="38" wght="2.9345411892641153" />
        <Con id="925" src="891" tgt="6" wght="-1.8208121444414211" />
        <Con id="933" src="3" tgt="568" wght="-4.5187580745979483" />
        <Con id="960" src="891" tgt="361" wght="0.15474981628358364" />
        <Con id="968" src="568" tgt="967" wght="-2.5073883023114956" />
        <Con id="969" src="967" tgt="38" wght="-0.81568474744014052" />
        <Con id="985" src="492" tgt="984" wght="-1.5994596094604916" />
        <Con id="1001" src="2" tgt="891" wght="-3.9290106480474454" />
        <Con id="1009" src="492" tgt="967" wght="1.6916654223442213" />
        <Con id="1037" src="984" tgt="38" wght="0.89526905058877726" />
        <Con id="1045" src="72" tgt="984" wght="2.2158059498374105" />
        <Con id="1063" src="984" tgt="568" wght="4.5627718698233366" />
        <Con id="1065" src="2" tgt="568" wght="-2.6400307013500441" />
        <Con id="1066" src="1" tgt="967" wght="-2.9371218971937494" />
        <Con id="1077" src="891" tgt="568" wght="-0.0036366416962405439" />
        <Con id="1093" src="0" tgt="891" wght="-3.3309979467081265" />
        <Con id="1108" src="72" tgt="361" wght="-4.0995027867443552" />
        <Con id="1109" src="72" tgt="568" wght="-1.767574109381449" />
        <Con id="1126" src="984" tgt="361" wght="-3.8906211036283063" />
        <Con id="1134" src="0" tgt="967" wght="-2.9934849636629224" />
        <Con id="1138" src="72" tgt="7" wght="-0.70210096920245668" />
        <Con id="1161" src="492" tgt="5" wght="2.2034843814589498" />
        <Con id="1167" src="386" tgt="984" wght="0.42832555053923155" />
        <Con id="1178" src="361" tgt="967" wght="5" />
        <Con id="1183" src="492" tgt="7" wght="-0.41013076901435852" />
        <Con id="1204" src="568" tgt="38" wght="-0.47513886742498906" />
        <Con id="1210" src="891" tgt="492" wght="0.74079236328874121" />
        <Con id="1252" src="0" tgt="984" wght="4.6094907261431217" />
        <Con id="1279" src="984" tgt="1278" wght="-1.3829620878821911" />
        <Con id="1280" src="1278" tgt="7" wght="3.8504159390156634" />
        <Con id="1290" src="72" tgt="1289" wght="5" />
        <Con id="1291" src="1289" tgt="38" wght="5" />
        <Con id="1305" src="361" tgt="1278" wght="4.93211401209575" />
        <Con id="1318" src="4" tgt="1278" wght="-1.5959298700481699" />
        <Con id="1319" src="1278" tgt="967" wght="-1.1368928666490781" />
        <Con id="1320" src="386" tgt="1289" wght="3.8599917711690068" />
        <Con id="1321" src="492" tgt="1278" wght="-0.63166688261304638" />
        <Con id="1346" src="891" tgt="1278" wght="3.0284429481253028" />
        <Con id="1348" src="386" tgt="1278" wght="-4.6444515930488706" />
        <Con id="1353" src="1278" tgt="1289" wght="-1.3829432472250429" />
        <Con id="1406" src="568" tgt="1289" wght="-1.7894391377817356" />
        <Con id="1420" src="568" tgt="1278" wght="-2.3874203270363235" />
        <Con id="1470" src="1" tgt="1469" wght="4.72921307186778" />
        <Con id="1471" src="1469" tgt="386" wght="4.9977232406618119" />
        <Con id="1477" src="1469" tgt="967" wght="4.4891259385017506" />
        <Con id="1482" src="3" tgt="1289" wght="-3.7055687932297587" />
      </Connections>
    </Network>
    <Network id="77496" birthGen="1923" fitness="11527.3310546875">
      <Nodes>
        <Node type="bias" id="0" />
        <Node type="in" id="1" />
        <Node type="in" id="2" />
        <Node type="in" id="3" />
        <Node type="in" id="4" />
        <Node type="out" id="5" />
        <Node type="out" id="6" />
        <Node type="out" id="7" />
        <Node type="hid" id="38" />
        <Node type="hid" id="72" />
        <Node type="hid" id="361" />
        <Node type="hid" id="386" />
        <Node type="hid" id="492" />
        <Node type="hid" id="568" />
        <Node type="hid" id="891" />
        <Node type="hid" id="967" />
        <Node type="hid" id="984" />
        <Node type="hid" id="1278" />
        <Node type="hid" id="1289" />
        <Node type="hid" id="1469" />
      </Nodes>
      <Connections>
        <Con id="26" src="3" tgt="6" wght="-0.10606603918701163" />
        <Con id="39" src="1" tgt="38" wght="4.8429773565147753" />
        <Con id="46" src="1" tgt="7" wght="-1.5675624940108959" />
        <Con id="68" src="38" tgt="5" wght="-2.9456552107224869" />
        <Con id="73" src="1" tgt="72" wght="-0.15590499864410909" />
        <Con id="121" src="72" tgt="6" wght="-0.54128529717969776" />
        <Con id="128" src="72" tgt="5" wght="-0.31755345495351439" />
        <Con id="214" src="4" tgt="7" wght="0.1661052261304764" />
        <Con id="227" src="38" tgt="7" wght="2.4958404057272352" />
        <Con id="248" src="2" tgt="7" wght="-0.41290355148671215" />
        <Con id="265" src="0" tgt="6" wght="0.56784386282788046" />
        <Con id="362" src="2" tgt="361" wght="-2.5973495438568963" />
        <Con id="363" src="361" tgt="38" wght="-0.74455622083840911" />
        <Con id="374" src="38" tgt="6" wght="-0.678673358065979" />
        <Con id="380" src="3" tgt="7" wght="-1.963765783266253" />
        <Con id="385" src="361" tgt="7" wght="-4.5250813820581683" />
        <Con id="396" src="2" tgt="38" wght="-4.9954736729973881" />
        <Con id="398" src="1" tgt="361" wght="3.5326996419756376" />
        <Con id="415" src="386" tgt="6" wght="4.0328677478735759" />
        <Con id="425" src="361" tgt="5" wght="4.6216435531392168" />
        <Con id="429" src="0" tgt="38" wght="-5" />
        <Con id="446" src="386" tgt="5" wght="-3.4652427963118981" />
        <Con id="447" src="361" tgt="6" wght="2.0122937975883786" />
        <Con id="462" src="0" tgt="361" wght="-2.1009270989240587" />
        <Con id="493" src="386" tgt="492" wght="-0.62088156957276575" />
        <Con id="495" src="492" tgt="38" wght="4.4625069979675631" />
        <Con id="499" src="0" tgt="386" wght="-1.2882576254709153" />
        <Con id="515" src="492" tgt="361" wght="-0.81087933657033129" />
        <Con id="520" src="72" tgt="492" wght="0.2937616525499851" />
        <Con id="524" src="3" tgt="386" wght="4.7885409737297788" />
        <Con id="532" src="4" tgt="386" wght="-1.5881817182525992" />
        <Con id="533" src="0" tgt="492" wght="1.73651137666111" />
        <Con id="534" src="492" tgt="6" wght="4.9373381812164858" />
        <Con id="539" src="2" tgt="386" wght="4.987269397023832" />
        <Con id="547" src="1" tgt="492" wght="2.8441421670054381" />
        <Con id="551" src="4" tgt="492" wght="-0.04805048155566069" />
        <Con id="563" src="2" tgt="492" wght="0.29359613450432009" />
        <Con id="564" src="386" tgt="38" wght="-2.9640940297394991" />
        <Con id="569" src="1" tgt="568" wght="-1.1537400440266892" />
        <Con id="570" src="568" tgt="361" wght="-4.0014088210122143" />
        <Con id="578" src="3" tgt="492" wght="-4.5958843963287936" />
        <Con id="582" src="568" tgt="5" wght="2.0641154105300679" />
        <Con id="583" src="568" tgt="7" wght="1.3455384584562076" />
        <Con id="603" src="568" tgt="6" wght="-1.4331731747367698" />
        <Con id="651" src="386" tgt="568" wght="-1.7645147535404293" />
        <Con id="733" src="0" tgt="568" wght="2.9752437002084138" />
        <Con id="851" src="72" tgt="386" wght="-1.6519229481172291" />
        <Con id="892" src="72" tgt="891" wght="5" />
        <Con id="893" src="891" tgt="38" wght="2.9345411892641153" />
        <Con id="925" src="891" tgt="6" wght="-1.8208121444414211" />
        <Con id="933" src="3" tgt="568" wght="-4.5187580745979483" />
        <Con id="960" src="891" tgt="361" wght="0.15474981628358364" />
        <Con id="968" src="568" tgt="967" wght="-2.5073883023114956" />
        <Con id="969" src="967" tgt="38" wght="-0.85932254080424153" />
        <Con id="985" src="492" tgt="984" wght="-1.5994596094604916" />
        <Con id="1001" src="2" tgt="891" wght="-3.9290106480474454" />
        <Con id="1009" src="492" tgt="967" wght="1.6916654223442213" />
        <Con id="1037" src="984" tgt="38" wght="0.88905847242391367" />
        <Con id="1045" src="72" tgt="984" wght="2.2158059498374105" />
        <Con id="1063" src="984" tgt="568" wght="4.5627718698233366" />
        <Con id="1065" src="2" tgt="568" wght="-2.6400307013500441" />
        <Con id="1066" src="1" tgt="967" wght="-2.9371218971937494" />
        <Con id="1077" src="891" tgt="568" wght="-0.0036366416962405439" />
        <Con id="1093" src="0" tgt="891" wght="-3.3309979467081265" />
        <Con id="1108" src="72" tgt="361" wght="-4.0995027867443552" />
        <Con id="1109" src="72" tgt="568" wght="-1.767574109381449" />
        <Con id="1126" src="984" tgt="361" wght="-3.8906211036283063" />
        <Con id="1134" src="0" tgt="967" wght="-2.9934849636629224" />
        <Con id="1138" src="72" tgt="7" wght="-0.70210096920245668" />
        <Con id="1161" src="492" tgt="5" wght="2.2034843814589498" />
        <Con id="1167" src="386" tgt="984" wght="0.42832555053923155" />
        <Con id="1178" src="361" tgt="967" wght="5" />
        <Con id="1183" src="492" tgt="7" wght="-0.41013076901435852" />
        <Con id="1204" src="568" tgt="38" wght="-0.47513886742498906" />
        <Con id="1210" src="891" tgt="492" wght="0.74079236328874121" />
        <Con id="1252" src="0" tgt="984" wght="4.6094907261431217" />
        <Con id="1279" src="984" tgt="1278" wght="-1.3829620878821911" />
        <Con id="1280" src="1278" tgt="7" wght="3.8504159390156634" />
        <Con id="1290" src="72" tgt="1289" wght="5" />
        <Con id="1291" src="1289" tgt="38" wght="5" />
        <Con id="1305" src="361" tgt="1278" wght="4.93211401209575" />
        <Con id="1318" src="4" tgt="1278" wght="-1.5959298700481699" />
        <Con id="1319" src="1278" tgt="967" wght="-1.1368928666490781" />
        <Con id="1320" src="386" tgt="1289" wght="3.8599917711690068" />
        <Con id="1321" src="492" tgt="1278" wght="-0.63166688261304638" />
        <Con id="1346" src="891" tgt="1278" wght="3.0284429481253028" />
        <Con id="1348" src="386" tgt="1278" wght="-4.6444515930488706" />
        <Con id="1353" src="1278" tgt="1289" wght="-1.3829432472250429" />
        <Con id="1406" src="568" tgt="1289" wght="-1.7894391377817356" />
        <Con id="1420" src="568" tgt="1278" wght="-2.3874203270363235" />
        <Con id="1470" src="1" tgt="1469" wght="4.72921307186778" />
        <Con id="1471" src="1469" tgt="386" wght="4.9977232406618119" />
        <Con id="1477" src="1469" tgt="967" wght="4.4891259385017506" />
        <Con id="1482" src="3" tgt="1289" wght="-3.7055687932297587" />
      </Connections>
    </Network>
    <Network id="77565" birthGen="1925" fitness="10862.1298828125">
      <Nodes>
        <Node type="bias" id="0" />
        <Node type="in" id="1" />
        <Node type="in" id="2" />
        <Node type="in" id="3" />
        <Node type="in" id="4" />
        <Node type="out" id="5" />
        <Node type="out" id="6" />
        <Node type="out" id="7" />
        <Node type="hid" id="38" />
        <Node type="hid" id="72" />
        <Node type="hid" id="361" />
        <Node type="hid" id="386" />
        <Node type="hid" id="492" />
        <Node type="hid" id="568" />
        <Node type="hid" id="891" />
        <Node type="hid" id="967" />
        <Node type="hid" id="984" />
        <Node type="hid" id="1278" />
        <Node type="hid" id="1289" />
        <Node type="hid" id="1469" />
      </Nodes>
      <Connections>
        <Con id="26" src="3" tgt="6" wght="-0.10606603918701163" />
        <Con id="39" src="1" tgt="38" wght="4.7944403380901974" />
        <Con id="46" src="1" tgt="7" wght="-1.5675624940108959" />
        <Con id="68" src="38" tgt="5" wght="-2.9456552107224869" />
        <Con id="73" src="1" tgt="72" wght="-0.15590499864410909" />
        <Con id="121" src="72" tgt="6" wght="-0.54128529717969776" />
        <Con id="128" src="72" tgt="5" wght="-0.31755345495351439" />
        <Con id="214" src="4" tgt="7" wght="0.1661052261304764" />
        <Con id="227" src="38" tgt="7" wght="2.4958404057272352" />
        <Con id="248" src="2" tgt="7" wght="-0.41290355148671215" />
        <Con id="265" src="0" tgt="6" wght="0.56784386282788046" />
        <Con id="362" src="2" tgt="361" wght="-2.5973495438568963" />
        <Con id="363" src="361" tgt="38" wght="-0.74455622083840911" />
        <Con id="374" src="38" tgt="6" wght="-0.678673358065979" />
        <Con id="380" src="3" tgt="7" wght="-1.963765783266253" />
        <Con id="385" src="361" tgt="7" wght="-4.5250813820581683" />
        <Con id="396" src="2" tgt="38" wght="-4.9954736729973881" />
        <Con id="398" src="1" tgt="361" wght="3.5326996419756376" />
        <Con id="415" src="386" tgt="6" wght="4.0328677478735759" />
        <Con id="425" src="361" tgt="5" wght="4.6216435531392168" />
        <Con id="429" src="0" tgt="38" wght="-5" />
        <Con id="446" src="386" tgt="5" wght="-3.4652427963118981" />
        <Con id="447" src="361" tgt="6" wght="2.0122937975883786" />
        <Con id="462" src="0" tgt="361" wght="-2.1009270989240587" />
        <Con id="493" src="386" tgt="492" wght="-0.62088156957276575" />
        <Con id="495" src="492" tgt="38" wght="4.4625069979675631" />
        <Con id="499" src="0" tgt="386" wght="-1.2882576254709153" />
        <Con id="515" src="492" tgt="361" wght="-0.81087933657033129" />
        <Con id="520" src="72" tgt="492" wght="0.2937616525499851" />
        <Con id="524" src="3" tgt="386" wght="4.7885409737297788" />
        <Con id="532" src="4" tgt="386" wght="-1.5973448559701084" />
        <Con id="533" src="0" tgt="492" wght="1.73651137666111" />
        <Con id="534" src="492" tgt="6" wght="4.9373381812164858" />
        <Con id="539" src="2" tgt="386" wght="4.987269397023832" />
        <Con id="547" src="1" tgt="492" wght="2.8441421670054381" />
        <Con id="551" src="4" tgt="492" wght="-0.04805048155566069" />
        <Con id="563" src="2" tgt="492" wght="0.29359613450432009" />
        <Con id="564" src="386" tgt="38" wght="-2.9640940297394991" />
        <Con id="569" src="1" tgt="568" wght="-1.1537400440266892" />
        <Con id="570" src="568" tgt="361" wght="-4.0014088210122143" />
        <Con id="578" src="3" tgt="492" wght="-4.5958843963287936" />
        <Con id="582" src="568" tgt="5" wght="1.5216478124366792" />
        <Con id="583" src="568" tgt="7" wght="1.3455384584562076" />
        <Con id="603" src="568" tgt="6" wght="-1.4331731747367698" />
        <Con id="651" src="386" tgt="568" wght="-1.7645147535404293" />
        <Con id="733" src="0" tgt="568" wght="2.9752437002084138" />
        <Con id="851" src="72" tgt="386" wght="-1.6519229481172291" />
        <Con id="892" src="72" tgt="891" wght="5" />
        <Con id="893" src="891" tgt="38" wght="2.9345411892641153" />
        <Con id="925" src="891" tgt="6" wght="-1.8208121444414211" />
        <Con id="933" src="3" tgt="568" wght="-4.5187580745979483" />
        <Con id="960" src="891" tgt="361" wght="0.15474981628358364" />
        <Con id="968" src="568" tgt="967" wght="-2.5073883023114956" />
        <Con id="969" src="967" tgt="38" wght="-0.85932254080424153" />
        <Con id="985" src="492" tgt="984" wght="-1.5994596094604916" />
        <Con id="1001" src="2" tgt="891" wght="-3.9290106480474454" />
        <Con id="1009" src="492" tgt="967" wght="1.6916654223442213" />
        <Con id="1037" src="984" tgt="38" wght="0.88905847242391367" />
        <Con id="1045" src="72" tgt="984" wght="2.2158059498374105" />
        <Con id="1063" src="984" tgt="568" wght="4.5627718698233366" />
        <Con id="1065" src="2" tgt="568" wght="-2.6400307013500441" />
        <Con id="1066" src="1" tgt="967" wght="-2.9371218971937494" />
        <Con id="1077" src="891" tgt="568" wght="-0.0036366416962405439" />
        <Con id="1093" src="0" tgt="891" wght="-3.3309979467081265" />
        <Con id="1108" src="72" tgt="361" wght="-4.0995027867443552" />
        <Con id="1109" src="72" tgt="568" wght="-1.767574109381449" />
        <Con id="1126" src="984" tgt="361" wght="-3.9205200558251692" />
        <Con id="1134" src="0" tgt="967" wght="-2.9934849636629224" />
        <Con id="1138" src="72" tgt="7" wght="-0.70210096920245668" />
        <Con id="1161" src="492" tgt="5" wght="2.2034843814589498" />
        <Con id="1167" src="386" tgt="984" wght="0.42832555053923155" />
        <Con id="1178" src="361" tgt="967" wght="5" />
        <Con id="1183" src="492" tgt="7" wght="-0.26392049916625482" />
        <Con id="1204" src="568" tgt="38" wght="-0.47513886742498906" />
        <Con id="1210" src="891" tgt="492" wght="0.74079236328874121" />
        <Con id="1252" src="0" tgt="984" wght="4.6094907261431217" />
        <Con id="1279" src="984" tgt="1278" wght="-1.3829620878821911" />
        <Con id="1280" src="1278" tgt="7" wght="3.8504159390156634" />
        <Con id="1290" src="72" tgt="1289" wght="4.1268355141693966" />
        <Con id="1291" src="1289" tgt="38" wght="5" />
        <Con id="1305" src="361" tgt="1278" wght="4.93211401209575" />
        <Con id="1318" src="4" tgt="1278" wght="-1.5959298700481699" />
        <Con id="1319" src="1278" tgt="967" wght="-1.1368928666490781" />
        <Con id="1320" src="386" tgt="1289" wght="3.8599917711690068" />
        <Con id="1321" src="492" tgt="1278" wght="-0.63166688261304638" />
        <Con id="1346" src="891" tgt="1278" wght="3.0284429481253028" />
        <Con id="1348" src="386" tgt="1278" wght="-4.6444515930488706" />
        <Con id="1353" src="1278" tgt="1289" wght="-1.3829432472250429" />
        <Con id="1406" src="568" tgt="1289" wght="-1.7894391377817356" />
        <Con id="1420" src="568" tgt="1278" wght="-2.3874203270363235" />
        <Con id="1470" src="1" tgt="1469" wght="4.72921307186778" />
        <Con id="1471" src="1469" tgt="386" wght="4.9977232406618119" />
        <Con id="1477" src="1469" tgt="967" wght="4.49896518061089" />
        <Con id="1482" src="3" tgt="1289" wght="-3.7055687932297587" />
      </Connections>
    </Network>
    <Network id="77577" birthGen="1926" fitness="6536.6337890625">
      <Nodes>
        <Node type="bias" id="0" />
        <Node type="in" id="1" />
        <Node type="in" id="2" />
        <Node type="in" id="3" />
        <Node type="in" id="4" />
        <Node type="out" id="5" />
        <Node type="out" id="6" />
        <Node type="out" id="7" />
        <Node type="hid" id="38" />
        <Node type="hid" id="72" />
        <Node type="hid" id="361" />
        <Node type="hid" id="386" />
        <Node type="hid" id="492" />
        <Node type="hid" id="568" />
        <Node type="hid" id="891" />
        <Node type="hid" id="967" />
        <Node type="hid" id="984" />
        <Node type="hid" id="1278" />
        <Node type="hid" id="1289" />
        <Node type="hid" id="1469" />
      </Nodes>
      <Connections>
        <Con id="26" src="3" tgt="6" wght="-0.10606603918701163" />
        <Con id="39" src="1" tgt="38" wght="4.8429773565147753" />
        <Con id="46" src="1" tgt="7" wght="-1.5675624940108959" />
        <Con id="68" src="38" tgt="5" wght="-2.9296500715479956" />
        <Con id="73" src="1" tgt="72" wght="-0.15590499864410909" />
        <Con id="121" src="72" tgt="6" wght="-0.52822323630612134" />
        <Con id="128" src="72" tgt="5" wght="-0.31689389032618615" />
        <Con id="214" src="4" tgt="7" wght="0.1661052261304764" />
        <Con id="227" src="38" tgt="7" wght="1.5642893537929259" />
        <Con id="248" src="2" tgt="7" wght="-0.41290355148671215" />
        <Con id="265" src="0" tgt="6" wght="0.56784386282788046" />
        <Con id="362" src="2" tgt="361" wght="-2.58657019272422" />
        <Con id="363" src="361" tgt="38" wght="-0.7524384189177824" />
        <Con id="374" src="38" tgt="6" wght="-0.66790241414396978" />
        <Con id="380" src="3" tgt="7" wght="-1.9741460323975959" />
        <Con id="385" src="361" tgt="7" wght="-0.823574250026982" />
        <Con id="396" src="2" tgt="38" wght="-5" />
        <Con id="398" src="1" tgt="361" wght="3.5326996419756376" />
        <Con id="415" src="386" tgt="6" wght="4.9862388395620947" />
        <Con id="425" src="361" tgt="5" wght="4.6216435531392168" />
        <Con id="429" src="0" tgt="38" wght="-5" />
        <Con id="446" src="386" tgt="5" wght="-3.5173375434375784" />
        <Con id="447" src="361" tgt="6" wght="2.0313576557060085" />
        <Con id="462" src="0" tgt="361" wght="-2.1009270989240587" />
        <Con id="493" src="386" tgt="492" wght="-3.9257390704005957" />
        <Con id="495" src="492" tgt="38" wght="4.4671050696851626" />
        <Con id="499" src="0" tgt="386" wght="-1.2745068185522073" />
        <Con id="515" src="492" tgt="361" wght="-0.81087933657033129" />
        <Con id="520" src="72" tgt="492" wght="0.2937616525499851" />
        <Con id="524" src="3" tgt="386" wght="4.7885409737297788" />
        <Con id="532" src="4" tgt="386" wght="-1.5881817182525992" />
        <Con id="533" src="0" tgt="492" wght="1.73651137666111" />
        <Con id="534" src="492" tgt="6" wght="5" />
        <Con id="539" src="2" tgt="386" wght="4.987269397023832" />
        <Con id="547" src="1" tgt="492" wght="2.844570624064966" />
        <Con id="551" src="4" tgt="492" wght="-0.04805048155566069" />
        <Con id="563" src="2" tgt="492" wght="0.29359613450432009" />
        <Con id="564" src="386" tgt="38" wght="4.7484220432188629" />
        <Con id="569" src="1" tgt="568" wght="-1.1537400440266892" />
        <Con id="570" src="568" tgt="361" wght="-2.7857151043650723" />
        <Con id="578" src="3" tgt="492" wght="-4.5874020636200665" />
        <Con id="582" src="568" tgt="5" wght="2.0641154105300679" />
        <Con id="583" src="568" tgt="7" wght="0.61056167874817324" />
        <Con id="603" src="568" tgt="6" wght="-1.4331731747367698" />
        <Con id="651" src="386" tgt="568" wght="-1.7645147535404293" />
        <Con id="733" src="0" tgt="568" wght="2.9578784726850249" />
        <Con id="851" src="72" tgt="386" wght="-1.7786147062362057" />
        <Con id="892" src="72" tgt="891" wght="4.9991381597583464" />
        <Con id="893" src="891" tgt="38" wght="2.9345411892641153" />
        <Con id="925" src="891" tgt="6" wght="-4.5660722209140658" />
        <Con id="933" src="3" tgt="568" wght="-4.5187580745979483" />
        <Con id="960" src="891" tgt="361" wght="0.16818398484221789" />
        <Con id="968" src="568" tgt="967" wght="-2.4949160582582097" />
        <Con id="969" src="967" tgt="38" wght="-0.85932254080424153" />
        <Con id="985" src="492" tgt="984" wght="-1.5328753736082534" />
        <Con id="1001" src="2" tgt="891" wght="-3.912164663642713" />
        <Con id="1009" src="492" tgt="967" wght="1.6916654223442213" />
        <Con id="1037" src="984" tgt="38" wght="0.88905847242391367" />
        <Con id="1045" src="72" tgt="984" wght="2.259251643745543" />
        <Con id="1063" src="984" tgt="568" wght="4.5627718698233366" />
        <Con id="1065" src="2" tgt="568" wght="-2.6252300675612719" />
        <Con id="1066" src="1" tgt="967" wght="-2.9371218971937494" />
        <Con id="1077" src="891" tgt="568" wght="-0.0036366416962405439" />
        <Con id="1093" src="0" tgt="891" wght="-3.3309979467081265" />
        <Con id="1108" src="72" tgt="361" wght="-4.1114206891102612" />
        <Con id="1109" src="72" tgt="568" wght="-1.7805393785238266" />
        <Con id="1126" src="984" tgt="361" wght="-2.7476984392892914" />
        <Con id="1138" src="72" tgt="7" wght="-1.9606768971828832" />
        <Con id="1161" src="492" tgt="5" wght="2.2034843814589498" />
        <Con id="1167" src="386" tgt="984" wght="0.42832555053923155" />
        <Con id="1178" src="361" tgt="967" wght="5" />
        <Con id="1183" src="492" tgt="7" wght="-0.4135227655242768" />
        <Con id="1204" src="568" tgt="38" wght="-0.64872942280320645" />
        <Con id="1210" src="891" tgt="492" wght="-0.36951347687385194" />
        <Con id="1252" src="0" tgt="984" wght="1.0832846444100142" />
        <Con id="1279" src="984" tgt="1278" wght="-1.3760565806544889" />
        <Con id="1280" src="1278" tgt="7" wght="3.840301963202176" />
        <Con id="1290" src="72" tgt="1289" wght="4.1564802362080471" />
        <Con id="1291" src="1289" tgt="38" wght="-3.5606660228222609" />
        <Con id="1305" src="361" tgt="1278" wght="4.93211401209575" />
        <Con id="1318" src="4" tgt="1278" wght="-1.2160477604489055" />
        <Con id="1319" src="1278" tgt="967" wght="-1.134870198772407" />
        <Con id="1320" src="386" tgt="1289" wght="3.8599917711690068" />
        <Con id="1321" src="492" tgt="1278" wght="0.43715894734546223" />
        <Con id="1346" src="891" tgt="1278" wght="3.0284429481253028" />
        <Con id="1353" src="1278" tgt="1289" wght="-1.4001774806319283" />
        <Con id="1369" src="72" tgt="1278" wght="0.29143210373305639" />
        <Con id="1371" src="1278" tgt="6" wght="-2.9181364640634753" />
        <Con id="1406" src="568" tgt="1289" wght="-1.7894391377817356" />
        <Con id="1420" src="568" tgt="1278" wght="-2.377823069691658" />
        <Con id="1470" src="1" tgt="1469" wght="5" />
        <Con id="1471" src="1469" tgt="386" wght="5" />
        <Con id="1477" src="1469" tgt="967" wght="4.4796655979007483" />
      </Connections>
    </Network>
    <Network id="77578" birthGen="1926" fitness="7613.9873046875">
      <Nodes>
        <Node type="bias" id="0" />
        <Node type="in" id="1" />
        <Node type="in" id="2" />
        <Node type="in" id="3" />
        <Node type="in" id="4" />
        <Node type="out" id="5" />
        <Node type="out" id="6" />
        <Node type="out" id="7" />
        <Node type="hid" id="38" />
        <Node type="hid" id="72" />
        <Node type="hid" id="361" />
        <Node type="hid" id="386" />
        <Node type="hid" id="492" />
        <Node type="hid" id="568" />
        <Node type="hid" id="891" />
        <Node type="hid" id="967" />
        <Node type="hid" id="984" />
        <Node type="hid" id="1278" />
        <Node type="hid" id="1289" />
        <Node type="hid" id="1469" />
      </Nodes>
      <Connections>
        <Con id="26" src="3" tgt="6" wght="-0.10606603918701163" />
        <Con id="39" src="1" tgt="38" wght="4.8429773565147753" />
        <Con id="46" src="1" tgt="7" wght="-1.5675624940108959" />
        <Con id="68" src="38" tgt="5" wght="-2.9296500715479956" />
        <Con id="73" src="1" tgt="72" wght="-0.15590499864410909" />
        <Con id="121" src="72" tgt="6" wght="-0.52822323630612134" />
        <Con id="128" src="72" tgt="5" wght="-0.31689389032618615" />
        <Con id="214" src="4" tgt="7" wght="0.1661052261304764" />
        <Con id="227" src="38" tgt="7" wght="1.5642893537929259" />
        <Con id="248" src="2" tgt="7" wght="-0.41290355148671215" />
        <Con id="265" src="0" tgt="6" wght="0.56784386282788046" />
        <Con id="362" src="2" tgt="361" wght="-2.58657019272422" />
        <Con id="363" src="361" tgt="38" wght="-0.7524384189177824" />
        <Con id="374" src="38" tgt="6" wght="-0.66790241414396978" />
        <Con id="380" src="3" tgt="7" wght="-1.9741460323975959" />
        <Con id="385" src="361" tgt="7" wght="-0.823574250026982" />
        <Con id="396" src="2" tgt="38" wght="-5" />
        <Con id="398" src="1" tgt="361" wght="3.5326996419756376" />
        <Con id="415" src="386" tgt="6" wght="4.9862388395620947" />
        <Con id="425" src="361" tgt="5" wght="4.6216435531392168" />
        <Con id="429" src="0" tgt="38" wght="-5" />
        <Con id="446" src="386" tgt="5" wght="-3.5173375434375784" />
        <Con id="447" src="361" tgt="6" wght="2.0313576557060085" />
        <Con id="462" src="0" tgt="361" wght="-2.1009270989240587" />
        <Con id="493" src="386" tgt="492" wght="-0.62088156957276575" />
        <Con id="495" src="492" tgt="38" wght="4.2629154804321789" />
        <Con id="499" src="0" tgt="386" wght="-1.2745068185522073" />
        <Con id="515" src="492" tgt="361" wght="-0.81087933657033129" />
        <Con id="520" src="72" tgt="492" wght="0.2937616525499851" />
        <Con id="524" src="3" tgt="386" wght="4.7885409737297788" />
        <Con id="532" src="4" tgt="386" wght="-1.5881817182525992" />
        <Con id="533" src="0" tgt="492" wght="1.73651137666111" />
        <Con id="534" src="492" tgt="6" wght="5" />
        <Con id="539" src="2" tgt="386" wght="4.987269397023832" />
        <Con id="547" src="1" tgt="492" wght="2.844570624064966" />
        <Con id="551" src="4" tgt="492" wght="-0.04805048155566069" />
        <Con id="563" src="2" tgt="492" wght="0.29359613450432009" />
        <Con id="564" src="386" tgt="38" wght="4.7484220432188629" />
        <Con id="569" src="1" tgt="568" wght="-1.1537400440266892" />
        <Con id="570" src="568" tgt="361" wght="-2.7857151043650723" />
        <Con id="578" src="3" tgt="492" wght="-4.5874020636200665" />
        <Con id="582" src="568" tgt="5" wght="2.0641154105300679" />
        <Con id="583" src="568" tgt="7" wght="0.61056167874817324" />
        <Con id="603" src="568" tgt="6" wght="-1.4331731747367698" />
        <Con id="651" src="386" tgt="568" wght="-1.7645147535404293" />
        <Con id="733" src="0" tgt="568" wght="2.9578784726850249" />
        <Con id="851" src="72" tgt="386" wght="-1.7786147062362057" />
        <Con id="892" src="72" tgt="891" wght="4.9991381597583464" />
        <Con id="893" src="891" tgt="38" wght="2.9345411892641153" />
        <Con id="925" src="891" tgt="6" wght="-1.8208121444414211" />
        <Con id="933" src="3" tgt="568" wght="-4.5187580745979483" />
        <Con id="960" src="891" tgt="361" wght="0.16818398484221789" />
        <Con id="968" src="568" tgt="967" wght="-2.4949160582582097" />
        <Con id="969" src="967" tgt="38" wght="-0.85932254080424153" />
        <Con id="985" src="492" tgt="984" wght="-1.5328753736082534" />
        <Con id="1001" src="2" tgt="891" wght="-3.912164663642713" />
        <Con id="1009" src="492" tgt="967" wght="1.6916654223442213" />
        <Con id="1037" src="984" tgt="38" wght="0.88905847242391367" />
        <Con id="1045" src="72" tgt="984" wght="2.259251643745543" />
        <Con id="1063" src="984" tgt="568" wght="4.5627718698233366" />
        <Con id="1065" src="2" tgt="568" wght="-2.6252300675612719" />
        <Con id="1066" src="1" tgt="967" wght="-2.9371218971937494" />
        <Con id="1077" src="891" tgt="568" wght="-0.0036366416962405439" />
        <Con id="1093" src="0" tgt="891" wght="-3.3309979467081265" />
        <Con id="1108" src="72" tgt="361" wght="-4.1114206891102612" />
        <Con id="1109" src="72" tgt="568" wght="-1.7805393785238266" />
        <Con id="1126" src="984" tgt="361" wght="-2.7476984392892914" />
        <Con id="1138" src="72" tgt="7" wght="-1.9606768971828832" />
        <Con id="1161" src="492" tgt="5" wght="2.2034843814589498" />
        <Con id="1167" src="386" tgt="984" wght="0.42832555053923155" />
        <Con id="1178" src="361" tgt="967" wght="5" />
        <Con id="1183" src="492" tgt="7" wght="-0.4135227655242768" />
        <Con id="1204" src="568" tgt="38" wght="-0.64872942280320645" />
        <Con id="1210" src="891" tgt="492" wght="-0.36951347687385194" />
        <Con id="1252" src="0" tgt="984" wght="1.0832846444100142" />
        <Con id="1279" src="984" tgt="1278" wght="-1.3760565806544889" />
        <Con id="1280" src="1278" tgt="7" wght="3.840301963202176" />
        <Con id="1290" src="72" tgt="1289" wght="4.1564802362080471" />
        <Con id="1291" src="1289" tgt="38" wght="-3.5606660228222609" />
        <Con id="1305" src="361" tgt="1278" wght="4.93211401209575" />
        <Con id="1318" src="4" tgt="1278" wght="-1.2160477604489055" />
        <Con id="1319" src="1278" tgt="967" wght="-1.134870198772407" />
        <Con id="1320" src="386" tgt="1289" wght="3.8599917711690068" />
        <Con id="1321" src="492" tgt="1278" wght="0.43715894734546223" />
        <Con id="1346" src="891" tgt="1278" wght="3.0284429481253028" />
        <Con id="1353" src="1278" tgt="1289" wght="-1.4001774806319283" />
        <Con id="1369" src="72" tgt="1278" wght="0.29143210373305639" />
        <Con id="1371" src="1278" tgt="6" wght="-2.9181364640634753" />
        <Con id="1406" src="568" tgt="1289" wght="-1.7894391377817356" />
        <Con id="1420" src="568" tgt="1278" wght="-2.377823069691658" />
        <Con id="1470" src="1" tgt="1469" wght="5" />
        <Con id="1471" src="1469" tgt="386" wght="5" />
        <Con id="1477" src="1469" tgt="967" wght="4.4796655979007483" />
      </Connections>
    </Network>
    <Network id="77579" birthGen="1926" fitness="7584.71142578125">
      <Nodes>
        <Node type="bias" id="0" />
        <Node type="in" id="1" />
        <Node type="in" id="2" />
        <Node type="in" id="3" />
        <Node type="in" id="4" />
        <Node type="out" id="5" />
        <Node type="out" id="6" />
        <Node type="out" id="7" />
        <Node type="hid" id="38" />
        <Node type="hid" id="72" />
        <Node type="hid" id="361" />
        <Node type="hid" id="386" />
        <Node type="hid" id="492" />
        <Node type="hid" id="568" />
        <Node type="hid" id="891" />
        <Node type="hid" id="967" />
        <Node type="hid" id="984" />
        <Node type="hid" id="1278" />
        <Node type="hid" id="1289" />
        <Node type="hid" id="1469" />
      </Nodes>
      <Connections>
        <Con id="26" src="3" tgt="6" wght="-0.10606603918701163" />
        <Con id="39" src="1" tgt="38" wght="4.8429773565147753" />
        <Con id="46" src="1" tgt="7" wght="-1.5675624940108959" />
        <Con id="68" src="38" tgt="5" wght="-2.9296500715479956" />
        <Con id="73" src="1" tgt="72" wght="-0.15590499864410909" />
        <Con id="121" src="72" tgt="6" wght="-0.52822323630612134" />
        <Con id="128" src="72" tgt="5" wght="-0.31689389032618615" />
        <Con id="214" src="4" tgt="7" wght="0.1661052261304764" />
        <Con id="227" src="38" tgt="7" wght="1.5642893537929259" />
        <Con id="248" src="2" tgt="7" wght="-0.41290355148671215" />
        <Con id="265" src="0" tgt="6" wght="0.56784386282788046" />
        <Con id="362" src="2" tgt="361" wght="-2.58657019272422" />
        <Con id="363" src="361" tgt="38" wght="-0.7524384189177824" />
        <Con id="374" src="38" tgt="6" wght="-0.66790241414396978" />
        <Con id="380" src="3" tgt="7" wght="-1.9741460323975959" />
        <Con id="385" src="361" tgt="7" wght="-0.823574250026982" />
        <Con id="396" src="2" tgt="38" wght="-5" />
        <Con id="398" src="1" tgt="361" wght="3.5326996419756376" />
        <Con id="415" src="386" tgt="6" wght="4.9862388395620947" />
        <Con id="425" src="361" tgt="5" wght="4.6216435531392168" />
        <Con id="429" src="0" tgt="38" wght="-4.9949178573121973" />
        <Con id="446" src="386" tgt="5" wght="-3.5173375434375784" />
        <Con id="447" src="361" tgt="6" wght="2.0313576557060085" />
        <Con id="462" src="0" tgt="361" wght="-2.1009270989240587" />
        <Con id="493" src="386" tgt="492" wght="-0.62088156957276575" />
        <Con id="495" src="492" tgt="38" wght="4.4671050696851626" />
        <Con id="499" src="0" tgt="386" wght="-1.2745068185522073" />
        <Con id="515" src="492" tgt="361" wght="-0.81087933657033129" />
        <Con id="520" src="72" tgt="492" wght="0.2937616525499851" />
        <Con id="524" src="3" tgt="386" wght="4.7885409737297788" />
        <Con id="532" src="4" tgt="386" wght="-1.5881817182525992" />
        <Con id="533" src="0" tgt="492" wght="1.73651137666111" />
        <Con id="534" src="492" tgt="6" wght="5" />
        <Con id="539" src="2" tgt="386" wght="4.987269397023832" />
        <Con id="547" src="1" tgt="492" wght="2.844570624064966" />
        <Con id="551" src="4" tgt="492" wght="-0.04805048155566069" />
        <Con id="563" src="2" tgt="492" wght="0.29359613450432009" />
        <Con id="564" src="386" tgt="38" wght="4.7484220432188629" />
        <Con id="569" src="1" tgt="568" wght="-1.1537400440266892" />
        <Con id="570" src="568" tgt="361" wght="-2.7857151043650723" />
        <Con id="578" src="3" tgt="492" wght="-4.5874020636200665" />
        <Con id="582" src="568" tgt="5" wght="2.0641154105300679" />
        <Con id="583" src="568" tgt="7" wght="0.61056167874817324" />
        <Con id="603" src="568" tgt="6" wght="-1.4331731747367698" />
        <Con id="651" src="386" tgt="568" wght="-1.7645147535404293" />
        <Con id="733" src="0" tgt="568" wght="2.9599935783750091" />
        <Con id="851" src="72" tgt="386" wght="-1.7786147062362057" />
        <Con id="892" src="72" tgt="891" wght="4.9991381597583464" />
        <Con id="893" src="891" tgt="38" wght="2.9345411892641153" />
        <Con id="925" src="891" tgt="6" wght="-1.8208121444414211" />
        <Con id="933" src="3" tgt="568" wght="-4.5187580745979483" />
        <Con id="960" src="891" tgt="361" wght="0.16818398484221789" />
        <Con id="968" src="568" tgt="967" wght="-2.4949160582582097" />
        <Con id="969" src="967" tgt="38" wght="-0.85932254080424153" />
        <Con id="985" src="492" tgt="984" wght="-1.5328753736082534" />
        <Con id="1001" src="2" tgt="891" wght="-3.912164663642713" />
        <Con id="1009" src="492" tgt="967" wght="1.6916654223442213" />
        <Con id="1037" src="984" tgt="38" wght="0.88905847242391367" />
        <Con id="1045" src="72" tgt="984" wght="2.259251643745543" />
        <Con id="1063" src="984" tgt="568" wght="4.5627718698233366" />
        <Con id="1065" src="2" tgt="568" wght="-2.6252300675612719" />
        <Con id="1066" src="1" tgt="967" wght="-2.9371218971937494" />
        <Con id="1077" src="891" tgt="568" wght="-0.0036366416962405439" />
        <Con id="1093" src="0" tgt="891" wght="-3.3309979467081265" />
        <Con id="1108" src="72" tgt="361" wght="-4.1114206891102612" />
        <Con id="1109" src="72" tgt="568" wght="-1.7805393785238266" />
        <Con id="1126" src="984" tgt="361" wght="-2.7476984392892914" />
        <Con id="1138" src="72" tgt="7" wght="-1.9606768971828832" />
        <Con id="1161" src="492" tgt="5" wght="2.2034843814589498" />
        <Con id="1167" src="386" tgt="984" wght="0.42832555053923155" />
        <Con id="1178" src="361" tgt="967" wght="5" />
        <Con id="1183" src="492" tgt="7" wght="-0.4135227655242768" />
        <Con id="1204" src="568" tgt="38" wght="-0.64872942280320645" />
        <Con id="1210" src="891" tgt="492" wght="-0.36951347687385194" />
        <Con id="1252" src="0" tgt="984" wght="1.0832846444100142" />
        <Con id="1279" src="984" tgt="1278" wght="-1.3760565806544889" />
        <Con id="1280" src="1278" tgt="7" wght="3.840301963202176" />
        <Con id="1290" src="72" tgt="1289" wght="4.1564802362080471" />
        <Con id="1291" src="1289" tgt="38" wght="-3.5606660228222609" />
        <Con id="1305" src="361" tgt="1278" wght="4.93211401209575" />
        <Con id="1318" src="4" tgt="1278" wght="-1.2160477604489055" />
        <Con id="1319" src="1278" tgt="967" wght="-1.134870198772407" />
        <Con id="1320" src="386" tgt="1289" wght="3.8599917711690068" />
        <Con id="1321" src="492" tgt="1278" wght="0.43715894734546223" />
        <Con id="1346" src="891" tgt="1278" wght="3.0284429481253028" />
        <Con id="1353" src="1278" tgt="1289" wght="-1.4001774806319283" />
        <Con id="1369" src="72" tgt="1278" wght="0.29143210373305639" />
        <Con id="1371" src="1278" tgt="6" wght="-2.9181364640634753" />
        <Con id="1406" src="568" tgt="1289" wght="-1.7894391377817356" />
        <Con id="1420" src="568" tgt="1278" wght="-2.377823069691658" />
        <Con id="1470" src="1" tgt="1469" wght="5" />
        <Con id="1471" src="1469" tgt="386" wght="5" />
        <Con id="1477" src="1469" tgt="967" wght="4.4796655979007483" />
      </Connections>
    </Network>
    <Network id="77580" birthGen="1926" fitness="2285.55712890625">
      <Nodes>
        <Node type="bias" id="0" />
        <Node type="in" id="1" />
        <Node type="in" id="2" />
        <Node type="in" id="3" />
        <Node type="in" id="4" />
        <Node type="out" id="5" />
        <Node type="out" id="6" />
        <Node type="out" id="7" />
        <Node type="hid" id="38" />
        <Node type="hid" id="72" />
        <Node type="hid" id="361" />
        <Node type="hid" id="386" />
        <Node type="hid" id="492" />
        <Node type="hid" id="568" />
        <Node type="hid" id="891" />
        <Node type="hid" id="967" />
        <Node type="hid" id="984" />
        <Node type="hid" id="1278" />
        <Node type="hid" id="1289" />
        <Node type="hid" id="1469" />
      </Nodes>
      <Connections>
        <Con id="26" src="3" tgt="6" wght="-0.07875220869971411" />
        <Con id="39" src="1" tgt="38" wght="4.8429773565147753" />
        <Con id="46" src="1" tgt="7" wght="-1.5675624940108959" />
        <Con id="68" src="38" tgt="5" wght="-2.9296500715479956" />
        <Con id="73" src="1" tgt="72" wght="-0.15590499864410909" />
        <Con id="121" src="72" tgt="6" wght="-0.52822323630612134" />
        <Con id="128" src="72" tgt="5" wght="-0.31689389032618615" />
        <Con id="214" src="4" tgt="7" wght="0.1661052261304764" />
        <Con id="227" src="38" tgt="7" wght="1.5642893537929259" />
        <Con id="248" src="2" tgt="7" wght="-0.41290355148671215" />
        <Con id="265" src="0" tgt="6" wght="0.56784386282788046" />
        <Con id="362" src="2" tgt="361" wght="-2.58657019272422" />
        <Con id="363" src="361" tgt="38" wght="-0.7524384189177824" />
        <Con id="374" src="38" tgt="6" wght="-0.66790241414396978" />
        <Con id="380" src="3" tgt="7" wght="-1.9741460323975959" />
        <Con id="385" src="361" tgt="7" wght="-0.823574250026982" />
        <Con id="396" src="2" tgt="38" wght="-4.9911269825973452" />
        <Con id="398" src="1" tgt="361" wght="3.5326996419756376" />
        <Con id="415" src="386" tgt="6" wght="4.9862388395620947" />
        <Con id="425" src="361" tgt="5" wght="4.6216435531392168" />
        <Con id="429" src="0" tgt="38" wght="-5" />
        <Con id="446" src="386" tgt="5" wght="-3.5173375434375784" />
        <Con id="447" src="361" tgt="6" wght="2.0313576557060085" />
        <Con id="462" src="0" tgt="361" wght="-2.1009270989240587" />
        <Con id="493" src="386" tgt="492" wght="-0.62088156957276575" />
        <Con id="495" src="492" tgt="38" wght="4.4671050696851626" />
        <Con id="499" src="0" tgt="386" wght="-1.2745068185522073" />
        <Con id="515" src="492" tgt="361" wght="-0.81087933657033129" />
        <Con id="520" src="72" tgt="492" wght="0.2937616525499851" />
        <Con id="524" src="3" tgt="386" wght="4.7885409737297788" />
        <Con id="532" src="4" tgt="386" wght="-1.5881817182525992" />
        <Con id="533" src="0" tgt="492" wght="1.73651137666111" />
        <Con id="534" src="492" tgt="6" wght="5" />
        <Con id="539" src="2" tgt="386" wght="4.987269397023832" />
        <Con id="547" src="1" tgt="492" wght="2.844570624064966" />
        <Con id="551" src="4" tgt="492" wght="-0.04805048155566069" />
        <Con id="563" src="2" tgt="492" wght="0.29359613450432009" />
        <Con id="564" src="386" tgt="38" wght="4.7484220432188629" />
        <Con id="569" src="1" tgt="568" wght="-1.1537400440266892" />
        <Con id="570" src="568" tgt="361" wght="-2.7857151043650723" />
        <Con id="578" src="3" tgt="492" wght="-4.5874020636200665" />
        <Con id="582" src="568" tgt="5" wght="2.0641154105300679" />
        <Con id="583" src="568" tgt="7" wght="0.61056167874817324" />
        <Con id="603" src="568" tgt="6" wght="-1.4331731747367698" />
        <Con id="651" src="386" tgt="568" wght="-1.7645147535404293" />
        <Con id="733" src="0" tgt="568" wght="2.9578784726850249" />
        <Con id="851" src="72" tgt="386" wght="-1.7786147062362057" />
        <Con id="892" src="72" tgt="891" wght="4.9991381597583464" />
        <Con id="893" src="891" tgt="38" wght="2.9345411892641153" />
        <Con id="925" src="891" tgt="6" wght="-1.8208121444414211" />
        <Con id="933" src="3" tgt="568" wght="-4.5187580745979483" />
        <Con id="960" src="891" tgt="361" wght="0.16818398484221789" />
        <Con id="968" src="568" tgt="967" wght="-2.4949160582582097" />
        <Con id="969" src="967" tgt="38" wght="-0.85932254080424153" />
        <Con id="985" src="492" tgt="984" wght="-1.5328753736082534" />
        <Con id="1001" src="2" tgt="891" wght="-3.912164663642713" />
        <Con id="1009" src="492" tgt="967" wght="1.6916654223442213" />
        <Con id="1037" src="984" tgt="38" wght="0.88905847242391367" />
        <Con id="1045" src="72" tgt="984" wght="2.259251643745543" />
        <Con id="1063" src="984" tgt="568" wght="4.5627718698233366" />
        <Con id="1065" src="2" tgt="568" wght="-2.6252300675612719" />
        <Con id="1066" src="1" tgt="967" wght="-2.9371218971937494" />
        <Con id="1077" src="891" tgt="568" wght="-0.0036366416962405439" />
        <Con id="1093" src="0" tgt="891" wght="-3.3309979467081265" />
        <Con id="1108" src="72" tgt="361" wght="-4.1114206891102612" />
        <Con id="1109" src="72" tgt="568" wght="-1.7805393785238266" />
        <Con id="1126" src="984" tgt="361" wght="-2.7476984392892914" />
        <Con id="1138" src="72" tgt="7" wght="-1.9606768971828832" />
        <Con id="1161" src="492" tgt="5" wght="2.2034843814589498" />
        <Con id="1167" src="386" tgt="984" wght="0.42832555053923155" />
        <Con id="1178" src="361" tgt="967" wght="5" />
        <Con id="1183" src="492" tgt="7" wght="-0.4135227655242768" />
        <Con id="1204" src="568" tgt="38" wght="-0.64872942280320645" />
        <Con id="1210" src="891" tgt="492" wght="-0.36951347687385194" />
        <Con id="1252" src="0" tgt="984" wght="1.0832846444100142" />
        <Con id="1279" src="984" tgt="1278" wght="-1.3760565806544889" />
        <Con id="1280" src="1278" tgt="7" wght="3.840301963202176" />
        <Con id="1290" src="72" tgt="1289" wght="4.1564802362080471" />
        <Con id="1291" src="1289" tgt="38" wght="-3.5606660228222609" />
        <Con id="1305" src="361" tgt="1278" wght="4.93211401209575" />
        <Con id="1318" src="4" tgt="1278" wght="-1.2160477604489055" />
        <Con id="1319" src="1278" tgt="967" wght="-1.134870198772407" />
        <Con id="1320" src="386" tgt="1289" wght="3.8599917711690068" />
        <Con id="1321" src="492" tgt="1278" wght="0.43715894734546223" />
        <Con id="1346" src="891" tgt="1278" wght="3.0330333395996658" />
        <Con id="1353" src="1278" tgt="1289" wght="-1.4001774806319283" />
        <Con id="1369" src="72" tgt="1278" wght="0.29143210373305639" />
        <Con id="1371" src="1278" tgt="6" wght="-2.9181364640634753" />
        <Con id="1406" src="568" tgt="1289" wght="-1.7894391377817356" />
        <Con id="1420" src="568" tgt="1278" wght="-2.377823069691658" />
        <Con id="1470" src="1" tgt="1469" wght="5" />
        <Con id="1471" src="1469" tgt="386" wght="5" />
        <Con id="1477" src="1469" tgt="967" wght="4.4796655979007483" />
      </Connections>
    </Network>
    <Network id="77581" birthGen="1926" fitness="9769.0654296875">
      <Nodes>
        <Node type="bias" id="0" />
        <Node type="in" id="1" />
        <Node type="in" id="2" />
        <Node type="in" id="3" />
        <Node type="in" id="4" />
        <Node type="out" id="5" />
        <Node type="out" id="6" />
        <Node type="out" id="7" />
        <Node type="hid" id="38" />
        <Node type="hid" id="72" />
        <Node type="hid" id="361" />
        <Node type="hid" id="386" />
        <Node type="hid" id="492" />
        <Node type="hid" id="568" />
        <Node type="hid" id="891" />
        <Node type="hid" id="967" />
        <Node type="hid" id="984" />
        <Node type="hid" id="1278" />
        <Node type="hid" id="1289" />
        <Node type="hid" id="1469" />
      </Nodes>
      <Connections>
        <Con id="26" src="3" tgt="6" wght="-0.10606603918701163" />
        <Con id="39" src="1" tgt="38" wght="4.8429773565147753" />
        <Con id="46" src="1" tgt="7" wght="-1.5675624940108959" />
        <Con id="68" src="38" tgt="5" wght="-2.9296500715479956" />
        <Con id="73" src="1" tgt="72" wght="-0.15590499864410909" />
        <Con id="121" src="72" tgt="6" wght="-0.54128529717969776" />
        <Con id="128" src="72" tgt="5" wght="-0.31755345495351439" />
        <Con id="214" src="4" tgt="7" wght="0.1661052261304764" />
        <Con id="227" src="38" tgt="7" wght="1.5642893537929259" />
        <Con id="248" src="2" tgt="7" wght="-0.41290355148671215" />
        <Con id="265" src="0" tgt="6" wght="0.56784386282788046" />
        <Con id="362" src="2" tgt="361" wght="-2.58657019272422" />
        <Con id="363" src="361" tgt="38" wght="-0.7524384189177824" />
        <Con id="374" src="38" tgt="6" wght="-0.71843230263089175" />
        <Con id="380" src="3" tgt="7" wght="-1.9741460323975959" />
        <Con id="385" src="361" tgt="7" wght="-0.80455653369426727" />
        <Con id="396" src="2" tgt="38" wght="-5" />
        <Con id="398" src="1" tgt="361" wght="3.5326996419756376" />
        <Con id="415" src="386" tgt="6" wght="4.9862388395620947" />
        <Con id="425" src="361" tgt="5" wght="4.6216435531392168" />
        <Con id="429" src="0" tgt="38" wght="-5" />
        <Con id="446" src="386" tgt="5" wght="-3.4652427963118981" />
        <Con id="447" src="361" tgt="6" wght="4.1549469878425569" />
        <Con id="462" src="0" tgt="361" wght="-2.1009270989240587" />
        <Con id="493" src="386" tgt="492" wght="-0.62088156957276575" />
        <Con id="495" src="492" tgt="38" wght="4.457750804254669" />
        <Con id="499" src="0" tgt="386" wght="-1.2882576254709153" />
        <Con id="515" src="492" tgt="361" wght="-0.81087933657033129" />
        <Con id="520" src="72" tgt="492" wght="0.2937616525499851" />
        <Con id="524" src="3" tgt="386" wght="4.7885409737297788" />
        <Con id="532" src="4" tgt="386" wght="-1.5881817182525992" />
        <Con id="533" src="0" tgt="492" wght="1.73651137666111" />
        <Con id="534" src="492" tgt="6" wght="4.896856302223517" />
        <Con id="539" src="2" tgt="386" wght="4.9315586750573628" />
        <Con id="547" src="1" tgt="492" wght="2.844570624064966" />
        <Con id="551" src="4" tgt="492" wght="-0.04805048155566069" />
        <Con id="563" src="2" tgt="492" wght="0.29359613450432009" />
        <Con id="564" src="386" tgt="38" wght="4.7484220432188629" />
        <Con id="569" src="1" tgt="568" wght="-1.1537400440266892" />
        <Con id="570" src="568" tgt="361" wght="-4.0022449820519626" />
        <Con id="578" src="3" tgt="492" wght="-4.5874020636200665" />
        <Con id="582" src="568" tgt="5" wght="2.0641154105300679" />
        <Con id="583" src="568" tgt="7" wght="1.3810918842427511" />
        <Con id="603" src="568" tgt="6" wght="-1.4331731747367698" />
        <Con id="651" src="386" tgt="568" wght="-1.7645147535404293" />
        <Con id="733" src="0" tgt="568" wght="2.9822962418709178" />
        <Con id="851" src="72" tgt="386" wght="-1.7824182097070451" />
        <Con id="892" src="72" tgt="891" wght="5" />
        <Con id="893" src="891" tgt="38" wght="2.9345411892641153" />
        <Con id="925" src="891" tgt="6" wght="-1.8164781115782473" />
        <Con id="933" src="3" tgt="568" wght="-5" />
        <Con id="960" src="891" tgt="361" wght="0.16818398484221789" />
        <Con id="968" src="568" tgt="967" wght="-2.4949160582582097" />
        <Con id="969" src="967" tgt="38" wght="-0.85932254080424153" />
        <Con id="985" src="492" tgt="984" wght="-1.558791874689103" />
        <Con id="1001" src="2" tgt="891" wght="-3.912164663642713" />
        <Con id="1009" src="492" tgt="967" wght="1.6916654223442213" />
        <Con id="1037" src="984" tgt="38" wght="0.88905847242391367" />
        <Con id="1045" src="72" tgt="984" wght="2.259251643745543" />
        <Con id="1063" src="984" tgt="568" wght="4.5627718698233366" />
        <Con id="1065" src="2" tgt="568" wght="-2.6252300675612719" />
        <Con id="1066" src="1" tgt="967" wght="-2.9371218971937494" />
        <Con id="1071" src="386" tgt="7" wght="-4.1984064877033234" />
        <Con id="1077" src="891" tgt="568" wght="-0.0036366416962405439" />
        <Con id="1093" src="0" tgt="891" wght="-3.335177483347723" />
        <Con id="1108" src="72" tgt="361" wght="-4.1114206891102612" />
        <Con id="1109" src="72" tgt="568" wght="-1.7944631096135801" />
        <Con id="1126" src="984" tgt="361" wght="-3.9202199518297323" />
        <Con id="1138" src="72" tgt="7" wght="-1.9606768971828832" />
        <Con id="1161" src="492" tgt="5" wght="1.9171375154985195" />
        <Con id="1167" src="386" tgt="984" wght="0.42832555053923155" />
        <Con id="1178" src="361" tgt="967" wght="4.9800988400832509" />
        <Con id="1183" src="492" tgt="7" wght="-0.41013076901435852" />
        <Con id="1204" src="568" tgt="38" wght="-0.64872942280320645" />
        <Con id="1210" src="891" tgt="492" wght="-2.2665632084205285" />
        <Con id="1252" src="0" tgt="984" wght="1.0832846444100142" />
        <Con id="1279" src="984" tgt="1278" wght="-1.3760565806544889" />
        <Con id="1280" src="1278" tgt="7" wght="4.1002518927900482" />
        <Con id="1290" src="72" tgt="1289" wght="4.1268355141693966" />
        <Con id="1291" src="1289" tgt="38" wght="-3.5606660228222609" />
        <Con id="1305" src="361" tgt="1278" wght="4.93211401209575" />
        <Con id="1318" src="4" tgt="1278" wght="-0.71077213405584083" />
        <Con id="1319" src="1278" tgt="967" wght="-0.14133523859029862" />
        <Con id="1320" src="386" tgt="1289" wght="3.8584029389591086" />
        <Con id="1321" src="492" tgt="1278" wght="0.42285466444767494" />
        <Con id="1346" src="891" tgt="1278" wght="2.2669029034098003" />
        <Con id="1353" src="1278" tgt="1289" wght="-1.4001774806319283" />
        <Con id="1406" src="568" tgt="1289" wght="-1.7894391377817356" />
        <Con id="1420" src="568" tgt="1278" wght="-2.377823069691658" />
        <Con id="1470" src="1" tgt="1469" wght="4.97137490129851" />
        <Con id="1471" src="1469" tgt="386" wght="5" />
        <Con id="1477" src="1469" tgt="967" wght="4.4796655979007483" />
      </Connections>
    </Network>
    <Network id="77582" birthGen="1926" fitness="9769.0654296875">
      <Nodes>
        <Node type="bias" id="0" />
        <Node type="in" id="1" />
        <Node type="in" id="2" />
        <Node type="in" id="3" />
        <Node type="in" id="4" />
        <Node type="out" id="5" />
        <Node type="out" id="6" />
        <Node type="out" id="7" />
        <Node type="hid" id="38" />
        <Node type="hid" id="72" />
        <Node type="hid" id="361" />
        <Node type="hid" id="386" />
        <Node type="hid" id="492" />
        <Node type="hid" id="568" />
        <Node type="hid" id="891" />
        <Node type="hid" id="967" />
        <Node type="hid" id="984" />
        <Node type="hid" id="1278" />
        <Node type="hid" id="1289" />
        <Node type="hid" id="1469" />
      </Nodes>
      <Connections>
        <Con id="26" src="3" tgt="6" wght="-0.10606603918701163" />
        <Con id="39" src="1" tgt="38" wght="4.8429773565147753" />
        <Con id="46" src="1" tgt="7" wght="-1.5675624940108959" />
        <Con id="68" src="38" tgt="5" wght="-2.9296500715479956" />
        <Con id="73" src="1" tgt="72" wght="-0.15590499864410909" />
        <Con id="121" src="72" tgt="6" wght="-0.54128529717969776" />
        <Con id="128" src="72" tgt="5" wght="-0.31755345495351439" />
        <Con id="214" src="4" tgt="7" wght="0.1661052261304764" />
        <Con id="227" src="38" tgt="7" wght="1.5642893537929259" />
        <Con id="248" src="2" tgt="7" wght="-0.41290355148671215" />
        <Con id="265" src="0" tgt="6" wght="0.56784386282788046" />
        <Con id="362" src="2" tgt="361" wght="-2.58657019272422" />
        <Con id="363" src="361" tgt="38" wght="-0.7524384189177824" />
        <Con id="374" src="38" tgt="6" wght="-0.71843230263089175" />
        <Con id="380" src="3" tgt="7" wght="-1.9741460323975959" />
        <Con id="385" src="361" tgt="7" wght="-0.80455653369426727" />
        <Con id="396" src="2" tgt="38" wght="-5" />
        <Con id="398" src="1" tgt="361" wght="3.5326996419756376" />
        <Con id="415" src="386" tgt="6" wght="4.9862388395620947" />
        <Con id="425" src="361" tgt="5" wght="4.6216435531392168" />
        <Con id="429" src="0" tgt="38" wght="-5" />
        <Con id="446" src="386" tgt="5" wght="-3.4652427963118981" />
        <Con id="447" src="361" tgt="6" wght="4.1549469878425569" />
        <Con id="462" src="0" tgt="361" wght="-2.1009270989240587" />
        <Con id="493" src="386" tgt="492" wght="-0.62088156957276575" />
        <Con id="495" src="492" tgt="38" wght="4.457750804254669" />
        <Con id="499" src="0" tgt="386" wght="-1.2882576254709153" />
        <Con id="515" src="492" tgt="361" wght="-0.81087933657033129" />
        <Con id="520" src="72" tgt="492" wght="0.2937616525499851" />
        <Con id="524" src="3" tgt="386" wght="4.7885409737297788" />
        <Con id="532" src="4" tgt="386" wght="-1.5881817182525992" />
        <Con id="533" src="0" tgt="492" wght="1.73651137666111" />
        <Con id="534" src="492" tgt="6" wght="4.896856302223517" />
        <Con id="539" src="2" tgt="386" wght="4.9315586750573628" />
        <Con id="547" src="1" tgt="492" wght="2.844570624064966" />
        <Con id="551" src="4" tgt="492" wght="-0.04805048155566069" />
        <Con id="563" src="2" tgt="492" wght="0.29359613450432009" />
        <Con id="564" src="386" tgt="38" wght="4.7484220432188629" />
        <Con id="569" src="1" tgt="568" wght="-1.1537400440266892" />
        <Con id="570" src="568" tgt="361" wght="-4.0022449820519626" />
        <Con id="578" src="3" tgt="492" wght="-4.5874020636200665" />
        <Con id="582" src="568" tgt="5" wght="2.0641154105300679" />
        <Con id="583" src="568" tgt="7" wght="1.3810918842427511" />
        <Con id="603" src="568" tgt="6" wght="-1.4331731747367698" />
        <Con id="651" src="386" tgt="568" wght="-1.7645147535404293" />
        <Con id="733" src="0" tgt="568" wght="2.9822962418709178" />
        <Con id="851" src="72" tgt="386" wght="-1.7824182097070451" />
        <Con id="892" src="72" tgt="891" wght="5" />
        <Con id="893" src="891" tgt="38" wght="2.9345411892641153" />
        <Con id="925" src="891" tgt="6" wght="-1.8164781115782473" />
        <Con id="933" src="3" tgt="568" wght="-5" />
        <Con id="960" src="891" tgt="361" wght="0.16818398484221789" />
        <Con id="968" src="568" tgt="967" wght="-2.4949160582582097" />
        <Con id="969" src="967" tgt="38" wght="-0.85932254080424153" />
        <Con id="985" src="492" tgt="984" wght="-1.558791874689103" />
        <Con id="1001" src="2" tgt="891" wght="-3.912164663642713" />
        <Con id="1009" src="492" tgt="967" wght="1.6916654223442213" />
        <Con id="1037" src="984" tgt="38" wght="0.88905847242391367" />
        <Con id="1045" src="72" tgt="984" wght="2.259251643745543" />
        <Con id="1063" src="984" tgt="568" wght="4.5627718698233366" />
        <Con id="1065" src="2" tgt="568" wght="-2.6252300675612719" />
        <Con id="1066" src="1" tgt="967" wght="-2.8872888924360018" />
        <Con id="1071" src="386" tgt="7" wght="-4.1984064877033234" />
        <Con id="1077" src="891" tgt="568" wght="-0.0036366416962405439" />
        <Con id="1093" src="0" tgt="891" wght="-3.335177483347723" />
        <Con id="1108" src="72" tgt="361" wght="-4.1114206891102612" />
        <Con id="1109" src="72" tgt="568" wght="-1.7944631096135801" />
        <Con id="1126" src="984" tgt="361" wght="-3.9202199518297323" />
        <Con id="1138" src="72" tgt="7" wght="-1.9606768971828832" />
        <Con id="1161" src="492" tgt="5" wght="1.9171375154985195" />
        <Con id="1167" src="386" tgt="984" wght="0.42832555053923155" />
        <Con id="1178" src="361" tgt="967" wght="4.9800988400832509" />
        <Con id="1183" src="492" tgt="7" wght="-0.41013076901435852" />
        <Con id="1204" src="568" tgt="38" wght="-0.64872942280320645" />
        <Con id="1210" src="891" tgt="492" wght="-2.2666732926959545" />
        <Con id="1252" src="0" tgt="984" wght="1.0832846444100142" />
        <Con id="1279" src="984" tgt="1278" wght="-1.3760565806544889" />
        <Con id="1280" src="1278" tgt="7" wght="4.1002518927900482" />
        <Con id="1290" src="72" tgt="1289" wght="4.1268355141693966" />
        <Con id="1291" src="1289" tgt="38" wght="-3.5606660228222609" />
        <Con id="1305" src="361" tgt="1278" wght="4.93211401209575" />
        <Con id="1318" src="4" tgt="1278" wght="-0.71077213405584083" />
        <Con id="1319" src="1278" tgt="967" wght="-0.14133523859029862" />
        <Con id="1320" src="386" tgt="1289" wght="3.8599917711690068" />
        <Con id="1321" src="492" tgt="1278" wght="0.43715894734546223" />
        <Con id="1346" src="891" tgt="1278" wght="2.2669029034098003" />
        <Con id="1353" src="1278" tgt="1289" wght="-1.4001774806319283" />
        <Con id="1406" src="568" tgt="1289" wght="-1.7894391377817356" />
        <Con id="1420" src="568" tgt="1278" wght="-2.377823069691658" />
        <Con id="1470" src="1" tgt="1469" wght="4.97137490129851" />
        <Con id="1471" src="1469" tgt="386" wght="5" />
        <Con id="1477" src="1469" tgt="967" wght="4.4796655979007483" />
      </Connections>
    </Network>
    <Network id="77583" birthGen="1926" fitness="4161.6142578125">
      <Nodes>
        <Node type="bias" id="0" />
        <Node type="in" id="1" />
        <Node type="in" id="2" />
        <Node type="in" id="3" />
        <Node type="in" id="4" />
        <Node type="out" id="5" />
        <Node type="out" id="6" />
        <Node type="out" id="7" />
        <Node type="hid" id="38" />
        <Node type="hid" id="72" />
        <Node type="hid" id="361" />
        <Node type="hid" id="386" />
        <Node type="hid" id="492" />
        <Node type="hid" id="568" />
        <Node type="hid" id="891" />
        <Node type="hid" id="967" />
        <Node type="hid" id="984" />
        <Node type="hid" id="1278" />
        <Node type="hid" id="1289" />
        <Node type="hid" id="1469" />
      </Nodes>
      <Connections>
        <Con id="26" src="3" tgt="6" wght="-0.10606603918701163" />
        <Con id="39" src="1" tgt="38" wght="4.8429773565147753" />
        <Con id="46" src="1" tgt="7" wght="-1.5675624940108959" />
        <Con id="68" src="38" tgt="5" wght="-2.9296500715479956" />
        <Con id="73" src="1" tgt="72" wght="-0.15590499864410909" />
        <Con id="121" src="72" tgt="6" wght="-0.54128529717969776" />
        <Con id="128" src="72" tgt="5" wght="-0.31755345495351439" />
        <Con id="214" src="4" tgt="7" wght="0.1661052261304764" />
        <Con id="227" src="38" tgt="7" wght="1.5642893537929259" />
        <Con id="248" src="2" tgt="7" wght="-0.41290355148671215" />
        <Con id="265" src="0" tgt="6" wght="0.56784386282788046" />
        <Con id="362" src="2" tgt="361" wght="-2.58657019272422" />
        <Con id="363" src="361" tgt="38" wght="-0.7524384189177824" />
        <Con id="374" src="38" tgt="6" wght="-0.71843230263089175" />
        <Con id="380" src="3" tgt="7" wght="-1.9741460323975959" />
        <Con id="385" src="361" tgt="7" wght="-0.80455653369426727" />
        <Con id="396" src="2" tgt="38" wght="-5" />
        <Con id="398" src="1" tgt="361" wght="3.5326996419756376" />
        <Con id="415" src="386" tgt="6" wght="4.9862388395620947" />
        <Con id="425" src="361" tgt="5" wght="4.6216435531392168" />
        <Con id="429" src="0" tgt="38" wght="-5" />
        <Con id="446" src="386" tgt="5" wght="-3.4652427963118981" />
        <Con id="447" src="361" tgt="6" wght="4.1549469878425569" />
        <Con id="462" src="0" tgt="361" wght="-2.1009270989240587" />
        <Con id="493" src="386" tgt="492" wght="-0.62088156957276575" />
        <Con id="495" src="492" tgt="38" wght="4.457750804254669" />
        <Con id="499" src="0" tgt="386" wght="-1.2882576254709153" />
        <Con id="515" src="492" tgt="361" wght="-0.81087933657033129" />
        <Con id="520" src="72" tgt="492" wght="0.2937616525499851" />
        <Con id="524" src="3" tgt="386" wght="4.7885409737297788" />
        <Con id="532" src="4" tgt="386" wght="-1.5881817182525992" />
        <Con id="533" src="0" tgt="492" wght="1.73651137666111" />
        <Con id="534" src="492" tgt="6" wght="4.896856302223517" />
        <Con id="539" src="2" tgt="386" wght="4.9315586750573628" />
        <Con id="547" src="1" tgt="492" wght="2.844570624064966" />
        <Con id="551" src="4" tgt="492" wght="-0.04805048155566069" />
        <Con id="563" src="2" tgt="492" wght="0.29359613450432009" />
        <Con id="564" src="386" tgt="38" wght="4.7484220432188629" />
        <Con id="569" src="1" tgt="568" wght="-1.1537400440266892" />
        <Con id="570" src="568" tgt="361" wght="-4.0022449820519626" />
        <Con id="578" src="3" tgt="492" wght="-4.5874020636200665" />
        <Con id="582" src="568" tgt="5" wght="2.0641154105300679" />
        <Con id="583" src="568" tgt="7" wght="1.3810918842427511" />
        <Con id="603" src="568" tgt="6" wght="-1.4331731747367698" />
        <Con id="651" src="386" tgt="568" wght="-1.7645147535404293" />
        <Con id="733" src="0" tgt="568" wght="2.9822962418709178" />
        <Con id="851" src="72" tgt="386" wght="-1.7824182097070451" />
        <Con id="892" src="72" tgt="891" wght="5" />
        <Con id="893" src="891" tgt="38" wght="2.9345411892641153" />
