<?xml version="1.0" encoding="utf-8"?>
<Root>
  <ActivationFunctions>
    <Fn id="0" name="SteepenedSigmoid" prob="1" />
  </ActivationFunctions>
  <Networks>
    <Network id="100111" birthGen="2470" fitness="303.47274780273438">
      <Nodes>
        <Node type="bias" id="0" />
        <Node type="in" id="1" />
        <Node type="in" id="2" />
        <Node type="in" id="3" />
        <Node type="in" id="4" />
        <Node type="out" id="5" />
        <Node type="out" id="6" />
        <Node type="out" id="7" />
        <Node type="hid" id="38" />
        <Node type="hid" id="72" />
        <Node type="hid" id="262" />
        <Node type="hid" id="304" />
        <Node type="hid" id="335" />
        <Node type="hid" id="565" />
        <Node type="hid" id="667" />
        <Node type="hid" id="858" />
        <Node type="hid" id="945" />
        <Node type="hid" id="1410" />
        <Node type="hid" id="1413" />
        <Node type="hid" id="1606" />
        <Node type="hid" id="1723" />
        <Node type="hid" id="1789" />
        <Node type="hid" id="1838" />
        <Node type="hid" id="1857" />
        <Node type="hid" id="1892" />
        <Node type="hid" id="1937" />
        <Node type="hid" id="2059" />
        <Node type="hid" id="2110" />
      </Nodes>
      <Connections>
        <Con id="39" src="1" tgt="38" wght="2.9518394866551918" />
        <Con id="68" src="38" tgt="5" wght="3.1790168255632492" />
        <Con id="73" src="1" tgt="72" wght="-0.04348894888639495" />
        <Con id="128" src="72" tgt="5" wght="-1.1173509481756743" />
        <Con id="235" src="0" tgt="6" wght="2.0150247565009227" />
        <Con id="250" src="72" tgt="6" wght="4.473539216333358" />
        <Con id="264" src="262" tgt="6" wght="4.20774831739448" />
        <Con id="273" src="72" tgt="262" wght="-2.2651965071420825" />
        <Con id="296" src="4" tgt="262" wght="-1.764541829413244" />
        <Con id="305" src="4" tgt="304" wght="-3.510147393681109" />
        <Con id="306" src="304" tgt="6" wght="-2.56798881743736" />
        <Con id="336" src="38" tgt="335" wght="-0.82515092529537615" />
        <Con id="366" src="304" tgt="7" wght="-0.85699634772372046" />
        <Con id="413" src="304" tgt="335" wght="-4.3419517548192967" />
        <Con id="475" src="262" tgt="335" wght="-4.4912204472348094" />
        <Con id="483" src="2" tgt="262" wght="4.8729715499171151" />
        <Con id="487" src="262" tgt="304" wght="2.0289612461607254" />
        <Con id="525" src="72" tgt="304" wght="4.5272174037827773" />
        <Con id="528" src="0" tgt="38" wght="-5" />
        <Con id="534" src="1" tgt="262" wght="-2.0350501118617697" />
        <Con id="566" src="72" tgt="565" wght="2.1431313174440625" />
        <Con id="567" src="565" tgt="38" wght="4.0460580075159669" />
        <Con id="575" src="262" tgt="565" wght="-0.20704536591755945" />
        <Con id="668" src="335" tgt="667" wght="-4.4462105741975764" />
        <Con id="669" src="667" tgt="6" wght="5" />
        <Con id="692" src="2" tgt="335" wght="3.8112093321979046" />
        <Con id="721" src="2" tgt="6" wght="2.7810937144476524" />
        <Con id="723" src="4" tgt="335" wght="-2.5391433231413374" />
        <Con id="731" src="1" tgt="7" wght="0.70805675473200769" />
        <Con id="746" src="3" tgt="6" wght="1.0490057039090446" />
        <Con id="756" src="335" tgt="6" wght="-1.67277044116574" />
        <Con id="767" src="72" tgt="38" wght="4.9923060882834127" />
        <Con id="808" src="262" tgt="5" wght="-1.6827154845036854" />
        <Con id="826" src="262" tgt="667" wght="1.6370215126751959" />
        <Con id="859" src="2" tgt="858" wght="-2.7086037096890578" />
        <Con id="885" src="858" tgt="565" wght="-3.2880599252282177" />
        <Con id="946" src="304" tgt="945" wght="-0.95535616554337577" />
        <Con id="947" src="945" tgt="667" wght="-0.054660760797560215" />
        <Con id="949" src="4" tgt="6" wght="1.8014817542003347" />
        <Con id="952" src="3" tgt="304" wght="3.6645286698375878" />
        <Con id="973" src="667" tgt="5" wght="2.2165387374544308" />
        <Con id="974" src="262" tgt="38" wght="-4.9778666222341084" />
        <Con id="984" src="667" tgt="7" wght="4.9887266125923775" />
        <Con id="987" src="38" tgt="667" wght="-1.3072859150242078" />
        <Con id="991" src="0" tgt="858" wght="4.9889194349950738" />
        <Con id="998" src="565" tgt="667" wght="-0.1560880431938802" />
        <Con id="1002" src="72" tgt="335" wght="2.9107441888246584" />
        <Con id="1021" src="304" tgt="667" wght="-1.7801482459841305" />
        <Con id="1032" src="1" tgt="6" wght="-0.66826842409320886" />
        <Con id="1056" src="3" tgt="38" wght="-3.34214218446547" />
        <Con id="1085" src="565" tgt="7" wght="3.82627750182477" />
        <Con id="1227" src="858" tgt="5" wght="1.7870237580734847" />
        <Con id="1299" src="858" tgt="6" wght="0.057622437997678411" />
        <Con id="1309" src="72" tgt="945" wght="-4.2146217904589243" />
        <Con id="1323" src="4" tgt="858" wght="-0.32561467311718983" />
        <Con id="1355" src="262" tgt="945" wght="-0.26851949027968186" />
        <Con id="1411" src="0" tgt="1410" wght="-1.1984323978139875" />
        <Con id="1412" src="1410" tgt="304" wght="-0.8397165168713131" />
        <Con id="1414" src="3" tgt="1413" wght="-4.2699894742417968" />
        <Con id="1415" src="1413" tgt="262" wght="1.5647661968307442" />
        <Con id="1418" src="1410" tgt="38" wght="-4.9697750625318964" />
        <Con id="1428" src="1410" tgt="565" wght="-0.25243296797822445" />
        <Con id="1443" src="945" tgt="565" wght="-3.0763083834913028" />
        <Con id="1498" src="2" tgt="565" wght="0.93214718305120914" />
        <Con id="1506" src="858" tgt="7" wght="-0.49628657856369363" />
        <Con id="1541" src="1413" tgt="6" wght="-1.0885505973861678" />
        <Con id="1555" src="1413" tgt="38" wght="-0.50975386177896242" />
        <Con id="1607" src="945" tgt="1606" wght="-3.4153006872827931" />
        <Con id="1608" src="1606" tgt="38" wght="1.1931520115218546" />
        <Con id="1724" src="335" tgt="1723" wght="-1.711658523099773" />
        <Con id="1725" src="1723" tgt="7" wght="-5" />
        <Con id="1750" src="4" tgt="945" wght="0.46614219900220633" />
        <Con id="1773" src="304" tgt="1606" wght="-3.8839926566750256" />
        <Con id="1790" src="1" tgt="1789" wght="-4.0780519973486662" />
        <Con id="1829" src="1413" tgt="945" wght="0.40087476262358468" />
        <Con id="1832" src="1413" tgt="1606" wght="0.89412891546026485" />
        <Con id="1839" src="38" tgt="1838" wght="-3.9802094749303425" />
        <Con id="1840" src="1838" tgt="6" wght="4.0725278603055441" />
        <Con id="1858" src="262" tgt="1857" wght="-5" />
        <Con id="1859" src="1857" tgt="7" wght="-0.71425303069531132" />
        <Con id="1879" src="38" tgt="6" wght="-1.0434038999298689" />
        <Con id="1893" src="1723" tgt="1892" wght="-2.30702489329668" />
        <Con id="1894" src="1892" tgt="667" wght="2.4427442944724334" />
        <Con id="1914" src="1892" tgt="1838" wght="-1.5247638611415615" />
        <Con id="1938" src="945" tgt="1937" wght="3.6710015724260541" />
        <Con id="1939" src="1937" tgt="6" wght="3.7778108663670968" />
        <Con id="1945" src="1789" tgt="1892" wght="5" />
        <Con id="1962" src="1606" tgt="1838" wght="4.2770227266668712" />
        <Con id="1988" src="1606" tgt="5" wght="-4.9881898247208127" />
        <Con id="2017" src="1892" tgt="1857" wght="-1.9112356992359603" />
        <Con id="2042" src="1410" tgt="335" wght="1.8796671131920113" />
        <Con id="2060" src="0" tgt="2059" wght="4.71403885312227" />
        <Con id="2061" src="2059" tgt="7" wght="-4.6444652383671219" />
        <Con id="2079" src="1410" tgt="1937" wght="0.77370959582121612" />
        <Con id="2087" src="1413" tgt="2059" wght="0.979182530748209" />
        <Con id="2093" src="0" tgt="7" wght="-1.4690127060007057" />
        <Con id="2111" src="1413" tgt="2110" wght="-1.1105338223638792" />
        <Con id="2112" src="2110" tgt="304" wght="4.7148185819112305" />
        <Con id="2136" src="1838" tgt="2059" wght="-0.771265730397426" />
        <Con id="2139" src="3" tgt="1838" wght="1.7164392944436133" />
        <Con id="2144" src="1789" tgt="335" wght="-0.76370593858831437" />
        <Con id="2171" src="4" tgt="1723" wght="1.6929314751178026" />
        <Con id="2183" src="72" tgt="2059" wght="1.5307792838818632" />
        <Con id="2199" src="2110" tgt="858" wght="-0.7959914390926448" />
        <Con id="2222" src="72" tgt="1892" wght="-4.661983641118737" />
        <Con id="2233" src="1789" tgt="2110" wght="4.64457978907346" />
        <Con id="2361" src="2110" tgt="6" wght="4.7944824486927162" />
        <Con id="2423" src="1410" tgt="2110" wght="1.8385609679516701" />
        <Con id="2517" src="1937" tgt="2059" wght="0.64771716663563339" />
        <Con id="2557" src="565" tgt="2059" wght="4.9863411902249712" />
        <Con id="2598" src="1" tgt="858" wght="3.8662687726860803" />
        <Con id="2639" src="1413" tgt="565" wght="-2.2149849074758214" />
        <Con id="2649" src="858" tgt="1723" wght="1.6513397508362662" />
        <Con id="2677" src="1789" tgt="1410" wght="-2.4766129394993186" />
        <Con id="2719" src="0" tgt="1838" wght="0.40980697883839168" />
        <Con id="2758" src="858" tgt="262" wght="-0.062369707540393809" />
        <Con id="2807" src="945" tgt="1857" wght="-2.9694854101152042" />
        <Con id="2813" src="1789" tgt="38" wght="-2.4114171881228685" />
        <Con id="2825" src="858" tgt="72" wght="0.56332707767161183" />
        <Con id="2896" src="2110" tgt="262" wght="-3.1036601843107312" />
        <Con id="2918" src="1789" tgt="1838" wght="4.0988495374642042" />
        <Con id="2987" src="1723" tgt="667" wght="-4.0085946395993233" />
      </Connections>
    </Network>
    <Network id="100114" birthGen="2470" fitness="342.04586791992188">
      <Nodes>
        <Node type="bias" id="0" />
        <Node type="in" id="1" />
        <Node type="in" id="2" />
        <Node type="in" id="3" />
        <Node type="in" id="4" />
        <Node type="out" id="5" />
        <Node type="out" id="6" />
        <Node type="out" id="7" />
        <Node type="hid" id="38" />
        <Node type="hid" id="72" />
        <Node type="hid" id="262" />
        <Node type="hid" id="304" />
        <Node type="hid" id="335" />
        <Node type="hid" id="565" />
        <Node type="hid" id="667" />
        <Node type="hid" id="858" />
        <Node type="hid" id="945" />
        <Node type="hid" id="1410" />
        <Node type="hid" id="1413" />
        <Node type="hid" id="1606" />
        <Node type="hid" id="1723" />
        <Node type="hid" id="1789" />
        <Node type="hid" id="1838" />
        <Node type="hid" id="1857" />
        <Node type="hid" id="1892" />
        <Node type="hid" id="1937" />
        <Node type="hid" id="2059" />
        <Node type="hid" id="2110" />
        <Node type="hid" id="2904" />
      </Nodes>
      <Connections>
        <Con id="39" src="1" tgt="38" wght="-0.29900963883847" />
        <Con id="68" src="38" tgt="5" wght="4.1456684832912112" />
        <Con id="73" src="1" tgt="72" wght="-0.04348894888639495" />
        <Con id="128" src="72" tgt="5" wght="-1.2355766840986377" />
        <Con id="235" src="0" tgt="6" wght="1.8420259020555436" />
        <Con id="250" src="72" tgt="6" wght="3.7550096822592196" />
        <Con id="264" src="262" tgt="6" wght="4.2329917497333973" />
        <Con id="273" src="72" tgt="262" wght="-2.2439081242665053" />
        <Con id="296" src="4" tgt="262" wght="-2.47318163769475" />
        <Con id="305" src="4" tgt="304" wght="2.3962901976000297" />
        <Con id="306" src="304" tgt="6" wght="-2.56798881743736" />
        <Con id="336" src="38" tgt="335" wght="-0.82515092529537615" />
        <Con id="366" src="304" tgt="7" wght="-0.87619379784509421" />
        <Con id="413" src="304" tgt="335" wght="-4.3581630432216416" />
        <Con id="475" src="262" tgt="335" wght="-2.79373029330356" />
        <Con id="483" src="2" tgt="262" wght="5" />
        <Con id="487" src="262" tgt="304" wght="0.053669168345432894" />
        <Con id="525" src="72" tgt="304" wght="4.5336515092935281" />
        <Con id="528" src="0" tgt="38" wght="-2.4878716492874426" />
        <Con id="534" src="1" tgt="262" wght="-3.5579797612091983" />
        <Con id="566" src="72" tgt="565" wght="-4.5408000298151157" />
        <Con id="567" src="565" tgt="38" wght="-0.52495272389794312" />
        <Con id="575" src="262" tgt="565" wght="0.91222195067462541" />
        <Con id="668" src="335" tgt="667" wght="-2.7862232802703697" />
        <Con id="669" src="667" tgt="6" wght="-1.1792847565612481" />
        <Con id="692" src="2" tgt="335" wght="5" />
        <Con id="721" src="2" tgt="6" wght="2.8160222324473212" />
        <Con id="723" src="4" tgt="335" wght="-1.7964881772235595" />
        <Con id="731" src="1" tgt="7" wght="1.0599158467053835" />
        <Con id="746" src="3" tgt="6" wght="1.0490057039090446" />
        <Con id="756" src="335" tgt="6" wght="-1.7048490782749772" />
        <Con id="767" src="72" tgt="38" wght="5" />
        <Con id="808" src="262" tgt="5" wght="-0.71495333260757965" />
        <Con id="826" src="262" tgt="667" wght="1.6370215126751959" />
        <Con id="859" src="2" tgt="858" wght="1.0073211622041" />
        <Con id="885" src="858" tgt="565" wght="-2.0064929854607483" />
        <Con id="946" src="304" tgt="945" wght="-1.0815076640354115" />
        <Con id="947" src="945" tgt="667" wght="-0.054660760797560215" />
        <Con id="949" src="4" tgt="6" wght="1.7013859819472616" />
        <Con id="952" src="3" tgt="304" wght="-3.4062656154856086" />
        <Con id="973" src="667" tgt="5" wght="1.5585744737833995" />
        <Con id="974" src="262" tgt="38" wght="-5" />
        <Con id="984" src="667" tgt="7" wght="4.9936553224572808" />
        <Con id="987" src="38" tgt="667" wght="-1.3046364319283508" />
        <Con id="991" src="0" tgt="858" wght="5" />
        <Con id="998" src="565" tgt="667" wght="0.15778999138996463" />
        <Con id="1002" src="72" tgt="335" wght="4.045452159935607" />
        <Con id="1021" src="304" tgt="667" wght="-0.50658515147451166" />
        <Con id="1032" src="1" tgt="6" wght="0.55675672906819407" />
        <Con id="1056" src="3" tgt="38" wght="-3.0971374555722075" />
        <Con id="1085" src="565" tgt="7" wght="4.31163115222825" />
        <Con id="1227" src="858" tgt="5" wght="3.7484141039382517" />
        <Con id="1299" src="858" tgt="6" wght="1.5402566382417129" />
        <Con id="1309" src="72" tgt="945" wght="-3.742831497330922" />
        <Con id="1323" src="4" tgt="858" wght="-0.967502028501898" />
        <Con id="1355" src="262" tgt="945" wght="-0.26851949027968186" />
        <Con id="1411" src="0" tgt="1410" wght="-1.0872308014962151" />
        <Con id="1412" src="1410" tgt="304" wght="-1.0497508316283595" />
        <Con id="1414" src="3" tgt="1413" wght="-4.2369237296674385" />
        <Con id="1415" src="1413" tgt="262" wght="1.5608080003471476" />
        <Con id="1418" src="1410" tgt="38" wght="-4.9339044601860556" />
        <Con id="1428" src="1410" tgt="565" wght="-0.28545955367322245" />
        <Con id="1443" src="945" tgt="565" wght="3.79641474040821" />
        <Con id="1498" src="2" tgt="565" wght="1.2914081519261533" />
        <Con id="1506" src="858" tgt="7" wght="0.53577921888443147" />
        <Con id="1541" src="1413" tgt="6" wght="0.27098765061932134" />
        <Con id="1555" src="1413" tgt="38" wght="0.35789791112095548" />
        <Con id="1607" src="945" tgt="1606" wght="-1.0981431753264763" />
        <Con id="1608" src="1606" tgt="38" wght="1.1681249528483022" />
        <Con id="1724" src="335" tgt="1723" wght="-2.7846832484892676" />
        <Con id="1725" src="1723" tgt="7" wght="-5" />
        <Con id="1750" src="4" tgt="945" wght="4.6431381708270685" />
        <Con id="1773" src="304" tgt="1606" wght="-4.0944573648811335" />
        <Con id="1790" src="1" tgt="1789" wght="-3.2036835271613295" />
        <Con id="1829" src="1413" tgt="945" wght="3.4603191962356852" />
        <Con id="1832" src="1413" tgt="1606" wght="4.3927077951329165" />
        <Con id="1839" src="38" tgt="1838" wght="-5" />
        <Con id="1840" src="1838" tgt="6" wght="4.9124473636734436" />
        <Con id="1858" src="262" tgt="1857" wght="-1.9575124699622393" />
        <Con id="1859" src="1857" tgt="7" wght="-1.7465105257176374" />
        <Con id="1879" src="38" tgt="6" wght="1.1571295224405009" />
        <Con id="1893" src="1723" tgt="1892" wght="-2.7261285349794111" />
        <Con id="1894" src="1892" tgt="667" wght="3.84246899368358" />
        <Con id="1914" src="1892" tgt="1838" wght="-1.7656549081119681" />
        <Con id="1938" src="945" tgt="1937" wght="3.6745579037839775" />
        <Con id="1939" src="1937" tgt="6" wght="3.16567902363937" />
        <Con id="1945" src="1789" tgt="1892" wght="5" />
        <Con id="1962" src="1606" tgt="1838" wght="4.012274687016208" />
        <Con id="1988" src="1606" tgt="5" wght="-3.7076479197493977" />
        <Con id="2017" src="1892" tgt="1857" wght="-2.8384217894966763" />
        <Con id="2042" src="1410" tgt="335" wght="1.447894932840712" />
        <Con id="2060" src="0" tgt="2059" wght="4.200563054282263" />
        <Con id="2061" src="2059" tgt="7" wght="-5" />
        <Con id="2079" src="1410" tgt="1937" wght="3.7624856743374151" />
        <Con id="2087" src="1413" tgt="2059" wght="0.99720578246597091" />
        <Con id="2093" src="0" tgt="7" wght="0.00885323912244429" />
        <Con id="2111" src="1413" tgt="2110" wght="-1.1105338223638792" />
        <Con id="2112" src="2110" tgt="304" wght="4.1470262488905831" />
        <Con id="2136" src="1838" tgt="2059" wght="-0.74882827119209594" />
        <Con id="2139" src="3" tgt="1838" wght="-0.46705333161165763" />
        <Con id="2144" src="1789" tgt="335" wght="-0.60736268927218817" />
        <Con id="2171" src="4" tgt="1723" wght="-2.3925729997983689" />
        <Con id="2183" src="72" tgt="2059" wght="2.7123472924417822" />
        <Con id="2199" src="2110" tgt="858" wght="-1.3891979751714918" />
        <Con id="2222" src="72" tgt="1892" wght="-5" />
        <Con id="2233" src="1789" tgt="2110" wght="3.2536000560314262" />
        <Con id="2361" src="2110" tgt="6" wght="4.8144319257622676" />
        <Con id="2423" src="1410" tgt="2110" wght="1.7984258492206395" />
        <Con id="2517" src="1937" tgt="2059" wght="-2.840078523158323" />
        <Con id="2598" src="1" tgt="858" wght="3.9316709204979881" />
        <Con id="2639" src="1413" tgt="565" wght="0.36269739470652346" />
        <Con id="2649" src="858" tgt="1723" wght="1.9027231354266405" />
        <Con id="2677" src="1789" tgt="1410" wght="2.737437521581052" />
        <Con id="2719" src="0" tgt="1838" wght="0.39176559741085637" />
        <Con id="2758" src="858" tgt="262" wght="-0.17274725651134015" />
        <Con id="2807" src="945" tgt="1857" wght="2.9422148930148664" />
        <Con id="2813" src="1789" tgt="38" wght="-2.4021364315056593" />
        <Con id="2825" src="858" tgt="72" wght="2.6924670499117007" />
        <Con id="2868" src="858" tgt="304" wght="-1.9063054444268346" />
        <Con id="2883" src="667" tgt="1937" wght="2.29448797102157" />
        <Con id="2905" src="565" tgt="2904" wght="1.1707569451830209" />
        <Con id="2906" src="2904" tgt="2059" wght="4.2060065302830516" />
        <Con id="2912" src="4" tgt="7" wght="-3.0349392366791568" />
        <Con id="2914" src="2110" tgt="945" wght="-2.4020344531137741" />
        <Con id="3064" src="2" tgt="2110" wght="4.5655668620020151" />
      </Connections>
    </Network>
    <Network id="100119" birthGen="2470" fitness="354.92123413085938">
      <Nodes>
        <Node type="bias" id="0" />
        <Node type="in" id="1" />
        <Node type="in" id="2" />
        <Node type="in" id="3" />
        <Node type="in" id="4" />
        <Node type="out" id="5" />
        <Node type="out" id="6" />
        <Node type="out" id="7" />
        <Node type="hid" id="38" />
        <Node type="hid" id="72" />
        <Node type="hid" id="262" />
        <Node type="hid" id="304" />
        <Node type="hid" id="335" />
        <Node type="hid" id="565" />
        <Node type="hid" id="667" />
        <Node type="hid" id="858" />
        <Node type="hid" id="945" />
        <Node type="hid" id="1410" />
        <Node type="hid" id="1413" />
        <Node type="hid" id="1606" />
        <Node type="hid" id="1723" />
        <Node type="hid" id="1789" />
        <Node type="hid" id="1838" />
        <Node type="hid" id="1857" />
        <Node type="hid" id="1892" />
        <Node type="hid" id="1937" />
        <Node type="hid" id="2059" />
        <Node type="hid" id="2110" />
        <Node type="hid" id="2904" />
        <Node type="hid" id="3048" />
      </Nodes>
      <Connections>
        <Con id="39" src="1" tgt="38" wght="2.9518394866551918" />
        <Con id="68" src="38" tgt="5" wght="4.1456684832912112" />
        <Con id="73" src="1" tgt="72" wght="-0.04348894888639495" />
        <Con id="128" src="72" tgt="5" wght="-1.2355766840986377" />
        <Con id="235" src="0" tgt="6" wght="2.0150247565009227" />
        <Con id="250" src="72" tgt="6" wght="3.7550096822592196" />
        <Con id="264" src="262" tgt="6" wght="4.2329917497333973" />
        <Con id="273" src="72" tgt="262" wght="-2.2256022513320173" />
        <Con id="296" src="4" tgt="262" wght="-3.5509786779749817" />
        <Con id="305" src="4" tgt="304" wght="2.3962901976000297" />
        <Con id="306" src="304" tgt="6" wght="-2.56798881743736" />
        <Con id="336" src="38" tgt="335" wght="-0.032130808130659716" />
        <Con id="366" src="304" tgt="7" wght="-0.85368161831769662" />
        <Con id="413" src="304" tgt="335" wght="-4.3581630432216416" />
        <Con id="475" src="262" tgt="335" wght="-2.79373029330356" />
        <Con id="483" src="2" tgt="262" wght="5" />
        <Con id="487" src="262" tgt="304" wght="2.0273789110985709" />
        <Con id="525" src="72" tgt="304" wght="4.5336515092935281" />
        <Con id="528" src="0" tgt="38" wght="-4.45433846040577" />
        <Con id="534" src="1" tgt="262" wght="-3.5579797612091983" />
        <Con id="566" src="72" tgt="565" wght="-5" />
        <Con id="567" src="565" tgt="38" wght="-0.34197436901903988" />
        <Con id="575" src="262" tgt="565" wght="-0.27015241850882737" />
        <Con id="668" src="335" tgt="667" wght="-2.7862232802703697" />
        <Con id="669" src="667" tgt="6" wght="4.9827527643848084" />
        <Con id="692" src="2" tgt="335" wght="3.4191095032891097" />
        <Con id="721" src="2" tgt="6" wght="2.8160222324473212" />
        <Con id="723" src="4" tgt="335" wght="-2.5391433231413374" />
        <Con id="731" src="1" tgt="7" wght="0.69095640204709941" />
        <Con id="746" src="3" tgt="6" wght="1.0490057039090446" />
        <Con id="756" src="335" tgt="6" wght="-2.80076360991362" />
        <Con id="767" src="72" tgt="38" wght="5" />
        <Con id="808" src="262" tgt="5" wght="-0.71495333260757965" />
        <Con id="826" src="262" tgt="667" wght="1.6561005625449765" />
        <Con id="859" src="2" tgt="858" wght="0.058410897254306759" />
        <Con id="885" src="858" tgt="565" wght="-2.5203690784284238" />
        <Con id="946" src="304" tgt="945" wght="-1.0815076640354115" />
        <Con id="947" src="945" tgt="667" wght="-0.054660760797560215" />
        <Con id="949" src="4" tgt="6" wght="1.6827652948772429" />
        <Con id="952" src="3" tgt="304" wght="-0.614832291705238" />
        <Con id="973" src="667" tgt="5" wght="2.6338550441750694" />
        <Con id="974" src="262" tgt="38" wght="-4.9632808475785559" />
        <Con id="984" src="667" tgt="7" wght="5" />
        <Con id="987" src="38" tgt="667" wght="-1.295356604804369" />
        <Con id="991" src="0" tgt="858" wght="4.75807110604746" />
        <Con id="998" src="565" tgt="667" wght="0.15778999138996463" />
        <Con id="1002" src="72" tgt="335" wght="2.8610260359881412" />
        <Con id="1021" src="304" tgt="667" wght="-0.50658515147451166" />
        <Con id="1032" src="1" tgt="6" wght="0.55675672906819407" />
        <Con id="1056" src="3" tgt="38" wght="-3.7070761166365003" />
        <Con id="1085" src="565" tgt="7" wght="4.31163115222825" />
        <Con id="1227" src="858" tgt="5" wght="4.62534303204293" />
        <Con id="1299" src="858" tgt="6" wght="1.518462971377879" />
        <Con id="1309" src="72" tgt="945" wght="-3.742831497330922" />
        <Con id="1323" src="4" tgt="858" wght="-0.967502028501898" />
        <Con id="1355" src="262" tgt="945" wght="-0.26851949027968186" />
        <Con id="1411" src="0" tgt="1410" wght="-1.0816499677935609" />
        <Con id="1412" src="1410" tgt="304" wght="-1.0241319497632797" />
        <Con id="1414" src="3" tgt="1413" wght="-4.2369237296674385" />
        <Con id="1415" src="1413" tgt="262" wght="0.76917976119812792" />
        <Con id="1418" src="1410" tgt="38" wght="-4.96021996176184" />
        <Con id="1428" src="1410" tgt="565" wght="-0.26328875006678948" />
        <Con id="1443" src="945" tgt="565" wght="-3.8878776675181297" />
        <Con id="1498" src="2" tgt="565" wght="1.2914081519261533" />
        <Con id="1506" src="858" tgt="7" wght="0.53577921888443147" />
        <Con id="1541" src="1413" tgt="6" wght="0.26094720001324229" />
        <Con id="1555" src="1413" tgt="38" wght="1.8201695141465484" />
        <Con id="1607" src="945" tgt="1606" wght="-2.1806876907707107" />
        <Con id="1608" src="1606" tgt="38" wght="1.1681249528483022" />
        <Con id="1724" src="335" tgt="1723" wght="-2.3688808053241623" />
        <Con id="1725" src="1723" tgt="7" wght="-3.9515345358064078" />
        <Con id="1750" src="4" tgt="945" wght="4.6431381708270685" />
        <Con id="1773" src="304" tgt="1606" wght="-4.3740179212612205" />
        <Con id="1790" src="1" tgt="1789" wght="-3.3592401072382927" />
        <Con id="1829" src="1413" tgt="945" wght="3.4603191962356852" />
        <Con id="1832" src="1413" tgt="1606" wght="5" />
        <Con id="1839" src="38" tgt="1838" wght="-4.9814192123424768" />
        <Con id="1840" src="1838" tgt="6" wght="4.9124473636734436" />
        <Con id="1858" src="262" tgt="1857" wght="-2.5117024903637097" />
        <Con id="1859" src="1857" tgt="7" wght="-1.7467308133623067" />
        <Con id="1879" src="38" tgt="6" wght="1.1571295224405009" />
        <Con id="1893" src="1723" tgt="1892" wght="-2.7170191012429146" />
        <Con id="1894" src="1892" tgt="667" wght="3.1242597372553331" />
        <Con id="1938" src="945" tgt="1937" wght="3.6710015724260541" />
        <Con id="1939" src="1937" tgt="6" wght="3.7039170882904089" />
        <Con id="1945" src="1789" tgt="1892" wght="5" />
        <Con id="1962" src="1606" tgt="1838" wght="4.7532170435473429" />
        <Con id="1988" src="1606" tgt="5" wght="-3.7076479197493977" />
        <Con id="2017" src="1892" tgt="1857" wght="-2.8384217894966763" />
        <Con id="2042" src="1410" tgt="335" wght="0.34925929539609" />
        <Con id="2060" src="0" tgt="2059" wght="5" />
        <Con id="2061" src="2059" tgt="7" wght="-4.6788395327704917" />
        <Con id="2079" src="1410" tgt="1937" wght="3.7624856743374151" />
        <Con id="2087" src="1413" tgt="2059" wght="0.99720578246597091" />
        <Con id="2093" src="0" tgt="7" wght="-0.859521023647099" />
        <Con id="2111" src="1413" tgt="2110" wght="1.639093359219733" />
        <Con id="2112" src="2110" tgt="304" wght="4.1080892946222169" />
        <Con id="2136" src="1838" tgt="2059" wght="-0.74882827119209594" />
        <Con id="2139" src="3" tgt="1838" wght="4.6993716293945909" />
        <Con id="2144" src="1789" tgt="335" wght="1.4857413533812689" />
        <Con id="2171" src="4" tgt="1723" wght="-2.3925729997983689" />
        <Con id="2183" src="72" tgt="2059" wght="2.7123472924417822" />
        <Con id="2199" src="2110" tgt="858" wght="-0.79879012648047343" />
        <Con id="2222" src="72" tgt="1892" wght="-4.9851037010478834" />
        <Con id="2233" src="1789" tgt="2110" wght="4.6709343368439349" />
        <Con id="2361" src="2110" tgt="6" wght="4.7973209246993065" />
        <Con id="2423" src="1410" tgt="2110" wght="-0.72001019891009888" />
        <Con id="2517" src="1937" tgt="2059" wght="-4.4557781341205907" />
        <Con id="2598" src="1" tgt="858" wght="4.84757026476445" />
        <Con id="2639" src="1413" tgt="565" wght="0.36269739470652346" />
        <Con id="2649" src="858" tgt="1723" wght="2.6279639802857644" />
        <Con id="2677" src="1789" tgt="1410" wght="2.1672365220703975" />
        <Con id="2719" src="0" tgt="1838" wght="5" />
        <Con id="2758" src="858" tgt="262" wght="-0.1939802420033061" />
        <Con id="2807" src="945" tgt="1857" wght="2.9422148930148664" />
        <Con id="2813" src="1789" tgt="38" wght="-3.1740997443193035" />
        <Con id="2825" src="858" tgt="72" wght="2.0438354111846504" />
        <Con id="2868" src="858" tgt="304" wght="0.26981854908547809" />
        <Con id="2883" src="667" tgt="1937" wght="2.6065648484549016" />
        <Con id="2905" src="565" tgt="2904" wght="1.1707569451830209" />
        <Con id="2906" src="2904" tgt="2059" wght="4.2060065302830516" />
        <Con id="2912" src="4" tgt="7" wght="-4.6488749941965848" />
        <Con id="2989" src="1606" tgt="1892" wght="-3.5623269015923142" />
        <Con id="3049" src="1892" tgt="3048" wght="-1.9183272101348852" />
        <Con id="3050" src="3048" tgt="1838" wght="5" />
      </Connections>
    </Network>
    <Network id="100122" birthGen="2470" fitness="350.28302001953125">
      <Nodes>
        <Node type="bias" id="0" />
        <Node type="in" id="1" />
        <Node type="in" id="2" />
        <Node type="in" id="3" />
        <Node type="in" id="4" />
        <Node type="out" id="5" />
        <Node type="out" id="6" />
        <Node type="out" id="7" />
        <Node type="hid" id="38" />
        <Node type="hid" id="72" />
        <Node type="hid" id="262" />
        <Node type="hid" id="304" />
        <Node type="hid" id="335" />
        <Node type="hid" id="565" />
        <Node type="hid" id="667" />
        <Node type="hid" id="858" />
        <Node type="hid" id="945" />
        <Node type="hid" id="1410" />
        <Node type="hid" id="1413" />
        <Node type="hid" id="1606" />
        <Node type="hid" id="1723" />
        <Node type="hid" id="1789" />
        <Node type="hid" id="1838" />
        <Node type="hid" id="1857" />
        <Node type="hid" id="1892" />
        <Node type="hid" id="1937" />
        <Node type="hid" id="2059" />
        <Node type="hid" id="2110" />
        <Node type="hid" id="2904" />
        <Node type="hid" id="3048" />
      </Nodes>
      <Connections>
        <Con id="39" src="1" tgt="38" wght="2.8985768254244157" />
        <Con id="68" src="38" tgt="5" wght="4.1456684832912112" />
        <Con id="73" src="1" tgt="72" wght="-0.04348894888639495" />
        <Con id="128" src="72" tgt="5" wght="-1.2355766840986377" />
        <Con id="235" src="0" tgt="6" wght="2.0150247565009227" />
        <Con id="250" src="72" tgt="6" wght="3.7550096822592196" />
        <Con id="264" src="262" tgt="6" wght="4.2329917497333973" />
        <Con id="273" src="72" tgt="262" wght="-2.2256022513320173" />
        <Con id="296" src="4" tgt="262" wght="-3.5509786779749817" />
        <Con id="305" src="4" tgt="304" wght="2.3962901976000297" />
        <Con id="306" src="304" tgt="6" wght="-2.56798881743736" />
        <Con id="336" src="38" tgt="335" wght="-0.032130808130659716" />
        <Con id="366" src="304" tgt="7" wght="-0.85368161831769662" />
        <Con id="413" src="304" tgt="335" wght="-4.3581630432216416" />
        <Con id="475" src="262" tgt="335" wght="-2.79373029330356" />
        <Con id="483" src="2" tgt="262" wght="5" />
        <Con id="487" src="262" tgt="304" wght="2.0273789110985709" />
        <Con id="525" src="72" tgt="304" wght="4.5336515092935281" />
        <Con id="528" src="0" tgt="38" wght="-4.45433846040577" />
        <Con id="534" src="1" tgt="262" wght="-3.5579797612091983" />
        <Con id="566" src="72" tgt="565" wght="-4.219219988345575" />
        <Con id="567" src="565" tgt="38" wght="-0.34197436901903988" />
        <Con id="575" src="262" tgt="565" wght="-0.27015241850882737" />
        <Con id="668" src="335" tgt="667" wght="-2.7862232802703697" />
        <Con id="669" src="667" tgt="6" wght="4.9827527643848084" />
        <Con id="692" src="2" tgt="335" wght="3.4191095032891097" />
        <Con id="721" src="2" tgt="6" wght="2.8160222324473212" />
        <Con id="723" src="4" tgt="335" wght="-2.5391433231413374" />
        <Con id="731" src="1" tgt="7" wght="0.69095640204709941" />
        <Con id="746" src="3" tgt="6" wght="1.0490057039090446" />
        <Con id="756" src="335" tgt="6" wght="-2.80076360991362" />
        <Con id="767" src="72" tgt="38" wght="5" />
        <Con id="808" src="262" tgt="5" wght="-1.0584755488775208" />
        <Con id="826" src="262" tgt="667" wght="1.6561005625449765" />
        <Con id="859" src="2" tgt="858" wght="0.058410897254306759" />
        <Con id="885" src="858" tgt="565" wght="-2.5203690784284238" />
        <Con id="946" src="304" tgt="945" wght="-1.0815076640354115" />
        <Con id="947" src="945" tgt="667" wght="-0.054660760797560215" />
        <Con id="949" src="4" tgt="6" wght="1.6827652948772429" />
        <Con id="952" src="3" tgt="304" wght="-0.614832291705238" />
        <Con id="973" src="667" tgt="5" wght="2.6338550441750694" />
        <Con id="974" src="262" tgt="38" wght="-4.9632808475785559" />
        <Con id="984" src="667" tgt="7" wght="5" />
        <Con id="987" src="38" tgt="667" wght="-1.295356604804369" />
        <Con id="991" src="0" tgt="858" wght="4.75807110604746" />
        <Con id="998" src="565" tgt="667" wght="0.15778999138996463" />
        <Con id="1002" src="72" tgt="335" wght="2.8610260359881412" />
        <Con id="1021" src="304" tgt="667" wght="-0.50658515147451166" />
        <Con id="1032" src="1" tgt="6" wght="0.55675672906819407" />
        <Con id="1056" src="3" tgt="38" wght="-3.7070761166365003" />
        <Con id="1085" src="565" tgt="7" wght="4.31163115222825" />
        <Con id="1227" src="858" tgt="5" wght="4.62534303204293" />
        <Con id="1299" src="858" tgt="6" wght="1.518462971377879" />
        <Con id="1309" src="72" tgt="945" wght="-3.742831497330922" />
        <Con id="1323" src="4" tgt="858" wght="-0.967502028501898" />
        <Con id="1355" src="262" tgt="945" wght="-0.26851949027968186" />
        <Con id="1411" src="0" tgt="1410" wght="-1.0816499677935609" />
        <Con id="1412" src="1410" tgt="304" wght="-1.0241319497632797" />
        <Con id="1414" src="3" tgt="1413" wght="-4.2369237296674385" />
        <Con id="1415" src="1413" tgt="262" wght="0.76917976119812792" />
        <Con id="1418" src="1410" tgt="38" wght="-4.96021996176184" />
        <Con id="1428" src="1410" tgt="565" wght="-0.26328875006678948" />
        <Con id="1443" src="945" tgt="565" wght="-3.8878776675181297" />
        <Con id="1498" src="2" tgt="565" wght="1.2914081519261533" />
        <Con id="1506" src="858" tgt="7" wght="0.53577921888443147" />
        <Con id="1541" src="1413" tgt="6" wght="0.26094720001324229" />
        <Con id="1555" src="1413" tgt="38" wght="1.8201695141465484" />
        <Con id="1607" src="945" tgt="1606" wght="-2.1806876907707107" />
        <Con id="1608" src="1606" tgt="38" wght="1.1681249528483022" />
        <Con id="1724" src="335" tgt="1723" wght="-2.3688808053241623" />
        <Con id="1725" src="1723" tgt="7" wght="-3.9515345358064078" />
        <Con id="1750" src="4" tgt="945" wght="4.6431381708270685" />
        <Con id="1773" src="304" tgt="1606" wght="-4.3740179212612205" />
        <Con id="1790" src="1" tgt="1789" wght="-3.3592401072382927" />
        <Con id="1829" src="1413" tgt="945" wght="3.4603191962356852" />
        <Con id="1832" src="1413" tgt="1606" wght="5" />
        <Con id="1839" src="38" tgt="1838" wght="-4.9814192123424768" />
        <Con id="1840" src="1838" tgt="6" wght="4.9124473636734436" />
        <Con id="1858" src="262" tgt="1857" wght="-2.5117024903637097" />
        <Con id="1859" src="1857" tgt="7" wght="-1.7467308133623067" />
        <Con id="1879" src="38" tgt="6" wght="1.1571295224405009" />
        <Con id="1893" src="1723" tgt="1892" wght="-2.7170191012429146" />
        <Con id="1894" src="1892" tgt="667" wght="3.1242597372553331" />
        <Con id="1938" src="945" tgt="1937" wght="3.6710015724260541" />
        <Con id="1939" src="1937" tgt="6" wght="3.7502704845206694" />
        <Con id="1945" src="1789" tgt="1892" wght="5" />
        <Con id="1962" src="1606" tgt="1838" wght="4.7532170435473429" />
        <Con id="1988" src="1606" tgt="5" wght="-3.7076479197493977" />
        <Con id="2017" src="1892" tgt="1857" wght="-2.8384217894966763" />
        <Con id="2042" src="1410" tgt="335" wght="0.34925929539609" />
        <Con id="2060" src="0" tgt="2059" wght="4.5205084057455043" />
        <Con id="2061" src="2059" tgt="7" wght="-4.6788395327704917" />
        <Con id="2079" src="1410" tgt="1937" wght="3.7624856743374151" />
        <Con id="2087" src="1413" tgt="2059" wght="0.99720578246597091" />
        <Con id="2093" src="0" tgt="7" wght="-0.859521023647099" />
        <Con id="2111" src="1413" tgt="2110" wght="1.639093359219733" />
        <Con id="2112" src="2110" tgt="304" wght="4.1080892946222169" />
        <Con id="2136" src="1838" tgt="2059" wght="-0.74882827119209594" />
        <Con id="2139" src="3" tgt="1838" wght="4.6993716293945909" />
        <Con id="2144" src="1789" tgt="335" wght="1.4857413533812689" />
        <Con id="2171" src="4" tgt="1723" wght="-2.3925729997983689" />
        <Con id="2183" src="72" tgt="2059" wght="2.7123472924417822" />
        <Con id="2199" src="2110" tgt="858" wght="-0.79879012648047343" />
        <Con id="2222" src="72" tgt="1892" wght="-4.9851037010478834" />
        <Con id="2233" src="1789" tgt="2110" wght="4.6709343368439349" />
        <Con id="2361" src="2110" tgt="6" wght="4.7973209246993065" />
        <Con id="2423" src="1410" tgt="2110" wght="-0.72001019891009888" />
        <Con id="2517" src="1937" tgt="2059" wght="-4.4557781341205907" />
        <Con id="2598" src="1" tgt="858" wght="3.9316709204979881" />
        <Con id="2639" src="1413" tgt="565" wght="0.36269739470652346" />
        <Con id="2649" src="858" tgt="1723" wght="3.3944237743938328" />
        <Con id="2677" src="1789" tgt="1410" wght="2.1672365220703975" />
        <Con id="2719" src="0" tgt="1838" wght="5" />
        <Con id="2758" src="858" tgt="262" wght="-0.1939802420033061" />
        <Con id="2807" src="945" tgt="1857" wght="2.9422148930148664" />
        <Con id="2813" src="1789" tgt="38" wght="-3.1740997443193035" />
        <Con id="2825" src="858" tgt="72" wght="2.0438354111846504" />
        <Con id="2868" src="858" tgt="304" wght="0.26981854908547809" />
        <Con id="2883" src="667" tgt="1937" wght="2.6065648484549016" />
        <Con id="2905" src="565" tgt="2904" wght="1.1707569451830209" />
        <Con id="2906" src="2904" tgt="2059" wght="4.2060065302830516" />
        <Con id="2912" src="4" tgt="7" wght="-4.6488749941965848" />
        <Con id="2989" src="1606" tgt="1892" wght="-3.5623269015923142" />
        <Con id="3049" src="1892" tgt="3048" wght="-1.9183272101348852" />
        <Con id="3050" src="3048" tgt="1838" wght="5" />
      </Connections>
    </Network>
    <Network id="100124" birthGen="2470" fitness="348.83889770507813">
      <Nodes>
        <Node type="bias" id="0" />
        <Node type="in" id="1" />
        <Node type="in" id="2" />
        <Node type="in" id="3" />
        <Node type="in" id="4" />
        <Node type="out" id="5" />
        <Node type="out" id="6" />
        <Node type="out" id="7" />
        <Node type="hid" id="38" />
        <Node type="hid" id="72" />
        <Node type="hid" id="262" />
        <Node type="hid" id="304" />
        <Node type="hid" id="335" />
        <Node type="hid" id="565" />
        <Node type="hid" id="667" />
        <Node type="hid" id="858" />
        <Node type="hid" id="945" />
        <Node type="hid" id="1410" />
        <Node type="hid" id="1413" />
        <Node type="hid" id="1606" />
        <Node type="hid" id="1723" />
        <Node type="hid" id="1789" />
        <Node type="hid" id="1838" />
        <Node type="hid" id="1857" />
        <Node type="hid" id="1892" />
        <Node type="hid" id="1937" />
        <Node type="hid" id="2059" />
        <Node type="hid" id="2110" />
        <Node type="hid" id="2904" />
        <Node type="hid" id="3048" />
      </Nodes>
      <Connections>
        <Con id="39" src="1" tgt="38" wght="2.9518394866551918" />
        <Con id="68" src="38" tgt="5" wght="4.1456684832912112" />
        <Con id="73" src="1" tgt="72" wght="-0.04348894888639495" />
        <Con id="128" src="72" tgt="5" wght="-1.2355766840986377" />
        <Con id="235" src="0" tgt="6" wght="2.0150247565009227" />
        <Con id="250" src="72" tgt="6" wght="3.7550096822592196" />
        <Con id="264" src="262" tgt="6" wght="4.2329917497333973" />
        <Con id="273" src="72" tgt="262" wght="-2.2256022513320173" />
        <Con id="296" src="4" tgt="262" wght="-3.5509786779749817" />
        <Con id="305" src="4" tgt="304" wght="2.3962901976000297" />
        <Con id="306" src="304" tgt="6" wght="-2.56798881743736" />
        <Con id="336" src="38" tgt="335" wght="-0.032130808130659716" />
        <Con id="366" src="304" tgt="7" wght="-0.85368161831769662" />
        <Con id="413" src="304" tgt="335" wght="-4.3581630432216416" />
        <Con id="475" src="262" tgt="335" wght="-2.79373029330356" />
        <Con id="483" src="2" tgt="262" wght="5" />
        <Con id="487" src="262" tgt="304" wght="2.0273789110985709" />
        <Con id="525" src="72" tgt="304" wght="4.5336515092935281" />
        <Con id="528" src="0" tgt="38" wght="-4.45433846040577" />
        <Con id="534" src="1" tgt="262" wght="-3.5579797612091983" />
        <Con id="566" src="72" tgt="565" wght="-4.219219988345575" />
        <Con id="567" src="565" tgt="38" wght="-0.34197436901903988" />
        <Con id="575" src="262" tgt="565" wght="-0.27015241850882737" />
        <Con id="668" src="335" tgt="667" wght="-2.7862232802703697" />
        <Con id="669" src="667" tgt="6" wght="4.9827527643848084" />
        <Con id="692" src="2" tgt="335" wght="3.4191095032891097" />
        <Con id="721" src="2" tgt="6" wght="2.8160222324473212" />
        <Con id="723" src="4" tgt="335" wght="-2.5391433231413374" />
        <Con id="731" src="1" tgt="7" wght="0.69095640204709941" />
        <Con id="746" src="3" tgt="6" wght="1.0490057039090446" />
        <Con id="756" src="335" tgt="6" wght="-2.80076360991362" />
        <Con id="767" src="72" tgt="38" wght="5" />
        <Con id="808" src="262" tgt="5" wght="-1.0584755488775208" />
        <Con id="826" src="262" tgt="667" wght="1.6561005625449765" />
        <Con id="859" src="2" tgt="858" wght="0.058410897254306759" />
        <Con id="885" src="858" tgt="565" wght="-2.5203690784284238" />
        <Con id="946" src="304" tgt="945" wght="-1.0815076640354115" />
        <Con id="947" src="945" tgt="667" wght="-0.054660760797560215" />
        <Con id="949" src="4" tgt="6" wght="1.6827652948772429" />
        <Con id="952" src="3" tgt="304" wght="-0.614832291705238" />
        <Con id="973" src="667" tgt="5" wght="2.6338550441750694" />
        <Con id="974" src="262" tgt="38" wght="-4.9632808475785559" />
        <Con id="984" src="667" tgt="7" wght="5" />
        <Con id="987" src="38" tgt="667" wght="-1.295356604804369" />
        <Con id="991" src="0" tgt="858" wght="4.75807110604746" />
        <Con id="998" src="565" tgt="667" wght="0.15778999138996463" />
        <Con id="1002" src="72" tgt="335" wght="2.8610260359881412" />
        <Con id="1021" src="304" tgt="667" wght="-0.50658515147451166" />
        <Con id="1032" src="1" tgt="6" wght="0.55675672906819407" />
        <Con id="1056" src="3" tgt="38" wght="-5" />
        <Con id="1085" src="565" tgt="7" wght="4.31163115222825" />
        <Con id="1227" src="858" tgt="5" wght="4.62534303204293" />
        <Con id="1299" src="858" tgt="6" wght="1.518462971377879" />
        <Con id="1309" src="72" tgt="945" wght="-3.742831497330922" />
        <Con id="1323" src="4" tgt="858" wght="-0.967502028501898" />
        <Con id="1355" src="262" tgt="945" wght="-0.26851949027968186" />
        <Con id="1411" src="0" tgt="1410" wght="-1.0816499677935609" />
        <Con id="1412" src="1410" tgt="304" wght="-1.0241319497632797" />
        <Con id="1414" src="3" tgt="1413" wght="-4.2369237296674385" />
        <Con id="1415" src="1413" tgt="262" wght="0.76917976119812792" />
        <Con id="1418" src="1410" tgt="38" wght="-4.96021996176184" />
        <Con id="1428" src="1410" tgt="565" wght="-0.26328875006678948" />
        <Con id="1443" src="945" tgt="565" wght="-3.8878776675181297" />
        <Con id="1498" src="2" tgt="565" wght="1.2914081519261533" />
        <Con id="1506" src="858" tgt="7" wght="0.53577921888443147" />
        <Con id="1541" src="1413" tgt="6" wght="0.26094720001324229" />
        <Con id="1555" src="1413" tgt="38" wght="1.8201695141465484" />
        <Con id="1607" src="945" tgt="1606" wght="-2.1806876907707107" />
        <Con id="1608" src="1606" tgt="38" wght="1.1681249528483022" />
        <Con id="1724" src="335" tgt="1723" wght="-2.3688808053241623" />
        <Con id="1725" src="1723" tgt="7" wght="-3.9515345358064078" />
        <Con id="1750" src="4" tgt="945" wght="4.6431381708270685" />
        <Con id="1773" src="304" tgt="1606" wght="-4.3740179212612205" />
        <Con id="1790" src="1" tgt="1789" wght="-3.3592401072382927" />
        <Con id="1829" src="1413" tgt="945" wght="3.4603191962356852" />
        <Con id="1832" src="1413" tgt="1606" wght="4.0876337019969062" />
        <Con id="1839" src="38" tgt="1838" wght="-4.9814192123424768" />
        <Con id="1840" src="1838" tgt="6" wght="4.9124473636734436" />
        <Con id="1858" src="262" tgt="1857" wght="-2.5117024903637097" />
        <Con id="1859" src="1857" tgt="7" wght="-1.7467308133623067" />
        <Con id="1879" src="38" tgt="6" wght="1.1571295224405009" />
        <Con id="1893" src="1723" tgt="1892" wght="-2.7170191012429146" />
        <Con id="1894" src="1892" tgt="667" wght="3.1242597372553331" />
        <Con id="1938" src="945" tgt="1937" wght="3.6710015724260541" />
        <Con id="1939" src="1937" tgt="6" wght="3.7502704845206694" />
        <Con id="1945" src="1789" tgt="1892" wght="5" />
        <Con id="1962" src="1606" tgt="1838" wght="4.7532170435473429" />
        <Con id="1988" src="1606" tgt="5" wght="-3.7076479197493977" />
        <Con id="2017" src="1892" tgt="1857" wght="-2.8384217894966763" />
        <Con id="2042" src="1410" tgt="335" wght="0.34925929539609" />
        <Con id="2060" src="0" tgt="2059" wght="4.5205084057455043" />
        <Con id="2061" src="2059" tgt="7" wght="-4.6788395327704917" />
        <Con id="2079" src="1410" tgt="1937" wght="3.7624856743374151" />
        <Con id="2087" src="1413" tgt="2059" wght="0.99720578246597091" />
        <Con id="2093" src="0" tgt="7" wght="-0.859521023647099" />
        <Con id="2111" src="1413" tgt="2110" wght="1.639093359219733" />
        <Con id="2112" src="2110" tgt="304" wght="4.1080892946222169" />
        <Con id="2136" src="1838" tgt="2059" wght="-0.74882827119209594" />
        <Con id="2139" src="3" tgt="1838" wght="4.6993716293945909" />
        <Con id="2144" src="1789" tgt="335" wght="1.4857413533812689" />
        <Con id="2171" src="4" tgt="1723" wght="-2.3925729997983689" />
        <Con id="2183" src="72" tgt="2059" wght="2.7123472924417822" />
        <Con id="2199" src="2110" tgt="858" wght="-0.79879012648047343" />
        <Con id="2222" src="72" tgt="1892" wght="-4.9851037010478834" />
        <Con id="2233" src="1789" tgt="2110" wght="4.6709343368439349" />
        <Con id="2361" src="2110" tgt="6" wght="4.7973209246993065" />
        <Con id="2423" src="1410" tgt="2110" wght="-0.72001019891009888" />
        <Con id="2517" src="1937" tgt="2059" wght="-4.4557781341205907" />
        <Con id="2598" src="1" tgt="858" wght="3.9316709204979881" />
        <Con id="2639" src="1413" tgt="565" wght="0.36269739470652346" />
        <Con id="2649" src="858" tgt="1723" wght="3.3944237743938328" />
        <Con id="2677" src="1789" tgt="1410" wght="2.1672365220703975" />
        <Con id="2719" src="0" tgt="1838" wght="5" />
        <Con id="2758" src="858" tgt="262" wght="-0.1939802420033061" />
        <Con id="2807" src="945" tgt="1857" wght="2.9422148930148664" />
        <Con id="2813" src="1789" tgt="38" wght="-3.1740997443193035" />
        <Con id="2825" src="858" tgt="72" wght="2.0438354111846504" />
        <Con id="2868" src="858" tgt="304" wght="0.26981854908547809" />
        <Con id="2883" src="667" tgt="1937" wght="2.6065648484549016" />
        <Con id="2905" src="565" tgt="2904" wght="1.1707569451830209" />
        <Con id="2906" src="2904" tgt="2059" wght="4.2060065302830516" />
        <Con id="2912" src="4" tgt="7" wght="-4.6488749941965848" />
        <Con id="2989" src="1606" tgt="1892" wght="-3.5623269015923142" />
        <Con id="3049" src="1892" tgt="3048" wght="-1.9183272101348852" />
        <Con id="3050" src="3048" tgt="1838" wght="5" />
      </Connections>
    </Network>
    <Network id="100136" birthGen="2470" fitness="291.38134765625">
      <Nodes>
        <Node type="bias" id="0" />
        <Node type="in" id="1" />
        <Node type="in" id="2" />
        <Node type="in" id="3" />
        <Node type="in" id="4" />
        <Node type="out" id="5" />
        <Node type="out" id="6" />
        <Node type="out" id="7" />
        <Node type="hid" id="38" />
        <Node type="hid" id="72" />
        <Node type="hid" id="262" />
        <Node type="hid" id="304" />
        <Node type="hid" id="335" />
        <Node type="hid" id="565" />
        <Node type="hid" id="667" />
        <Node type="hid" id="858" />
        <Node type="hid" id="945" />
        <Node type="hid" id="1410" />
        <Node type="hid" id="1413" />
        <Node type="hid" id="1606" />
        <Node type="hid" id="1723" />
        <Node type="hid" id="1789" />
        <Node type="hid" id="1838" />
        <Node type="hid" id="1857" />
        <Node type="hid" id="1892" />
        <Node type="hid" id="1937" />
        <Node type="hid" id="2059" />
        <Node type="hid" id="2110" />
        <Node type="hid" id="2904" />
      </Nodes>
      <Connections>
        <Con id="39" src="1" tgt="38" wght="4.1738656581974265" />
        <Con id="68" src="38" tgt="5" wght="4.503787486085657" />
        <Con id="73" src="1" tgt="72" wght="-0.04348894888639495" />
        <Con id="128" src="72" tgt="5" wght="-0.91453183319863" />
        <Con id="235" src="0" tgt="6" wght="3.3333706722872991" />
        <Con id="250" src="72" tgt="6" wght="3.7550096822592196" />
        <Con id="264" src="262" tgt="6" wght="3.1783148556189378" />
        <Con id="273" src="72" tgt="262" wght="-2.2439081242665053" />
        <Con id="296" src="4" tgt="262" wght="-2.0213492115137348" />
        <Con id="305" src="4" tgt="304" wght="2.3962901976000297" />
        <Con id="306" src="304" tgt="6" wght="3.1844976590946317" />
        <Con id="336" src="38" tgt="335" wght="-2.9383309870650334" />
        <Con id="366" src="304" tgt="7" wght="-0.85368161831769662" />
        <Con id="413" src="304" tgt="335" wght="-4.3581630432216416" />
        <Con id="475" src="262" tgt="335" wght="-4.1756283436475412" />
        <Con id="483" src="2" tgt="262" wght="5" />
        <Con id="487" src="262" tgt="304" wght="2.0273789110985709" />
        <Con id="525" src="72" tgt="304" wght="4.5283200018456391" />
        <Con id="528" src="0" tgt="38" wght="-2.4878716492874426" />
        <Con id="534" src="1" tgt="262" wght="-2.1299951913301225" />
        <Con id="566" src="72" tgt="565" wght="-4.5408000298151157" />
        <Con id="567" src="565" tgt="38" wght="-0.72356496306892315" />
        <Con id="575" src="262" tgt="565" wght="0.81227010821345891" />
        <Con id="668" src="335" tgt="667" wght="-5" />
        <Con id="669" src="667" tgt="6" wght="5" />
        <Con id="692" src="2" tgt="335" wght="3.4827861869324743" />
        <Con id="721" src="2" tgt="6" wght="3.0017100452340921" />
        <Con id="723" src="4" tgt="335" wght="-1.0957630044413629" />
        <Con id="731" src="1" tgt="7" wght="0.71834726762203849" />
        <Con id="746" src="3" tgt="6" wght="-1.0602394964410746" />
        <Con id="756" src="335" tgt="6" wght="-2.777247963243993" />
        <Con id="767" src="72" tgt="38" wght="5" />
        <Con id="808" src="262" tgt="5" wght="-0.71495333260757965" />
        <Con id="826" src="262" tgt="667" wght="1.6602132634464823" />
        <Con id="859" src="2" tgt="858" wght="-0.461391592600174" />
        <Con id="885" src="858" tgt="565" wght="-3.3274390904330651" />
        <Con id="946" src="304" tgt="945" wght="-1.024202063225127" />
        <Con id="947" src="945" tgt="667" wght="-0.054660760797560215" />
        <Con id="949" src="4" tgt="6" wght="2.3993630273703683" />
        <Con id="952" src="3" tgt="304" wght="-0.614832291705238" />
        <Con id="973" src="667" tgt="5" wght="2.2061253640589911" />
        <Con id="974" src="262" tgt="38" wght="-4.9072634427512272" />
        <Con id="984" src="667" tgt="7" wght="5" />
        <Con id="987" src="38" tgt="667" wght="-1.3046364319283508" />
        <Con id="991" src="0" tgt="858" wght="4.75847370352312" />
        <Con id="998" src="565" tgt="667" wght="-0.55912808515131474" />
        <Con id="1002" src="72" tgt="335" wght="0.55586069390042758" />
        <Con id="1021" src="304" tgt="667" wght="-0.50658515147451166" />
        <Con id="1032" src="1" tgt="6" wght="0.55675672906819407" />
        <Con id="1056" src="3" tgt="38" wght="-3.3482270638710725" />
        <Con id="1085" src="565" tgt="7" wght="4.31163115222825" />
        <Con id="1227" src="858" tgt="5" wght="0.73531626020195329" />
        <Con id="1299" src="858" tgt="6" wght="2.77845239164721" />
        <Con id="1309" src="72" tgt="945" wght="4.4831740589693947" />
        <Con id="1323" src="4" tgt="858" wght="-1.6900905232504813" />
        <Con id="1355" src="262" tgt="945" wght="-4.90766067057848" />
        <Con id="1411" src="0" tgt="1410" wght="-1.0491645150144839" />
        <Con id="1412" src="1410" tgt="304" wght="-1.0516698152929573" />
        <Con id="1414" src="3" tgt="1413" wght="-4.95623893876881" />
        <Con id="1415" src="1413" tgt="262" wght="1.5608080003471476" />
        <Con id="1418" src="1410" tgt="38" wght="-4.96021996176184" />
        <Con id="1428" src="1410" tgt="565" wght="-0.26614609017481261" />
        <Con id="1443" src="945" tgt="565" wght="-4.6857775974808789" />
        <Con id="1498" src="2" tgt="565" wght="0.47756928031897927" />
        <Con id="1506" src="858" tgt="7" wght="-1.0240713585571055" />
        <Con id="1541" src="1413" tgt="6" wght="0.26094720001324229" />
        <Con id="1555" src="1413" tgt="38" wght="0.33769604814082943" />
        <Con id="1607" src="945" tgt="1606" wght="-3.9719828093999743" />
        <Con id="1608" src="1606" tgt="38" wght="1.1681249528483022" />
        <Con id="1724" src="335" tgt="1723" wght="-2.7846832484892676" />
        <Con id="1725" src="1723" tgt="7" wght="-1.2780072133178497" />
        <Con id="1750" src="4" tgt="945" wght="1.2939418170627819" />
        <Con id="1773" src="304" tgt="1606" wght="-4.3740179212612205" />
        <Con id="1790" src="1" tgt="1789" wght="-1.3546319396059048" />
        <Con id="1829" src="1413" tgt="945" wght="3.448791200481562" />
        <Con id="1832" src="1413" tgt="1606" wght="5" />
        <Con id="1839" src="38" tgt="1838" wght="-4.9879934714163072" />
        <Con id="1840" src="1838" tgt="6" wght="4.9326929140349387" />
        <Con id="1858" src="262" tgt="1857" wght="-1.9813646880602847" />
        <Con id="1859" src="1857" tgt="7" wght="-0.71425303069531132" />
        <Con id="1879" src="38" tgt="6" wght="-1.0595127496689618" />
        <Con id="1893" src="1723" tgt="1892" wght="-2.7352700174705165" />
        <Con id="1894" src="1892" tgt="667" wght="2.9256136558459112" />
        <Con id="1914" src="1892" tgt="1838" wght="-1.9183272101348852" />
        <Con id="1938" src="945" tgt="1937" wght="0.48018339242373731" />
        <Con id="1939" src="1937" tgt="6" wght="3.7502704845206694" />
        <Con id="1945" src="1789" tgt="1892" wght="5" />
        <Con id="1962" src="1606" tgt="1838" wght="3.8396315743003639" />
        <Con id="1988" src="1606" tgt="5" wght="-2.4356753379106522" />
        <Con id="2017" src="1892" tgt="1857" wght="-2.8384217894966763" />
        <Con id="2042" src="1410" tgt="335" wght="1.697324891601028" />
        <Con id="2060" src="0" tgt="2059" wght="4.7179458522474116" />
        <Con id="2061" src="2059" tgt="7" wght="-5" />
        <Con id="2079" src="1410" tgt="1937" wght="4.5512440065349873" />
        <Con id="2087" src="1413" tgt="2059" wght="0.99720578246597091" />
        <Con id="2093" src="0" tgt="7" wght="-0.096678148359416488" />
        <Con id="2111" src="1413" tgt="2110" wght="-1.1105338223638792" />
        <Con id="2112" src="2110" tgt="304" wght="2.2864257298256803" />
        <Con id="2136" src="1838" tgt="2059" wght="-0.677497267569538" />
        <Con id="2139" src="3" tgt="1838" wght="1.5385582874669546" />
        <Con id="2144" src="1789" tgt="335" wght="-0.60736268927218817" />
        <Con id="2171" src="4" tgt="1723" wght="-3.4435220376648528" />
        <Con id="2183" src="72" tgt="2059" wght="2.7123472924417822" />
        <Con id="2199" src="2110" tgt="858" wght="-0.067305985788044587" />
        <Con id="2222" src="72" tgt="1892" wght="-4.9957554732291989" />
        <Con id="2233" src="1789" tgt="2110" wght="4.6339856347789325" />
        <Con id="2361" src="2110" tgt="6" wght="-0.67790912671081338" />
        <Con id="2423" src="1410" tgt="2110" wght="1.8173413878623346" />
        <Con id="2517" src="1937" tgt="2059" wght="-4.4557781341205907" />
        <Con id="2598" src="1" tgt="858" wght="4.3627428740934917" />
        <Con id="2639" src="1413" tgt="565" wght="0.36269739470652346" />
        <Con id="2649" src="858" tgt="1723" wght="1.9027231354266405" />
        <Con id="2677" src="1789" tgt="1410" wght="2.1672365220703975" />
        <Con id="2719" src="0" tgt="1838" wght="0.37791611830515526" />
        <Con id="2758" src="858" tgt="262" wght="-0.016308578017386468" />
        <Con id="2807" src="945" tgt="1857" wght="2.9472297480227421" />
        <Con id="2813" src="1789" tgt="38" wght="-5" />
        <Con id="2825" src="858" tgt="72" wght="2.2510890375930357" />
        <Con id="2868" src="858" tgt="304" wght="0.28810623101890087" />
        <Con id="2883" src="667" tgt="1937" wght="2.6477302657440305" />
        <Con id="2905" src="565" tgt="2904" wght="-1.7535289831884562" />
        <Con id="2906" src="2904" tgt="2059" wght="2.3582147057952056" />
        <Con id="2912" src="4" tgt="7" wght="-3.0243209834691451" />
        <Con id="2954" src="72" tgt="667" wght="-1.2917483002011076" />
        <Con id="2983" src="335" tgt="1838" wght="3.4554372208452646" />
        <Con id="2993" src="1" tgt="1410" wght="1.8522594450378791" />
        <Con id="3000" src="2059" tgt="6" wght="3.5674728967017426" />
        <Con id="3029" src="2110" tgt="7" wght="2.38162517675527" />
      </Connections>
    </Network>
    <Network id="100138" birthGen="2470" fitness="283.877685546875">
      <Nodes>
        <Node type="bias" id="0" />
        <Node type="in" id="1" />
        <Node type="in" id="2" />
        <Node type="in" id="3" />
        <Node type="in" id="4" />
        <Node type="out" id="5" />
        <Node type="out" id="6" />
        <Node type="out" id="7" />
        <Node type="hid" id="38" />
        <Node type="hid" id="72" />
        <Node type="hid" id="262" />
        <Node type="hid" id="304" />
        <Node type="hid" id="335" />
        <Node type="hid" id="565" />
        <Node type="hid" id="667" />
        <Node type="hid" id="858" />
        <Node type="hid" id="945" />
        <Node type="hid" id="1410" />
        <Node type="hid" id="1413" />
        <Node type="hid" id="1606" />
        <Node type="hid" id="1723" />
        <Node type="hid" id="1789" />
        <Node type="hid" id="1838" />
        <Node type="hid" id="1857" />
        <Node type="hid" id="1892" />
        <Node type="hid" id="1937" />
        <Node type="hid" id="2059" />
        <Node type="hid" id="2110" />
        <Node type="hid" id="2904" />
      </Nodes>
      <Connections>
        <Con id="39" src="1" tgt="38" wght="2.9431467467144263" />
        <Con id="68" src="38" tgt="5" wght="3.5190809099623483" />
        <Con id="73" src="1" tgt="72" wght="-0.030923781180582251" />
        <Con id="128" src="72" tgt="5" wght="-1.7985401581972837" />
        <Con id="235" src="0" tgt="6" wght="2.0150247565009227" />
        <Con id="250" src="72" tgt="6" wght="5" />
        <Con id="264" src="262" tgt="6" wght="3.9807060456717367" />
        <Con id="273" src="72" tgt="262" wght="-2.2439081242665053" />
        <Con id="296" src="4" tgt="262" wght="-2.0613973141365869" />
        <Con id="305" src="4" tgt="304" wght="2.3962901976000297" />
        <Con id="306" src="304" tgt="6" wght="-2.56798881743736" />
        <Con id="336" src="38" tgt="335" wght="-0.82010917212051981" />
        <Con id="366" src="304" tgt="7" wght="-0.85368161831769662" />
        <Con id="413" src="304" tgt="335" wght="-4.3581630432216416" />
        <Con id="475" src="262" tgt="335" wght="2.4563199235126376" />
        <Con id="483" src="2" tgt="262" wght="5" />
        <Con id="487" src="262" tgt="304" wght="2.0273789110985709" />
        <Con id="525" src="72" tgt="304" wght="4.5283200018456391" />
        <Con id="528" src="0" tgt="38" wght="-2.4793385748258996" />
        <Con id="534" src="1" tgt="262" wght="-2.1136261518089023" />
        <Con id="566" src="72" tgt="565" wght="-4.5601894631357922" />
        <Con id="567" src="565" tgt="38" wght="-0.71602658122683083" />
        <Con id="575" src="262" tgt="565" wght="0.75867137187669109" />
        <Con id="668" src="335" tgt="667" wght="-5" />
        <Con id="669" src="667" tgt="6" wght="3.8182527646862141" />
        <Con id="692" src="2" tgt="335" wght="3.4624029772767173" />
        <Con id="721" src="2" tgt="6" wght="3.0017100452340921" />
        <Con id="723" src="4" tgt="335" wght="-1.7344619568564361" />
        <Con id="731" src="1" tgt="7" wght="0.71834726762203849" />
        <Con id="746" src="3" tgt="6" wght="1.0490057039090446" />
        <Con id="756" src="335" tgt="6" wght="-2.7856937001576871" />
        <Con id="767" src="72" tgt="38" wght="4.9953671073516874" />
        <Con id="808" src="262" tgt="5" wght="-1.7471167550462772" />
        <Con id="826" src="262" tgt="667" wght="-2.6293962216004729" />
        <Con id="859" src="2" tgt="858" wght="-0.98510002394301477" />
        <Con id="885" src="858" tgt="565" wght="-3.2697174048438558" />
        <Con id="946" src="304" tgt="945" wght="-1.0815076640354115" />
        <Con id="947" src="945" tgt="667" wght="-0.054660760797560215" />
        <Con id="949" src="4" tgt="6" wght="2.4000066217142293" />
        <Con id="952" src="3" tgt="304" wght="-0.614832291705238" />
        <Con id="973" src="667" tgt="5" wght="2.2061253640589911" />
        <Con id="974" src="262" tgt="38" wght="-4.93658953667293" />
        <Con id="984" src="667" tgt="7" wght="5" />
        <Con id="987" src="38" tgt="667" wght="-1.3046364319283508" />
        <Con id="991" src="0" tgt="858" wght="4.9889194349950738" />
        <Con id="998" src="565" tgt="667" wght="-1.9680738248882346" />
        <Con id="1002" src="72" tgt="335" wght="1.4064312619627077" />
        <Con id="1021" src="304" tgt="667" wght="-1.8523189658299088" />
        <Con id="1032" src="1" tgt="6" wght="1.168620347729133" />
        <Con id="1056" src="3" tgt="38" wght="-2.2184130025833717" />
        <Con id="1085" src="565" tgt="7" wght="3.8213613185935156" />
        <Con id="1227" src="858" tgt="5" wght="1.0099300193320802" />
        <Con id="1299" src="858" tgt="6" wght="2.77845239164721" />
        <Con id="1309" src="72" tgt="945" wght="4.49934365307582" />
        <Con id="1323" src="4" tgt="858" wght="-0.95085767244066355" />
        <Con id="1355" src="262" tgt="945" wght="-0.26851949027968186" />
        <Con id="1411" src="0" tgt="1410" wght="-1.0816499677935609" />
        <Con id="1412" src="1410" tgt="304" wght="-1.0516698152929573" />
        <Con id="1414" src="3" tgt="1413" wght="-4.2369237296674385" />
        <Con id="1415" src="1413" tgt="262" wght="1.5608080003471476" />
        <Con id="1418" src="1410" tgt="38" wght="-4.96021996176184" />
        <Con id="1428" src="1410" tgt="565" wght="-0.28545955367322245" />
        <Con id="1443" src="945" tgt="565" wght="-4.8111054009186027" />
        <Con id="1498" src="2" tgt="565" wght="1.5689384422522694" />
        <Con id="1506" src="858" tgt="7" wght="-1.0240713585571055" />
        <Con id="1541" src="1413" tgt="6" wght="0.26094720001324229" />
        <Con id="1555" src="1413" tgt="38" wght="1.8913593019510513" />
        <Con id="1607" src="945" tgt="1606" wght="-3.4961589029230011" />
        <Con id="1608" src="1606" tgt="38" wght="1.1681249528483022" />
        <Con id="1724" src="335" tgt="1723" wght="-2.7921556082358543" />
        <Con id="1725" src="1723" tgt="7" wght="-4.9938720110826234" />
        <Con id="1750" src="4" tgt="945" wght="4.6511179136707632" />
        <Con id="1773" src="304" tgt="1606" wght="-4.3967551585496336" />
        <Con id="1790" src="1" tgt="1789" wght="-1.3546319396059048" />
        <Con id="1829" src="1413" tgt="945" wght="4.6877029061533726" />
        <Con id="1832" src="1413" tgt="1606" wght="5" />
        <Con id="1839" src="38" tgt="1838" wght="-4.9785486231683809" />
        <Con id="1840" src="1838" tgt="6" wght="2.41108399926715" />
        <Con id="1858" src="262" tgt="1857" wght="-3.6999338002010993" />
        <Con id="1859" src="1857" tgt="7" wght="-0.71425303069531132" />
        <Con id="1879" src="38" tgt="6" wght="-1.6110085226223796" />
        <Con id="1893" src="1723" tgt="1892" wght="-2.7170191012429146" />
        <Con id="1894" src="1892" tgt="667" wght="3.84246899368358" />
        <Con id="1914" src="1892" tgt="1838" wght="-1.8960597599698843" />
        <Con id="1938" src="945" tgt="1937" wght="0.48449428380080589" />
        <Con id="1939" src="1937" tgt="6" wght="3.7502704845206694" />
        <Con id="1945" src="1789" tgt="1892" wght="5" />
        <Con id="1962" src="1606" tgt="1838" wght="4.2855978398399133" />
        <Con id="1988" src="1606" tgt="5" wght="-3.7078124992619421" />
        <Con id="2017" src="1892" tgt="1857" wght="-2.8384217894966763" />
        <Con id="2042" src="1410" tgt="335" wght="1.4466266147286715" />
        <Con id="2060" src="0" tgt="2059" wght="4.6872776375450123" />
        <Con id="2061" src="2059" tgt="7" wght="-4.6788395327704917" />
        <Con id="2079" src="1410" tgt="1937" wght="5" />
        <Con id="2087" src="1413" tgt="2059" wght="0.99720578246597091" />
        <Con id="2093" src="0" tgt="7" wght="1.5198143252672205" />
        <Con id="2111" src="1413" tgt="2110" wght="2.338381796143949" />
        <Con id="2112" src="2110" tgt="304" wght="4.15847199867279" />
        <Con id="2136" src="1838" tgt="2059" wght="-0.73418008523699774" />
        <Con id="2139" src="3" tgt="1838" wght="1.7004250939541383" />
        <Con id="2144" src="1789" tgt="335" wght="-0.60736268927218817" />
        <Con id="2171" src="4" tgt="1723" wght="-3.425537571310997" />
        <Con id="2183" src="72" tgt="2059" wght="2.7123472924417822" />
        <Con id="2199" src="2110" tgt="858" wght="-1.697136054620914" />
        <Con id="2222" src="72" tgt="1892" wght="-4.9957554732291989" />
        <Con id="2233" src="1789" tgt="2110" wght="4.2113785802445722" />
        <Con id="2361" src="2110" tgt="6" wght="5" />
        <Con id="2423" src="1410" tgt="2110" wght="1.7984258492206395" />
        <Con id="2517" src="1937" tgt="2059" wght="-2.2163828576774161" />
        <Con id="2598" src="1" tgt="858" wght="3.9316709204979881" />
        <Con id="2639" src="1413" tgt="565" wght="0.36269739470652346" />
        <Con id="2649" src="858" tgt="1723" wght="2.9036704088921836" />
        <Con id="2677" src="1789" tgt="1410" wght="-2.9959363769739866" />
        <Con id="2719" src="0" tgt="1838" wght="-1.1529292474059372" />
        <Con id="2758" src="858" tgt="262" wght="0.12448951250124587" />
        <Con id="2807" src="945" tgt="1857" wght="2.794115929820383" />
        <Con id="2813" src="1789" tgt="38" wght="-5" />
        <Con id="2825" src="858" tgt="72" wght="1.8135698838159442" />
        <Con id="2868" src="858" tgt="304" wght="0.28810623101890087" />
        <Con id="2883" src="667" tgt="1937" wght="2.6477302657440305" />
        <Con id="2905" src="565" tgt="2904" wght="-1.4140307725485888" />
        <Con id="2906" src="2904" tgt="2059" wght="2.950458489124979" />
        <Con id="2912" src="4" tgt="7" wght="-3.0243209834691451" />
        <Con id="2954" src="72" tgt="667" wght="-1.1335134085539127" />
        <Con id="2972" src="1937" tgt="5" wght="-2.3648443398997188" />
        <Con id="2983" src="335" tgt="1838" wght="2.015236012318228" />
        <Con id="3001" src="1892" tgt="7" wght="-4.787496998045615" />
        <Con id="3023" src="1" tgt="2059" wght="2.7803758951878415" />
        <Con id="3034" src="945" tgt="1892" wght="-2.1061379664191278" />
      </Connections>
    </Network>
    <Network id="100143" birthGen="2470" fitness="272.87322998046875">
      <Nodes>
        <Node type="bias" id="0" />
        <Node type="in" id="1" />
        <Node type="in" id="2" />
        <Node type="in" id="3" />
        <Node type="in" id="4" />
        <Node type="out" id="5" />
        <Node type="out" id="6" />
        <Node type="out" id="7" />
        <Node type="hid" id="38" />
        <Node type="hid" id="72" />
        <Node type="hid" id="262" />
        <Node type="hid" id="304" />
        <Node type="hid" id="335" />
        <Node type="hid" id="565" />
        <Node type="hid" id="667" />
        <Node type="hid" id="858" />
        <Node type="hid" id="945" />
        <Node type="hid" id="1410" />
        <Node type="hid" id="1413" />
        <Node type="hid" id="1606" />
        <Node type="hid" id="1723" />
        <Node type="hid" id="1789" />
        <Node type="hid" id="1838" />
        <Node type="hid" id="1857" />
        <Node type="hid" id="1892" />
        <Node type="hid" id="1937" />
        <Node type="hid" id="2059" />
        <Node type="hid" id="2110" />
        <Node type="hid" id="2904" />
      </Nodes>
      <Connections>
        <Con id="39" src="1" tgt="38" wght="2.9518394866551918" />
        <Con id="68" src="38" tgt="5" wght="3.5190809099623483" />
        <Con id="73" src="1" tgt="72" wght="-0.030923781180582251" />
        <Con id="128" src="72" tgt="5" wght="-1.7985401581972837" />
        <Con id="235" src="0" tgt="6" wght="2.0150247565009227" />
        <Con id="250" src="72" tgt="6" wght="5" />
        <Con id="264" src="262" tgt="6" wght="3.9807060456717367" />
        <Con id="273" src="72" tgt="262" wght="-2.2439081242665053" />
        <Con id="296" src="4" tgt="262" wght="-2.0613973141365869" />
        <Con id="305" src="4" tgt="304" wght="2.3962901976000297" />
        <Con id="306" src="304" tgt="6" wght="-2.56798881743736" />
        <Con id="336" src="38" tgt="335" wght="-0.82010917212051981" />
        <Con id="366" src="304" tgt="7" wght="-0.85368161831769662" />
        <Con id="413" src="304" tgt="335" wght="-4.3581630432216416" />
        <Con id="475" src="262" tgt="335" wght="2.4436413115960351" />
        <Con id="483" src="2" tgt="262" wght="5" />
        <Con id="487" src="262" tgt="304" wght="2.0273789110985709" />
        <Con id="525" src="72" tgt="304" wght="4.5283200018456391" />
        <Con id="528" src="0" tgt="38" wght="-2.4793385748258996" />
        <Con id="534" src="1" tgt="262" wght="-2.1136261518089023" />
        <Con id="566" src="72" tgt="565" wght="-4.5601894631357922" />
        <Con id="567" src="565" tgt="38" wght="-0.71602658122683083" />
        <Con id="575" src="262" tgt="565" wght="0.75867137187669109" />
        <Con id="668" src="335" tgt="667" wght="-5" />
        <Con id="669" src="667" tgt="6" wght="3.8182527646862141" />
        <Con id="692" src="2" tgt="335" wght="3.4624029772767173" />
        <Con id="721" src="2" tgt="6" wght="3.0017100452340921" />
        <Con id="723" src="4" tgt="335" wght="-1.7344619568564361" />
        <Con id="731" src="1" tgt="7" wght="0.71834726762203849" />
        <Con id="746" src="3" tgt="6" wght="1.0490057039090446" />
        <Con id="756" src="335" tgt="6" wght="-2.7856937001576871" />
        <Con id="767" src="72" tgt="38" wght="4.9953671073516874" />
        <Con id="808" src="262" tgt="5" wght="-1.7471167550462772" />
        <Con id="826" src="262" tgt="667" wght="-2.6293962216004729" />
        <Con id="859" src="2" tgt="858" wght="-0.98510002394301477" />
        <Con id="885" src="858" tgt="565" wght="-3.2697174048438558" />
        <Con id="946" src="304" tgt="945" wght="-1.0815076640354115" />
        <Con id="947" src="945" tgt="667" wght="-0.054660760797560215" />
        <Con id="949" src="4" tgt="6" wght="2.4000066217142293" />
        <Con id="952" src="3" tgt="304" wght="-0.614832291705238" />
        <Con id="973" src="667" tgt="5" wght="2.2061253640589911" />
        <Con id="974" src="262" tgt="38" wght="-4.93658953667293" />
        <Con id="984" src="667" tgt="7" wght="5" />
        <Con id="987" src="38" tgt="667" wght="-1.9158992438041191" />
        <Con id="991" src="0" tgt="858" wght="4.9889194349950738" />
        <Con id="998" src="565" tgt="667" wght="-1.9680738248882346" />
        <Con id="1002" src="72" tgt="335" wght="1.4064312619627077" />
        <Con id="1021" src="304" tgt="667" wght="-1.8523189658299088" />
        <Con id="1032" src="1" tgt="6" wght="1.168620347729133" />
        <Con id="1056" src="3" tgt="38" wght="-2.2184130025833717" />
        <Con id="1085" src="565" tgt="7" wght="3.8213613185935156" />
        <Con id="1227" src="858" tgt="5" wght="1.0099300193320802" />
        <Con id="1299" src="858" tgt="6" wght="2.77845239164721" />
        <Con id="1309" src="72" tgt="945" wght="4.49934365307582" />
        <Con id="1323" src="4" tgt="858" wght="-0.95085767244066355" />
        <Con id="1355" src="262" tgt="945" wght="-0.26851949027968186" />
        <Con id="1411" src="0" tgt="1410" wght="-1.0816499677935609" />
        <Con id="1412" src="1410" tgt="304" wght="-1.0516698152929573" />
        <Con id="1414" src="3" tgt="1413" wght="-4.2369237296674385" />
        <Con id="1415" src="1413" tgt="262" wght="1.5608080003471476" />
        <Con id="1418" src="1410" tgt="38" wght="-4.96021996176184" />
        <Con id="1428" src="1410" tgt="565" wght="-0.28545955367322245" />
        <Con id="1443" src="945" tgt="565" wght="-4.8111054009186027" />
        <Con id="1498" src="2" tgt="565" wght="1.5689384422522694" />
        <Con id="1506" src="858" tgt="7" wght="-1.0240713585571055" />
        <Con id="1541" src="1413" tgt="6" wght="0.26094720001324229" />
        <Con id="1555" src="1413" tgt="38" wght="1.8913593019510513" />
        <Con id="1607" src="945" tgt="1606" wght="-3.4961589029230011" />
        <Con id="1608" src="1606" tgt="38" wght="1.1681249528483022" />
        <Con id="1724" src="335" tgt="1723" wght="-2.7921556082358543" />
        <Con id="1725" src="1723" tgt="7" wght="-4.9938720110826234" />
        <Con id="1750" src="4" tgt="945" wght="4.6511179136707632" />
        <Con id="1773" src="304" tgt="1606" wght="-4.3967551585496336" />
        <Con id="1790" src="1" tgt="1789" wght="-1.3546319396059048" />
        <Con id="1829" src="1413" tgt="945" wght="4.6877029061533726" />
        <Con id="1832" src="1413" tgt="1606" wght="5" />
        <Con id="1839" src="38" tgt="1838" wght="-4.9785486231683809" />
        <Con id="1840" src="1838" tgt="6" wght="2.41108399926715" />
        <Con id="1858" src="262" tgt="1857" wght="-3.6999338002010993" />
        <Con id="1859" src="1857" tgt="7" wght="-0.71425303069531132" />
        <Con id="1879" src="38" tgt="6" wght="-1.6110085226223796" />
        <Con id="1893" src="1723" tgt="1892" wght="-2.7170191012429146" />
        <Con id="1894" src="1892" tgt="667" wght="3.84246899368358" />
        <Con id="1914" src="1892" tgt="1838" wght="0.30888931833453737" />
        <Con id="1938" src="945" tgt="1937" wght="0.48449428380080589" />
        <Con id="1939" src="1937" tgt="6" wght="3.7502704845206694" />
        <Con id="1945" src="1789" tgt="1892" wght="5" />
        <Con id="1962" src="1606" tgt="1838" wght="4.2855978398399133" />
        <Con id="1988" src="1606" tgt="5" wght="-3.7078124992619421" />
        <Con id="2017" src="1892" tgt="1857" wght="-2.8384217894966763" />
        <Con id="2042" src="1410" tgt="335" wght="1.4466266147286715" />
        <Con id="2060" src="0" tgt="2059" wght="4.6872776375450123" />
        <Con id="2061" src="2059" tgt="7" wght="-4.6788395327704917" />
        <Con id="2079" src="1410" tgt="1937" wght="5" />
        <Con id="2087" src="1413" tgt="2059" wght="0.99720578246597091" />
        <Con id="2093" src="0" tgt="7" wght="1.5198143252672205" />
        <Con id="2111" src="1413" tgt="2110" wght="2.334654904590848" />
        <Con id="2112" src="2110" tgt="304" wght="4.15847199867279" />
        <Con id="2136" src="1838" tgt="2059" wght="-0.73418008523699774" />
        <Con id="2139" src="3" tgt="1838" wght="1.7004250939541383" />
        <Con id="2144" src="1789" tgt="335" wght="-0.60736268927218817" />
        <Con id="2171" src="4" tgt="1723" wght="-3.425537571310997" />
        <Con id="2183" src="72" tgt="2059" wght="2.7123472924417822" />
        <Con id="2199" src="2110" tgt="858" wght="-1.697136054620914" />
        <Con id="2222" src="72" tgt="1892" wght="-4.9957554732291989" />
        <Con id="2233" src="1789" tgt="2110" wght="4.2113785802445722" />
        <Con id="2361" src="2110" tgt="6" wght="5" />
        <Con id="2423" src="1410" tgt="2110" wght="1.7984258492206395" />
        <Con id="2517" src="1937" tgt="2059" wght="-2.2163828576774161" />
        <Con id="2598" src="1" tgt="858" wght="3.9316709204979881" />
        <Con id="2639" src="1413" tgt="565" wght="0.36269739470652346" />
        <Con id="2649" src="858" tgt="1723" wght="2.926935924413399" />
        <Con id="2677" src="1789" tgt="1410" wght="-2.9959363769739866" />
        <Con id="2719" src="0" tgt="1838" wght="-1.1301500438501004" />
        <Con id="2758" src="858" tgt="262" wght="0.12448951250124587" />
        <Con id="2807" src="945" tgt="1857" wght="2.794115929820383" />
        <Con id="2813" src="1789" tgt="38" wght="-5" />
        <Con id="2825" src="858" tgt="72" wght="1.8135698838159442" />
        <Con id="2868" src="858" tgt="304" wght="0.28810623101890087" />
        <Con id="2883" src="667" tgt="1937" wght="2.6477302657440305" />
        <Con id="2905" src="565" tgt="2904" wght="-1.4140307725485888" />
        <Con id="2906" src="2904" tgt="2059" wght="2.950458489124979" />
        <Con id="2912" src="4" tgt="7" wght="-3.0243209834691451" />
        <Con id="2954" src="72" tgt="667" wght="-0.12778058464835929" />
        <Con id="2983" src="335" tgt="1838" wght="2.015236012318228" />
        <Con id="3001" src="1892" tgt="7" wght="-3.4153724554926157" />
        <Con id="3023" src="1" tgt="2059" wght="2.7803758951878415" />
        <Con id="3034" src="945" tgt="1892" wght="-1.9326923787593842" />
      </Connections>
    </Network>
    <Network id="100148" birthGen="2470" fitness="251.65577697753906">
      <Nodes>
        <Node type="bias" id="0" />
        <Node type="in" id="1" />
        <Node type="in" id="2" />
        <Node type="in" id="3" />
        <Node type="in" id="4" />
        <Node type="out" id="5" />
        <Node type="out" id="6" />
        <Node type="out" id="7" />
        <Node type="hid" id="38" />
        <Node type="hid" id="72" />
        <Node type="hid" id="262" />
        <Node type="hid" id="304" />
        <Node type="hid" id="335" />
        <Node type="hid" id="565" />
        <Node type="hid" id="667" />
        <Node type="hid" id="858" />
        <Node type="hid" id="945" />
        <Node type="hid" id="1410" />
        <Node type="hid" id="1413" />
        <Node type="hid" id="1606" />
        <Node type="hid" id="1723" />
        <Node type="hid" id="1789" />
        <Node type="hid" id="1838" />
        <Node type="hid" id="1857" />
        <Node type="hid" id="1892" />
        <Node type="hid" id="1937" />
        <Node type="hid" id="2059" />
        <Node type="hid" id="2110" />
        <Node type="hid" id="2904" />
        <Node type="hid" id="2955" />
      </Nodes>
      <Connections>
        <Con id="39" src="1" tgt="38" wght="2.8379158238295461" />
        <Con id="68" src="38" tgt="5" wght="3.8292465886498839" />
        <Con id="73" src="1" tgt="72" wght="-0.04348894888639495" />
        <Con id="128" src="72" tgt="5" wght="-2.3711158288642764" />
        <Con id="235" src="0" tgt="6" wght="1.9297861566184069" />
        <Con id="250" src="72" tgt="6" wght="3.7260417706797275" />
        <Con id="264" src="262" tgt="6" wght="4.2329917497333973" />
        <Con id="273" src="72" tgt="262" wght="-2.2503693355995669" />
        <Con id="296" src="4" tgt="262" wght="-1.9857849984889777" />
        <Con id="305" src="4" tgt="304" wght="2.3962901976000297" />
        <Con id="306" src="304" tgt="6" wght="3.2640740601345897" />
        <Con id="336" src="38" tgt="335" wght="-1.1119962490933704" />
        <Con id="366" src="304" tgt="7" wght="-0.85368161831769662" />
        <Con id="413" src="304" tgt="335" wght="-3.5111005063070877" />
        <Con id="475" src="262" tgt="335" wght="-2.984552998351095" />
        <Con id="483" src="2" tgt="262" wght="4.1818635501449366" />
        <Con id="487" src="262" tgt="304" wght="1.9731323008911743" />
        <Con id="525" src="72" tgt="304" wght="4.5283200018456391" />
        <Con id="528" src="0" tgt="38" wght="-3.0270116495886659" />
        <Con id="534" src="1" tgt="262" wght="-2.1299951913301225" />
        <Con id="566" src="72" tgt="565" wght="-4.5408000298151157" />
        <Con id="567" src="565" tgt="38" wght="-0.707570804416551" />
        <Con id="575" src="262" tgt="565" wght="-0.27015241850882737" />
        <Con id="668" src="335" tgt="667" wght="-4.4376817501155781" />
        <Con id="669" src="667" tgt="6" wght="5" />
        <Con id="692" src="2" tgt="335" wght="2.6247665149211" />
        <Con id="721" src="2" tgt="6" wght="2.8160222324473212" />
        <Con id="723" src="4" tgt="335" wght="3.5044312570244074" />
        <Con id="731" src="1" tgt="7" wght="0.71834726762203849" />
        <Con id="746" src="3" tgt="6" wght="1.0490057039090446" />
        <Con id="756" src="335" tgt="6" wght="-2.80076360991362" />
        <Con id="767" src="72" tgt="38" wght="5" />
        <Con id="808" src="262" tgt="5" wght="-1.4738473329899466" />
        <Con id="826" src="262" tgt="667" wght="3.4734984295785267" />
        <Con id="859" src="2" tgt="858" wght="-0.461391592600174" />
        <Con id="885" src="858" tgt="565" wght="-2.7595261212021041" />
        <Con id="946" src="304" tgt="945" wght="-1.0815076640354115" />
        <Con id="947" src="945" tgt="667" wght="-0.726930329612055" />
        <Con id="949" src="4" tgt="6" wght="1.3960753490325932" />
        <Con id="952" src="3" tgt="304" wght="-0.62217701957354721" />
        <Con id="973" src="667" tgt="5" wght="2.2102841081646947" />
        <Con id="974" src="262" tgt="38" wght="-4.9632808475785559" />
        <Con id="984" src="667" tgt="7" wght="-3.2171970279887319" />
        <Con id="987" src="38" tgt="667" wght="-1.3046364319283508" />
        <Con id="991" src="0" tgt="858" wght="5" />
        <Con id="998" src="565" tgt="667" wght="0.0098528915455942112" />
        <Con id="1002" src="72" tgt="335" wght="1.1694384180009365" />
        <Con id="1021" src="304" tgt="667" wght="-0.50658515147451166" />
        <Con id="1032" src="1" tgt="6" wght="0.11102033116938886" />
        <Con id="1056" src="3" tgt="38" wght="-3.3482270638710725" />
        <Con id="1085" src="565" tgt="7" wght="4.31163115222825" />
        <Con id="1227" src="858" tgt="5" wght="1.0232632089330076" />
        <Con id="1299" src="858" tgt="6" wght="1.969221097728526" />
        <Con id="1309" src="72" tgt="945" wght="4.477748186327517" />
        <Con id="1323" src="4" tgt="858" wght="4.901772104203701" />
        <Con id="1355" src="262" tgt="945" wght="-0.36114820224428" />
        <Con id="1411" src="0" tgt="1410" wght="-2.8802926203053185" />
        <Con id="1412" src="1410" tgt="304" wght="-1.0241319497632797" />
        <Con id="1414" src="3" tgt="1413" wght="-4.2369237296674385" />
        <Con id="1415" src="1413" tgt="262" wght="1.5608080003471476" />
        <Con id="1418" src="1410" tgt="38" wght="-4.96021996176184" />
        <Con id="1428" src="1410" tgt="565" wght="-0.28545955367322245" />
        <Con id="1443" src="945" tgt="565" wght="1.8324301915742116" />
        <Con id="1498" src="2" tgt="565" wght="1.2595188940216198" />
        <Con id="1506" src="858" tgt="7" wght="0.53577921888443147" />
        <Con id="1541" src="1413" tgt="6" wght="2.1533309818311035" />
        <Con id="1555" src="1413" tgt="38" wght="0.33769604814082943" />
        <Con id="1607" src="945" tgt="1606" wght="-1.0847376436546965" />
        <Con id="1608" src="1606" tgt="38" wght="3.065765858551988" />
        <Con id="1724" src="335" tgt="1723" wght="-2.7846832484892676" />
        <Con id="1725" src="1723" tgt="7" wght="-4.9652847886934133" />
        <Con id="1750" src="4" tgt="945" wght="4.6431381708270685" />
        <Con id="1773" src="304" tgt="1606" wght="-4.3740179212612205" />
        <Con id="1790" src="1" tgt="1789" wght="-1.3546319396059048" />
        <Con id="1829" src="1413" tgt="945" wght="2.2030007016432203" />
        <Con id="1832" src="1413" tgt="1606" wght="5" />
        <Con id="1839" src="38" tgt="1838" wght="-4.9879934714163072" />
        <Con id="1840" src="1838" tgt="6" wght="3.6613440621099933" />
        <Con id="1858" src="262" tgt="1857" wght="-3.005185267173065" />
        <Con id="1859" src="1857" tgt="7" wght="1.1560839328695853" />
        <Con id="1879" src="38" tgt="6" wght="-0.31206014372807295" />
        <Con id="1893" src="1723" tgt="1892" wght="-3.8190243174353498" />
        <Con id="1894" src="1892" tgt="667" wght="3.84246899368358" />
        <Con id="1914" src="1892" tgt="1838" wght="-1.9435149337089386" />
        <Con id="1938" src="945" tgt="1937" wght="3.6710015724260541" />
        <Con id="1939" src="1937" tgt="6" wght="3.7502704845206694" />
        <Con id="1945" src="1789" tgt="1892" wght="5" />
        <Con id="1962" src="1606" tgt="1838" wght="4.2573645166242624" />
        <Con id="1988" src="1606" tgt="5" wght="-5" />
        <Con id="2017" src="1892" tgt="1857" wght="-2.8384217894966763" />
        <Con id="2042" src="1410" tgt="335" wght="1.9960733720445079" />
        <Con id="2060" src="0" tgt="2059" wght="4.7206750227135537" />
        <Con id="2061" src="2059" tgt="7" wght="-3.2129567044985592" />
        <Con id="2079" src="1410" tgt="1937" wght="5" />
        <Con id="2087" src="1413" tgt="2059" wght="0.99351319901802626" />
        <Con id="2093" src="0" tgt="7" wght="1.0734981458969319" />
        <Con id="2111" src="1413" tgt="2110" wght="-2.1771519107450814" />
        <Con id="2112" src="2110" tgt="304" wght="3.8694488799979307" />
        <Con id="2136" src="1838" tgt="2059" wght="-0.74882827119209594" />
        <Con id="2139" src="3" tgt="1838" wght="1.7004250939541383" />
        <Con id="2144" src="1789" tgt="335" wght="-0.59341705937253908" />
        <Con id="2171" src="4" tgt="1723" wght="-4.0397846492667338" />
        <Con id="2183" src="72" tgt="2059" wght="2.7032371434110791" />
        <Con id="2199" src="2110" tgt="858" wght="-0.79879012648047343" />
        <Con id="2222" src="72" tgt="1892" wght="-1.0023110567465927" />
        <Con id="2233" src="1789" tgt="2110" wght="4.662041267480542" />
        <Con id="2361" src="2110" tgt="6" wght="5" />
        <Con id="2423" src="1410" tgt="2110" wght="1.1811344555185306" />
        <Con id="2517" src="1937" tgt="2059" wght="-4.429945248465212" />
        <Con id="2639" src="1413" tgt="565" wght="1.2653360622770551" />
        <Con id="2649" src="858" tgt="1723" wght="1.9323396466124967" />
        <Con id="2677" src="1789" tgt="1410" wght="0.90841016365941574" />
        <Con id="2719" src="0" tgt="1838" wght="0.39176559741085637" />
        <Con id="2758" src="858" tgt="262" wght="-0.037785982713103294" />
        <Con id="2807" src="945" tgt="1857" wght="2.9546799560129005" />
        <Con id="2813" src="1789" tgt="38" wght="-2.1831243548740797" />
        <Con id="2825" src="858" tgt="72" wght="2.5023311774606003" />
        <Con id="2868" src="858" tgt="304" wght="0.26399079307522261" />
        <Con id="2883" src="667" tgt="1937" wght="2.6477302657440305" />
        <Con id="2905" src="565" tgt="2904" wght="-1.4140307725485888" />
        <Con id="2906" src="2904" tgt="2059" wght="3.9750582935662835" />
        <Con id="2912" src="4" tgt="7" wght="-3.0421394788511131" />
        <Con id="2956" src="1" tgt="2955" wght="1.5309242624789476" />
        <Con id="2957" src="2955" tgt="858" wght="5" />
        <Con id="2994" src="1413" tgt="304" wght="4.606227301992476" />
        <Con id="3011" src="72" tgt="2904" wght="1.2657240172848105" />
        <Con id="3022" src="1410" tgt="1857" wght="-0.5055629275739193" />
      </Connections>
    </Network>
    <Network id="100150" birthGen="2471" fitness="0">
      <Nodes>
        <Node type="bias" id="0" />
        <Node type="in" id="1" />
        <Node type="in" id="2" />
        <Node type="in" id="3" />
        <Node type="in" id="4" />
        <Node type="out" id="5" />
        <Node type="out" id="6" />
        <Node type="out" id="7" />
        <Node type="hid" id="38" />
        <Node type="hid" id="72" />
        <Node type="hid" id="262" />
        <Node type="hid" id="304" />
        <Node type="hid" id="335" />
        <Node type="hid" id="565" />
        <Node type="hid" id="667" />
        <Node type="hid" id="858" />
        <Node type="hid" id="945" />
        <Node type="hid" id="1410" />
        <Node type="hid" id="1413" />
        <Node type="hid" id="1606" />
        <Node type="hid" id="1723" />
        <Node type="hid" id="1789" />
        <Node type="hid" id="1838" />
        <Node type="hid" id="1857" />
        <Node type="hid" id="1892" />
        <Node type="hid" id="1937" />
        <Node type="hid" id="2059" />
        <Node type="hid" id="2110" />
      </Nodes>
      <Connections>
        <Con id="39" src="1" tgt="38" wght="2.9518394866551918" />
        <Con id="68" src="38" tgt="5" wght="3.1790168255632492" />
        <Con id="73" src="1" tgt="72" wght="-0.04348894888639495" />
        <Con id="128" src="72" tgt="5" wght="-1.1173509481756743" />
        <Con id="235" src="0" tgt="6" wght="2.0150247565009227" />
        <Con id="250" src="72" tgt="6" wght="4.473539216333358" />
        <Con id="264" src="262" tgt="6" wght="4.20774831739448" />
        <Con id="273" src="72" tgt="262" wght="-2.2651965071420825" />
        <Con id="296" src="4" tgt="262" wght="-1.764541829413244" />
        <Con id="305" src="4" tgt="304" wght="-3.510147393681109" />
        <Con id="306" src="304" tgt="6" wght="-2.56798881743736" />
        <Con id="336" src="38" tgt="335" wght="-0.82515092529537615" />
        <Con id="366" src="304" tgt="7" wght="-0.85699634772372046" />
        <Con id="413" src="304" tgt="335" wght="-4.3419517548192967" />
        <Con id="475" src="262" tgt="335" wght="-4.4912204472348094" />
        <Con id="483" src="2" tgt="262" wght="4.8729715499171151" />
        <Con id="487" src="262" tgt="304" wght="2.0289612461607254" />
        <Con id="525" src="72" tgt="304" wght="4.5272174037827773" />
        <Con id="528" src="0" tgt="38" wght="-5" />
        <Con id="534" src="1" tgt="262" wght="-2.0350501118617697" />
        <Con id="566" src="72" tgt="565" wght="2.1431313174440625" />
        <Con id="567" src="565" tgt="38" wght="4.0460580075159669" />
        <Con id="575" src="262" tgt="565" wght="-0.20704536591755945" />
        <Con id="668" src="335" tgt="667" wght="-4.4462105741975764" />
        <Con id="669" src="667" tgt="6" wght="5" />
        <Con id="692" src="2" tgt="335" wght="3.8112093321979046" />
        <Con id="721" src="2" tgt="6" wght="2.7810937144476524" />
        <Con id="723" src="4" tgt="335" wght="-2.5391433231413374" />
        <Con id="731" src="1" tgt="7" wght="0.70805675473200769" />
        <Con id="746" src="3" tgt="6" wght="1.0490057039090446" />
        <Con id="756" src="335" tgt="6" wght="-1.67277044116574" />
        <Con id="767" src="72" tgt="38" wght="4.9923060882834127" />
        <Con id="808" src="262" tgt="5" wght="-1.6827154845036854" />
        <Con id="826" src="262" tgt="667" wght="1.6370215126751959" />
        <Con id="859" src="2" tgt="858" wght="-2.7086037096890578" />
        <Con id="885" src="858" tgt="565" wght="-3.2880599252282177" />
        <Con id="946" src="304" tgt="945" wght="-0.95535616554337577" />
        <Con id="947" src="945" tgt="667" wght="-0.054660760797560215" />
        <Con id="949" src="4" tgt="6" wght="1.8014817542003347" />
        <Con id="952" src="3" tgt="304" wght="3.6645286698375878" />
        <Con id="973" src="667" tgt="5" wght="2.2165387374544308" />
        <Con id="974" src="262" tgt="38" wght="-4.9778666222341084" />
        <Con id="984" src="667" tgt="7" wght="4.9887266125923775" />
        <Con id="987" src="38" tgt="667" wght="-1.3072859150242078" />
        <Con id="991" src="0" tgt="858" wght="4.9889194349950738" />
        <Con id="998" src="565" tgt="667" wght="-0.1560880431938802" />
        <Con id="1002" src="72" tgt="335" wght="2.9107441888246584" />
        <Con id="1021" src="304" tgt="667" wght="-1.7801482459841305" />
        <Con id="1032" src="1" tgt="6" wght="-0.66826842409320886" />
        <Con id="1056" src="3" tgt="38" wght="-3.34214218446547" />
        <Con id="1085" src="565" tgt="7" wght="3.82627750182477" />
        <Con id="1227" src="858" tgt="5" wght="1.7870237580734847" />
        <Con id="1299" src="858" tgt="6" wght="0.057622437997678411" />
        <Con id="1309" src="72" tgt="945" wght="-4.2146217904589243" />
        <Con id="1323" src="4" tgt="858" wght="-0.32561467311718983" />
        <Con id="1355" src="262" tgt="945" wght="-0.26851949027968186" />
        <Con id="1411" src="0" tgt="1410" wght="-1.1984323978139875" />
        <Con id="1412" src="1410" tgt="304" wght="-0.8397165168713131" />
        <Con id="1414" src="3" tgt="1413" wght="-4.2699894742417968" />
        <Con id="1415" src="1413" tgt="262" wght="1.5647661968307442" />
        <Con id="1418" src="1410" tgt="38" wght="-4.9697750625318964" />
        <Con id="1428" src="1410" tgt="565" wght="-0.25243296797822445" />
        <Con id="1443" src="945" tgt="565" wght="-3.0763083834913028" />
        <Con id="1498" src="2" tgt="565" wght="1.0976819656024579" />
        <Con id="1506" src="858" tgt="7" wght="-0.49628657856369363" />
        <Con id="1541" src="1413" tgt="6" wght="-1.0885505973861678" />
        <Con id="1555" src="1413" tgt="38" wght="-0.50975386177896242" />
        <Con id="1607" src="945" tgt="1606" wght="-3.4153006872827931" />
        <Con id="1608" src="1606" tgt="38" wght="1.1931520115218546" />
        <Con id="1724" src="335" tgt="1723" wght="-1.711658523099773" />
        <Con id="1725" src="1723" tgt="7" wght="-5" />
        <Con id="1750" src="4" tgt="945" wght="0.46614219900220633" />
        <Con id="1773" src="304" tgt="1606" wght="-3.8839926566750256" />
        <Con id="1790" src="1" tgt="1789" wght="-4.0780519973486662" />
        <Con id="1829" src="1413" tgt="945" wght="0.40087476262358468" />
        <Con id="1832" src="1413" tgt="1606" wght="0.89412891546026485" />
        <Con id="1839" src="38" tgt="1838" wght="-3.9802094749303425" />
        <Con id="1840" src="1838" tgt="6" wght="4.0725278603055441" />
        <Con id="1858" src="262" tgt="1857" wght="-5" />
        <Con id="1859" src="1857" tgt="7" wght="-0.71425303069531132" />
        <Con id="1879" src="38" tgt="6" wght="-1.0434038999298689" />
        <Con id="1893" src="1723" tgt="1892" wght="-2.30702489329668" />
        <Con id="1894" src="1892" tgt="667" wght="2.4427442944724334" />
        <Con id="1914" src="1892" tgt="1838" wght="-1.5247638611415615" />
        <Con id="1938" src="945" tgt="1937" wght="3.6710015724260541" />
        <Con id="1939" src="1937" tgt="6" wght="3.7778108663670968" />
        <Con id="1945" src="1789" tgt="1892" wght="5" />
        <Con id="1962" src="1606" tgt="1838" wght="4.2770227266668712" />
        <Con id="1988" src="1606" tgt="5" wght="-4.9881898247208127" />
        <Con id="2017" src="1892" tgt="1857" wght="-1.9112356992359603" />
        <Con id="2042" src="1410" tgt="335" wght="1.8796671131920113" />
        <Con id="2060" src="0" tgt="2059" wght="4.71403885312227" />
        <Con id="2061" src="2059" tgt="7" wght="-4.6444652383671219" />
        <Con id="2079" src="1410" tgt="1937" wght="0.77370959582121612" />
        <Con id="2087" src="1413" tgt="2059" wght="0.979182530748209" />
        <Con id="2093" src="0" tgt="7" wght="-1.4690127060007057" />
        <Con id="2111" src="1413" tgt="2110" wght="-1.1105338223638792" />
        <Con id="2112" src="2110" tgt="304" wght="4.7148185819112305" />
        <Con id="2136" src="1838" tgt="2059" wght="-0.771265730397426" />
        <Con id="2139" src="3" tgt="1838" wght="1.7164392944436133" />
        <Con id="2144" src="1789" tgt="335" wght="-0.76370593858831437" />
        <Con id="2171" src="4" tgt="1723" wght="1.6929314751178026" />
        <Con id="2183" src="72" tgt="2059" wght="1.5307792838818632" />
        <Con id="2199" src="2110" tgt="858" wght="-0.7959914390926448" />
        <Con id="2222" src="72" tgt="1892" wght="-4.661983641118737" />
        <Con id="2233" src="1789" tgt="2110" wght="4.64457978907346" />
        <Con id="2361" src="2110" tgt="6" wght="4.7944824486927162" />
        <Con id="2423" src="1410" tgt="2110" wght="1.8385609679516701" />
        <Con id="2517" src="1937" tgt="2059" wght="0.64771716663563339" />
        <Con id="2557" src="565" tgt="2059" wght="4.9863411902249712" />
        <Con id="2598" src="1" tgt="858" wght="3.8662687726860803" />
