<?xml version="1.0" encoding="utf-8"?>
<Root>
  <ActivationFunctions>
    <Fn id="0" name="SteepenedSigmoid" prob="1" />
  </ActivationFunctions>
  <Networks>
    <Network id="83223" birthGen="2059" fitness="514.0653076171875">
      <Nodes>
        <Node type="bias" id="0" />
        <Node type="in" id="1" />
        <Node type="in" id="2" />
        <Node type="in" id="3" />
        <Node type="in" id="4" />
        <Node type="out" id="5" />
        <Node type="out" id="6" />
        <Node type="out" id="7" />
        <Node type="hid" id="29" />
        <Node type="hid" id="108" />
        <Node type="hid" id="145" />
        <Node type="hid" id="570" />
        <Node type="hid" id="703" />
        <Node type="hid" id="972" />
        <Node type="hid" id="1135" />
        <Node type="hid" id="1185" />
      </Nodes>
      <Connections>
        <Con id="43" src="4" tgt="7" wght="0.27687871478773357" />
        <Con id="53" src="0" tgt="6" wght="0.91444258444212012" />
        <Con id="56" src="29" tgt="5" wght="-5" />
        <Con id="83" src="2" tgt="29" wght="-1.3567991408887072" />
        <Con id="84" src="3" tgt="29" wght="5" />
        <Con id="88" src="1" tgt="29" wght="-4.9547021415169068" />
        <Con id="168" src="29" tgt="6" wght="-1.6454213382218312" />
        <Con id="234" src="108" tgt="145" wght="-1.8350355419589544" />
        <Con id="262" src="145" tgt="5" wght="3.6384912373270697" />
        <Con id="290" src="0" tgt="108" wght="3.7734637439691143" />
        <Con id="389" src="108" tgt="29" wght="-3.6072067565265593" />
        <Con id="471" src="3" tgt="6" wght="0.47715576904494678" />
        <Con id="496" src="0" tgt="29" wght="-3.5541278123855591" />
        <Con id="498" src="0" tgt="7" wght="-1.548379073955098" />
        <Con id="502" src="108" tgt="6" wght="2.5332763184382276" />
        <Con id="506" src="3" tgt="7" wght="-3.5085997072412343" />
        <Con id="511" src="29" tgt="7" wght="1.3974123075604439" />
        <Con id="516" src="1" tgt="108" wght="-0.61966245758130856" />
        <Con id="536" src="29" tgt="145" wght="-3.6585561531596866" />
        <Con id="571" src="145" tgt="570" wght="2.3660779126581248" />
        <Con id="572" src="570" tgt="7" wght="-1.194098847281498" />
        <Con id="580" src="29" tgt="570" wght="-0.982907659166881" />
        <Con id="591" src="570" tgt="5" wght="3.7585803553721933" />
        <Con id="600" src="570" tgt="6" wght="0.70133773959296364" />
        <Con id="645" src="0" tgt="570" wght="-1.2726727195820928" />
        <Con id="705" src="703" tgt="7" wght="3.3945668420111668" />
        <Con id="726" src="29" tgt="703" wght="-5" />
        <Con id="784" src="1" tgt="703" wght="-1.3527749868689976" />
        <Con id="859" src="570" tgt="703" wght="2.2946689153154862" />
        <Con id="891" src="3" tgt="703" wght="-2.7416318674469933" />
        <Con id="892" src="2" tgt="703" wght="3.9161078026518226" />
        <Con id="973" src="0" tgt="972" wght="4.7109745815396309" />
        <Con id="982" src="972" tgt="7" wght="-0.30169995099419872" />
        <Con id="988" src="108" tgt="972" wght="2.8472631481066335" />
        <Con id="1026" src="145" tgt="972" wght="-4.5148780561932691" />
        <Con id="1087" src="972" tgt="6" wght="5" />
        <Con id="1136" src="108" tgt="1135" wght="-2.9837124547927134" />
        <Con id="1137" src="1135" tgt="703" wght="3.7278721215590278" />
        <Con id="1184" src="972" tgt="1135" wght="1.8501548608765006" />
        <Con id="1186" src="972" tgt="1185" wght="-1.8221329910807216" />
        <Con id="1187" src="1185" tgt="703" wght="5" />
      </Connections>
    </Network>
  </Networks>
</Root>