<?xml version="1.0" encoding="utf-8"?>
<Root>
  <ActivationFunctions>
    <Fn id="0" name="SteepenedSigmoid" prob="1" />
  </ActivationFunctions>
  <Networks>
    <Network id="20833" birthGen="519" fitness="177.57221984863281">
      <Nodes>
        <Node type="bias" id="0" />
        <Node type="in" id="1" />
        <Node type="in" id="2" />
        <Node type="in" id="3" />
        <Node type="in" id="4" />
        <Node type="out" id="5" />
        <Node type="out" id="6" />
        <Node type="out" id="7" />
        <Node type="hid" id="39" />
      </Nodes>
      <Connections>
        <Con id="34" src="0" tgt="6" wght="3.4674929661388738" />
        <Con id="45" src="0" tgt="7" wght="0.14336819891014008" />
        <Con id="46" src="39" tgt="5" wght="-1.8721255513740198" />
        <Con id="51" src="3" tgt="7" wght="-3.7652864991250579" />
        <Con id="55" src="2" tgt="7" wght="3.1419525575543452" />
        <Con id="68" src="39" tgt="7" wght="-1.6191894974498218" />
        <Con id="109" src="3" tgt="39" wght="-0.36726842663702369" />
      </Connections>
    </Network>
  </Networks>
</Root>