<?xml version="1.0" encoding="utf-8"?>
<Root>
  <ActivationFunctions>
    <Fn id="0" name="SteepenedSigmoid" prob="1" />
  </ActivationFunctions>
  <Networks>
    <Network id="5571" birthGen="130" fitness="0">
      <Nodes>
        <Node type="bias" id="0" />
        <Node type="in" id="1" />
        <Node type="in" id="2" />
        <Node type="in" id="3" />
        <Node type="in" id="4" />
        <Node type="out" id="5" />
        <Node type="out" id="6" />
        <Node type="hid" id="18" />
        <Node type="hid" id="75" />
        <Node type="hid" id="99" />
      </Nodes>
      <Connections>
        <Con id="19" src="3" tgt="18" wght="4.9866951092890659" />
        <Con id="22" src="18" tgt="5" wght="-2.7659417510385147" />
        <Con id="53" src="4" tgt="18" wght="-0.18438010885086245" />
        <Con id="76" src="18" tgt="75" wght="-3.2887085488455856" />
        <Con id="100" src="75" tgt="99" wght="3.2618169781495956" />
        <Con id="101" src="99" tgt="6" wght="5" />
        <Con id="164" src="0" tgt="18" wght="-1.3288380141651934" />
        <Con id="170" src="3" tgt="75" wght="-0.36332382615557768" />
        <Con id="171" src="1" tgt="5" wght="0.565085881501799" />
        <Con id="175" src="2" tgt="6" wght="3.6674058856442571" />
      </Connections>
    </Network>
  </Networks>
</Root>