<?xml version="1.0" encoding="utf-8"?>
<Root>
  <ActivationFunctions>
    <Fn id="0" name="SteepenedSigmoid" prob="1" />
  </ActivationFunctions>
  <Networks>
    <Network id="38659" birthGen="966" fitness="208.48019409179688">
      <Nodes>
        <Node type="bias" id="0" />
        <Node type="in" id="1" />
        <Node type="in" id="2" />
        <Node type="in" id="3" />
        <Node type="in" id="4" />
        <Node type="out" id="5" />
        <Node type="out" id="6" />
        <Node type="out" id="7" />
        <Node type="hid" id="89" />
      </Nodes>
      <Connections>
        <Con id="23" src="4" tgt="6" wght="-0.00812551031475574" />
        <Con id="24" src="2" tgt="6" wght="0.23183594899950882" />
        <Con id="28" src="4" tgt="5" wght="-0.14069105890938979" />
        <Con id="33" src="1" tgt="6" wght="-0.18148602777265213" />
        <Con id="148" src="89" tgt="7" wght="1.1926792726060278" />
        <Con id="157" src="3" tgt="89" wght="-0.14573283928583475" />
      </Connections>
    </Network>
  </Networks>
</Root>