<?xml version="1.0" encoding="utf-8"?>
<Root>
  <ActivationFunctions>
    <Fn id="0" name="SteepenedSigmoid" prob="1" />
  </ActivationFunctions>
  <Networks>
    <Network id="12402" birthGen="309" fitness="202.29058837890625">
      <Nodes>
        <Node type="bias" id="0" />
        <Node type="in" id="1" />
        <Node type="in" id="2" />
        <Node type="in" id="3" />
        <Node type="in" id="4" />
        <Node type="out" id="5" />
        <Node type="out" id="6" />
        <Node type="hid" id="19" />
        <Node type="hid" id="27" />
        <Node type="hid" id="65" />
        <Node type="hid" id="78" />
        <Node type="hid" id="216" />
      </Nodes>
      <Connections>
        <Con id="21" src="19" tgt="6" wght="4.4984158324516619" />
        <Con id="28" src="1" tgt="27" wght="-3.9492112630978227" />
        <Con id="29" src="27" tgt="19" wght="-1.5911416578539039" />
        <Con id="66" src="2" tgt="65" wght="1.3484175913717407" />
        <Con id="67" src="65" tgt="19" wght="-2.6034440998118749" />
        <Con id="80" src="78" tgt="19" wght="3.3698168516897522" />
        <Con id="148" src="4" tgt="65" wght="-2.9562758012127226" />
        <Con id="152" src="78" tgt="65" wght="-4.4836328685696483" />
        <Con id="217" src="4" tgt="216" wght="-3.392198858782649" />
        <Con id="218" src="216" tgt="78" wght="4.5809804866535906" />
      </Connections>
    </Network>
  </Networks>
</Root>