<?xml version="1.0" encoding="utf-8"?>
<Root>
  <ActivationFunctions>
    <Fn id="0" name="SteepenedSigmoid" prob="1" />
  </ActivationFunctions>
  <Networks>
    <Network id="25314" birthGen="627" fitness="684.2091064453125">
      <Nodes>
        <Node type="bias" id="0" />
        <Node type="in" id="1" />
        <Node type="in" id="2" />
        <Node type="in" id="3" />
        <Node type="in" id="4" />
        <Node type="out" id="5" />
        <Node type="out" id="6" />
        <Node type="out" id="7" />
        <Node type="hid" id="37" />
        <Node type="hid" id="58" />
        <Node type="hid" id="90" />
        <Node type="hid" id="246" />
        <Node type="hid" id="262" />
      </Nodes>
      <Connections>
        <Con id="24" src="3" tgt="6" wght="0.1602582430352622" />
        <Con id="59" src="4" tgt="58" wght="-3.7505229193590597" />
        <Con id="60" src="58" tgt="37" wght="-2.063518171881241" />
        <Con id="73" src="0" tgt="37" wght="-0.24531078978804896" />
        <Con id="74" src="37" tgt="5" wght="-4.7556405586056263" />
        <Con id="92" src="90" tgt="6" wght="-1.5341630180562884" />
        <Con id="247" src="1" tgt="246" wght="5" />
        <Con id="263" src="246" tgt="262" wght="-1.9673616082276888" />
        <Con id="264" src="262" tgt="90" wght="-2.8680647217359" />
      </Connections>
    </Network>
  </Networks>
</Root>