<?xml version="1.0" encoding="utf-8"?>
<Root>
  <ActivationFunctions>
    <Fn id="0" name="SteepenedSigmoid" prob="1" />
  </ActivationFunctions>
  <Networks>
    <Network id="146909" birthGen="3661" fitness="0">
      <Nodes>
        <Node type="bias" id="0" />
        <Node type="in" id="1" />
        <Node type="in" id="2" />
        <Node type="in" id="3" />
        <Node type="in" id="4" />
        <Node type="in" id="5" />
        <Node type="in" id="6" />
        <Node type="in" id="7" />
        <Node type="out" id="8" />
        <Node type="out" id="9" />
        <Node type="hid" id="62" />
        <Node type="hid" id="504" />
        <Node type="hid" id="785" />
        <Node type="hid" id="815" />
        <Node type="hid" id="821" />
        <Node type="hid" id="859" />
        <Node type="hid" id="1058" />
        <Node type="hid" id="1166" />
        <Node type="hid" id="1271" />
        <Node type="hid" id="1928" />
        <Node type="hid" id="1956" />
        <Node type="hid" id="2043" />
        <Node type="hid" id="2120" />
        <Node type="hid" id="2134" />
        <Node type="hid" id="2151" />
      </Nodes>
      <Connections>
        <Con id="63" src="7" tgt="62" wght="-1.8668948662697686" />
        <Con id="76" src="0" tgt="9" wght="1.5837937132676236" />
        <Con id="80" src="62" tgt="8" wght="-4.6705830932644039" />
        <Con id="817" src="815" tgt="504" wght="-3.4114785610119931" />
        <Con id="822" src="785" tgt="821" wght="2.2128113992052776" />
        <Con id="823" src="821" tgt="815" wght="-1.0237800749018788" />
        <Con id="825" src="6" tgt="815" wght="-2.4800150595654578" />
        <Con id="837" src="6" tgt="785" wght="-2.9670407916363617" />
        <Con id="860" src="3" tgt="859" wght="1.9532996506523179" />
        <Con id="861" src="859" tgt="9" wght="2.5696622799222877" />
        <Con id="885" src="5" tgt="815" wght="3.2057234521228075" />
        <Con id="907" src="4" tgt="9" wght="-0.29175235163535551" />
        <Con id="913" src="504" tgt="859" wght="4.2172460271186774" />
        <Con id="915" src="7" tgt="504" wght="-0.50446106702717852" />
        <Con id="916" src="815" tgt="8" wght="4.1704789309745074" />
        <Con id="934" src="62" tgt="785" wght="3.084677085298432" />
        <Con id="939" src="815" tgt="859" wght="3.7102979877132887" />
        <Con id="943" src="5" tgt="504" wght="4.8588372115045786" />
        <Con id="952" src="0" tgt="504" wght="-1.6489035217091441" />
        <Con id="955" src="62" tgt="815" wght="-4.3678358114028795" />
        <Con id="959" src="0" tgt="785" wght="0.36131661937741577" />
        <Con id="961" src="0" tgt="62" wght="4.9809539506568816" />
        <Con id="978" src="821" tgt="8" wght="4.1652344656435343" />
        <Con id="982" src="785" tgt="9" wght="-1.6272881723167074" />
        <Con id="983" src="0" tgt="821" wght="4.9817202292051128" />
        <Con id="985" src="62" tgt="504" wght="-4.636804866604507" />
        <Con id="987" src="3" tgt="785" wght="4.0430569881573319" />
        <Con id="988" src="1" tgt="504" wght="-1.0394578366056029" />
        <Con id="998" src="785" tgt="504" wght="4.4376802648553983" />
        <Con id="1003" src="821" tgt="9" wght="-1.1021353770047426" />
        <Con id="1009" src="7" tgt="821" wght="-2.6847822072641971" />
        <Con id="1011" src="2" tgt="504" wght="4.180862231115734" />
        <Con id="1012" src="785" tgt="8" wght="-0.74803734417412748" />
        <Con id="1014" src="3" tgt="9" wght="0.56930925875982408" />
        <Con id="1015" src="62" tgt="9" wght="4.9440958024933934" />
        <Con id="1059" src="785" tgt="1058" wght="-5" />
        <Con id="1060" src="1058" tgt="815" wght="5" />
        <Con id="1061" src="5" tgt="785" wght="-0.38789674724753265" />
        <Con id="1062" src="3" tgt="504" wght="5" />
        <Con id="1063" src="4" tgt="504" wght="-0.96770931015422934" />
        <Con id="1065" src="2" tgt="859" wght="-0.52621412887974117" />
        <Con id="1071" src="1" tgt="859" wght="4.8646537658346709" />
        <Con id="1080" src="5" tgt="821" wght="0.55333579281515144" />
        <Con id="1086" src="1058" tgt="859" wght="-0.77272683578379009" />
        <Con id="1089" src="821" tgt="859" wght="-0.676127739887051" />
        <Con id="1113" src="2" tgt="1058" wght="-1.1995562535974813" />
        <Con id="1129" src="821" tgt="504" wght="1.0994823409972423" />
        <Con id="1152" src="1058" tgt="9" wght="2.048914711733175" />
        <Con id="1156" src="1058" tgt="504" wght="-5" />
        <Con id="1168" src="1166" tgt="821" wght="-1.8440317536196338" />
        <Con id="1172" src="4" tgt="859" wght="3.188024201799621" />
        <Con id="1173" src="7" tgt="859" wght="1.344494212653413" />
        <Con id="1238" src="1166" tgt="504" wght="2.8234885915782075" />
        <Con id="1239" src="62" tgt="1166" wght="-3.5473488352064941" />
        <Con id="1261" src="1" tgt="1058" wght="3.9891075460959962" />
        <Con id="1272" src="0" tgt="1271" wght="4.50916801018212" />
        <Con id="1285" src="6" tgt="1058" wght="-1.5499663591482289" />
        <Con id="1292" src="2" tgt="1166" wght="-0.95888617296338552" />
        <Con id="1297" src="5" tgt="1166" wght="1.6162020734656211" />
        <Con id="1305" src="1" tgt="1166" wght="-0.65438808282854888" />
        <Con id="1321" src="0" tgt="1166" wght="4.7086904612064409" />
        <Con id="1330" src="7" tgt="1166" wght="-2.6261028323623496" />
        <Con id="1340" src="821" tgt="1271" wght="-3.5464480568703416" />
        <Con id="1358" src="1166" tgt="1271" wght="-3.8070620778935877" />
        <Con id="1384" src="815" tgt="1271" wght="0.0080300543607622343" />
        <Con id="1404" src="6" tgt="1166" wght="-4.9819483295831093" />
        <Con id="1427" src="1166" tgt="859" wght="-5" />
        <Con id="1803" src="504" tgt="1271" wght="-0.46459933277219534" />
        <Con id="1929" src="5" tgt="1928" wght="0.22297559365874997" />
        <Con id="1930" src="1928" tgt="859" wght="-0.9405825287103653" />
        <Con id="1957" src="785" tgt="1956" wght="1.3691865198297948" />
        <Con id="1958" src="1956" tgt="859" wght="-2.5898575924757097" />
        <Con id="1984" src="0" tgt="1928" wght="3.8380680332804289" />
        <Con id="1993" src="1956" tgt="821" wght="1.7045697792277736" />
        <Con id="2004" src="1058" tgt="1928" wght="1.1638741734033069" />
        <Con id="2044" src="1166" tgt="2043" wght="-2.4102637283797361" />
        <Con id="2045" src="2043" tgt="785" wght="4.8619893984314313" />
        <Con id="2121" src="1166" tgt="2120" wght="-2.5746840854223492" />
        <Con id="2122" src="2120" tgt="815" wght="5" />
        <Con id="2135" src="785" tgt="2134" wght="-0.915193504216999" />
        <Con id="2136" src="2134" tgt="1271" wght="5" />
        <Con id="2152" src="5" tgt="2151" wght="-1.339405805117766" />
        <Con id="2153" src="2151" tgt="1166" wght="4.7801807428693834" />
      </Connections>
    </Network>
  </Networks>
</Root>