<?xml version="1.0" encoding="utf-8"?>
<Root>
  <ActivationFunctions>
    <Fn id="0" name="SteepenedSigmoid" prob="1" />
  </ActivationFunctions>
  <Networks>
    <Network id="2038" birthGen="50" fitness="1000.5247192382813">
      <Nodes>
        <Node type="bias" id="0" />
        <Node type="in" id="1" />
        <Node type="in" id="2" />
        <Node type="in" id="3" />
        <Node type="in" id="4" />
        <Node type="out" id="5" />
        <Node type="out" id="6" />
        <Node type="hid" id="25" />
      </Nodes>
      <Connections>
        <Con id="17" src="1" tgt="5" wght="-3.9512326778052738" />
        <Con id="20" src="3" tgt="5" wght="-3.48703376046649" />
        <Con id="21" src="2" tgt="5" wght="2.9797684973820093" />
        <Con id="26" src="3" tgt="25" wght="1.1314334405868545" />
        <Con id="27" src="25" tgt="6" wght="-0.40073865093290806" />
        <Con id="30" src="1" tgt="6" wght="4.5611930197829418" />
      </Connections>
    </Network>
  </Networks>
</Root>