<?xml version="1.0" encoding="utf-8"?>
<Root>
  <ActivationFunctions>
    <Fn id="0" name="SteepenedSigmoid" prob="1" />
  </ActivationFunctions>
  <Networks>
    <Network id="8398" birthGen="209" fitness="3470.03515625">
      <Nodes>
        <Node type="bias" id="0" />
        <Node type="in" id="1" />
        <Node type="in" id="2" />
        <Node type="in" id="3" />
        <Node type="in" id="4" />
        <Node type="out" id="5" />
        <Node type="out" id="6" />
        <Node type="out" id="7" />
        <Node type="hid" id="86" />
      </Nodes>
      <Connections>
        <Con id="24" src="1" tgt="5" wght="5" />
        <Con id="26" src="4" tgt="6" wght="-0.072091901346420087" />
        <Con id="28" src="3" tgt="5" wght="-4.74237751570864" />
        <Con id="29" src="2" tgt="6" wght="2.6474824943787452" />
        <Con id="43" src="3" tgt="7" wght="-4.320643825527311" />
        <Con id="69" src="4" tgt="7" wght="0.092706188607345252" />
        <Con id="87" src="2" tgt="86" wght="3.341443355044587" />
        <Con id="89" src="86" tgt="7" wght="-3.2388026667214707" />
      </Connections>
    </Network>
  </Networks>
</Root>