<?xml version="1.0" encoding="utf-8"?>
<Root>
  <ActivationFunctions>
    <Fn id="0" name="SteepenedSigmoid" prob="1" />
  </ActivationFunctions>
  <Networks>
    <Network id="46915" birthGen="1170" fitness="1.1101619005203247">
      <Nodes>
        <Node type="bias" id="0" />
        <Node type="in" id="1" />
        <Node type="in" id="2" />
        <Node type="in" id="3" />
        <Node type="in" id="4" />
        <Node type="out" id="5" />
        <Node type="out" id="6" />
        <Node type="out" id="7" />
        <Node type="hid" id="43" />
        <Node type="hid" id="118" />
        <Node type="hid" id="161" />
        <Node type="hid" id="217" />
        <Node type="hid" id="254" />
        <Node type="hid" id="314" />
        <Node type="hid" id="350" />
        <Node type="hid" id="361" />
        <Node type="hid" id="543" />
        <Node type="hid" id="593" />
        <Node type="hid" id="631" />
        <Node type="hid" id="657" />
        <Node type="hid" id="706" />
        <Node type="hid" id="718" />
        <Node type="hid" id="753" />
        <Node type="hid" id="757" />
        <Node type="hid" id="819" />
        <Node type="hid" id="908" />
        <Node type="hid" id="993" />
        <Node type="hid" id="1025" />
        <Node type="hid" id="1043" />
        <Node type="hid" id="1112" />
      </Nodes>
      <Connections>
        <Con id="38" src="2" tgt="5" wght="-0.065521758732774216" />
        <Con id="44" src="1" tgt="43" wght="-0.217039406409437" />
        <Con id="47" src="1" tgt="6" wght="0.73712304701614506" />
        <Con id="48" src="43" tgt="5" wght="4.1389268900173537" />
        <Con id="57" src="0" tgt="5" wght="-2.52857294292846" />
        <Con id="58" src="2" tgt="7" wght="3.8825665660940252" />
        <Con id="70" src="0" tgt="7" wght="-4.2555593659272271" />
        <Con id="134" src="118" tgt="7" wght="-4.9813069294885555" />
        <Con id="163" src="161" tgt="7" wght="-0.62760828528553247" />
        <Con id="173" src="161" tgt="118" wght="-2.0220612268894911" />
        <Con id="207" src="161" tgt="5" wght="3.5034199753894506" />
        <Con id="218" src="43" tgt="217" wght="2.1666978519744493" />
        <Con id="219" src="217" tgt="118" wght="3.622630337802097" />
        <Con id="223" src="1" tgt="161" wght="3.2065100345416817" />
        <Con id="252" src="4" tgt="161" wght="-4.9056533682105661" />
        <Con id="255" src="43" tgt="254" wght="-0.87128808955192172" />
        <Con id="256" src="254" tgt="161" wght="-1.1318620151328747" />
        <Con id="259" src="43" tgt="118" wght="-3.8830280443653464" />
        <Con id="273" src="161" tgt="217" wght="-4.9630898946054538" />
        <Con id="277" src="254" tgt="7" wght="-4.2443898351163263" />
        <Con id="278" src="4" tgt="217" wght="-0.30678257962839678" />
        <Con id="284" src="43" tgt="161" wght="0.96779021515016761" />
        <Con id="352" src="350" tgt="6" wght="-0.41856389601494881" />
        <Con id="355" src="0" tgt="254" wght="1.2605261045495739" />
        <Con id="362" src="43" tgt="361" wght="2.4068452019428959" />
        <Con id="363" src="361" tgt="161" wght="5" />
        <Con id="368" src="217" tgt="7" wght="0.39982210643579708" />
        <Con id="379" src="3" tgt="254" wght="5" />
        <Con id="391" src="2" tgt="254" wght="-1.1365322836327625" />
        <Con id="412" src="361" tgt="254" wght="-0.19882804714143276" />
        <Con id="426" src="361" tgt="118" wght="-2.2394196963290764" />
        <Con id="434" src="4" tgt="350" wght="4.2194764234195929" />
        <Con id="471" src="43" tgt="314" wght="4.8766409335149952" />
        <Con id="487" src="1" tgt="350" wght="2.4104245891794562" />
        <Con id="490" src="217" tgt="350" wght="1.8499988783845975" />
        <Con id="530" src="1" tgt="254" wght="-3.5251796711236238" />
        <Con id="544" src="161" tgt="543" wght="-2.2875624185347547" />
        <Con id="545" src="543" tgt="350" wght="2.999481410763627" />
        <Con id="552" src="543" tgt="7" wght="-0.61974071437282574" />
        <Con id="570" src="118" tgt="350" wght="-1.8343823496252298" />
        <Con id="578" src="217" tgt="543" wght="-3.7626671583623157" />
        <Con id="594" src="0" tgt="593" wght="-0.54756310618490867" />
        <Con id="605" src="593" tgt="543" wght="1.6544009395385015" />
        <Con id="632" src="593" tgt="631" wght="-3.2440032320532621" />
        <Con id="646" src="3" tgt="543" wght="-3.4229894937301033" />
        <Con id="647" src="161" tgt="314" wght="5" />
        <Con id="658" src="2" tgt="657" wght="-2.1194934099912643" />
        <Con id="659" src="657" tgt="6" wght="-4.1575169102144809" />
        <Con id="660" src="361" tgt="631" wght="-0.62769576441496611" />
        <Con id="662" src="593" tgt="5" wght="5" />
        <Con id="665" src="593" tgt="254" wght="-1.0632250569666266" />
        <Con id="685" src="543" tgt="118" wght="-0.1304873639331722" />
        <Con id="699" src="593" tgt="7" wght="-4.2702891090822668" />
        <Con id="700" src="631" tgt="657" wght="-2.5533757532247057" />
        <Con id="707" src="631" tgt="706" wght="5" />
        <Con id="719" src="118" tgt="718" wght="-4.5961435925618694" />
        <Con id="720" src="718" tgt="314" wght="4.9502121113709343" />
        <Con id="731" src="706" tgt="161" wght="-3.45319464353022" />
        <Con id="754" src="314" tgt="753" wght="-3.5193688109262045" />
        <Con id="755" src="753" tgt="6" wght="1.1687658590994623" />
        <Con id="758" src="706" tgt="757" wght="5" />
        <Con id="759" src="757" tgt="350" wght="4.8679313272148708" />
        <Con id="760" src="718" tgt="350" wght="2.8725327191743544" />
        <Con id="765" src="657" tgt="118" wght="2.0208568935057261" />
        <Con id="777" src="631" tgt="254" wght="3.4198985290660633" />
        <Con id="811" src="4" tgt="593" wght="3.3926930653227507" />
        <Con id="820" src="217" tgt="819" wght="4.4841458131712564" />
        <Con id="821" src="819" tgt="543" wght="3.3253726159386376" />
        <Con id="822" src="757" tgt="6" wght="2.3851822428055747" />
        <Con id="860" src="217" tgt="657" wght="0.47487905829254506" />
        <Con id="909" src="3" tgt="908" wght="-3.8160919820382948" />
        <Con id="910" src="908" tgt="118" wght="4.2749241095090786" />
        <Con id="912" src="161" tgt="718" wght="0.1341725280508399" />
        <Con id="950" src="819" tgt="908" wght="3.2417965200654417" />
        <Con id="963" src="757" tgt="161" wght="-2.5050642155110836" />
        <Con id="972" src="2" tgt="753" wght="-0.88037554640322924" />
        <Con id="994" src="254" tgt="993" wght="1.9493680761592047" />
        <Con id="995" src="993" tgt="6" wght="5" />
        <Con id="1026" src="2" tgt="1025" wght="1.494054140901659" />
        <Con id="1027" src="1025" tgt="6" wght="5" />
        <Con id="1044" src="361" tgt="1043" wght="4.89425529684145" />
        <Con id="1045" src="1043" tgt="706" wght="5" />
        <Con id="1089" src="908" tgt="350" wght="2.2111052225901298" />
        <Con id="1103" src="1043" tgt="657" wght="0.31678227101579876" />
        <Con id="1113" src="3" tgt="1112" wght="2.0096007813300645" />
        <Con id="1114" src="1112" tgt="7" wght="4.9962514831564349" />
        <Con id="1158" src="1025" tgt="757" wght="-2.5821833265945315" />
      </Connections>
    </Network>
  </Networks>
</Root>